svm_type c_svc
kernel_type rbf
gamma 4
nr_class 2
total_sv 8049
rho -6.7242793800676459
label 0 1
probA -1.6052463401327686
probB 0.025429408363450152
nr_sv 4096 3953
SV
256 1:0.66814835 2:0.19353828 3:0.068144534 4:0.047428893 5:0.022739951 6:0.35398753 7:0.18414494 8:0.39749439 9:0.37344249 10:0.43376921 
34.345970699716183 1:0.69290912 2:0.22802369 3:0.035815025 4:0.031200541 5:0.012051623 6:0.22237519 7:0.068440426 8:0.26146451 9:0.18248858 10:0.29057375 
256 1:0.43412728 2:0.32951721 3:0.091977548 4:0.094487788 5:0.049890177 6:0.67090669 7:0.15320927 8:0.21751401 9:0.34327142 10:0.34881911 
256 1:0.63314031 2:0.30141264 3:0.033491347 4:0.019117151 5:0.012838544 6:0.11935171 7:0.14560833 8:0.30311463 9:0.44567094 10:0.47408972 
256 1:0.61147191 2:0.26230196 3:0.069554229 4:0.035705686 5:0.020966213 6:0.17231216 7:0.097731061 8:0.1468199 9:0.40093579 10:0.47353386 
256 1:0.49802528 2:0.1997045 3:0.16082159 4:0.093744816 5:0.047703808 6:0.3225852 7:0.18534514 8:0.33674003 9:0.31033697 10:0.44531102 
6.988369228824272 1:0.46678249 2:0.25405066 3:0.12332997 4:0.091223789 5:0.064613089 6:1.0865534 7:0.35170759 8:0.44594466 9:0.32098811 10:0.42486991 
256 1:0.51637986 2:0.32539932 3:0.087712679 4:0.05236505 5:0.018143086 6:0.027776709 7:0.16138386 8:0.31012029 9:0.32626977 10:0.4628378 
256 1:0.66523575 2:0.20458893 3:0.068091476 4:0.041075766 5:0.02100808 6:0.37263548 7:0.28377796 8:0.21916898 9:0.32333259 10:0.43174734 
256 1:0.47138388 2:0.27771161 3:0.1132303 4:0.092116083 5:0.045558136 6:0.57215127 7:0.17636601 8:0.24447454 9:0.41563628 10:0.36329923 
256 1:0.56481266 2:0.23595356 3:0.063215873 4:0.073827613 5:0.06219029 6:0.31209602 7:0.11549011 8:0.28328287 9:0.26033937 10:0.45857548 
256 1:0.69389605 2:0.19467494 3:0.069505245 4:0.021800994 5:0.020122776 6:0.078940506 7:0.066390811 8:0.23603222 9:0.32919879 10:0.34054087 
65.09023925534855 1:0.74914627 2:0.12179665 3:0.042243286 4:0.058419803 5:0.028393996 6:0.97911323 7:0.08726949 8:0.33448068 9:0.36615326 10:0.25025215 
256 1:0.53834116 2:0.24423548 3:0.097209202 4:0.09353981 5:0.02667435 6:0.35694125 7:0.07463002 8:0.17191168 9:0.47754275 10:0.35433645 
256 1:0.68659045 2:0.1476414 3:0.053403906 4:0.067542623 5:0.044821621 6:0.38893473 7:0.40925176 8:0.22006733 9:0.30814886 10:0.41050988 
3.9747657358233202 1:0.62475652 2:0.17957505 3:0.082592463 4:0.080822893 5:0.032253076 6:0.24652871 7:0.29237464 8:0.70890364 9:0.66679932 10:0.61183424 
133.35721039419315 1:0.74251302 2:0.13588885 3:0.042994807 4:0.046485582 5:0.032117738 6:0.33242034 7:0.15188741 8:0.36176987 9:0.72945751 10:0.68918258 
256 1:0.39738982 2:0.36588895 3:0.13240909 4:0.070820898 5:0.033491233 6:0.4624187 7:0.35350628 8:0.1860531 9:0.2871612 10:0.28119537 
256 1:0.73082339 2:0.11555508 3:0.036904718 4:0.062951242 5:0.053765572 6:0.5534104 7:0.30946653 8:0.28234363 9:0.54832778 10:0.56413037 
256 1:0.42177508 2:0.37721912 3:0.079945525 4:0.076606951 5:0.044453324 6:0.15580441 7:0.10901737 8:0.18813328 9:0.37266645 10:0.38938283 
256 1:0.39563747 2:0.31708867 3:0.1372339 4:0.09382549 5:0.056214469 6:0.47214847 7:0.1967351 8:0.3912532 9:0.31167766 10:0.45669705 
69.298039719915636 1:0.17799686 2:0.41905086 3:0.088671775 4:0.093820803 5:0.22045971 6:0.1867717 7:0.23599328 8:0.37295793 9:0.54562954 10:0.84841843 
76.413102557711881 1:0.74198566 2:0.13592279 3:0.071878932 4:0.033077371 5:0.017135248 6:0.74063469 7:0.58651188 8:0.1046919 9:0.38878352 10:0.41099592 
256 1:0.65241086 2:0.27420916 3:0.036308843 4:0.023954124 5:0.013117005 6:0.076980233 7:0.09016359 8:0.23232174 9:0.34581156 10:0.36952857 
256 1:0.55069743 2:0.15265185 3:0.055640157 4:0.14924858 5:0.091761977 6:0.47240769 7:0.28284049 8:0.15330783 9:0.30808356 10:0.38299248 
256 1:0.41903396 2:0.28676698 3:0.099092855 4:0.11980496 5:0.075301241 6:0.10219819 7:0.19163698 8:0.19979328 9:0.32532388 10:0.30843429 
256 1:0.69891633 2:0.22241355 3:0.052988164 4:0.019481733 5:0.0062002207 6:0.08314859 7:0.13520623 8:0.24560481 9:0.29251378 10:0.3234127 
256 1:0.72774944 2:0.1982297 3:0.03798087 4:0.024710094 5:0.011329891 6:0.17478162 7:0.10944573 8:0.23070305 9:0.33858412 10:0.27323969 
256 1:0.55069776 2:0.21609887 3:0.07571213 4:0.097523211 5:0.059968029 6:0.2588665 7:0.32193842 8:0.39981476 9:0.28826907 10:0.22874494 
1.8942690860380833 1:0.73691841 2:0.10611038 3:0.062450892 4:0.0597801 5:0.034740217 6:0.43081091 7:0.13358701 8:0.62707166 9:0.50062533 10:0.35149379 
256 1:0.64771949 2:0.19618081 3:0.090671927 4:0.047954917 5:0.017472862 6:0.1055874 7:0.15614854 8:0.35341731 9:0.39507257 10:0.26721672 
256 1:0.54661729 2:0.29584484 3:0.049736026 4:0.057949264 5:0.049852587 6:0.44333703 7:0.17255955 8:0.19541868 9:0.39554483 10:0.36929939 
256 1:0.70590007 2:0.20112559 3:0.042547957 4:0.029990022 5:0.020436359 6:0.072219354 7:0.097120452 8:0.2838905 9:0.36407078 10:0.51138085 
256 1:0.60486511 2:0.19522549 3:0.098566993 4:0.065113778 5:0.036228631 6:0.27006362 7:0.23185396 8:0.31637824 9:0.38095811 10:0.63063203 
256 1:0.77157277 2:0.18519762 3:0.025894743 4:0.010974231 5:0.0063606278 6:0.12907097 7:0.17122797 8:0.22363939 9:0.45250534 10:0.37565547 
256 1:0.53029056 2:0.25193628 3:0.078996697 4:0.082917057 5:0.055859411 6:0.21007505 7:0.19990304 8:0.32423242 9:0.30202822 10:0.37336699 
256 1:0.45767231 2:0.28053989 3:0.13862812 4:0.088644129 5:0.034515552 6:0.27761878 7:0.21881988 8:0.34611939 9:0.32908713 10:0.27289273 
256 1:0.5755279 2:0.22753798 3:0.10909433 4:0.054883482 5:0.032956307 6:0.35392704 7:0.36746533 8:0.34435406 9:0.54127328 10:0.30365704 
192.41720728225727 1:0.36449008 2:0.41317535 3:0.069614831 4:0.089662857 5:0.06305688 6:0.38294882 7:0.23335066 8:0.39417397 9:0.24040952 10:0.1806454 
256 1:0.4449625 2:0.34257113 3:0.080810305 4:0.068506437 5:0.063149631 6:0.2670358 7:0.21666583 8:0.34140064 9:0.48869162 10:0.77584288 
256 1:0.43397184 2:0.330702 3:0.12313527 4:0.087151809 5:0.025039082 6:0.19687133 7:0.13672878 8:0.24441821 9:0.31307213 10:0.33626068 
256 1:0.75349805 2:0.15706535 3:0.053439932 4:0.024924411 5:0.011072259 6:0.084344578 7:0.17189331 8:0.29062985 9:0.30328195 10:0.30131198 
256 1:0.70137951 2:0.16693841 3:0.061604738 4:0.047424267 5:0.022653072 6:0.22743648 7:0.17622281 8:0.31663973 9:0.43933942 10:0.43538189 
256 1:0.67086513 2:0.21181256 3:0.04432185 4:0.049108486 5:0.023891973 6:0.05599457 7:0.15054714 8:0.27946283 9:0.53230396 10:0.51081992 
256 1:0.5483308 2:0.32647921 3:0.074522712 4:0.037701507 5:0.012965767 6:0.33152324 7:0.27497065 8:0.18683876 9:0.33680449 10:0.20339097 
256 1:0.43927094 2:0.3265194 3:0.081819904 4:0.10064085 5:0.051748911 6:0.40335183 7:0.1391007 8:0.21277983 9:0.32944147 10:0.24027192 
256 1:0.61285837 2:0.21792886 3:0.062898636 4:0.081062076 5:0.025252055 6:0.21340268 7:0.23007713 8:0.51077212 9:0.56527297 10:0.4572952 
256 1:0.42322635 2:0.15907642 3:0.095436698 4:0.19620057 5:0.12605996 6:0.3490303 7:0.27595419 8:0.32465921 9:0.55328499 10:0.45695945 
256 1:0.71622644 2:0.17913565 3:0.045575399 4:0.033818236 5:0.025244272 6:0.51165922 7:0.15001847 8:0.25182846 9:0.30416917 10:0.37010989 
256 1:0.44572447 2:0.18947777 3:0.14931501 4:0.15585382 5:0.059628932 6:0.34233649 7:0.34657908 8:0.37371012 9:0.31105512 10:0.17972774 
256 1:0.6807927 2:0.23517624 3:0.038267779 4:0.031860402 5:0.013902877 6:0.12046585 7:0.25842776 8:0.44961337 9:0.37715492 10:0.31338194 
256 1:0.42894332 2:0.32533867 3:0.12903985 4:0.084139484 5:0.032538682 6:0.28754573 7:0.37120568 8:0.43175355 9:0.38377593 10:0.26068048 
256 1:0.77131795 2:0.14132157 3:0.042638078 4:0.027682476 5:0.017039925 6:0.65780506 7:0.34475163 8:0.19309808 9:0.44332656 10:0.57685416 
256 1:0.50472302 2:0.25458057 3:0.12927446 4:0.085375634 5:0.026046304 6:0.64213701 7:0.32800067 8:0.23162925 9:0.36173985 10:0.37075281 
256 1:0.72272999 2:0.21525622 3:0.028781882 4:0.021583303 5:0.011648607 6:0.066341907 7:0.19384093 8:0.19065257 9:0.64417198 10:0.64915815 
256 1:0.42706973 2:0.37384085 3:0.08212115 4:0.081992979 5:0.034975295 6:0.1030482 7:0.30974375 8:0.22867169 9:0.29644356 10:0.26482304 
256 1:0.58461561 2:0.22828498 3:0.072854747 4:0.079642966 5:0.034601697 6:0.62875434 7:0.11252652 8:0.20398447 9:0.33815326 10:0.3492098 
256 1:0.65003207 2:0.18963458 3:0.07496029 4:0.057528195 5:0.027844866 6:0.42638673 7:0.20631206 8:0.28890372 9:0.3841395 10:0.36257226 
256 1:0.36627166 2:0.26967025 3:0.17331688 4:0.14019991 5:0.050541308 6:0.3123469 7:0.33226286 8:0.46509693 9:0.38089799 10:0.35706398 
216.17750613816872 1:0.25672767 2:0.34070518 3:0.21579123 4:0.12721696 5:0.05955895 6:0.11735993 7:0.42502586 8:0.41714024 9:0.29777458 10:0.27363969 
256 1:0.60072321 2:0.24879646 3:0.052760228 4:0.066373496 5:0.031346612 6:0.35729544 7:0.13521704 8:0.42060442 9:0.37548473 10:0.37007084 
256 1:0.2774846 2:0.5300094 3:0.080518458 4:0.06662742 5:0.045360125 6:0.3865219 7:0.18244064 8:0.20638111 9:0.25747296 10:0.34130703 
256 1:0.26732859 2:0.49063801 3:0.082555744 4:0.11483444 5:0.044643221 6:0.29740546 7:0.13328436 8:0.21708325 9:0.45545505 10:0.5060177 
256 1:0.4861195 2:0.26253788 3:0.114575 4:0.10320697 5:0.033560637 6:0.23962067 7:0.23432757 8:0.27949756 9:0.24193771 10:0.30551377 
256 1:0.39502074 2:0.21984386 3:0.17731143 4:0.11821722 5:0.089606755 6:0.17512143 7:0.26731538 8:0.44621214 9:0.46199809 10:0.49105614 
256 1:0.34544678 2:0.21704975 3:0.10909486 4:0.22588157 5:0.10252704 6:0.22641267 7:0.25860255 8:0.40574612 9:0.50918101 10:0.54783202 
256 1:0.69165303 2:0.16962451 3:0.061390037 4:0.049267965 5:0.028064463 6:0.41183665 7:0.19562654 8:0.14215468 9:0.29753844 10:0.33904231 
256 1:0.85992573 2:0.077609031 3:0.028682198 4:0.021259461 5:0.012523576 6:1.4304291 7:0.70119044 8:0.44918415 9:0.19852369 10:0.33613426 
256 1:0.51576922 2:0.20178852 3:0.084458718 4:0.10308666 5:0.094896879 6:0.34386266 7:0.18455826 8:0.27993646 9:0.31801336 10:0.77849189 
256 1:0.43010154 2:0.26072595 3:0.15468181 4:0.11296001 5:0.041530696 6:0.47207149 7:0.40347841 8:0.30741445 9:0.39063431 10:0.29995194 
256 1:0.68296443 2:0.18661053 3:0.065102197 4:0.044818855 5:0.020503987 6:0.49354757 7:0.23264243 8:0.16926877 9:0.30368016 10:0.37359839 
256 1:0.6789893 2:0.14896726 3:0.076522023 4:0.067146414 5:0.028375004 6:0.40040259 7:0.25402293 8:0.19391769 9:0.40507448 10:0.43522381 
256 1:0.59360838 2:0.18251318 3:0.095714761 4:0.078664147 5:0.049499522 6:0.23228563 7:0.19597596 8:0.20937951 9:0.37068355 10:0.32005094 
256 1:0.7086217 2:0.13156027 3:0.063042659 4:0.058146368 5:0.038629 6:0.9789243 7:0.22676511 8:0.19892792 9:0.3271499 10:0.60234772 
256 1:0.50133215 2:0.17299199 3:0.12837408 4:0.12070148 5:0.076600303 6:0.34297002 7:0.19327839 8:0.45383186 9:0.29862518 10:0.32138814 
256 1:0.74802782 2:0.15667346 3:0.049206035 4:0.029838104 5:0.016254584 6:0.036778361 7:0.22059791 8:0.32543932 9:0.24837722 10:0.31303981 
256 1:0.53415599 2:0.27284361 3:0.081642043 4:0.074428307 5:0.036930051 6:0.5242152 7:0.17932402 8:0.28136563 9:0.34425156 10:0.34129359 
256 1:0.57782837 2:0.18563576 3:0.10401019 4:0.089014202 5:0.04351148 6:0.3112837 7:0.2752664 8:0.40032641 9:0.44398896 10:0.64362396 
256 1:0.58935762 2:0.26114036 3:0.068333843 4:0.051816367 5:0.029351817 6:0.3567853 7:0.18500554 8:0.28733282 9:0.40278548 10:0.46866686 
82.707992136009196 1:0.92467378 2:0.038608134 3:0.018511257 4:0.011014857 5:0.0071919676 6:1.6975296 7:1.112769 8:0.21199122 9:0.23491653 10:0.38127883 
256 1:0.53482633 2:0.26242275 3:0.1161646 4:0.062605392 5:0.023980924 6:0.21874148 7:0.2608856 8:0.33030105 9:0.3987958 10:0.27901488 
247.27935444081791 1:0.79233005 2:0.12586226 3:0.035433254 4:0.031657688 5:0.01471675 6:0.69494807 7:0.56713651 8:0.42098661 9:0.48952617 10:0.37469015 
256 1:0.45692755 2:0.34306739 3:0.065014676 4:0.08903206 5:0.045958321 6:0.23850804 7:0.27732837 8:0.34008442 9:0.41307375 10:0.34345969 
256 1:0.5413276 2:0.25234825 3:0.072683329 4:0.080764302 5:0.052876516 6:0.10140481 7:0.17181629 8:0.39800967 9:0.55163829 10:0.60429762 
256 1:0.53845032 2:0.22806817 3:0.089626852 4:0.10001323 5:0.043841427 6:0.18124908 7:0.24467739 8:0.24616484 9:0.30107143 10:0.25040595 
256 1:0.74960598 2:0.13930953 3:0.04438894 4:0.048906705 5:0.017788843 6:0.078024598 7:0.1476097 8:0.26273538 9:0.39110117 10:0.31002093 
256 1:0.56031941 2:0.32562463 3:0.052740514 4:0.036948496 5:0.024366955 6:0.26115358 7:0.19666975 8:0.19109507 9:0.18017845 10:0.2232575 
256 1:0.63799524 2:0.20504284 3:0.063205559 4:0.062946699 5:0.030809662 6:0.077290782 7:0.25190039 8:0.32162649 9:0.44649895 10:0.46138367 
256 1:0.50491087 2:0.28710413 3:0.10010795 4:0.076794894 5:0.031082162 6:0.16918872 7:0.19985799 8:0.2195142 9:0.23115528 10:0.32943264 
256 1:0.61450185 2:0.18291496 3:0.094842105 4:0.075197336 5:0.032543748 6:0.39470943 7:0.10308206 8:0.22468985 9:0.34257954 10:0.40352807 
256 1:0.85020534 2:0.11194054 3:0.014192691 4:0.01405492 5:0.0096065075 6:0.75818934 7:0.18972372 8:0.24187081 9:0.46535494 10:0.61227534 
256 1:0.68758137 2:0.21233261 3:0.058625129 4:0.027782988 5:0.013677911 6:0.16354884 7:0.14366462 8:0.17222508 9:0.19784726 10:0.35527541 
256 1:0.82104799 2:0.12991554 3:0.024309945 4:0.015827194 5:0.0088993391 6:1.3413801 7:0.35232257 8:0.21141345 9:0.24774787 10:0.32731227 
256 1:0.42358104 2:0.23243167 3:0.1684628 4:0.11062858 5:0.064895906 6:0.17693249 7:0.18543999 8:0.30107315 9:0.31397022 10:0.44253718 
256 1:0.56056501 2:0.18790085 3:0.093314799 4:0.099341645 5:0.058877691 6:0.36869696 7:0.26086373 8:0.31573883 9:0.25383277 10:0.31087936 
256 1:0.66468508 2:0.21972632 3:0.05525233 4:0.041626046 5:0.018710221 6:0.11357822 7:0.15547893 8:0.19002804 9:0.40414355 10:0.4706892 
164.07729980241146 1:0.734797 2:0.14785405 3:0.07508881 4:0.035616701 5:0.006643438 6:0.48096849 7:0.083446212 8:0.21127371 9:0.11376746 10:0.30112814 
256 1:0.50425758 2:0.3359636 3:0.091609275 4:0.056742847 5:0.0114267 6:0.10545807 7:0.19251525 8:0.10636318 9:0.26844618 10:0.30524798 
156.068173615072 1:0.53809692 2:0.19369858 3:0.10898054 4:0.093989613 5:0.065234348 6:0.21584649 7:0.18241372 8:0.39004071 9:0.38140618 10:0.74588691 
205.50435881879429 1:0.41011613 2:0.18060531 3:0.16366794 4:0.13082615 5:0.11478447 6:0.21056535 7:0.37780045 8:0.21609726 9:0.44523829 10:0.74369872 
256 1:0.65979546 2:0.19780478 3:0.078963199 4:0.041350923 5:0.022085645 6:0.19043546 7:0.10172415 8:0.094208738 9:0.27766387 10:0.2783611 
256 1:0.72086664 2:0.17780445 3:0.038172686 4:0.04157599 5:0.02158024 6:0.079666349 7:0.17601811 8:0.43084121 9:0.45330343 10:0.52645196 
256 1:0.8098505 2:0.10603108 3:0.032504345 4:0.033924986 5:0.01768909 6:0.21110698 7:0.19899614 8:0.18813703 9:0.33195252 10:0.49661358 
256 1:0.45882383 2:0.23295946 3:0.10351612 4:0.12890437 5:0.075796226 6:0.74326137 7:0.25708388 8:0.33660274 9:0.52728785 10:0.58931243 
123.52732780174131 1:0.22727071 2:0.097949578 3:0.077431822 4:0.17060239 5:0.4267455 6:0.26755112 7:0.3828188 8:0.52310619 9:0.59620333 10:0.60994779 
155.11978263980671 1:0.32123154 2:0.29873639 3:0.1548274 4:0.16164948 5:0.063555202 6:0.37491962 7:0.28466541 8:0.31354598 9:0.30004565 10:0.18104798 
256 1:0.64477264 2:0.27745238 3:0.048317918 4:0.019238081 5:0.01021898 6:0.10759601 7:0.098881194 8:0.16483085 9:0.3428252 10:0.53230019 
208.01042416272887 1:0.43937926 2:0.13656629 3:0.1955335 4:0.20034868 5:0.028172268 6:0.36670992 7:0.260435 8:0.30192963 9:0.3201332 10:0.29798193 
3.958133926660603 1:0.66782666 2:0.21816226 3:0.045474217 4:0.045121921 5:0.023414941 6:0.48498741 7:0.72584398 8:0.8330151 9:0.444173 10:0.4953496 
160.80802850447253 1:0.82457742 2:0.088729559 3:0.041818588 4:0.029993811 5:0.014880625 6:0.85852562 7:0.50015574 8:0.50502215 9:0.77738449 10:0.75221892 
256 1:0.59659569 2:0.26888922 3:0.059911546 4:0.045037996 5:0.029565544 6:0.26189234 7:0.21523869 8:0.24263581 9:0.30493481 10:0.48868909 
120.46170376550666 1:0.36304164 2:0.26239772 3:0.19938045 4:0.11388638 5:0.061293806 6:0.19677416 7:0.50934634 8:0.48076316 9:0.44651969 10:0.1835839 
12.834446346263666 1:0.52512067 2:0.20505719 3:0.13813984 4:0.082261233 5:0.04942107 6:0.36443951 7:0.61378711 8:0.55379594 9:0.78974507 10:1.0249648 
256 1:0.55987706 2:0.19257107 3:0.049147095 4:0.11017101 5:0.088233769 6:0.71015883 7:0.20301349 8:0.25753381 9:0.35823926 10:0.45541978 
256 1:0.69922251 2:0.19464063 3:0.048136976 4:0.04034624 5:0.017653637 6:0.43949932 7:0.42367425 8:0.25820333 9:0.43929956 10:0.40075643 
256 1:0.73566143 2:0.18070436 3:0.049136005 4:0.024344393 5:0.010153809 6:0.26269924 7:0.1393924 8:0.087400647 9:0.30121918 10:0.35900218 
256 1:0.38652515 2:0.20151347 3:0.18769431 4:0.13751866 5:0.086748416 6:0.41753629 7:0.26436051 8:0.36548226 9:0.32075121 10:0.37041696 
256 1:0.55751968 2:0.21690147 3:0.10493908 4:0.083633406 5:0.037006367 6:0.41912675 7:0.43712169 8:0.30365312 9:0.36383387 10:0.29780467 
256 1:0.51467834 2:0.21259732 3:0.097408682 4:0.11242712 5:0.062888539 6:0.1339191 7:0.26187855 8:0.406818 9:0.51142262 10:0.45990977 
256 1:0.2802551 2:0.44258623 3:0.13505748 4:0.089725865 5:0.052375324 6:0.21870165 7:0.29398262 8:0.45289494 9:0.51424945 10:0.26596923 
256 1:0.77118969 2:0.16868082 3:0.022136568 4:0.024044746 5:0.013948174 6:0.2066632 7:0.2607496 8:0.33779362 9:0.37310256 10:0.57376758 
206.15315043651134 1:0.33457169 2:0.47177542 3:0.10395685 4:0.058795729 5:0.030900309 6:0.15727366 7:0.36876478 8:0.40992948 9:0.27994554 10:0.28672038 
256 1:0.41120758 2:0.24677028 3:0.11584038 4:0.13875635 5:0.087425409 6:0.53217066 7:0.16371418 8:0.30754207 9:0.46879265 10:0.49488673 
22.130306377077339 1:0.34570586 2:0.2684453 3:0.15784581 4:0.20841823 5:0.019584806 6:0.71162375 7:0.20568508 8:0.55197417 9:0.55501251 10:0.27500848 
3.3137888876765795 1:0.4386481 2:0.18607428 3:0.15428394 4:0.13447858 5:0.0865151 6:0.65576918 7:0.52925945 8:0.50451672 9:0.44805676 10:0.7938278 
25.143563089564921 1:0.40859756 2:0.26457816 3:0.086244166 4:0.13024533 5:0.11033478 6:0.34161386 7:0.11574145 8:0.18677426 9:0.30837264 10:0.83540304 
256 1:0.35368033 2:0.3529734 3:0.1138544 4:0.11683875 5:0.062653123 6:0.48426932 7:0.2748216 8:0.46086904 9:0.3841248 10:0.45944847 
256 1:0.34205553 2:0.29718003 3:0.17851678 4:0.11594855 5:0.066299098 6:0.36346038 7:0.3224423 8:0.29650914 9:0.27076835 10:0.40446122 
256 1:0.47526617 2:0.25930467 3:0.12476187 4:0.091821449 5:0.048845835 6:0.70741997 7:0.17385389 8:0.20305491 9:0.33040787 10:0.43718786 
256 1:0.60050108 2:0.20373011 3:0.067528017 4:0.085892178 5:0.042348617 6:0.32430208 7:0.31019452 8:0.37937928 9:0.38885901 10:0.42112967 
256 1:0.68522627 2:0.20260228 3:0.070897915 4:0.028663974 5:0.012609565 6:0.12345429 7:0.21912831 8:0.29520787 9:0.30468519 10:0.23897972 
256 1:0.45924861 2:0.28511722 3:0.069908024 4:0.084921538 5:0.1008046 6:0.20145333 7:0.16015666 8:0.39552334 9:0.42757652 10:0.45534677 
47.688437428363606 1:0.83510096 2:0.13405205 3:0.010002565 4:0.012632853 5:0.0082115711 6:1.681659 7:1.6098414 8:1.0543398 9:0.5068856 10:0.45261462 
256 1:0.44912235 2:0.21247998 3:0.10921936 4:0.17405893 5:0.055119382 6:0.36193018 7:0.16451878 8:0.33644905 9:0.2397655 10:0.34546798 
59.50735983765761 1:0.65490547 2:0.1297905 3:0.092484975 4:0.068127639 5:0.054691411 6:0.16669776 7:0.33104638 8:0.63831827 9:0.48069637 10:0.25409593 
256 1:0.79456334 2:0.1289999 3:0.036527802 4:0.027756602 5:0.01215236 6:0.11927516 7:0.22036802 8:0.16099867 9:0.23930691 10:0.25236165 
256 1:0.53872269 2:0.20435353 3:0.10916811 4:0.085839695 5:0.061915977 6:0.19668844 7:0.20878028 8:0.4564483 9:0.3894581 10:0.7310311 
256 1:0.43200271 2:0.27957304 3:0.14974941 4:0.09532495 5:0.043349882 6:0.24786393 7:0.26546547 8:0.41441513 9:0.28998085 10:0.33808877 
256 1:0.54325569 2:0.2714992 3:0.070423518 4:0.070833408 5:0.043988188 6:0.32623715 7:0.093080014 8:0.30014188 9:0.31045287 10:0.38849508 
4.1266457000972023 1:0.57963864 2:0.1775037 3:0.084991182 4:0.100466 5:0.05740047 6:1.2116829 7:0.88203951 8:0.59540537 9:0.12057789 10:0.39064271 
256 1:0.43000666 2:0.32813708 3:0.10608132 4:0.096360909 5:0.039414029 6:0.36128274 7:0.23848708 8:0.26356619 9:0.43379043 10:0.41635927 
256 1:0.64730456 2:0.17721403 3:0.066192715 4:0.073782064 5:0.035506623 6:0.38587455 7:0.3216359 8:0.39423856 9:0.40462442 10:0.3861282 
256 1:0.61510279 2:0.22213647 3:0.064969185 4:0.065523647 5:0.032267914 6:0.40793524 7:0.18738631 8:0.18616653 9:0.34608461 10:0.27917119 
256 1:0.5703351 2:0.21659147 3:0.09016738 4:0.095542545 5:0.027363506 6:0.4148903 7:0.36994402 8:0.26666879 9:0.32120501 10:0.32338197 
256 1:0.65138667 2:0.1666436 3:0.060860697 4:0.069373168 5:0.051735871 6:1.1513344 7:0.47000884 8:0.3878064 9:0.52174615 10:0.48653094 
256 1:0.58505418 2:0.24724449 3:0.085054295 4:0.056118707 5:0.02652833 6:0.19633405 7:0.078473243 8:0.16240709 9:0.31511938 10:0.27839703 
256 1:0.36865925 2:0.29254861 3:0.079813482 4:0.1181713 5:0.14080735 6:0.22715037 7:0.073428141 8:0.27842357 9:0.57981305 10:0.73051419 
256 1:0.73665874 2:0.18466496 3:0.044854026 4:0.025365939 5:0.0084563429 6:0.086162475 7:0.078439265 8:0.27792001 9:0.368122 10:0.27659235 
256 1:0.3797797 2:0.25306524 3:0.19335785 4:0.1252299 5:0.048567306 6:0.37105553 7:0.38972332 8:0.33205459 9:0.27282485 10:0.31682116 
256 1:0.49898314 2:0.26355205 3:0.099678694 4:0.086222084 5:0.051564037 6:0.27102603 7:0.17155413 8:0.1842151 9:0.30473699 10:0.31383478 
35.218668192860811 1:0.42344473 2:0.30570263 3:0.10476449 4:0.10656264 5:0.059525517 6:0.46508099 7:0.29788639 8:0.40011741 9:0.73312199 10:0.73112942 
256 1:0.59523463 2:0.25102478 3:0.057613208 4:0.056688223 5:0.039439164 6:0.13418523 7:0.14406173 8:0.32955574 9:0.49429443 10:0.51874735 
256 1:0.68415923 2:0.19063588 3:0.065020006 4:0.046692843 5:0.01349204 6:0.18885177 7:0.094397424 8:0.13454141 9:0.33995846 10:0.24359138 
256 1:0.53055409 2:0.19758957 3:0.1002089 4:0.10859964 5:0.063047798 6:0.13211731 7:0.15275202 8:0.36514445 9:0.47695018 10:0.57410698 
256 1:0.46665477 2:0.24294758 3:0.1326425 4:0.096422228 5:0.061332919 6:0.71017168 7:0.29207463 8:0.38321069 9:0.2906796 10:0.26204443 
256 1:0.64672656 2:0.16400637 3:0.086175511 4:0.067601882 5:0.035489676 6:0.87521681 7:0.25228281 8:0.21467463 9:0.27970746 10:0.32892916 
72.671202112786673 1:0.77387033 2:0.1676634 3:0.033352102 4:0.01857885 5:0.0065353148 6:0.48888475 7:0.17959106 8:0.054586592 9:0.38092897 10:0.2812783 
256 1:0.51073226 2:0.30602641 3:0.088308519 4:0.059122943 5:0.035809866 6:0.59402875 7:0.30975887 8:0.35668274 9:0.25846368 10:0.25658295 
118.2980413387785 1:0.69957933 2:0.11537817 3:0.088900609 4:0.056114441 5:0.040027449 6:0.13080917 7:0.1340556 8:0.52089215 9:0.38410545 10:0.55844832 
256 1:0.72415305 2:0.203432 3:0.038377757 4:0.022095308 5:0.011941888 6:0.13840868 7:0.12966887 8:0.19523925 9:0.32352038 10:0.24636248 
256 1:0.66352402 2:0.22866033 3:0.063546735 4:0.029621475 5:0.014647448 6:0.12088577 7:0.14899468 8:0.10156836 9:0.21566307 10:0.235679 
21.528636248183304 1:0.60086343 2:0.11007245 3:0.040535781 4:0.090867332 5:0.15766102 6:0.32890814 7:0.18964601 8:0.35905051 9:0.61600697 10:1.0011739 
256 1:0.5792375 2:0.21456473 3:0.069215643 4:0.095612853 5:0.04136927 6:0.073067429 7:0.19774237 8:0.22995278 9:0.41540555 10:0.37864236 
256 1:0.61477461 2:0.22235405 3:0.076597201 4:0.05362977 5:0.032644368 6:0.37277253 7:0.22922438 8:0.46163005 9:0.42389219 10:0.32095427 
256 1:0.67975624 2:0.21030741 3:0.057404143 4:0.032662789 5:0.019869417 6:0.32879416 7:0.27572629 8:0.2250857 9:0.21107865 10:0.2728951 
256 1:0.54840201 2:0.23902584 3:0.08496473 4:0.076220657 5:0.051386765 6:0.21847546 7:0.15457353 8:0.36996843 9:0.57990066 10:0.64914677 
256 1:0.54541282 2:0.18634006 3:0.13267491 4:0.09462934 5:0.040942871 6:0.20004395 7:0.48772175 8:0.27494688 9:0.26759613 10:0.41390167 
256 1:0.37665524 2:0.43728458 3:0.080823517 4:0.065248698 5:0.039987964 6:0.14178585 7:0.11713022 8:0.14377638 9:0.2938735 10:0.26185797 
256 1:0.55758071 2:0.24588084 3:0.091766059 4:0.065522073 5:0.039250328 6:0.1581288 7:0.17511759 8:0.32247803 9:0.28586679 10:0.35784055 
256 1:0.60116075 2:0.20028178 3:0.10255745 4:0.063105833 5:0.032894182 6:0.30189314 7:0.26795546 8:0.26988264 9:0.28095812 10:0.31707465 
256 1:0.4545013 2:0.40725362 3:0.059392285 4:0.049275693 5:0.029577102 6:0.084928801 7:0.1987678 8:0.16588355 9:0.15296263 10:0.42059364 
1.5575693655112575 1:0.72118712 2:0.17819819 3:0.034878618 4:0.049587549 5:0.016148526 6:1.5365982 7:1.395183 8:0.57101444 9:1.0500605 10:0.72682956 
256 1:0.57049159 2:0.30920976 3:0.058259079 4:0.045495859 5:0.016543713 6:0.13561974 7:0.11384625 8:0.24673915 9:0.2366623 10:0.2292887 
256 1:0.65213775 2:0.1472863 3:0.080988427 4:0.082078486 5:0.037509029 6:0.067624642 7:0.26719209 8:0.24289448 9:0.25729776 10:0.27187437 
256 1:0.6133717 2:0.20441184 3:0.10360005 4:0.054319648 5:0.024296763 6:0.29735001 7:0.14684001 8:0.26156248 9:0.31803665 10:0.29214316 
256 1:0.76952104 2:0.17791647 3:0.017571973 4:0.024400279 5:0.01059023 6:0.245853 7:0.16192721 8:0.49223617 9:0.34426033 10:0.29658021 
89.135262890338552 1:0.61114369 2:0.23644708 3:0.058026763 4:0.056548825 5:0.037833641 6:0.028852106 7:0.27129369 8:0.21483474 9:0.12524382 10:0.22542284 
12.449530147500148 1:0.89115029 2:0.069260526 3:0.010635593 4:0.015692816 5:0.013260773 6:0.58393336 7:0.48861086 8:0.35688944 9:0.62626833 10:0.88787866 
256 1:0.77476743 2:0.10949284 3:0.03301385 4:0.050744994 5:0.031980893 6:0.20801728 7:0.2519656 8:0.31613797 9:0.36572136 10:0.32561416 
256 1:0.63468016 2:0.16943859 3:0.083726496 4:0.079686795 5:0.032467967 6:0.32971163 7:0.20956038 8:0.23475833 9:0.31362728 10:0.4730105 
256 1:0.53297142 2:0.24959948 3:0.085077405 4:0.089489354 5:0.04286234 6:0.47536627 7:0.24319619 8:0.47302337 9:0.50239527 10:0.56176268 
256 1:0.41615612 2:0.24538388 3:0.14030631 4:0.13063021 5:0.067523484 6:0.2584086 7:0.2531069 8:0.34660482 9:0.28087813 10:0.30045149 
256 1:0.61660349 2:0.14161794 3:0.081141302 4:0.10185255 5:0.058784714 6:0.6730252 7:0.093773881 8:0.30255104 9:0.38077095 10:0.43457472 
256 1:0.50709011 2:0.29463366 3:0.091935582 4:0.07110538 5:0.035235261 6:0.15835154 7:0.13718181 8:0.13516988 9:0.26515296 10:0.2770172 
256 1:0.66284227 2:0.22939518 3:0.041985089 4:0.042236783 5:0.023540669 6:0.33079398 7:0.20964155 8:0.28528412 9:0.35265376 10:0.41733266 
256 1:0.49851856 2:0.25163777 3:0.099682592 4:0.089924216 5:0.060236865 6:0.32086734 7:0.16575402 8:0.3911751 9:0.29000007 10:0.27175453 
22.252955909728382 1:0.75573457 2:0.14921142 3:0.04445261 4:0.031920313 5:0.018681085 6:0.24560619 7:0.15819232 8:0.11353083 9:0.26077304 10:0.26630115 
256 1:0.73035634 2:0.15111193 3:0.032372873 4:0.055699668 5:0.03045919 6:0.16825096 7:0.18139276 8:0.17253556 9:0.38087934 10:0.38341711 
256 1:0.62304807 2:0.20857114 3:0.073049537 4:0.059436227 5:0.035895029 6:0.32275209 7:0.15769923 8:0.13729268 9:0.31573439 10:0.35955815 
92.629768232428276 1:0.69497691 2:0.16115936 3:0.081110198 4:0.035175303 5:0.027578232 6:0.10779044 7:0.16679707 8:0.44063834 9:0.53787556 10:0.77434776 
256 1:0.40203961 2:0.17911747 3:0.11013038 4:0.17427639 5:0.13443615 6:0.50279045 7:0.22240159 8:0.30987225 9:0.40486993 10:0.763476 
256 1:0.64324656 2:0.20116793 3:0.075501063 4:0.055901167 5:0.024183277 6:0.4288534 7:0.22517887 8:0.24320531 9:0.42877202 10:0.45082392 
256 1:0.28992465 2:0.51883941 3:0.092204177 4:0.059748004 5:0.039283752 6:0.11690335 7:0.18600136 8:0.32317865 9:0.29092858 10:0.28537134 
256 1:0.65655655 2:0.24629559 3:0.041599312 4:0.037758138 5:0.017790416 6:0.18977434 7:0.067264747 8:0.32159194 9:0.32049219 10:0.29838607 
49.593997524288639 1:0.40349825 2:0.27353775 3:0.1154769 4:0.12992632 5:0.077560774 6:0.63843313 7:0.242398 8:0.30890438 9:0.21364033 10:0.27011139 
148.48509289735978 1:0.75569509 2:0.10353514 3:0.06822882 4:0.049449675 5:0.02309128 6:1.2016452 7:0.31249508 8:0.50146066 9:0.37506963 10:0.33808434 
256 1:0.45349878 2:0.28275505 3:0.13868852 4:0.052940961 5:0.072116686 6:0.11420539 7:0.079545027 8:0.51455753 9:0.3896323 10:0.32021023 
56.106252126202186 1:0.72747157 2:0.15007617 3:0.048087531 4:0.046474736 5:0.027889996 6:0.44927024 7:0.17751743 8:0.3544865 9:0.3889636 10:0.30403985 
256 1:0.6162738 2:0.20064863 3:0.058408584 4:0.086907678 5:0.037761312 6:0.055710978 7:0.18370488 8:0.16242346 9:0.34810041 10:0.25217774 
256 1:0.45928213 2:0.25973341 3:0.14809672 4:0.1024961 5:0.030391635 6:0.17580404 7:0.3190156 8:0.32742441 9:0.26645828 10:0.38190251 
256 1:0.46225867 2:0.28547269 3:0.11249969 4:0.095325763 5:0.044443185 6:0.29231599 7:0.21855804 8:0.33401957 9:0.25917008 10:0.26934153 
30.312968209687558 1:0.84675349 2:0.09918723 3:0.03746897 4:0.014198169 5:0.0023921447 6:1.6218717 7:1.4931522 8:0.87500177 9:0.96223485 10:0.32783537 
40.26158585421399 1:0.60787522 2:0.18514636 3:0.08856801 4:0.07743446 5:0.040975956 6:0.21981999 7:0.53439655 8:0.73061859 9:0.49877526 10:0.68863769 
256 1:0.73924582 2:0.16690259 3:0.029932811 4:0.038605938 5:0.025312837 6:0.081006228 7:0.099189227 8:0.2614852 9:0.3603329 10:0.35259097 
146.28435535861468 1:0.57092863 2:0.22436115 3:0.093550826 4:0.07348415 5:0.037675236 6:0.63534968 7:0.43896737 8:0.38068423 9:0.32237148 10:0.3115948 
256 1:0.69186188 2:0.17936912 3:0.055271909 4:0.051352599 5:0.022144492 6:0.097612699 7:0.28447329 8:0.19785306 9:0.39778404 10:0.29290905 
256 1:0.60798294 2:0.15580274 3:0.097929884 4:0.09222655 5:0.046057892 6:0.37578819 7:0.41248645 8:0.32369143 9:0.32143654 10:0.31589454 
256 1:0.58424666 2:0.12774116 3:0.071026433 4:0.10298702 5:0.11399872 6:0.14927519 7:0.27784162 8:0.41311326 9:0.52806477 10:0.85591753 
256 1:0.60405561 2:0.24324067 3:0.056317954 4:0.061993306 5:0.034392456 6:0.10886329 7:0.070385605 8:0.21941831 9:0.31759987 10:0.26138626 
82.120417781854627 1:0.88534832 2:0.084059708 3:0.01501715 4:0.010571938 5:0.0050028879 6:1.5452799 7:0.531425 8:0.21870564 9:0.23878943 10:0.25868714 
256 1:0.5689875 2:0.16939311 3:0.095027797 4:0.11485126 5:0.051740331 6:0.56875519 7:0.45066194 8:0.3030634 9:0.30985048 10:0.41746103 
256 1:0.59420282 2:0.26216158 3:0.06571593 4:0.048314508 5:0.029605159 6:0.087780955 7:0.12068754 8:0.17964811 9:0.2306173 10:0.3099507 
256 1:0.52555113 2:0.20433712 3:0.12929207 4:0.093439469 5:0.047380212 6:0.37353521 7:0.26731936 8:0.53180326 9:0.28410773 10:0.41564325 
256 1:0.55653924 2:0.24190333 3:0.085988581 4:0.080355372 5:0.035213479 6:0.20244419 7:0.18446016 8:0.29117813 9:0.28266846 10:0.24234636 
52.717175454639758 1:0.71416095 2:0.091700532 3:0.074831089 4:0.0631545 5:0.056152927 6:0.91509956 7:0.47184951 8:0.42631308 9:0.43240057 10:0.62161516 
256 1:0.51038109 2:0.28565848 3:0.1048241 4:0.069596848 5:0.029539483 6:0.14620984 7:0.25945331 8:0.30592261 9:0.21194648 10:0.34807262 
256 1:0.58795515 2:0.23965245 3:0.080349159 4:0.06336144 5:0.028681804 6:0.51326158 7:0.33507193 8:0.3288599 9:0.31803529 10:0.29780961 
256 1:0.56236091 2:0.28720881 3:0.073706104 4:0.050283289 5:0.026440885 6:0.33214553 7:0.17885561 8:0.34091387 9:0.4158977 10:0.43731124 
99.28879425322846 1:0.27742547 2:0.25836764 3:0.21583355 4:0.1843832 5:0.063990145 6:0.55951153 7:0.34994355 8:0.36710615 9:0.5296083 10:0.43494171 
256 1:0.55822904 2:0.21334343 3:0.088750789 4:0.075532814 5:0.064143931 6:0.38297884 7:0.38499687 8:0.46879557 9:0.45041352 10:0.35118998 
256 1:0.72077472 2:0.21173404 3:0.035196271 4:0.02269803 5:0.0095969474 6:0.32010797 7:0.32412892 8:0.28877091 9:0.49773958 10:0.48318769 
256 1:0.51653228 2:0.28230246 3:0.11582148 4:0.061963722 5:0.023380052 6:0.23021075 7:0.17202317 8:0.29839722 9:0.30417291 10:0.28867425 
256 1:0.61644356 2:0.16503024 3:0.11169327 4:0.069714115 5:0.037118813 6:0.18771589 7:0.14899076 8:0.33837979 9:0.58630779 10:0.53658894 
256 1:0.56075716 2:0.30530889 3:0.078527942 4:0.038429671 5:0.01697634 6:0.18756631 7:0.18662626 8:0.33572582 9:0.24381301 10:0.30018862 
128.04046979975757 1:0.71914652 2:0.12814879 3:0.067507298 4:0.050955768 5:0.03424162 6:1.465672 7:0.36407807 8:0.45443714 9:0.21674912 10:0.24625412 
256 1:0.33656452 2:0.14825652 3:0.17190299 4:0.23046779 5:0.11280818 6:0.45272483 7:0.35257569 8:0.4664475 9:0.59883624 10:0.45727168 
256 1:0.70907619 2:0.16873446 3:0.031309853 4:0.058542135 5:0.032337367 6:0.28824887 7:0.15798201 8:0.29066592 9:0.51072913 10:0.48255728 
256 1:0.75723064 2:0.18237288 3:0.039531804 4:0.015458544 5:0.0054061315 6:0.12520011 7:0.070022798 8:0.25524013 9:0.26559723 10:0.27484461 
256 1:0.76071889 2:0.11993472 3:0.037753432 4:0.050865971 5:0.030726987 6:1.0792621 7:0.44172628 8:0.3194507 9:0.359166 10:0.42473202 
256 1:0.63436383 2:0.25345523 3:0.061249507 4:0.03815435 5:0.012777084 6:0.13248742 7:0.081457126 8:0.33256819 9:0.36014582 10:0.2383394 
256 1:0.54128363 2:0.23005413 3:0.11592326 4:0.075923623 5:0.036815353 6:0.50048304 7:0.26477566 8:0.48248716 9:0.46640056 10:0.30038582 
8.0903012397346608 1:0.56575058 2:0.272203 3:0.047399503 4:0.062306903 5:0.052340018 6:0.18339342 7:0.083312918 8:0.3836879 9:0.60738795 10:0.68723346 
132.00899186031214 1:0.50714433 2:0.12711264 3:0.087380248 4:0.17445179 5:0.10391099 6:0.79035606 7:0.3473753 8:0.45600707 9:0.56999683 10:0.45041714 
256 1:0.62659974 2:0.1774984 3:0.076028531 4:0.074743827 5:0.045129507 6:0.62353009 7:0.18913458 8:0.25773017 9:0.27127416 10:0.4901269 
256 1:0.60245373 2:0.1758771 3:0.062406097 4:0.10713899 5:0.052124081 6:1.0655754 7:0.19447589 8:0.48452314 9:0.4116492 10:0.32378319 
10.244052291833484 1:0.57055796 2:0.097149207 3:0.032165221 4:0.098356387 5:0.20177122 6:0.11014321 7:0.16546505 8:0.34989836 9:0.58113952 10:0.62338265 
256 1:0.46095677 2:0.20938866 3:0.14267835 4:0.1173681 5:0.069608119 6:0.33030458 7:0.1581657 8:0.31424389 9:0.5010873 10:0.51135386 
256 1:0.69329862 2:0.17706397 3:0.066383923 4:0.041628213 5:0.02162528 6:0.099245902 7:0.33450984 8:0.23186933 9:0.55500917 10:0.53646391 
256 1:0.65366442 2:0.28796952 3:0.034626732 4:0.016531268 5:0.0072080585 6:0.096311121 7:0.092055598 8:0.20200425 9:0.33685677 10:0.36556704 
256 1:0.43014201 2:0.19633977 3:0.10607579 4:0.15146122 5:0.11598122 6:0.43438863 7:0.23589321 8:0.37928722 9:0.38327153 10:0.39159259 
256 1:0.47362904 2:0.26155719 3:0.13412169 4:0.089779874 5:0.040912206 6:0.35414831 7:0.080416507 8:0.36442515 9:0.43514693 10:0.48107223 
256 1:0.7542815 2:0.16246039 3:0.041485762 4:0.026492399 5:0.015279951 6:0.18525827 7:0.1742677 8:0.3007987 9:0.40820962 10:0.39093487 
256 1:0.61387148 2:0.2276148 3:0.076852134 4:0.054627615 5:0.027033978 6:0.070845275 7:0.066899969 8:0.24445147 9:0.27830136 10:0.25082032 
256 1:0.65101689 2:0.26142605 3:0.057120788 4:0.020600269 5:0.009836006 6:0.12939259 7:0.18774186 8:0.19723374 9:0.27011218 10:0.25836737 
256 1:0.71463856 2:0.1357752 3:0.070181779 4:0.048038299 5:0.031366157 6:0.25764317 7:0.20204991 8:0.35301139 9:0.24207459 10:0.34755835 
256 1:0.64592201 2:0.19205244 3:0.082658811 4:0.054016332 5:0.025350409 6:0.093370501 7:0.11478287 8:0.25521383 9:0.44381114 10:0.34257191 
256 1:0.42827947 2:0.19032246 3:0.13199722 4:0.14360373 5:0.10579712 6:0.47658532 7:0.38909584 8:0.32344379 9:0.40785097 10:0.73199312 
256 1:0.41482197 2:0.20348978 3:0.19464935 4:0.12021781 5:0.066821095 6:0.22986185 7:0.13507258 8:0.34159055 9:0.27297741 10:0.33581909 
256 1:0.64707257 2:0.17947107 3:0.066164275 4:0.063730949 5:0.043561137 6:0.16406787 7:0.23799589 8:0.39232169 9:0.47069105 10:0.5318359 
16.042941551813026 1:0.57647178 2:0.19761026 3:0.07211839 4:0.11952342 5:0.034276157 6:1.0719319 7:0.26353544 8:0.377225 9:0.71580745 10:0.45460359 
256 1:0.4257664 2:0.24764357 3:0.096608595 4:0.1465791 5:0.08340234 6:0.40610664 7:0.19809225 8:0.28148216 9:0.27129465 10:0.33139289 
256 1:0.80170482 2:0.13256859 3:0.031284934 4:0.021286832 5:0.013154818 6:0.13014729 7:0.21328846 8:0.24861796 9:0.23372891 10:0.26862754 
16.426052029010695 1:0.82909419 2:0.11236853 3:0.025312077 4:0.022286253 5:0.010938956 6:1.2749109 7:0.78179384 8:0.83489175 9:0.89017082 10:0.98377586 
256 1:0.51905566 2:0.25551072 3:0.1107976 4:0.073793465 5:0.040842556 6:0.24942618 7:0.16712731 8:0.335242 9:0.27910631 10:0.32104128 
184.95102065089236 1:0.72470905 2:0.15914978 3:0.035082965 4:0.050932063 5:0.030126139 6:0.77493055 7:0.34999556 8:0.37565276 9:0.73788431 10:0.37953509 
117.11070501707363 1:0.88880005 2:0.075963333 3:0.017652376 4:0.011713272 5:0.005870975 6:1.6400087 7:0.57050221 8:0.21321385 9:0.16730774 10:0.24017192 
256 1:0.54202228 2:0.26309412 3:0.056328823 4:0.078252725 5:0.060302049 6:0.64595935 7:0.22642765 8:0.47062181 9:0.35854351 10:0.47440223 
30.131338296359996 1:0.78777181 2:0.16042978 3:0.033048446 4:0.011811272 5:0.0069386941 6:0.084636867 7:0.12117504 8:0.1611765 9:0.21163848 10:0.19548609 
256 1:0.6332401 2:0.17214491 3:0.089871427 4:0.063735122 5:0.041008441 6:0.46266177 7:0.21430718 8:0.22530021 9:0.43817697 10:0.43909625 
256 1:0.63774751 2:0.25614772 3:0.048309364 4:0.042432105 5:0.015363303 6:0.25681144 7:0.2509161 8:0.3079463 9:0.40588639 10:0.34884149 
256 1:0.48062571 2:0.21606814 3:0.089543102 4:0.13898003 5:0.074783012 6:0.25270006 7:0.19733829 8:0.3265892 9:0.44004091 10:0.41649697 
256 1:0.76568983 2:0.14934964 3:0.043724347 4:0.027193476 5:0.014042714 6:0.57728444 7:0.11762082 8:0.35528302 9:0.40648784 10:0.55953954 
256 1:0.70860867 2:0.16641581 3:0.065249363 4:0.044985276 5:0.014740884 6:0.24026658 7:0.28445795 8:0.28462661 9:0.26257332 10:0.41690475 
256 1:0.73013464 2:0.17047458 3:0.051638035 4:0.03471433 5:0.013038421 6:0.10914179 7:0.20389194 8:0.41688326 9:0.44893468 10:0.49753051 
256 1:0.41680748 2:0.292562 3:0.15217335 4:0.095151051 5:0.043306118 6:0.39363307 7:0.31176857 8:0.28875639 9:0.34473549 10:0.41564772 
256 1:0.45874968 2:0.21723019 3:0.16678151 4:0.10207969 5:0.055158933 6:0.43907503 7:0.27249238 8:0.2846726 9:0.28079109 10:0.37814664 
256 1:0.53730723 2:0.21092495 3:0.11422019 4:0.091908956 5:0.045638677 6:0.31102939 7:0.28273885 8:0.35810695 9:0.52176887 10:0.66874201 
256 1:0.36376183 2:0.30523047 3:0.18293533 4:0.096324162 5:0.051748203 6:0.30342221 7:0.36208952 8:0.22305718 9:0.33787841 10:0.2495744 
256 1:0.73969383 2:0.14227572 3:0.06116218 4:0.042187085 5:0.014681183 6:0.70907106 7:0.52991514 8:0.76503957 9:0.553634 10:0.25509766 
256 1:0.83532929 2:0.13174222 3:0.017249194 4:0.011198374 5:0.0044809216 6:1.0498153 7:0.16040727 8:0.19746201 9:0.36050399 10:0.33515858 
256 1:0.66685922 2:0.17719643 3:0.065974945 4:0.058355427 5:0.031613974 6:0.1560702 7:0.10598126 8:0.33819901 9:0.5244661 10:0.59202912 
256 1:0.54915534 2:0.30564028 3:0.08873096 4:0.037010608 5:0.019462807 6:0.11461779 7:0.2538963 8:0.35127729 9:0.38282874 10:0.55426274 
244.71041332938208 1:0.66276369 2:0.16540051 3:0.083862078 4:0.06217198 5:0.025801736 6:0.12236745 7:0.40659792 8:0.32411641 9:0.31459914 10:0.28996261 
256 1:0.58847222 2:0.24266823 3:0.072223276 4:0.064170731 5:0.032465544 6:0.18062792 7:0.2037555 8:0.35588928 9:0.32858486 10:0.39334464 
165.35226119323858 1:0.63720098 2:0.14329151 3:0.1054583 4:0.082373975 5:0.031675236 6:1.2638632 7:0.21657064 8:0.39523624 9:0.40054652 10:0.44205813 
119.35819311648456 1:0.80368952 2:0.12505671 3:0.042920448 4:0.019182993 5:0.0091503371 6:1.5862182 7:1.0179344 8:0.48942077 9:0.17986987 10:0.1890272 
256 1:0.72227887 2:0.19142292 3:0.038697828 4:0.029719799 5:0.017880592 6:0.18922588 7:0.15154048 8:0.28788897 9:0.45804508 10:0.4616135 
254.37794026273079 1:0.77354455 2:0.16222225 3:0.033957123 4:0.022666716 5:0.0076093556 6:0.18818253 7:0.34215443 8:0.29808845 9:0.47772114 10:0.51839053 
256 1:0.56381882 2:0.22599137 3:0.10326269 4:0.06829934 5:0.038627779 6:0.16489732 7:0.19805423 8:0.34168406 9:0.32516791 10:0.33525973 
256 1:0.54257483 2:0.23670754 3:0.089255369 4:0.084715805 5:0.046746463 6:0.69717952 7:0.20382995 8:0.31258055 9:0.35399328 10:0.3399292 
256 1:0.66711947 2:0.16319645 3:0.072323092 4:0.05116458 5:0.04619641 6:0.17336747 7:0.15658991 8:0.44164478 9:0.42418419 10:0.31478067 
175.3851620019895 1:0.45259214 2:0.2041184 3:0.12338667 4:0.12965325 5:0.090249532 6:0.49926707 7:0.63539171 8:0.44047858 9:0.37222984 10:0.58600897 
256 1:0.53243089 2:0.16598739 3:0.140326 4:0.10806507 5:0.053190655 6:0.42775509 7:0.33020233 8:0.36094976 9:0.39902545 10:0.38143038 
256 1:0.56662505 2:0.28114471 3:0.070011506 4:0.052436093 5:0.02978264 6:0.2735158 7:0.15162531 8:0.21304511 9:0.29492827 10:0.30733654 
256 1:0.5330646 2:0.25750687 3:0.11518626 4:0.063203483 5:0.031038782 6:0.44978364 7:0.19272358 8:0.27750726 9:0.28878695 10:0.40865221 
256 1:0.56786404 2:0.21070898 3:0.056818777 4:0.095551298 5:0.0690569 6:0.59237195 7:0.17330843 8:0.28255697 9:0.27722095 10:0.55557117 
256 1:0.559828 2:0.32328979 3:0.05417961 4:0.040243071 5:0.022459529 6:0.13769466 7:0.1097858 8:0.16278221 9:0.27577089 10:0.22210457 
256 1:0.30569084 2:0.29382233 3:0.16693489 4:0.1590922 5:0.074459733 6:0.18339514 7:0.31526454 8:0.28030097 9:0.24164879 10:0.26983628 
256 1:0.32236033 2:0.28490656 3:0.18021173 4:0.15160457 5:0.060916815 6:0.43748132 7:0.16095209 8:0.33632024 9:0.37768479 10:0.29422446 
78.885751501268331 1:0.35081462 2:0.2679864 3:0.18643137 4:0.13658119 5:0.058186423 6:0.73479573 7:0.46260733 8:0.44295377 9:0.38119666 10:0.33655699 
256 1:0.56791264 2:0.17168638 3:0.13092371 4:0.08403154 5:0.045445727 6:0.48532469 7:0.21959788 8:0.17488984 9:0.36864123 10:0.32758845 
256 1:0.61735753 2:0.18077957 3:0.075172466 4:0.080093292 5:0.046597139 6:0.096774997 7:0.13711885 8:0.13092094 9:0.24471803 10:0.28892028 
129.85944418331442 1:0.84483673 2:0.10268577 3:0.024031152 4:0.018990447 5:0.0094558983 6:1.6489159 7:0.22690417 8:0.18538999 9:0.24708591 10:0.24280089 
256 1:0.61845747 2:0.22124807 3:0.065445733 4:0.060342484 5:0.034506252 6:0.17418158 7:0.25152973 8:0.33964567 9:0.37641523 10:0.35444622 
256 1:0.56375418 2:0.24929549 3:0.10089523 4:0.05529694 5:0.030758162 6:0.11186368 7:0.10884202 8:0.12857471 9:0.26704601 10:0.31775603 
256 1:0.70697272 2:0.17887768 3:0.048750785 4:0.040528406 5:0.024870406 6:0.27233667 7:0.17381833 8:0.19682869 9:0.23894361 10:0.27565748 
256 1:0.71327608 2:0.18262621 3:0.057872982 4:0.032435506 5:0.013789222 6:0.062311621 7:0.12999327 8:0.32064454 9:0.31335969 10:0.28435612 
256 1:0.28844246 2:0.25910312 3:0.1624408 4:0.18790065 5:0.10211296 6:0.31280718 7:0.27159758 8:0.44137024 9:0.280648 10:0.28468541 
256 1:0.68815075 2:0.19661623 3:0.059247769 4:0.033881873 5:0.02210337 6:0.041565411 7:0.28073052 8:0.29598729 9:0.21763676 10:0.29392937 
5.3571326031255282 1:0.82124443 2:0.069896888 3:0.045932328 4:0.038417132 5:0.024509221 6:0.50065852 7:0.42399538 8:0.57750359 9:0.35352451 10:0.31606687 
256 1:0.66617069 2:0.24331108 3:0.04073665 4:0.031178776 5:0.018602804 6:0.27433964 7:0.12263115 8:0.15918559 9:0.44341774 10:0.41407793 
256 1:0.34268258 2:0.22521309 3:0.18899845 4:0.17369167 5:0.069414213 6:0.53643357 7:0.27375376 8:0.3654585 9:0.47044167 10:0.38819054 
157.73091944130232 1:0.78719317 2:0.14300685 3:0.030327593 4:0.028264976 5:0.01120741 6:0.6759504 7:0.096721554 8:0.28196247 9:0.15338389 10:0.19226585 
256 1:0.53288991 2:0.14045749 3:0.064596992 4:0.15356336 5:0.10849225 6:0.33845624 7:0.27281567 8:0.35341553 9:0.66364531 10:0.56901237 
139.82545208909607 1:0.42725199 2:0.27468021 3:0.095526231 4:0.12962521 5:0.072916355 6:0.26902294 7:0.11610115 8:0.27389772 9:0.19790222 10:0.25345795 
256 1:0.6500223 2:0.18888813 3:0.061647487 4:0.064878986 5:0.034563096 6:0.14191917 7:0.13515736 8:0.30431647 9:0.28882209 10:0.29817013 
256 1:0.44469188 2:0.25372556 3:0.17875454 4:0.086808339 5:0.036019683 6:0.29026844 7:0.24793963 8:0.27152653 9:0.36717787 10:0.38703924 
256 1:0.61964418 2:0.25843106 3:0.043787676 4:0.051127526 5:0.02700956 6:0.13373245 7:0.073278548 8:0.26717471 9:0.35582649 10:0.29347527 
256 1:0.38521484 2:0.26999428 3:0.12601353 4:0.15641035 5:0.062366994 6:0.33410487 7:0.20227221 8:0.42683091 9:0.28885332 10:0.21522605 
256 1:0.42535552 2:0.26828376 3:0.17018627 4:0.098039383 5:0.038135065 6:0.46723555 7:0.32927317 8:0.47581027 9:0.36041675 10:0.25927855 
256 1:0.36958616 2:0.37028177 3:0.11911916 4:0.099481558 5:0.041531356 6:0.1687106 7:0.1625011 8:0.12075016 9:0.21379683 10:0.26297975 
43.003950369365398 1:0.46099123 2:0.29079447 3:0.067179699 4:0.11230258 5:0.06873202 6:1.2605729 7:0.66422641 8:0.28984613 9:0.45154212 10:0.62941706 
256 1:0.51413243 2:0.28987167 3:0.10535416 4:0.060262707 5:0.030379032 6:0.39335777 7:0.2574154 8:0.38068674 9:0.34989103 10:0.33873943 
256 1:0.78307013 2:0.1644589 3:0.024727235 4:0.018971046 5:0.008772683 6:0.70220136 7:0.073269482 8:0.11009133 9:0.32001306 10:0.36385339 
256 1:0.32501869 2:0.301652 3:0.14727986 4:0.14721498 5:0.078834472 6:0.42904421 7:0.36361412 8:0.35619583 9:0.48720144 10:0.52626959 
1.819143142187633 1:0.53661636 2:0.24845776 3:0.11797958 4:0.076810333 5:0.02013597 6:0.49818822 7:0.16798774 8:0.77593516 9:0.89556013 10:0.50515728 
256 1:0.53135425 2:0.20448841 3:0.10343013 4:0.12088833 5:0.039838882 6:0.19884908 7:0.15519032 8:0.18114248 9:0.28330144 10:0.25617799 
256 1:0.29532123 2:0.13663751 3:0.079874896 4:0.30824681 5:0.17991955 6:0.22794354 7:0.17468887 8:0.43442788 9:0.6693947 10:0.53037225 
256 1:0.57016602 2:0.22464054 3:0.10916396 4:0.068699111 5:0.027330368 6:0.22882783 7:0.096812656 8:0.30845379 9:0.30311894 10:0.43417918 
256 1:0.63553192 2:0.25722985 3:0.062171777 4:0.028756138 5:0.016310319 6:0.17252404 7:0.15591878 8:0.32311136 9:0.31610022 10:0.53498119 
256 1:0.67022905 2:0.20490139 3:0.063885367 4:0.040002986 5:0.020981204 6:0.08080382 7:0.098996521 8:0.19099035 9:0.27482179 10:0.22159336 
256 1:0.50640191 2:0.24935036 3:0.11154814 4:0.088171786 5:0.044527815 6:0.15914733 7:0.14371237 8:0.14728329 9:0.33539549 10:0.30562563 
256 1:0.28282159 2:0.3493389 3:0.17718519 4:0.11958811 5:0.071066211 6:0.16107943 7:0.236456 8:0.30423919 9:0.27182467 10:0.28657165 
256 1:0.63995824 2:0.22410058 3:0.06311194 4:0.05071354 5:0.022115695 6:0.34346705 7:0.20154561 8:0.20516403 9:0.32700463 10:0.28370107 
256 1:0.77551689 2:0.12768894 3:0.050124101 4:0.029074087 5:0.017595984 6:0.81512816 7:0.35254518 8:0.32446821 9:0.44493077 10:0.59511855 
117.15506091854752 1:0.30863676 2:0.15689389 3:0.085666407 4:0.28204078 5:0.16676216 6:0.38028795 7:0.38126003 8:0.31767341 9:0.74127646 10:0.64394655 
135.16150575317761 1:0.73422411 2:0.16707798 3:0.05537172 4:0.032226777 5:0.011099413 6:0.19844455 7:0.13920372 8:0.30019557 9:0.59592926 10:0.42732645 
81.509303866330072 1:0.84695763 2:0.088014575 3:0.032048206 4:0.022548923 5:0.010430666 6:0.65482882 7:0.71682289 8:0.21010624 9:0.32808688 10:0.30138561 
7.3070899292104103 1:0.16389199 2:0.60282656 3:0.13290816 4:0.078275881 5:0.022097408 6:0.3585737 7:0.13637018 8:0.35428366 9:0.30969256 10:0.4624983 
256 1:0.32892831 2:0.31846003 3:0.15278316 4:0.13297797 5:0.066850529 6:0.23375533 7:0.12538237 8:0.19738939 9:0.26273951 10:0.31968217 
256 1:0.54495759 2:0.19945509 3:0.12531804 4:0.09589643 5:0.034372847 6:0.54562042 7:0.38166509 8:0.34752233 9:0.3282863 10:0.32550199 
256 1:0.61868641 2:0.23163557 3:0.070476463 4:0.04895795 5:0.030243613 6:0.022109444 7:0.0512315 8:0.23834266 9:0.33655985 10:0.38929098 
256 1:0.71749245 2:0.20175472 3:0.039199578 4:0.024924039 5:0.016629215 6:0.040416939 7:0.19542156 8:0.21969463 9:0.363457 10:0.23641678 
26.438558409618093 1:0.79555587 2:0.12167012 3:0.031467842 4:0.0331448 5:0.018161361 6:0.093967701 7:0.1740716 8:0.25051694 9:0.70055269 10:0.7545707 
205.58992665950885 1:0.71230453 2:0.16190304 3:0.057733322 4:0.048871808 5:0.019187305 6:0.1001962 7:0.22091635 8:0.63891129 9:0.57751991 10:0.61423604 
256 1:0.5641083 2:0.2456482 3:0.08799641 4:0.071594228 5:0.030652858 6:0.12869844 7:0.19005562 8:0.39330745 9:0.28531448 10:0.33362026 
14.540504373554718 1:0.97088425 2:0.025415102 3:0.0020859164 4:0.0012087666 5:0.00040596715 6:1.7285327 7:1.6863116 8:0.86449103 9:1.0061783 10:0.49872165 
256 1:0.56242431 2:0.16406143 3:0.13136377 4:0.092319269 5:0.049831221 6:0.85547556 7:0.24552509 8:0.20302002 9:0.34853837 10:0.33126098 
256 1:0.71960327 2:0.19562591 3:0.042289391 4:0.0284376 5:0.014043823 6:0.099883492 7:0.14623027 8:0.16133931 9:0.25555243 10:0.23629392 
256 1:0.65820256 2:0.14322223 3:0.095594874 4:0.06620104 5:0.036779294 6:0.949627 7:0.13607464 8:0.25527485 9:0.33794975 10:0.44257737 
256 1:0.72448184 2:0.19714243 3:0.048540223 4:0.022554791 5:0.0072807165 6:0.05244423 7:0.070783068 8:0.15253462 9:0.23765181 10:0.26118287 
256 1:0.39128839 2:0.33433564 3:0.10728811 4:0.10959816 5:0.057489702 6:0.37171019 7:0.06885237 8:0.28366354 9:0.47183685 10:0.32263517 
256 1:0.60134658 2:0.23995386 3:0.083101686 4:0.052565592 5:0.023032281 6:0.30916345 7:0.15451361 8:0.31318589 9:0.35411702 10:0.32388061 
256 1:0.68706076 2:0.19432978 3:0.054443504 4:0.042830958 5:0.021335006 6:0.16063904 7:0.13629561 8:0.32568078 9:0.39232248 10:0.31905738 
123.83827641664955 1:0.92196779 2:0.050940105 3:0.015293127 4:0.0084442209 5:0.003354753 6:1.4437828 7:0.81345543 8:0.42862903 9:0.21471144 10:0.25383912 
256 1:0.37725972 2:0.2263787 3:0.198292 4:0.13104003 5:0.067029544 6:0.20664158 7:0.15993519 8:0.28552653 9:0.31756893 10:0.3239882 
256 1:0.68060447 2:0.17409248 3:0.069040203 4:0.051113074 5:0.025149778 6:0.71300967 7:0.062355058 8:0.31291859 9:0.25152878 10:0.29969735 
256 1:0.58509445 2:0.26331872 3:0.080333612 4:0.049397781 5:0.021855442 6:0.11391492 7:0.23498731 8:0.34048603 9:0.2942639 10:0.29650998 
256 1:0.58181505 2:0.204997 3:0.094123058 4:0.078575148 5:0.040489738 6:0.66169492 7:0.082124957 8:0.18174262 9:0.33283082 10:0.3225952 
65.531327384230437 1:0.74397704 2:0.15190482 3:0.048757985 4:0.036721048 5:0.018639108 6:0.91655227 7:1.1132755 8:0.67036328 9:0.4748847 10:0.61564072 
64.678323349335571 1:0.28816044 2:0.18011966 3:0.073540392 4:0.28427762 5:0.17390189 6:0.49706284 7:0.20275098 8:0.42398845 9:0.62469229 10:0.42314213 
256 1:0.43410115 2:0.23279838 3:0.15510784 4:0.1196702 5:0.058322439 6:0.36060979 7:0.29751196 8:0.47395053 9:0.30824231 10:0.54780017 
256 1:0.6868842 2:0.18519545 3:0.057175917 4:0.049311277 5:0.021433153 6:0.334755 7:0.23461952 8:0.26765476 9:0.34681696 10:0.33287373 
256 1:0.8536676 2:0.055592 3:0.039571078 4:0.032734453 5:0.01843487 6:0.19484523 7:0.30466801 8:0.26503882 9:0.34322583 10:0.32179216 
72.737824475473346 1:0.57858149 2:0.13001907 3:0.090461987 4:0.12488168 5:0.076055766 6:1.0975234 7:0.73525085 8:0.50791358 9:0.24689029 10:0.38265242 
256 1:0.70472873 2:0.20204141 3:0.047464422 4:0.029691484 5:0.016073951 6:0.78176126 7:0.14338661 8:0.20186064 9:0.25950193 10:0.31390537 
44.231116408921096 1:0.5551261 2:0.24026965 3:0.053552704 4:0.090477483 5:0.060574062 6:1.0735094 7:0.28464272 8:0.46935793 9:0.43772239 10:0.62734576 
31.511440855072131 1:0.62610542 2:0.070226839 3:0.05871859 4:0.1725484 5:0.072400753 6:1.4278626 7:0.25266151 8:0.30198429 9:0.71174748 10:0.46989131 
256 1:0.65380499 2:0.21380603 3:0.07461174 4:0.037755777 5:0.020021456 6:0.13788519 7:0.11471396 8:0.28288631 9:0.35628195 10:0.35397507 
256 1:0.42631665 2:0.2255686 3:0.15158671 4:0.1202496 5:0.07627844 6:0.16175814 7:0.30502323 8:0.22400671 9:0.32674095 10:0.50561789 
256 1:0.57198728 2:0.20919913 3:0.08847755 4:0.081014298 5:0.049321741 6:0.25228217 7:0.13866051 8:0.27999133 9:0.51605357 10:0.51845796 
256 1:0.7396417 2:0.14006223 3:0.047189857 4:0.047679208 5:0.025427005 6:0.052197908 7:0.16750619 8:0.37743459 9:0.3108618 10:0.31737793 
256 1:0.40457696 2:0.27636389 3:0.16299922 4:0.10895884 5:0.047101089 6:0.32774563 7:0.34173491 8:0.40707564 9:0.32156548 10:0.51928815 
256 1:0.73792669 2:0.17044574 3:0.050739155 4:0.02575928 5:0.01512914 6:0.12995959 7:0.11930253 8:0.28957601 9:0.32994954 10:0.22442749 
256 1:0.57515714 2:0.20876602 3:0.088474998 4:0.081863478 5:0.045738364 6:0.85689688 7:0.20849604 8:0.21301964 9:0.33915603 10:0.33430485 
256 1:0.55429192 2:0.2833601 3:0.084543218 4:0.05859331 5:0.019211457 6:0.086345323 7:0.19988866 8:0.34660485 9:0.42908351 10:0.35938038 
256 1:0.55728046 2:0.27418368 3:0.078843863 4:0.063268097 5:0.026423904 6:0.15926431 7:0.18503081 8:0.3470597 9:0.33487334 10:0.40916795 
256 1:0.65830942 2:0.18593487 3:0.082047488 4:0.048247619 5:0.025460598 6:0.12668902 7:0.1959218 8:0.27533509 9:0.32710287 10:0.32818141 
178.69274782988884 1:0.8458745 2:0.10097311 3:0.028477568 4:0.018411391 5:0.0062634281 6:0.94194776 7:0.61555033 8:0.20520267 9:0.52719465 10:0.26772994 
256 1:0.6101962 2:0.21533057 3:0.094443355 4:0.055228569 5:0.024801304 6:0.21041978 7:0.15567494 8:0.27159331 9:0.30154432 10:0.34779827 
256 1:0.32242257 2:0.25734964 3:0.21343354 4:0.11855563 5:0.088238616 6:0.16879896 7:0.28006265 8:0.50458166 9:0.45384361 10:0.68578673 
256 1:0.54476506 2:0.30577519 3:0.081635917 4:0.045013993 5:0.022809842 6:0.27489374 7:0.12601582 8:0.29775522 9:0.27420232 10:0.32710946 
40.691441276249378 1:0.43704152 2:0.28020683 3:0.15111243 4:0.084721083 5:0.046918132 6:0.3271751 7:0.24036717 8:0.49206607 9:0.26168153 10:0.34018769 
256 1:0.61037322 2:0.20792448 3:0.10199539 4:0.059812916 5:0.019893983 6:0.10964715 7:0.10127228 8:0.34161173 9:0.47734197 10:0.24131652 
256 1:0.73970952 2:0.17445238 3:0.052198713 4:0.025815001 5:0.0078243856 6:0.14064636 7:0.094231898 8:0.23898166 9:0.35066105 10:0.33756028 
93.662329323661908 1:0.58483851 2:0.22683791 3:0.064761691 4:0.07909804 5:0.044463857 6:0.50608876 7:0.71453911 8:0.19380702 9:0.56171644 10:0.46705331 
256 1:0.69574316 2:0.18333404 3:0.039234944 4:0.04959283 5:0.032095025 6:0.095665689 7:0.083469284 8:0.29000071 9:0.36263237 10:0.38974336 
4.1541331554027252 1:0.93654473 2:0.039511319 3:0.011904208 4:0.0087769449 5:0.0032627974 6:1.6788815 7:0.8597616 8:1.0272105 9:0.35517337 10:0.26795231 
256 1:0.51260944 2:0.22475242 3:0.13031283 4:0.09579484 5:0.036530469 6:0.24845486 7:0.24100731 8:0.12685298 9:0.26781049 10:0.22818204 
256 1:0.57321178 2:0.22606901 3:0.082551665 4:0.077012587 5:0.041154955 6:0.53296234 7:0.11353601 8:0.14064966 9:0.29310179 10:0.34736358 
256 1:0.67720678 2:0.11278961 3:0.081585928 4:0.076293664 5:0.052124012 6:0.46938516 7:0.063333214 8:0.1219934 9:0.45798532 10:0.3179544 
256 1:0.50498328 2:0.20734179 3:0.13794019 4:0.10483598 5:0.044898768 6:0.21732709 7:0.16389467 8:0.36016466 9:0.48246314 10:0.49320562 
256 1:0.30694462 2:0.33415488 3:0.13906691 4:0.1383507 5:0.081482887 6:0.36635937 7:0.1570172 8:0.3345713 9:0.25587617 10:0.26459477 
256 1:0.58131169 2:0.1860161 3:0.093112842 4:0.083372256 5:0.056187116 6:0.40643969 7:0.27546197 8:0.58365955 9:0.48735379 10:0.66199769 
256 1:0.34954709 2:0.42915925 3:0.080837616 4:0.091429497 5:0.049026549 6:0.45483636 7:0.18344955 8:0.31412498 9:0.3462636 10:0.42212176 
256 1:0.44692483 2:0.24452968 3:0.077573162 4:0.055574478 5:0.17539785 6:0.2281666 7:0.25507469 8:0.43442523 9:0.58446555 10:0.63182106 
256 1:0.56028343 2:0.22809203 3:0.072145629 4:0.08322031 5:0.056258606 6:0.21510163 7:0.15297698 8:0.33797164 9:0.51331578 10:0.56991443 
256 1:0.55755938 2:0.18774812 3:0.11677862 4:0.090453791 5:0.047460085 6:0.4826086 7:0.45488266 8:0.4967838 9:0.64422158 10:0.49652369 
256 1:0.65323325 2:0.24199406 3:0.047878785 4:0.039659609 5:0.0172343 6:0.17085499 7:0.1454655 8:0.2288574 9:0.37606399 10:0.27656257 
256 1:0.69416585 2:0.21605323 3:0.050568674 4:0.027684751 5:0.011527497 6:0.27949079 7:0.15376815 8:0.21807184 9:0.32114114 10:0.3427909 
256 1:0.63385274 2:0.21512064 3:0.082247207 4:0.043134714 5:0.025644696 6:0.11332567 7:0.24989138 8:0.42827123 9:0.35605122 10:0.31705659 
110.93590427509629 1:0.42807258 2:0.30965901 3:0.087195984 4:0.12068442 5:0.054388002 6:0.40502688 7:0.23153901 8:0.70277755 9:0.24116315 10:0.29591978 
256 1:0.65524364 2:0.23549829 3:0.066136964 4:0.030564158 5:0.012556949 6:0.18554331 7:0.17923831 8:0.34318123 9:0.19618885 10:0.29986158 
256 1:0.59691055 2:0.1770216 3:0.10891839 4:0.075477003 5:0.041672462 6:0.35095577 7:0.21769767 8:0.43355506 9:0.35726114 10:0.28821514 
256 1:0.64309603 2:0.27053619 3:0.046101142 4:0.027489451 5:0.012777195 6:0.20268618 7:0.089371503 8:0.34083147 9:0.41128172 10:0.43843639 
109.19286441655082 1:0.27282308 2:0.3092441 3:0.17775839 4:0.19134345 5:0.048830985 6:0.31715746 7:0.28871566 8:0.50114939 9:0.47533643 10:0.19422594 
256 1:0.51326899 2:0.28193711 3:0.085830237 4:0.084847117 5:0.034116542 6:0.44584713 7:0.33805454 8:0.36832984 9:0.34824668 10:0.20920101 
256 1:0.7130388 2:0.20475244 3:0.036627734 4:0.031513122 5:0.014067904 6:0.1874058 7:0.12231886 8:0.17216837 9:0.45336459 10:0.43379197 
256 1:0.63883489 2:0.17086947 3:0.074455831 4:0.072440543 5:0.04339927 6:0.073921344 7:0.11644605 8:0.29024327 9:0.489354 10:0.58532409 
256 1:0.55835605 2:0.26679277 3:0.12438654 4:0.036497176 5:0.013967463 6:0.17161845 7:0.12695754 8:0.1887281 9:0.22991091 10:0.31081267 
256 1:0.45638101 2:0.25414996 3:0.12344527 4:0.1007216 5:0.065302156 6:0.17455925 7:0.15438873 8:0.2795558 9:0.2858259 10:0.40897601 
256 1:0.74522144 2:0.097812281 3:0.045847612 4:0.061510197 5:0.049608475 6:0.60267198 7:0.34318432 8:0.15194657 9:0.44269061 10:0.47252862 
256 1:0.49789874 2:0.26006546 3:0.11933134 4:0.082461465 5:0.040242988 6:0.037034867 7:0.19719749 8:0.28378178 9:0.32152642 10:0.44674553 
256 1:0.3778066 2:0.25523806 3:0.10800216 4:0.15177093 5:0.10718226 6:0.24319596 7:0.16770653 8:0.3418618 9:0.39620269 10:0.50464465 
256 1:0.7898872 2:0.17966699 3:0.015833065 4:0.010358378 5:0.004254368 6:0.10110664 7:0.15022019 8:0.18596264 9:0.33481785 10:0.41133744 
256 1:0.28136905 2:0.38088238 3:0.1676796 4:0.12376666 5:0.046302308 6:0.17003794 7:0.23364459 8:0.43834234 9:0.42400609 10:0.54839912 
256 1:0.58452572 2:0.20605963 3:0.1187537 4:0.060759841 5:0.029901107 6:0.45452448 7:0.40381952 8:0.42635292 9:0.49893877 10:0.38598174 
256 1:0.49530905 2:0.18425665 3:0.1719421 4:0.097822928 5:0.050669277 6:0.25566484 7:0.27475757 8:0.28523037 9:0.30848168 10:0.37495706 
142.59980037711733 1:0.76727678 2:0.14132383 3:0.043078396 4:0.032002696 5:0.016318295 6:0.48990688 7:0.19648833 8:0.19132088 9:0.32319424 10:0.30967143 
256 1:0.78330798 2:0.10294026 3:0.027212185 4:0.054895571 5:0.031644005 6:0.26189783 7:0.41028029 8:0.30777765 9:0.40627204 10:0.38203304 
3.4240433137291566 1:0.66760595 2:0.25161634 3:0.04166055 4:0.032646367 5:0.0064707988 6:1.6411086 7:1.6039383 8:1.595214 9:1.5989817 10:1.5271544 
163.5792824370601 1:0.92409239 2:0.042644822 3:0.011622284 4:0.014859027 5:0.00678148 6:1.6030196 7:0.51493515 8:0.19480632 9:0.25831346 10:0.23501637 
256 1:0.55453836 2:0.34466176 3:0.051746868 4:0.033377659 5:0.015675351 6:0.23982807 7:0.22320564 8:0.18345498 9:0.25333255 10:0.23994997 
256 1:0.42893387 2:0.20759111 3:0.11915148 4:0.14068911 5:0.10363443 6:0.36937426 7:0.25950181 8:0.178293 9:0.37940365 10:0.73256247 
256 1:0.42249261 2:0.29822449 3:0.11430337 4:0.11408801 5:0.050891518 6:0.085114916 7:0.12981728 8:0.17377193 9:0.23413016 10:0.36113228 
256 1:0.427064 2:0.22140144 3:0.12912884 4:0.14821388 5:0.074191837 6:0.15362638 7:0.27435689 8:0.21159429 9:0.2789604 10:0.24655401 
256 1:0.67818281 2:0.19813284 3:0.045457209 4:0.041443479 5:0.036783668 6:0.21084084 7:0.20934218 8:0.32955769 9:0.42263516 10:0.81569058 
256 1:0.5709075 2:0.26547325 3:0.082550233 4:0.06184262 5:0.019226397 6:0.29990591 7:0.279342 8:0.39647262 9:0.41626754 10:0.39330095 
256 1:0.64170054 2:0.14945378 3:0.079725954 4:0.080124533 5:0.048995192 6:0.2392801 7:0.19359156 8:0.31272983 9:0.40943627 10:0.44450241 
0.49005079718037103 1:0.39061611 2:0.1669955 3:0.18801533 4:0.14210158 5:0.11227149 6:0.80922665 7:0.38332191 8:0.69959999 9:0.61216027 10:0.86591655 
256 1:0.62096589 2:0.19323572 3:0.061657628 4:0.07351673 5:0.050624029 6:0.54572417 7:0.3012894 8:0.35951845 9:0.47209492 10:0.55617429 
26.04220095114616 1:0.79506601 2:0.10363759 3:0.037124178 4:0.040856307 5:0.023315912 6:0.093313551 7:0.18423845 8:0.44113815 9:0.32786041 10:0.32932818 
256 1:0.59106542 2:0.21823937 3:0.083581253 4:0.06315866 5:0.043955291 6:0.21852292 7:0.064252241 8:0.41971749 9:0.40985357 10:0.39957479 
114.13045561348802 1:0.33151605 2:0.44147125 3:0.10095363 4:0.085570319 5:0.040488751 6:0.37904559 7:0.11347479 8:0.3223579 9:0.32224245 10:0.50635335 
256 1:0.59126923 2:0.17405381 3:0.09304161 4:0.10629256 5:0.035342785 6:0.43028041 7:0.48833959 8:0.58514088 9:0.65384248 10:0.42843594 
256 1:0.35841302 2:0.39780231 3:0.091222551 4:0.094580324 5:0.057981791 6:0.56858209 7:0.18373587 8:0.34506368 9:0.33962572 10:0.42646014 
256 1:0.65769573 2:0.18658032 3:0.075326826 4:0.050630113 5:0.029767005 6:0.33878941 7:0.20787154 8:0.30944648 9:0.33218912 10:0.54982951 
256 1:0.37377292 2:0.22916667 3:0.1188606 4:0.16441841 5:0.1137814 6:0.52619503 7:0.37811421 8:0.5394646 9:0.72792519 10:0.82409998 
256 1:0.56128642 2:0.25028163 3:0.10130581 4:0.05564713 5:0.031478999 6:0.39107674 7:0.25628092 8:0.28262723 9:0.28782009 10:0.56034083 
96.969530807241597 1:0.15655955 2:0.27585796 3:0.19530312 4:0.27212575 5:0.10015362 6:0.24371752 7:0.45448406 8:0.65227066 9:0.68994954 10:0.6498193 
256 1:0.58287058 2:0.21775695 3:0.056394085 4:0.087789599 5:0.055188779 6:0.15625699 7:0.13939184 8:0.34857066 9:0.26193367 10:0.69157824 
256 1:0.45290867 2:0.27082083 3:0.1182242 4:0.11035469 5:0.047691612 6:0.1402519 7:0.28352357 8:0.29277805 9:0.30141223 10:0.22153747 
237.56502996865152 1:0.71723267 2:0.12944215 3:0.072699271 4:0.060300219 5:0.020325687 6:0.82918477 7:0.40302831 8:0.52069914 9:0.42856118 10:0.27264131 
190.4944534768799 1:0.68976363 2:0.17633911 3:0.068533923 4:0.044268 5:0.021095342 6:0.91233359 7:0.087950527 8:0.26206199 9:0.22783286 10:0.25193702 
256 1:0.76603412 2:0.17181789 3:0.029609992 4:0.02049962 5:0.012038373 6:0.09266587 7:0.10059233 8:0.27740483 9:0.47349621 10:0.45301718 
256 1:0.49426618 2:0.2208235 3:0.14769527 4:0.098988699 5:0.038226355 6:0.37330098 7:0.20147334 8:0.34367184 9:0.43110436 10:0.29749986 
256 1:0.46367884 2:0.25870282 3:0.1520198 4:0.083158475 5:0.042440062 6:0.18606886 7:0.20714106 8:0.33994261 9:0.35638088 10:0.46134512 
256 1:0.41691992 2:0.19822949 3:0.16496355 4:0.15303829 5:0.066848744 6:0.13022219 7:0.35260477 8:0.46052782 9:0.35308114 10:0.32426414 
3.1972708000867716 1:0.36729002 2:0.41514746 3:0.1246474 4:0.055533044 5:0.037382074 6:0.57426769 7:0.2380243 8:0.42002578 9:0.34365227 10:0.22540552 
256 1:0.66993929 2:0.19052848 3:0.05972228 4:0.052005335 5:0.027804613 6:0.15966635 7:0.14901914 8:0.2331576 9:0.34047097 10:0.38675795 
256 1:0.59551478 2:0.19579882 3:0.082362123 4:0.073367837 5:0.052956441 6:0.71586536 7:0.16562709 8:0.3435486 9:0.41133427 10:0.40212591 
256 1:0.60558722 2:0.29515123 3:0.052299729 4:0.031455825 5:0.015505996 6:0.18000538 7:0.096878999 8:0.34667593 9:0.37897254 10:0.39088614 
256 1:0.47060178 2:0.23288124 3:0.12357235 4:0.10798104 5:0.06496359 6:0.18295299 7:0.13551677 8:0.28328628 9:0.24901197 10:0.43529174 
256 1:0.26486789 2:0.28133799 3:0.22257763 4:0.17497185 5:0.056244642 6:0.22412764 7:0.34523864 8:0.42581212 9:0.37918294 10:0.41824706 
256 1:0.72781705 2:0.14852365 3:0.035911345 4:0.049674079 5:0.038073878 6:0.66132337 7:0.24710713 8:0.2293322 9:0.43321946 10:0.55576223 
32.782932553138643 1:0.5366185 2:0.30040237 3:0.09822461 4:0.047969654 5:0.016784865 6:0.24420814 7:0.20024443 8:0.24063969 9:0.1305321 10:0.24426231 
256 1:0.72830979 2:0.21007613 3:0.033422438 4:0.019678597 5:0.0085130524 6:0.20847055 7:0.13694325 8:0.45131395 9:0.51383245 10:0.51440552 
256 1:0.51257965 2:0.24433853 3:0.068554036 4:0.10579865 5:0.068729143 6:0.35772675 7:0.1847985 8:0.1379034 9:0.28704005 10:0.24228199 
256 1:0.39572277 2:0.29619761 3:0.13632679 4:0.11249762 5:0.059255208 6:0.27933632 7:0.26944359 8:0.46232136 9:0.36026123 10:0.24175611 
256 1:0.38531072 2:0.2210527 3:0.15024872 4:0.15850208 5:0.084885773 6:0.20237387 7:0.21632595 8:0.2174822 9:0.28741951 10:0.18469373 
256 1:0.65605617 2:0.15180605 3:0.056160996 4:0.080003795 5:0.055972983 6:0.32525817 7:0.24023596 8:0.39900086 9:0.41895779 10:0.46166129 
256 1:0.74198737 2:0.17421043 3:0.038170082 4:0.02916891 5:0.01646321 6:0.17775852 7:0.10196542 8:0.20378193 9:0.39245011 10:0.36235646 
8.0487376770091466 1:0.79504163 2:0.1536855 3:0.038671576 4:0.0097130487 5:0.0028882473 6:1.5543483 7:1.6116302 8:1.556633 9:1.363584 10:1.4343218 
256 1:0.61128695 2:0.22781161 3:0.06425137 4:0.069494373 5:0.027155695 6:0.052922654 7:0.16656786 8:0.2235671 9:0.25405894 10:0.27629681 
256 1:0.65193924 2:0.1540303 3:0.10190991 4:0.056618028 5:0.035502518 6:0.26382041 7:0.20553783 8:0.32773649 9:0.37797391 10:0.29231471 
256 1:0.61323863 2:0.14116439 3:0.088580746 4:0.094328512 5:0.062687715 6:0.29987121 7:0.4398089 8:0.54375735 9:0.69009058 10:0.71459047 
256 1:0.5213102 2:0.27088676 3:0.087383004 4:0.080757276 5:0.039662758 6:0.82051481 7:0.18332012 8:0.25762222 9:0.35703252 10:0.34876821 
61.886513334538407 1:0.85462172 2:0.091281842 3:0.022325312 4:0.02075699 5:0.011014138 6:1.3477221 7:0.64487626 8:0.60749817 9:0.61374329 10:0.37125753 
256 1:0.4304124 2:0.28560828 3:0.13725243 4:0.094102024 5:0.052624869 6:0.34146111 7:0.21636242 8:0.36034111 9:0.24025153 10:0.31184735 
256 1:0.51197835 2:0.32162743 3:0.084735455 4:0.058084727 5:0.023574037 6:0.26847791 7:0.1846539 8:0.17280354 9:0.27189997 10:0.24898973 
256 1:0.51831929 2:0.23552409 3:0.10849879 4:0.10289684 5:0.034760995 6:0.44023203 7:0.2915321 8:0.33009759 9:0.25312024 10:0.26175736 
256 1:0.69694781 2:0.16141965 3:0.066319961 4:0.048375832 5:0.02693674 6:0.72439043 7:0.19432004 8:0.15344263 9:0.40480079 10:0.53414907 
256 1:0.78393097 2:0.15387985 3:0.034199985 4:0.019834719 5:0.008154477 6:0.15221345 7:0.15330292 8:0.22816412 9:0.22841107 10:0.2556729 
95.798725177803092 1:0.79462618 2:0.16714607 3:0.023717735 4:0.011054677 5:0.0034553355 6:0.586753 7:0.6415049 8:0.41173547 9:0.59618402 10:0.53541623 
256 1:0.71646529 2:0.14308714 3:0.045287031 4:0.058438349 5:0.036722197 6:0.12529739 7:0.075487599 8:0.33979417 9:0.38084909 10:0.5390102 
256 1:0.65167856 2:0.20163625 3:0.059725707 4:0.05243042 5:0.034529056 6:0.34129958 7:0.2017352 8:0.33865276 9:0.40659758 10:0.40690314 
256 1:0.61498917 2:0.23380368 3:0.07667611 4:0.049836343 5:0.024694697 6:0.15984912 7:0.13294629 8:0.13286079 9:0.39709366 10:0.33506449 
256 1:0.46277304 2:0.20769125 3:0.11607225 4:0.1348082 5:0.078655267 6:0.57541488 7:0.23410802 8:0.23908951 9:0.49312064 10:0.42893301 
256 1:0.56091901 2:0.16504295 3:0.071991206 4:0.10955048 5:0.092496357 6:0.3224012 7:0.21053043 8:0.30927267 9:0.49158977 10:0.6413138 
256 1:0.65664214 2:0.23407528 3:0.050765765 4:0.039691476 5:0.018825343 6:0.11690639 7:0.15837227 8:0.2599859 9:0.39249569 10:0.63699355 
17.865048087957035 1:0.37565474 2:0.37728841 3:0.13532007 4:0.082084066 5:0.029652712 6:0.87213016 7:0.41815093 8:0.44942857 9:0.23900484 10:0.25578537 
256 1:0.29486515 2:0.37273116 3:0.12944027 4:0.12941195 5:0.073551471 6:0.12478127 7:0.29861366 8:0.32598023 9:0.26988209 10:0.24255853 
256 1:0.50753543 2:0.29516882 3:0.089488408 4:0.079698667 5:0.028108674 6:0.28629097 7:0.35743699 8:0.2885639 9:0.37698267 10:0.37865496 
256 1:0.45862406 2:0.29152726 3:0.11457409 4:0.10009179 5:0.035182797 6:0.20710305 7:0.35232467 8:0.43580762 9:0.41696002 10:0.43167176 
256 1:0.58578091 2:0.24620103 3:0.102331 4:0.041705258 5:0.023981807 6:0.18587461 7:0.12182961 8:0.16784306 9:0.25997523 10:0.34157763 
256 1:0.56611743 2:0.18695587 3:0.080724252 4:0.11252401 5:0.053678431 6:0.29448576 7:0.17962601 8:0.3901756 9:0.57622204 10:0.54231083 
24.290771432403471 1:0.49306834 2:0.24610202 3:0.13784987 4:0.060110709 5:0.062869053 6:0.078975498 7:0.15780989 8:0.51202801 9:0.3361535 10:0.33208867 
256 1:0.63739456 2:0.23029926 3:0.054918779 4:0.049273739 5:0.028113659 6:0.21953993 7:0.2893896 8:0.2601745 9:0.28997722 10:0.30228719 
256 1:0.38744177 2:0.28401204 3:0.16358832 4:0.1174436 5:0.047514279 6:0.40321828 7:0.27921787 8:0.36367822 9:0.30684056 10:0.26487549 
256 1:0.52959227 2:0.22505058 3:0.078733708 4:0.10360689 5:0.063016555 6:0.18955972 7:0.10159882 8:0.28321703 9:0.50145326 10:0.528931 
256 1:0.38905348 2:0.39484993 3:0.075756464 4:0.086322284 5:0.054017838 6:0.38651487 7:0.11395914 8:0.26156813 9:0.40118016 10:0.35958834 
256 1:0.61626264 2:0.27185063 3:0.061463162 4:0.039665755 5:0.010757815 6:0.15832516 7:0.35257194 8:0.32543636 9:0.31653714 10:0.33540421 
256 1:0.56276542 2:0.23334106 3:0.09437192 4:0.068743556 5:0.040778047 6:0.10692109 7:0.20534203 8:0.32082261 9:0.32969501 10:0.40444059 
256 1:0.42064123 2:0.28200564 3:0.11527775 4:0.10847338 5:0.073601994 6:0.46321222 7:0.16431333 8:0.10777444 9:0.23101143 10:0.29234179 
256 1:0.60051148 2:0.26748867 3:0.071967484 4:0.043392137 5:0.016640233 6:0.055148874 7:0.15357696 8:0.29489351 9:0.36152122 10:0.32977829 
256 1:0.59230968 2:0.19749078 3:0.045637396 4:0.095134098 5:0.069428043 6:0.90917188 7:0.35809456 8:0.31084231 9:0.59906408 10:0.52723333 
256 1:0.66158727 2:0.20335801 3:0.080993419 4:0.039351058 5:0.014710238 6:0.19552505 7:0.18209277 8:0.31780708 9:0.30019996 10:0.29177878 
256 1:0.63740433 2:0.17649174 3:0.075825307 4:0.069575915 5:0.040702714 6:0.4697134 7:0.25343068 8:0.28985484 9:0.31343152 10:0.34791198 
256 1:0.54376002 2:0.21016418 3:0.11477959 4:0.090124221 5:0.041171993 6:0.50673896 7:0.53472357 8:0.36239955 9:0.34061049 10:0.29024266 
68.905518644842232 1:0.63288595 2:0.24698591 3:0.039040007 4:0.044437442 5:0.036650687 6:0.22454318 7:0.075413762 8:0.2490259 9:0.67437006 10:0.79116025 
256 1:0.31378105 2:0.38253663 3:0.13202338 4:0.1179473 5:0.053711628 6:0.45421169 7:0.33375326 8:0.28306786 9:0.40559461 10:0.33287153 
174.4510976726923 1:0.88875408 2:0.086573163 3:0.016446289 4:0.0060090409 5:0.0022174315 6:1.5980072 7:1.1529961 8:0.70999278 9:0.34314248 10:0.24124422 
256 1:0.64698816 2:0.2297363 3:0.067182604 4:0.038633467 5:0.017459471 6:0.11620715 7:0.18752869 8:0.21824573 9:0.26393478 10:0.23078391 
256 1:0.7750822 2:0.15822131 3:0.035108533 4:0.020141103 5:0.011446847 6:0.079721071 7:0.14906201 8:0.18125179 9:0.35941229 10:0.36111543 
21.201292909582694 1:0.74679567 2:0.12503471 3:0.036193338 4:0.046683085 5:0.045293196 6:1.4599618 7:1.0636805 8:0.57921544 9:0.41519861 10:0.75141351 
256 1:0.56850419 2:0.29685589 3:0.064749777 4:0.045099393 5:0.024790758 6:0.30702159 7:0.13911179 8:0.29732356 9:0.29531902 10:0.34468404 
256 1:0.76414649 2:0.15849705 3:0.030022527 4:0.03244011 5:0.014893821 6:0.22096462 7:0.23460332 8:0.34772039 9:0.30100607 10:0.34369007 
256 1:0.63830059 2:0.1916522 3:0.076534931 4:0.059950035 5:0.033562244 6:0.20596505 7:0.14634591 8:0.26726648 9:0.38755164 10:0.40275689 
256 1:0.60803783 2:0.26302308 3:0.071956391 4:0.037954049 5:0.019028657 6:0.10399018 7:0.1739911 8:0.2523262 9:0.290378 10:0.30213637 
256 1:0.57933579 2:0.20321626 3:0.10354047 4:0.07164789 5:0.042259593 6:0.52698391 7:0.28849867 8:0.29801223 9:0.36100257 10:0.25803844 
28.738665781162471 1:0.57849017 2:0.20857948 3:0.085846328 4:0.082969532 5:0.044114493 6:0.67482991 7:0.20977224 8:0.36598529 9:0.34793495 10:0.28933574 
185.34599702882011 1:0.42734254 2:0.42375094 3:0.051332762 4:0.049915166 5:0.047658593 6:0.319027 7:0.1140331 8:0.33693063 9:0.43862703 10:0.26793839 
256 1:0.28250002 2:0.34632518 3:0.17482112 4:0.13240187 5:0.063951796 6:0.33596461 7:0.52889285 8:0.29641698 9:0.27252715 10:0.38617118 
163.37209520132092 1:0.59925823 2:0.20279156 3:0.066859208 4:0.075750634 5:0.055340364 6:0.88452194 7:0.39232657 8:0.43655489 9:0.27836299 10:0.28762696 
256 1:0.48976965 2:0.19488502 3:0.13028123 4:0.1129784 5:0.072085699 6:0.23808766 7:0.15790265 8:0.42971906 9:0.52456826 10:0.56514777 
256 1:0.31034321 2:0.16669251 3:0.16291216 4:0.21736982 5:0.1426823 6:0.14549996 7:0.26861104 8:0.32152255 9:0.56065697 10:0.49305174 
26.471936881036932 1:0.64097441 2:0.21601797 3:0.068202987 4:0.046867914 5:0.027936718 6:0.66903131 7:0.176734 8:0.25032901 9:0.25712533 10:0.31108464 
256 1:0.36186139 2:0.43782435 3:0.066185546 4:0.079097424 5:0.055031295 6:0.12912729 7:0.18952303 8:0.22995686 9:0.39847309 10:0.38090163 
256 1:0.6429256 2:0.25332273 3:0.041702881 4:0.040046917 5:0.022001866 6:0.33164914 7:0.090850374 8:0.1573777 9:0.3581324 10:0.40720185 
42.781116601734141 1:0.75304162 2:0.072761525 3:0.050861485 4:0.038881751 5:0.084453621 6:1.1559616 7:0.12546758 8:0.46354834 9:0.3700067 10:0.69001419 
256 1:0.85332688 2:0.088204431 3:0.033970261 4:0.01761688 5:0.0068815469 6:1.3035303 7:0.31308722 8:0.29469282 9:0.34121052 10:0.33192637 
256 1:0.66810293 2:0.24127214 3:0.050453397 4:0.029053847 5:0.011117688 6:0.089388876 7:0.090569428 8:0.13753128 9:0.34801992 10:0.27366452 
256 1:0.5510416 2:0.23075148 3:0.071496826 4:0.086643648 5:0.060066444 6:0.27357417 7:0.14660736 8:0.36914057 9:0.52090321 10:0.57004984 
256 1:0.44848197 2:0.30912006 3:0.095255162 4:0.082662634 5:0.06448018 6:0.27909571 7:0.20972837 8:0.39110143 9:0.50589536 10:0.71326964 
256 1:0.55939772 2:0.28084728 3:0.082213908 4:0.055995941 5:0.021545159 6:0.23904164 7:0.26511755 8:0.20107871 9:0.31922974 10:0.25407399 
256 1:0.62046425 2:0.26954318 3:0.067697614 4:0.029623004 5:0.012671955 6:0.10584196 7:0.10793324 8:0.26441254 9:0.27481423 10:0.30538422 
138.41354685925018 1:0.54405621 2:0.20108888 3:0.078223485 4:0.11459311 5:0.062038312 6:0.46053952 7:0.60231394 8:0.881097 9:0.66629723 10:0.62646966 
256 1:0.41951769 2:0.32194316 3:0.1128977 4:0.0986032 5:0.047038247 6:0.4789062 7:0.25458173 8:0.31797372 9:0.36307899 10:0.37890531 
256 1:0.66616758 2:0.1861806 3:0.092108928 4:0.037522612 5:0.018020284 6:0.20977623 7:0.18191611 8:0.28193066 9:0.35255801 10:0.22936027 
256 1:0.75572039 2:0.15196942 3:0.035785339 4:0.036220355 5:0.020304501 6:0.10978283 7:0.12094619 8:0.22063905 9:0.4126837 10:0.37320203 
256 1:0.69262432 2:0.18977403 3:0.063341481 4:0.036852653 5:0.017407517 6:0.80520969 7:0.36373026 8:0.11757629 9:0.31950092 10:0.33653861 
256 1:0.71700952 2:0.21083741 3:0.043081164 4:0.020588683 5:0.0084832207 6:0.068456843 7:0.094221387 8:0.13542327 9:0.30471187 10:0.34589223 
256 1:0.64957845 2:0.13568613 3:0.087186388 4:0.077932847 5:0.049616182 6:0.47021997 7:0.33306541 8:0.30247228 9:0.27412686 10:0.31177007 
256 1:0.48671185 2:0.29081053 3:0.094325858 4:0.086337223 5:0.04181454 6:0.25152059 7:0.17492981 8:0.12989028 9:0.19134186 10:0.26104371 
256 1:0.62807892 2:0.20089705 3:0.073688659 4:0.06684785 5:0.03048752 6:0.76793166 7:0.23691949 8:0.339847 9:0.5265861 10:0.35079961 
256 1:0.52012555 2:0.23435586 3:0.10783821 4:0.10128596 5:0.036394419 6:0.58876151 7:0.29500417 8:0.37296775 9:0.5149428 10:0.40049488 
256 1:0.6203719 2:0.22143458 3:0.062784293 4:0.06905398 5:0.026355249 6:0.069019052 7:0.18775341 8:0.26618762 9:0.20534347 10:0.31330708 
256 1:0.65152985 2:0.20887888 3:0.086004053 4:0.038046966 5:0.015540252 6:0.084782321 7:0.15717901 8:0.18958376 9:0.32579291 10:0.24985272 
256 1:0.62578384 2:0.28171959 3:0.045729594 4:0.035233374 5:0.011533602 6:0.20809011 7:0.18850837 8:0.20366167 9:0.24367871 10:0.24531786 
256 1:0.35821167 2:0.28585942 3:0.13345985 4:0.14212337 5:0.080345684 6:0.30020699 7:0.29131535 8:0.26861658 9:0.32774521 10:0.23489942 
256 1:0.55241788 2:0.25200862 3:0.098946635 4:0.061543063 5:0.0350838 6:0.11330446 7:0.28393375 8:0.34192043 9:0.34062311 10:0.31809014 
66.609597613259609 1:0.62750461 2:0.18486615 3:0.07762728 4:0.072864684 5:0.037137281 6:0.11493171 7:0.218422 8:0.30303243 9:0.80137568 10:0.58690331 
256 1:0.44166997 2:0.24950484 3:0.13734672 4:0.11292066 5:0.058557803 6:0.33238938 7:0.26766533 8:0.39142202 9:0.28168452 10:0.32524108 
98.024383088826326 1:0.83350749 2:0.10340309 3:0.041908868 4:0.017033205 5:0.0041473422 6:1.6441913 7:1.1436127 8:0.43292693 9:0.42282259 10:0.45340897 
256 1:0.45401398 2:0.22456684 3:0.13181215 4:0.13430848 5:0.055298558 6:0.45122701 7:0.32336945 8:0.3247819 9:0.26530896 10:0.20287607 
256 1:0.38020112 2:0.33732972 3:0.13867914 4:0.094296349 5:0.049493668 6:0.22301176 7:0.19708577 8:0.4115244 9:0.26777583 10:0.53565612 
3.1463170109706589 1:0.89556123 2:0.058300462 3:0.019926667 4:0.01799017 5:0.0082214715 6:1.6044916 7:0.44522013 8:0.40567358 9:0.20071185 10:0.25755479 
256 1:0.39815691 2:0.23858627 3:0.12525505 4:0.11477971 5:0.12322206 6:0.31152478 7:0.38876156 8:0.36803656 9:0.37134344 10:0.9222256 
13.521686842470947 1:0.8267732 2:0.090530512 3:0.022440319 4:0.04162995 5:0.018626024 6:1.1203539 7:0.45497704 8:0.33113163 9:0.29290298 10:0.35191845 
256 1:0.53554149 2:0.26585369 3:0.067285762 4:0.085563002 5:0.045756055 6:0.23079771 7:0.17306413 8:0.18489439 9:0.2359531 10:0.24445767 
256 1:0.48810234 2:0.30177204 3:0.075532375 4:0.085920825 5:0.04867242 6:0.075917334 7:0.21857614 8:0.23277599 9:0.36936412 10:0.45300664 
256 1:0.43121345 2:0.29133168 3:0.14424803 4:0.094320257 5:0.038886588 6:0.46933499 7:0.32737156 8:0.36816687 9:0.27719532 10:0.25543605 
256 1:0.60298034 2:0.22653801 3:0.086190437 4:0.060272602 5:0.024018611 6:0.33477193 7:0.35390707 8:0.40047383 9:0.41813555 10:0.34287537 
256 1:0.59425995 2:0.21713795 3:0.10040161 4:0.059893007 5:0.028307489 6:0.051214246 7:0.15352074 8:0.25161164 9:0.23140411 10:0.40409342 
6.5405480217695864 1:0.28513009 2:0.19769345 3:0.27000656 4:0.18313191 5:0.064037989 6:0.29051022 7:0.30663161 8:0.83771372 9:0.80331887 10:0.53659363 
256 1:0.37035749 2:0.35193556 3:0.098548931 4:0.1255365 5:0.053621527 6:0.30423253 7:0.29270103 8:0.20291979 9:0.2527279 10:0.42360936 
256 1:0.76320406 2:0.17469446 3:0.032410207 4:0.018542875 5:0.011148399 6:0.23345828 7:0.23333299 8:0.36372237 9:0.41712207 10:0.40565547 
256 1:0.69385189 2:0.22967687 3:0.045500988 4:0.022681063 5:0.0082891881 6:0.16312512 7:0.21962086 8:0.27065855 9:0.21977449 10:0.32320173 
256 1:0.48713067 2:0.19336403 3:0.083985996 4:0.14194379 5:0.09357552 6:0.45725546 7:0.3260206 8:0.2980953 9:0.51181245 10:0.42961657 
256 1:0.34717879 2:0.41565276 3:0.086562427 4:0.095625862 5:0.054980163 6:0.54582245 7:0.17543658 8:0.28864525 9:0.34831112 10:0.40366146 
256 1:0.69792516 2:0.18995712 3:0.057263501 4:0.038012223 5:0.016841988 6:0.75315348 7:0.16368016 8:0.23634918 9:0.26886796 10:0.3751358 
256 1:0.49792268 2:0.26664229 3:0.099230571 4:0.088174049 5:0.048030413 6:0.41860408 7:0.17776575 8:0.2395024 9:0.38255427 10:0.30655714 
256 1:0.30184331 2:0.39674119 3:0.13344166 4:0.11210831 5:0.055865526 6:0.13745769 7:0.1234282 8:0.2452668 9:0.45960056 10:0.55181852 
80.564952326821583 1:0.81234408 2:0.096151314 3:0.041211138 4:0.030532642 5:0.019760825 6:0.23752698 7:0.36651967 8:0.55830863 9:0.34880443 10:0.38515283 
256 1:0.6974895 2:0.1850946 3:0.062069261 4:0.034626694 5:0.020719939 6:0.14259665 7:0.1409256 8:0.11411579 9:0.2739315 10:0.27645589 
256 1:0.64690787 2:0.21877501 3:0.051355585 4:0.051134705 5:0.031826821 6:0.16137293 7:0.11816735 8:0.37675208 9:0.58523695 10:0.68664676 
256 1:0.53588451 2:0.19954869 3:0.11331523 4:0.09544162 5:0.055809946 6:0.22097626 7:0.19908865 8:0.27114619 9:0.45035155 10:0.46942237 
256 1:0.49821749 2:0.26571264 3:0.09984528 4:0.092646397 5:0.043578191 6:0.17734736 7:0.28013313 8:0.39335884 9:0.28558669 10:0.21024325 
256 1:0.4942071 2:0.21046336 3:0.056608085 4:0.10415256 5:0.13456889 6:0.50559782 7:0.38388527 8:0.51255262 9:0.55942705 10:0.93291286 
256 1:0.65037493 2:0.17663686 3:0.064840268 4:0.057944733 5:0.050203202 6:0.49118676 7:0.29574671 8:0.34160355 9:0.35403978 10:0.49527603 
256 1:0.55603537 2:0.16779805 3:0.075719375 4:0.1121846 5:0.088262609 6:0.56797644 7:0.27678329 8:0.45088696 9:0.49145254 10:0.68438695 
84.839856103140662 1:0.28888505 2:0.391229 3:0.11819491 4:0.10988452 5:0.091806526 6:0.22417701 7:0.12317295 8:0.40843347 9:0.24667128 10:0.27409646 
256 1:0.46868957 2:0.33372085 3:0.071272878 4:0.083480349 5:0.042836358 6:0.36636649 7:0.16612699 8:0.25245391 9:0.33255769 10:0.37305904 
256 1:0.4729653 2:0.36790753 3:0.074964095 4:0.057358303 5:0.026804775 6:0.10169671 7:0.20939982 8:0.27074872 9:0.24826087 10:0.21872395 
256 1:0.4207741 2:0.26440671 3:0.1304714 4:0.11766051 5:0.066687276 6:0.20623747 7:0.066005399 8:0.2945091 9:0.41672109 10:0.45124811 
33.2828716524171 1:0.50296941 2:0.25102581 3:0.11217721 4:0.069368886 5:0.06445869 6:0.32338184 7:0.34599657 8:0.77526204 9:0.40651277 10:0.20336949 
256 1:0.34971016 2:0.43838509 3:0.10323352 4:0.08510752 5:0.023563711 6:0.36813826 7:0.25651806 8:0.34430669 9:0.31949017 10:0.2324668 
256 1:0.34802481 2:0.40726851 3:0.093055736 4:0.09944169 5:0.052209257 6:0.42443473 7:0.18859917 8:0.27475901 9:0.34584675 10:0.39819179 
256 1:0.54979506 2:0.24441567 3:0.076306125 4:0.083882634 5:0.045600509 6:1.0529088 7:0.31444108 8:0.18079782 9:0.34678394 10:0.40945784 
58.954704290707944 1:0.47956807 2:0.23504543 3:0.14258672 4:0.096732599 5:0.046067184 6:0.64338222 7:0.25516337 8:0.25803219 9:0.27611893 10:0.33594796 
256 1:0.4837713 2:0.26990341 3:0.10779294 4:0.10305775 5:0.035474585 6:0.3511096 7:0.40688292 8:0.33609799 9:0.24416452 10:0.29862198 
256 1:0.6830846 2:0.21056878 3:0.061547783 4:0.032063172 5:0.012735666 6:0.27934996 7:0.15074495 8:0.13849464 9:0.27672931 10:0.33282494 
256 1:0.3869172 2:0.31351166 3:0.12601081 4:0.10242164 5:0.071138694 6:0.3823757 7:0.13144616 8:0.2613431 9:0.34211236 10:0.35606891 
256 1:0.54793658 2:0.20291549 3:0.092612938 4:0.10050147 5:0.05603352 6:0.32426152 7:0.29926139 8:0.35663313 9:0.46561611 10:0.64510333 
256 1:0.51314362 2:0.22341015 3:0.090040796 4:0.10363698 5:0.069768446 6:0.3497358 7:0.15551507 8:0.21898245 9:0.19689706 10:0.26010643 
39.103418791479683 1:0.78093172 2:0.13728575 3:0.031172799 4:0.031689639 5:0.018920087 6:1.5908947 7:1.2427625 8:0.71162807 9:0.5905519 10:0.73451751 
256 1:0.59127118 2:0.19177467 3:0.080617969 4:0.089264235 5:0.047071949 6:0.19752023 7:0.11515563 8:0.1345071 9:0.22757379 10:0.31593452 
256 1:0.85302899 2:0.095174039 3:0.022834823 4:0.018453884 5:0.010508262 6:1.04824 7:0.1534098 8:0.1676117 9:0.46629184 10:0.42091852 
256 1:0.57771079 2:0.21422877 3:0.087783823 4:0.07413486 5:0.046141762 6:0.4025554 7:0.4943607 8:0.37868319 9:0.36184697 10:0.42835295 
256 1:0.29396038 2:0.46545428 3:0.10303952 4:0.10391438 5:0.033631444 6:0.35738441 7:0.1845996 8:0.2868276 9:0.25587933 10:0.33078201 
187.65900793386697 1:0.52195502 2:0.29289428 3:0.070107301 4:0.062847845 5:0.052195553 6:0.69292445 7:0.14576143 8:0.19783744 9:0.20157675 10:0.40176092 
256 1:0.27140908 2:0.3550327 3:0.17083216 4:0.12595192 5:0.076774139 6:0.54555615 7:0.35653014 8:0.29344071 9:0.28400119 10:0.25963542 
101.26468956584758 1:0.29149472 2:0.17398389 3:0.09198682 4:0.27666481 5:0.16586977 6:0.78349057 7:0.44449521 8:0.30953099 9:0.67563802 10:0.53041062 
256 1:0.45654084 2:0.17021964 3:0.12438422 4:0.15071782 5:0.098137489 6:0.54815259 7:0.4286256 8:0.33724781 9:0.40661668 10:0.70722268 
106.38382483492134 1:0.71666973 2:0.20132954 3:0.057568441 4:0.018471078 5:0.0059612079 6:1.4077727 7:1.4027379 8:1.3952721 9:0.71239465 10:0.63327004 
256 1:0.51226281 2:0.22942744 3:0.09260918 4:0.1078838 5:0.057816771 6:0.35787138 7:0.25733085 8:0.3693551 9:0.47511014 10:0.63192193 
256 1:0.49400789 2:0.24708922 3:0.15815594 4:0.072543614 5:0.028203338 6:0.39372039 7:0.25076031 8:0.34682654 9:0.39231434 10:0.30329379 
256 1:0.64736063 2:0.22812438 3:0.044123353 4:0.055429244 5:0.024962396 6:0.12985224 7:0.19844002 8:0.25024523 9:0.30883086 10:0.24386228 
205.41102448881293 1:0.25342944 2:0.62806244 3:0.054844793 4:0.041576656 5:0.022086668 6:0.18752332 7:0.31123268 8:0.32577952 9:0.4277812 10:0.25513387 
256 1:0.77246367 2:0.1680547 3:0.030871612 4:0.018315263 5:0.010294751 6:0.13532014 7:0.097150077 8:0.19932145 9:0.57163978 10:0.42157322 
256 1:0.63929326 2:0.15783604 3:0.077067055 4:0.089673334 5:0.036130316 6:0.57489957 7:0.27116119 8:0.23739878 9:0.3779801 10:0.27036777 
256 1:0.43578408 2:0.28007275 3:0.13042742 4:0.092640224 5:0.061075526 6:0.23027038 7:0.17395575 8:0.30190426 9:0.32049637 10:0.38684226 
147.14446362077709 1:0.68967268 2:0.18242666 3:0.029872375 4:0.063376655 5:0.034651635 6:0.58534427 7:0.81548224 8:0.22845635 9:0.33280252 10:0.4868743 
256 1:0.41263737 2:0.30324445 3:0.11122669 4:0.10677394 5:0.066117541 6:0.13194538 7:0.39603366 8:0.42223777 9:0.23317681 10:0.26297405 
16.317311265989876 1:0.62228744 2:0.16715775 3:0.063183981 4:0.085427868 5:0.061942961 6:0.19832069 7:0.095385216 8:0.29084016 9:0.56567338 10:0.7851775 
256 1:0.75451043 2:0.1750638 3:0.039417396 4:0.021888338 5:0.0091200274 6:0.21834879 7:0.175626 8:0.19467662 9:0.35683604 10:0.22923275 
256 1:0.58167311 2:0.22607798 3:0.097324654 4:0.065658816 5:0.029265434 6:0.60664714 7:0.32534921 8:0.29252695 9:0.32643866 10:0.32512716 
256 1:0.58206148 2:0.32894463 3:0.056077873 4:0.023609993 5:0.009306022 6:0.082257979 7:0.14812787 8:0.28834269 9:0.23211193 10:0.27287842 
170.04940650574667 1:0.57896196 2:0.23706102 3:0.097541817 4:0.055694727 5:0.03074047 6:0.13457577 7:0.032848603 8:0.050039566 9:0.25721445 10:0.18564118 
256 1:0.58293618 2:0.22410484 3:0.10940503 4:0.050245471 5:0.033308474 6:0.11148037 7:0.28120745 8:0.26022007 9:0.2896691 10:0.26986974 
256 1:0.30799727 2:0.31243525 3:0.16466478 4:0.13858114 5:0.076321566 6:0.2906437 7:0.14728249 8:0.39907233 9:0.27030053 10:0.29845141 
256 1:0.72728194 2:0.19532244 3:0.039731664 4:0.023762009 5:0.013901947 6:0.14321495 7:0.11158443 8:0.24451577 9:0.38180907 10:0.45984616 
256 1:0.43275616 2:0.20701696 3:0.13855345 4:0.14734585 5:0.07432758 6:0.13609207 7:0.21678493 8:0.24445537 9:0.27947217 10:0.18986054 
256 1:0.41165554 2:0.19895976 3:0.1191643 4:0.15736268 5:0.11285773 6:0.13794827 7:0.27576337 8:0.56989453 9:0.53356056 10:0.76696398 
256 1:0.81722511 2:0.1254398 3:0.034085854 4:0.016666504 5:0.0065827334 6:0.072755501 7:0.19109749 8:0.3227081 9:0.32399279 10:0.29437001 
256 1:0.28670304 2:0.24075645 3:0.12535192 4:0.22478751 5:0.12240108 6:0.50326164 7:0.46352041 8:0.39804131 9:0.41222805 10:0.40633244 
256 1:0.48362486 2:0.24380879 3:0.12662663 4:0.10224505 5:0.043694674 6:0.35027136 7:0.38815006 8:0.38097707 9:0.23985993 10:0.44660196 
256 1:0.73779534 2:0.21066843 3:0.034670189 4:0.011482234 5:0.0053838132 6:0.12616016 7:0.086801337 8:0.27521082 9:0.27826938 10:0.44623232 
256 1:0.38946169 2:0.14610912 3:0.14943274 4:0.1877467 5:0.12724975 6:0.60417309 7:0.30589331 8:0.32475991 9:0.55765002 10:0.62363697 
256 1:0.73117526 2:0.17330123 3:0.033479998 4:0.041684793 5:0.020358727 6:0.65031581 7:0.13730669 8:0.15793799 9:0.32016821 10:0.38635502 
256 1:0.19002747 2:0.52506133 3:0.098358432 4:0.11146798 5:0.075084797 6:0.2190364 7:0.30724043 8:0.34539939 9:0.33367983 10:0.39600565 
256 1:0.41366267 2:0.32423024 3:0.10671685 4:0.1113776 5:0.044012651 6:0.42940219 7:0.20918551 8:0.27848642 9:0.21221855 10:0.28238369 
256 1:0.6794355 2:0.14394 3:0.06607612 4:0.075813628 5:0.034734756 6:1.0418131 7:0.30286074 8:0.3253921 9:0.39760266 10:0.44533192 
256 1:0.28190145 2:0.3410383 3:0.18403012 4:0.13091346 5:0.062116677 6:0.52309119 7:0.39453734 8:0.42699552 9:0.33972375 10:0.29079165 
256 1:0.48633204 2:0.20973383 3:0.10092012 4:0.13030964 5:0.072704369 6:0.14706231 7:0.27133042 8:0.41498135 9:0.51808766 10:0.48316012 
256 1:0.7216011 2:0.19400957 3:0.034719913 4:0.031410397 5:0.018259015 6:0.32281563 7:0.094157815 8:0.11002342 9:0.25397996 10:0.23489673 
256 1:0.7015 2:0.14862374 3:0.074507126 4:0.046108886 5:0.029260249 6:0.49553612 7:0.23319153 8:0.39102194 9:0.41116942 10:0.54949798 
256 1:0.63548989 2:0.28665426 3:0.040908539 4:0.024614408 5:0.012332906 6:0.12580183 7:0.059900436 8:0.26412114 9:0.30396732 10:0.31557549 
256 1:0.49040011 2:0.27843345 3:0.12870211 4:0.079571389 5:0.02289294 6:0.20266298 7:0.26193625 8:0.34905048 9:0.37106407 10:0.36557025 
100.22535248090215 1:0.53176213 2:0.20906864 3:0.11660151 4:0.10071497 5:0.041852749 6:0.23167739 7:0.26829731 8:0.34753092 9:0.13045186 10:0.22494832 
256 1:0.57344777 2:0.20769068 3:0.082483786 4:0.089032516 5:0.047345247 6:0.61464762 7:0.29670931 8:0.20019025 9:0.37389732 10:0.23908902 
256 1:0.61716495 2:0.23617117 3:0.074734535 4:0.043278058 5:0.028651279 6:0.34025122 7:0.50875151 8:0.35636042 9:0.37661883 10:0.54485143 
21.360514013780115 1:0.2550646 2:0.38753317 3:0.16812115 4:0.15745582 5:0.031825258 6:0.61062104 7:0.14816493 8:0.38417064 9:0.38652777 10:0.17253782 
180.82259325356358 1:0.66297941 2:0.087952134 3:0.11450776 4:0.061295615 5:0.073265084 6:0.33269971 7:0.43433385 8:0.72151003 9:0.40054697 10:0.43699076 
256 1:0.68467788 2:0.23240377 3:0.04882998 4:0.02296287 5:0.011125504 6:0.17524156 7:0.14255705 8:0.2228199 9:0.37605256 10:0.38210596 
256 1:0.6381208 2:0.2065094 3:0.070743377 4:0.061811426 5:0.022814993 6:0.13484449 7:0.19290106 8:0.3199747 9:0.40567998 10:0.27647969 
256 1:0.69790479 2:0.17076228 3:0.049007805 4:0.054876448 5:0.027448677 6:0.20806804 7:0.18823221 8:0.20608372 9:0.073667231 10:0.26173151 
256 1:0.65033867 2:0.19039761 3:0.071331969 4:0.059533352 5:0.028398399 6:0.31246044 7:0.22563065 8:0.31870405 9:0.32198893 10:0.37122081 
256 1:0.76753767 2:0.19437692 3:0.02690435 4:0.0083831928 5:0.0027978601 6:0.10595882 7:0.12426035 8:0.19524389 9:0.24930483 10:0.34458073 
256 1:0.28151525 2:0.36602304 3:0.15082028 4:0.13668067 5:0.064960747 6:0.34973704 7:0.21704529 8:0.34487333 9:0.31238396 10:0.28949168 
256 1:0.587077 2:0.27910047 3:0.064925168 4:0.047858644 5:0.021038711 6:0.067697894 7:0.14713022 8:0.20694103 9:0.38268096 10:0.27177093 
205.41695612078291 1:0.78331848 2:0.10847135 3:0.048014245 4:0.036329828 5:0.023866097 6:0.81023149 7:0.15140241 8:0.48297241 9:0.5844749 10:0.59976457 
256 1:0.744494 2:0.17622268 3:0.033434445 4:0.029765382 5:0.016083487 6:0.42464115 7:0.12584614 8:0.29569001 9:0.50671625 10:0.50750484 
256 1:0.55471311 2:0.31154844 3:0.059560991 4:0.048245964 5:0.025931494 6:0.1745397 7:0.10901583 8:0.20160393 9:0.25285874 10:0.19846246 
256 1:0.64265386 2:0.25596572 3:0.056041169 4:0.029838936 5:0.015500317 6:0.35621115 7:0.30344993 8:0.10126992 9:0.30501839 10:0.26677927 
256 1:0.54989461 2:0.23086809 3:0.085408941 4:0.085378827 5:0.048449526 6:0.865346 7:0.26280204 8:0.21212167 9:0.3840261 10:0.34554642 
256 1:0.64549988 2:0.20427604 3:0.06797456 4:0.056869701 5:0.025379819 6:0.42108025 7:0.31759841 8:0.33147747 9:0.38917104 10:0.44269237 
256 1:0.67122404 2:0.15509555 3:0.069284846 4:0.067927156 5:0.036468406 6:0.17410592 7:0.38946591 8:0.30604804 9:0.4717665 10:0.48306185 
256 1:0.7548328 2:0.16118538 3:0.04026327 4:0.027849576 5:0.015868973 6:0.12573752 7:0.2246085 8:0.15132482 9:0.50051128 10:0.45517695 
256 1:0.5700685 2:0.27116386 3:0.080465992 4:0.048654193 5:0.029647457 6:0.17355756 7:0.091224964 8:0.19887315 9:0.39888219 10:0.50554836 
256 1:0.64730604 2:0.21646769 3:0.063759173 4:0.051398316 5:0.021068785 6:0.064906482 7:0.074392688 8:0.3288111 9:0.38547196 10:0.4974987 
256 1:0.44628682 2:0.19892677 3:0.19462599 4:0.11587143 5:0.044288978 6:0.33891203 7:0.38057334 8:0.33856446 9:0.36507498 10:0.33484042 
256 1:0.78522488 2:0.061109658 3:0.059124835 4:0.055683893 5:0.038856738 6:0.12185314 7:0.23814687 8:0.36797412 9:0.36811397 10:0.59104774 
256 1:0.66139962 2:0.21394197 3:0.054957681 4:0.044350767 5:0.02534996 6:0.083402958 7:0.18492785 8:0.40638739 9:0.32941219 10:0.2409795 
256 1:0.45016851 2:0.32899144 3:0.10589242 4:0.082328567 5:0.032619072 6:0.22430795 7:0.23658914 8:0.24322011 9:0.19329221 10:0.26261137 
256 1:0.60062561 2:0.2342814 3:0.078527824 4:0.060785563 5:0.025779605 6:0.07892092 7:0.13874008 8:0.21811029 9:0.24228512 10:0.32382319 
256 1:0.57313789 2:0.28071701 3:0.091269208 4:0.040488856 5:0.014387035 6:0.11819003 7:0.1477918 8:0.28774488 9:0.28156512 10:0.33540702 
256 1:0.41550861 2:0.25650073 3:0.1189279 4:0.11566549 5:0.093397276 6:0.37354741 7:0.29314102 8:0.40222043 9:0.29073985 10:0.3616927 
256 1:0.38074059 2:0.26246485 3:0.1532357 4:0.12700345 5:0.076555409 6:0.38168724 7:0.18367858 8:0.37131919 9:0.21224273 10:0.32141666 
256 1:0.40147356 2:0.21880045 3:0.14136505 4:0.15797184 5:0.080389104 6:0.29021085 7:0.22623503 8:0.37004404 9:0.58947587 10:0.73544543 
256 1:0.70699378 2:0.12458561 3:0.046164837 4:0.065400831 5:0.056854941 6:0.14724354 7:0.13264516 8:0.3146686 9:0.58775998 10:0.55060882 
256 1:0.40986179 2:0.25242025 3:0.14136289 4:0.13743864 5:0.058916422 6:0.28586117 7:0.35286457 8:0.26709948 9:0.28447462 10:0.2358912 
256 1:0.34098954 2:0.37759452 3:0.12245548 4:0.10565324 5:0.053307222 6:0.29713953 7:0.15287159 8:0.35990811 9:0.27856382 10:0.36613295 
256 1:0.83149162 2:0.12732642 3:0.024352319 4:0.010477664 5:0.0063519791 6:0.51593181 7:0.1389147 8:0.11816097 9:0.20087807 10:0.18288961 
256 1:0.68243529 2:0.1724227 3:0.07671608 4:0.044318748 5:0.02410718 6:0.29897247 7:0.17047286 8:0.27465726 9:0.53800245 10:0.58172855 
256 1:0.58592016 2:0.20633385 3:0.098652436 4:0.075962891 5:0.033130663 6:0.083778096 7:0.11177246 8:0.44758259 9:0.51135457 10:0.36993821 
256 1:0.43884063 2:0.34135272 3:0.12124355 4:0.064627686 5:0.03393542 6:0.13917986 7:0.20078172 8:0.25834805 9:0.308608 10:0.38093622 
256 1:0.53250116 2:0.2062407 3:0.11633139 4:0.098131161 5:0.046795582 6:0.20227647 7:0.177202 8:0.25884106 9:0.27549464 10:0.28107892 
256 1:0.39839209 2:0.3028355 3:0.15501134 4:0.088688052 5:0.055073026 6:0.24589418 7:0.044372435 8:0.27329769 9:0.3134605 10:0.41513193 
256 1:0.47450065 2:0.24042037 3:0.11521115 4:0.11430567 5:0.055562166 6:0.26470464 7:0.22453954 8:0.23828297 9:0.32292681 10:0.27920288 
256 1:0.42816724 2:0.33451684 3:0.13802153 4:0.072177715 5:0.027116671 6:0.084320162 7:0.278556 8:0.30822576 9:0.33303724 10:0.59937383 
256 1:0.42121396 2:0.27907901 3:0.11188143 4:0.13560493 5:0.052220664 6:0.1464327 7:0.37009695 8:0.57980287 9:0.451264 10:0.26072867 
256 1:0.73121923 2:0.17652611 3:0.043634573 4:0.034870558 5:0.013749528 6:0.32987259 7:0.20588802 8:0.22680573 9:0.39008003 10:0.3138109 
256 1:0.69122416 2:0.23690407 3:0.029512042 4:0.031512999 5:0.01084673 6:0.05193778 7:0.17931734 8:0.26542479 9:0.2624495 10:0.29508413 
256 1:0.54512702 2:0.29830099 3:0.074470931 4:0.058174033 5:0.023927031 6:0.16295237 7:0.18381121 8:0.34803287 9:0.33246934 10:0.31313616 
237.55067344603458 1:0.59164608 2:0.23623454 3:0.069554375 4:0.07452823 5:0.028036777 6:0.45933921 7:0.097744325 8:0.20198373 9:0.40303114 10:0.49438907 
256 1:0.63804458 2:0.20731566 3:0.043343118 4:0.0647093 5:0.046587344 6:0.30545744 7:0.38111859 8:0.42976057 9:0.5061616 10:0.80570844 
110.02995763768544 1:0.37730649 2:0.19058917 3:0.15560715 4:0.19311713 5:0.083380065 6:0.47448602 7:0.17220839 8:0.23106326 9:0.5475028 10:0.53153629 
256 1:0.52585423 2:0.26015084 3:0.078731021 4:0.083295305 5:0.051968609 6:0.52718785 7:0.23008264 8:0.20043644 9:0.33957309 10:0.38141564 
7.3780748141541155 1:0.52176415 2:0.29200719 3:0.087789961 4:0.07006266 5:0.028376041 6:0.38938944 7:0.13146336 8:0.17392719 9:0.26318891 10:0.33174846 
174.17032284991032 1:0.35924021 2:0.23574062 3:0.21332587 4:0.13810436 5:0.053588943 6:0.5867048 7:0.59863638 8:0.49319651 9:0.39731841 10:0.26684661 
256 1:0.55662795 2:0.18101995 3:0.090742984 4:0.11838526 5:0.053223851 6:0.68685784 7:0.2560836 8:0.21082848 9:0.37117808 10:0.24775059 
256 1:0.62083838 2:0.24772636 3:0.075852127 4:0.035142767 5:0.020440371 6:0.071439777 7:0.22905074 8:0.35044224 9:0.27242131 10:0.27804486 
256 1:0.5478851 2:0.19328865 3:0.10055244 4:0.10786418 5:0.050409625 6:0.93732444 7:0.20169485 8:0.39416597 9:0.43167131 10:0.429415 
256 1:0.46541184 2:0.21986349 3:0.16847842 4:0.097019102 5:0.049227147 6:0.27479161 7:0.18514643 8:0.39009667 9:0.35625417 10:0.53008033 
256 1:0.58306926 2:0.19842578 3:0.098840275 4:0.080266823 5:0.039397857 6:0.41285824 7:0.43219054 8:0.40627309 9:0.45335923 10:0.49066452 
256 1:0.60987886 2:0.20231239 3:0.10573592 4:0.059918546 5:0.022154289 6:0.10626464 7:0.18147037 8:0.26059276 9:0.27748236 10:0.25657396 
256 1:0.47383306 2:0.23751544 3:0.11491208 4:0.11540257 5:0.058336848 6:0.1838844 7:0.30873455 8:0.22050264 9:0.3015768 10:0.53589084 
256 1:0.34110197 2:0.33003753 3:0.16729395 4:0.10485871 5:0.056707834 6:0.048287509 7:0.22231087 8:0.26650913 9:0.24122395 10:0.31485101 
256 1:0.42727948 2:0.29268279 3:0.14211777 4:0.089298442 5:0.048621518 6:0.35891742 7:0.27072935 8:0.24883809 9:0.24164846 10:0.34171766 
256 1:0.63510585 2:0.17107414 3:0.087999146 4:0.064937872 5:0.040882987 6:0.51154445 7:0.31451104 8:0.46898783 9:0.28611102 10:0.43962831 
256 1:0.46371718 2:0.18348366 3:0.10469715 4:0.16771613 5:0.080385891 6:0.37891583 7:0.22750526 8:0.37815378 9:0.54771252 10:0.51190461 
256 1:0.44500139 2:0.26235023 3:0.11727453 4:0.11506822 5:0.060305628 6:0.33123457 7:0.3463991 8:0.31490453 9:0.35148345 10:0.45156186 
256 1:0.48713953 2:0.33568912 3:0.11677939 4:0.04077588 5:0.019616082 6:0.050200045 7:0.20371833 8:0.37810598 9:0.43207515 10:0.42727311 
256 1:0.40607157 2:0.20857841 3:0.15481525 4:0.1311612 5:0.099373565 6:0.50354599 7:0.18436213 8:0.31262749 9:0.31060179 10:0.3551717 
256 1:0.44734653 2:0.2438944 3:0.17142387 4:0.083616064 5:0.053719135 6:0.23491949 7:0.23078668 8:0.34994302 9:0.36784416 10:0.23190568 
256 1:0.52525658 2:0.22382488 3:0.11478925 4:0.090911963 5:0.045217337 6:0.29391264 7:0.25315909 8:0.3365384 9:0.50181202 10:0.59334765 
89.529559830432433 1:0.45846751 2:0.19544449 3:0.10979508 4:0.13743765 5:0.098855266 6:0.43501135 7:0.37273731 8:0.24288452 9:0.40584834 10:0.76479021 
256 1:0.65649101 2:0.20664599 3:0.08295386 4:0.035437017 5:0.018472125 6:0.26128894 7:0.38534513 8:0.34469318 9:0.40974303 10:0.37268454 
6.4444132678874624 1:0.66050663 2:0.13897624 3:0.1090278 4:0.070066749 5:0.021422577 6:0.99948568 7:0.41692817 8:0.74847457 9:0.6875547 10:0.5537846 
256 1:0.52095135 2:0.25592198 3:0.12383959 4:0.056581122 5:0.042705958 6:0.23734693 7:0.39129068 8:0.2974798 9:0.14764323 10:0.34320267 
148.86116846165541 1:0.56962287 2:0.1919196 3:0.11011949 4:0.099382848 5:0.028955193 6:0.34647578 7:0.48276002 8:0.71927726 9:0.67020986 10:0.52606287 
256 1:0.45133537 2:0.27610663 3:0.11481046 4:0.11485513 5:0.042892413 6:0.38895443 7:0.081887724 8:0.22889326 9:0.39490252 10:0.30860731 
256 1:0.49801752 2:0.20986574 3:0.14573496 4:0.11626119 5:0.030120595 6:0.54037953 7:0.29173627 8:0.29395685 9:0.36027022 10:0.24668772 
256 1:0.62476151 2:0.22870715 3:0.067138562 4:0.059181239 5:0.020211537 6:0.14399559 7:0.22732391 8:0.32900947 9:0.32836343 10:0.25213093 
256 1:0.64224982 2:0.26971451 3:0.050982965 4:0.027813975 5:0.0092387246 6:0.084639471 7:0.2590767 8:0.32509733 9:0.36153393 10:0.25161695 
256 1:0.46507754 2:0.2964597 3:0.12855672 4:0.072352683 5:0.037553357 6:0.17937323 7:0.24945922 8:0.30033734 9:0.36349631 10:0.25457045 
239.59569791683052 1:0.68333305 2:0.19784001 3:0.029811544 4:0.05302186 5:0.035993531 6:0.42003388 7:0.4144687 8:0.2389952 9:0.57588919 10:0.7943643 
256 1:0.73355613 2:0.19348484 3:0.041537806 4:0.022681201 5:0.0087400212 6:0.27279487 7:0.13296711 8:0.40927485 9:0.50291594 10:0.55870322 
256 1:0.57003177 2:0.25702731 3:0.095251381 4:0.053923686 5:0.023765857 6:0.2622642 7:0.13782376 8:0.29628208 9:0.40122925 10:0.41991752 
256 1:0.63526401 2:0.18655079 3:0.08889996 4:0.059239112 5:0.030046125 6:0.40371785 7:0.33105943 8:0.30410603 9:0.34639432 10:0.49580715 
256 1:0.47903581 2:0.2463167 3:0.14023828 4:0.1085435 5:0.025865707 6:0.39079013 7:0.37585796 8:0.59499407 9:0.56412451 10:0.4811391 
256 1:0.75779651 2:0.14369828 3:0.052412198 4:0.030162278 5:0.015930736 6:0.066610031 7:0.15612793 8:0.44594436 9:0.45254527 10:0.55326776 
14.752249643851892 1:0.76045278 2:0.11132672 3:0.060495189 4:0.039329418 5:0.028395892 6:1.2303198 7:0.10750056 8:0.11279247 9:0.24404489 10:0.72356398 
256 1:0.77955248 2:0.14524296 3:0.029958022 4:0.028445004 5:0.016801536 6:0.1157181 7:0.12065949 8:0.24411038 9:0.4056023 10:0.32624513 
256 1:0.71737377 2:0.21954804 3:0.04156659 4:0.016013831 5:0.0054977667 6:0.13120515 7:0.1671184 8:0.23265099 9:0.2828918 10:0.2691525 
256 1:0.67480243 2:0.17885069 3:0.078682159 4:0.043500357 5:0.024164363 6:0.12518467 7:0.09620197 8:0.2609443 9:0.18618375 10:0.36603973 
256 1:0.4243783 2:0.18794744 3:0.11400845 4:0.15173139 5:0.12193441 6:0.15735582 7:0.33352704 8:0.34256842 9:0.37039213 10:0.7569648 
256 1:0.58794688 2:0.24306265 3:0.083820814 4:0.054656527 5:0.030513136 6:0.10873685 7:0.13608471 8:0.12135989 9:0.27923884 10:0.31827694 
256 1:0.64351463 2:0.20795752 3:0.070444041 4:0.05647122 5:0.021612587 6:0.23157301 7:0.242954 8:0.28781526 9:0.25340548 10:0.31905505 
