svm_type c_svc
kernel_type rbf
gamma 4
nr_class 2
total_sv 8611
rho 2.967427390099691
label 1 0
probA -1.526248810075131
probB 0.011776926476114663
nr_sv 4315 4296
SV
256 1:0.78116799 2:0.15500531 3:0.035502747 4:0.02027756 5:0.0080463974 6:0.017695079 7:0.0090329176 8:0.16689877 9:0.17608843 10:0.16283492 
256 1:0.5951652 2:0.21673185 3:0.084532981 4:0.067766149 5:0.035803825 6:0.031811175 7:0.02527236 8:0.1738468 9:0.14858921 10:0.14286159 
256 1:0.41274403 2:0.19912553 3:0.15730671 4:0.16148671 5:0.069337027 6:0.23355915 7:0.013164061 8:0.37064881 9:0.062798038 10:0.042501482 
256 1:0.4166451 2:0.32393544 3:0.10978449 4:0.10449572 5:0.045139252 6:0.082766989 7:0.046074635 8:0.0040650758 9:0.13955839 10:0.19804561 
256 1:0.53379117 2:0.2670491 3:0.10338257 4:0.062758879 5:0.033018277 6:0.083568468 7:0.10530865 8:0.069028729 9:0.12141138 10:0.32689057 
256 1:0.61162469 2:0.23018233 3:0.10380443 4:0.036683166 5:0.017705379 6:0.08339473 7:0.11225012 8:0.13994717 9:0.0060536265 10:0.02310467 
256 1:0.31607221 2:0.33848789 3:0.13527228 4:0.15155511 5:0.058612524 6:0.19131856 7:0.1491343 8:0.022003619 9:0.17058682 10:0.056869729 
256 1:0.28307155 2:0.43898012 3:0.13548177 4:0.094358913 5:0.048107645 6:0.001963913 7:0.07665724 8:0.14427208 9:0.022985434 10:0.015608535 
256 1:0.61572577 2:0.20038842 3:0.091253925 4:0.065304184 5:0.027327698 6:0.09546606 7:0.13064297 8:0.10496748 9:0.19704548 10:0.18244146 
256 1:0.45911869 2:0.34955733 3:0.10050317 4:0.060711359 5:0.030109449 6:0.12931692 7:0.042178928 8:0.065377163 9:0.23719998 10:0.13341576 
256 1:0.43860661 2:0.30496382 3:0.10461632 4:0.11049407 5:0.041319186 6:0.078645904 7:0.080563531 8:0.22448002 9:0.050351199 10:0.10899145 
256 1:0.50737767 2:0.18436412 3:0.11649192 4:0.14194852 5:0.049817772 6:0.065312175 7:0.1410421 8:0.2004037 9:0.018573116 10:0.19430611 
256 1:0.466999 2:0.30749044 3:0.1248008 4:0.075884392 5:0.024825369 6:0.14269176 7:0.20693925 8:0.27667804 9:0.028040245 10:0.064564 
256 1:0.29931912 2:0.20224211 3:0.10064531 4:0.15323533 5:0.24455814 6:0.11775197 7:0.21048012 8:0.1701892 9:0.22375791 10:0.22462745 
256 1:0.78259788 2:0.16441873 3:0.026413211 4:0.01868481 5:0.0078853657 6:0.0058590098 7:0.0014372469 8:0.061345792 9:0.050416658 10:0.08032571 
256 1:0.34436138 2:0.42701005 3:0.094350149 4:0.093746076 5:0.040532338 6:0.14601625 7:0.072526662 8:0.11805722 9:0.20738266 10:0.044776001 
256 1:0.65117662 2:0.24923631 3:0.045189096 4:0.03676024 5:0.017637725 6:0.025370826 7:0.053403448 8:0.059319464 9:0.27732523 10:0.45061454 
256 1:0.6701062 2:0.23992985 3:0.045403986 4:0.034073759 5:0.010486211 6:0.086567989 7:0.034302056 8:0.049169447 9:0.091484486 10:0.027500359 
198.95990324126322 1:0.3872694 2:0.15779875 3:0.1859189 4:0.17590858 5:0.09310436 6:0.46060621 7:0.101241 8:0.050962864 9:0.037153295 10:0.18730134 
256 1:0.41118945 2:0.37549116 3:0.11688561 4:0.060402549 5:0.036031233 6:0.0066694564 7:0.013283957 8:0.15492564 9:0.1033007 10:0.34871286 
256 1:0.37688005 2:0.28283078 3:0.16321132 4:0.10617775 5:0.070900116 6:0.078412496 7:0.061060347 8:0.053374663 9:0.025558841 10:0.032414275 
256 1:0.51812586 2:0.21537975 3:0.09812661 4:0.12838986 5:0.039977921 6:0.1092341 7:0.13168962 8:0.14227057 9:0.22413387 10:0.035945665 
256 1:0.60622603 2:0.22309787 3:0.076380923 4:0.063142976 5:0.031152194 6:0.17057014 7:0.078207664 8:0.12984135 9:0.10178434 10:0.054491607 
246.17224694098689 1:0.64353163 2:0.27195686 3:0.047822967 4:0.024285492 5:0.012403054 6:0.078612758 7:0.054342422 8:0.050518992 9:0.046463719 10:0.20878798 
256 1:0.51006901 2:0.38661284 3:0.056791865 4:0.034447151 5:0.012079136 6:0.024266494 7:0.11189948 8:0.066275336 9:0.059047453 10:0.0059566457 
256 1:0.76279302 2:0.15019541 3:0.048080671 4:0.023217812 5:0.01571309 6:0.029436006 7:0.12186339 8:0.17201558 9:0.12120781 10:0.052875392 
100.19280985551673 1:0.74127242 2:0.18980927 3:0.036649715 4:0.021452083 5:0.010816517 6:0.79301275 7:0.60119557 8:0.12251657 9:0.18216935 10:0.26938631 
256 1:0.68759557 2:0.2234349 3:0.047383097 4:0.032409514 5:0.0091769186 6:0.026936682 7:0.094067882 8:0.032391495 9:0.060753117 10:0.010003764 
256 1:0.48926212 2:0.38157262 3:0.088828849 4:0.028815925 5:0.011520481 6:0.0021195356 7:0.024179657 8:0.060329646 9:0.003037427 10:0.0030227458 
256 1:0.67770686 2:0.14593028 3:0.075404764 4:0.056650366 5:0.044307724 6:0.16195182 7:0.21433521 8:0.32682353 9:0.20130168 10:0.28318517 
256 1:0.61251851 2:0.2905972 3:0.049459644 4:0.032996984 5:0.014427664 6:0.18700359 7:0.16613658 8:0.014905723 9:0.07184977 10:0.21395615 
256 1:0.39774638 2:0.36028288 3:0.096582882 4:0.10103103 5:0.044356828 6:0.29807979 7:0.029681153 8:0.27472212 9:0.15280393 10:0.051331147 
256 1:0.30765237 2:0.30709273 3:0.1636631 4:0.13785201 5:0.083739791 6:0.086116274 7:0.0080531604 8:0.02293696 9:0.0091175542 10:0.043867462 
256 1:0.67363103 2:0.19490493 3:0.054175924 4:0.052039683 5:0.025248438 6:0.47517402 7:0.27522457 8:0.30631154 9:0.16837339 10:0.24352149 
256 1:0.53684744 2:0.22957071 3:0.11926763 4:0.075541991 5:0.03877223 6:0.0025441589 7:0.13785598 8:0.048601666 9:0.21122017 10:0.15008719 
256 1:0.68529375 2:0.20956799 3:0.059649877 4:0.028983538 5:0.016504838 6:0.079145906 7:0.11281829 8:0.23265452 9:0.31258702 10:0.34394622 
2.2361105271157835 1:0.20294349 2:0.12525131 3:0.089790352 4:0.46362724 5:0.1183876 6:0.23728414 7:0.10316702 8:0.37674144 9:0.14971376 10:0.1267787 
256 1:0.51532177 2:0.24048832 3:0.11150488 4:0.088454891 5:0.044230146 6:0.33970207 7:0.20764978 8:0.32751768 9:0.21035702 10:0.1716472 
256 1:0.77079264 2:0.12985655 3:0.046366861 4:0.032578422 5:0.02040553 6:0.061107002 7:0.19268808 8:0.11344263 9:0.22859966 10:0.020956448 
213.48469239509004 1:0.63509094 2:0.20908374 3:0.072409471 4:0.054594582 5:0.028821262 6:0.091149359 7:0.043837564 8:0.13210032 9:0.24624166 10:0.15632541 
256 1:0.48112958 2:0.25304382 3:0.10152248 4:0.13392514 5:0.030378993 6:0.078484774 7:0.12543693 8:0.15442935 9:0.12433818 10:0.34388223 
256 1:0.73866102 2:0.16470562 3:0.042223906 4:0.038624844 5:0.015784607 6:0.051578524 7:0.025043074 8:0.30635471 9:0.04148798 10:0.034317941 
256 1:0.6199762 2:0.28657524 3:0.046194465 4:0.031969012 5:0.015285091 6:0.17401384 7:0.14055403 8:0.019523924 9:0.057163571 10:0.16919808 
256 1:0.59226251 2:0.3055193 3:0.062822285 4:0.025259421 5:0.014136483 6:0.061125498 7:0.26291344 8:0.032532708 9:0.054948504 10:0.11335733 
256 1:0.56166038 2:0.21606711 3:0.10551188 4:0.087012766 5:0.029747857 6:0.097535976 7:0.15253052 8:0.088153582 9:0.012658135 10:0.24638464 
13.069583581174991 1:0.27128448 2:0.29074521 3:0.14968734 4:0.17380905 5:0.11447392 6:0.25538394 7:0.47443787 8:0.53321183 9:0.19525326 10:0.20501218 
256 1:0.26975443 2:0.40551278 3:0.14493721 4:0.10965495 5:0.070140629 6:0.18175027 7:0.13144559 8:0.087327607 9:0.082863466 10:0.0062188044 
256 1:0.70687156 2:0.22806062 3:0.028023793 4:0.021373121 5:0.015670901 6:0.090098578 7:0.031502866 8:0.16858264 9:0.076954487 10:0.31366115 
256 1:0.58019709 2:0.21632017 3:0.12490099 4:0.053193861 5:0.02538789 6:0.097640228 7:0.0077931193 8:0.09795488 9:0.11177123 10:0.028957165 
141.88303669879988 1:0.23604257 2:0.27752207 3:0.18072997 4:0.18305325 5:0.12265214 6:0.43970239 7:0.12361663 8:0.24813074 9:0.30562639 10:0.019301203 
256 1:0.57474154 2:0.29388194 3:0.06739045 4:0.052583564 5:0.011402504 6:0.13804364 7:0.094948177 8:0.050145566 9:0.029713592 10:0.03951953 
256 1:0.41331623 2:0.1152353 3:0.23452514 4:0.14236052 5:0.094562817 6:0.10125606 7:0.0086461968 8:0.041919366 9:0.12055646 10:0.18542943 
256 1:0.63764614 2:0.15136912 3:0.083754926 4:0.077243995 5:0.049985826 6:0.019414687 7:0.15246462 8:0.1888765 9:0.086192103 10:0.016828281 
133.56364241666279 1:0.33741124 2:0.26606019 3:0.18741671 4:0.11825447 5:0.090857389 6:0.021610447 7:0.098589509 8:0.076320302 9:0.051104362 10:0.21389889 
256 1:0.61698016 2:0.24895947 3:0.057267955 4:0.055820896 5:0.020971512 6:0.021821234 7:0.011709998 8:0.057185825 9:0.17906014 10:0.023612066 
105.33616790016248 1:0.43189421 2:0.19698543 3:0.14900968 4:0.16254281 5:0.059567876 6:0.19980108 7:0.21008664 8:0.0056592737 9:0.19424928 10:0.10908673 
256 1:0.72336179 2:0.17079494 3:0.058360821 4:0.030076829 5:0.017405615 6:0.088580322 7:0.082205863 8:0.010361624 9:0.12585433 10:0.16802758 
256 1:0.64452937 2:0.16479036 3:0.097676755 4:0.073864223 5:0.019139293 6:0.032114656 7:0.081667864 8:0.0090031126 9:0.093921083 10:0.12589048 
256 1:0.44538693 2:0.26125215 3:0.15242806 4:0.10025664 5:0.040676214 6:0.065800195 7:0.08455494 8:0.040410303 9:0.018204491 10:0.1401915 
256 1:0.60440613 2:0.19731695 3:0.10236513 4:0.062708639 5:0.033203148 6:0.10405112 7:0.14245979 8:0.1860353 9:0.30089079 10:0.30496305 
256 1:0.43929186 2:0.28182179 3:0.11875248 4:0.10292986 5:0.057204012 6:0.45622176 7:0.18662056 8:0.065238255 9:0.38165296 10:0.11835455 
256 1:0.3935777 2:0.24375656 3:0.11847578 4:0.16168267 5:0.082507293 6:0.020543359 7:0.27828897 8:0.082958049 9:0.022994046 10:0.17742896 
256 1:0.48862189 2:0.2303644 3:0.13287081 4:0.10453273 5:0.043610177 6:0.013215154 7:0.015138865 8:0.060264549 9:0.026580822 10:0.043204554 
256 1:0.53853937 2:0.26519768 3:0.086494451 4:0.072238141 5:0.037530361 6:0.022245586 7:0.063505523 8:0.058457856 9:0.1162848 10:0.3048205 
256 1:0.48939731 2:0.28022838 3:0.1048009 4:0.085096475 5:0.040476938 6:0.29830286 7:0.35068123 8:0.16343496 9:0.21333563 10:0.39564859 
256 1:0.63387332 2:0.24735376 3:0.052831345 4:0.04509043 5:0.020851146 6:0.29806051 7:0.12521639 8:0.21534685 9:0.087863948 10:0.13814766 
256 1:0.33888261 2:0.36848165 3:0.11647742 4:0.12523947 5:0.050918837 6:0.068733876 7:0.17323471 8:0.18750146 9:0.13224345 10:0.006416457 
256 1:0.49107644 2:0.20793461 3:0.154384 4:0.093515555 5:0.053089393 6:0.14890738 7:0.018295028 8:0.062701051 9:0.12270371 10:0.040469731 
256 1:0.36391745 2:0.42822182 3:0.098166179 4:0.074556416 5:0.035138139 6:0.46594113 7:0.11158155 8:0.089149234 9:0.030227301 10:0.089818675 
256 1:0.55718204 2:0.21841322 3:0.097893742 4:0.088140604 5:0.038370396 6:0.15750497 7:0.018483541 8:0.081635048 9:0.179916 10:0.064891732 
256 1:0.42382126 2:0.17349636 3:0.16860505 4:0.15372257 5:0.080354756 6:0.24199825 7:0.0093987711 8:0.070046544 9:0.18372255 10:0.084203004 
256 1:0.33178432 2:0.26294263 3:0.16660059 4:0.15097259 5:0.087699878 6:0.15273348 7:0.12861874 8:0.066203156 9:0.02903605 10:0.009974813 
256 1:0.52175259 2:0.33680461 3:0.081336067 4:0.039994556 5:0.02011218 6:0.070381893 7:0.057533474 8:0.077431868 9:0.11851456 10:0.074482332 
256 1:0.71087812 2:0.2101291 3:0.04091985 4:0.024933303 5:0.013139629 6:0.27147579 7:0.045054128 8:0.090552105 9:0.10287051 10:0.031182865 
256 1:0.40441789 2:0.27867077 3:0.15027602 4:0.11362971 5:0.05300561 6:0.1845838 7:0.16888225 8:0.16355596 9:0.16176411 10:0.26122165 
256 1:0.26565957 2:0.31001107 3:0.17117266 4:0.16382493 5:0.089331771 6:0.11189889 7:0.10902269 8:0.026358004 9:0.081149177 10:0.054356513 
256 1:0.36366223 2:0.29485 3:0.17120908 4:0.11523071 5:0.055047986 6:0.21638519 7:0.23547473 8:0.086063897 9:0.0045246476 10:0.020748019 
256 1:0.62986935 2:0.18156159 3:0.070109837 4:0.077174858 5:0.04128436 6:0.074557455 7:0.1355863 8:0.014054109 9:0.0045595474 10:0.016089278 
256 1:0.45601272 2:0.26452261 3:0.13872825 4:0.091023936 5:0.049712489 6:0.03517198 7:0.043759561 8:0.13524165 9:0.10430997 10:0.26856904 
256 1:0.44103884 2:0.23418896 3:0.12600005 4:0.13406477 5:0.064707372 6:0.16935754 7:0.11547969 8:0.15391646 9:0.0029170491 10:0.1297254 
256 1:0.35804872 2:0.36315697 3:0.15339464 4:0.080937358 5:0.044462304 6:0.38906324 7:0.11417539 8:0.047928882 9:0.032042664 10:0.028617588 
256 1:0.68437722 2:0.19288179 3:0.05708817 4:0.047312058 5:0.018340762 6:0.021738627 7:0.014217034 8:0.070009175 9:0.094156822 10:0.06739955 
256 1:0.52506233 2:0.24022122 3:0.10924524 4:0.082385528 5:0.043085688 6:0.084346954 7:0.12058706 8:0.010116096 9:0.033783004 10:0.12004289 
256 1:0.67159942 2:0.22763643 3:0.043657917 4:0.040073584 5:0.01703265 6:0.04948924 7:0.04367041 8:0.043541074 9:0.22359915 10:0.015811181 
256 1:0.29457229 2:0.19475443 3:0.2153695 4:0.19254777 5:0.10275601 6:0.0011715982 7:0.14539432 8:0.28451256 9:0.10198063 10:0.0010656459 
256 1:0.26718731 2:0.31665944 3:0.14735557 4:0.190844 5:0.077953684 6:0.26960468 7:0.14512289 8:0.15416174 9:0.14572055 10:0.1089163 
256 1:0.30183683 2:0.39030538 3:0.14918183 4:0.09460045 5:0.064075517 6:0.39847065 7:0.23362566 8:0.35496498 9:0.18002473 10:0.017448068 
256 1:0.32011083 2:0.24112344 3:0.17942134 4:0.17226812 5:0.087076269 6:0.044685591 7:0.10077513 8:0.40561817 9:0.40721925 10:0.51252655 
256 1:0.36372553 2:0.34621148 3:0.13520304 4:0.11122753 5:0.043632419 6:0.16013892 7:0.081366177 8:0.11248088 9:0.1269594 10:0.094008334 
256 1:0.68050955 2:0.21627532 3:0.056748769 4:0.029963383 5:0.016502979 6:0.21110201 7:0.34771584 8:0.28734696 9:0.26406728 10:0.30128464 
80.436932351121555 1:0.55955303 2:0.27743513 3:0.066818477 4:0.063538028 5:0.032655332 6:0.0043998234 7:0.11071986 8:0.060436391 9:0.09003095 10:0.13708114 
256 1:0.6961561 2:0.2092125 3:0.041549947 4:0.036720272 5:0.016361179 6:0.2387295 7:0.097096148 8:0.1816533 9:0.10914978 10:0.18378037 
256 1:0.63777009 2:0.16097166 3:0.070284708 4:0.083753083 5:0.047220459 6:0.41295567 7:0.20092205 8:0.19651045 9:0.33766181 10:0.46713071 
256 1:0.40614167 2:0.32351975 3:0.13824721 4:0.098409854 5:0.033681521 6:0.113907 7:0.0087032125 8:0.025679802 9:0.10457694 10:0.18985976 
256 1:0.49059635 2:0.12216712 3:0.16774323 4:0.13336862 5:0.086124675 6:0.18618921 7:0.026059495 8:0.083681396 9:0.17285812 10:0.257118 
256 1:0.3617409 2:0.34581098 3:0.1498135 4:0.088539364 5:0.054095254 6:0.18859906 7:0.05492212 8:0.021890808 9:0.042947506 10:0.052381344 
256 1:0.20174422 2:0.36197823 3:0.18286737 4:0.19261343 5:0.060796748 6:0.44591057 7:0.054408082 8:0.050284171 9:0.11865293 10:0.064392848 
256 1:0.14776439 2:0.49400988 3:0.12336546 4:0.14322507 5:0.091635196 6:0.056243878 7:0.058557723 8:0.13504262 9:0.05611608 10:0.011829646 
256 1:0.54413422 2:0.23081913 3:0.10161962 4:0.08270309 5:0.040723937 6:0.0040163329 7:0.043609301 8:0.10059208 9:0.16991562 10:0.10590748 
256 1:0.57597033 2:0.18324218 3:0.11837999 4:0.080078382 5:0.042329114 6:0.0041462805 7:0.03707729 8:0.25689966 9:0.14007768 10:0.20581675 
256 1:0.78134205 2:0.15823225 3:0.041375904 4:0.013947472 5:0.0051023218 6:0.033825094 7:0.002096916 8:0.16541314 9:0.061080329 10:0.035757481 
256 1:0.57677331 2:0.26324002 3:0.091974149 4:0.044725902 5:0.023286619 6:0.0094123174 7:0.039008226 8:0.10588216 9:0.040628302 10:0.083648804 
256 1:0.51677947 2:0.28905815 3:0.10972621 4:0.058689545 5:0.025746622 6:0.15372475 7:0.033121972 8:0.019232774 9:0.028774165 10:0.002300818 
256 1:0.5162216 2:0.28093359 3:0.071618894 4:0.090590061 5:0.040635854 6:0.040245507 7:0.10235724 8:0.00048768768 9:0.17656684 10:0.090873895 
233.90878540138993 1:0.4881806 2:0.18576826 3:0.13194925 4:0.1348297 5:0.059272194 6:0.23402318 7:0.34011776 8:0.044464422 9:0.053583027 10:0.24111328 
256 1:0.69311854 2:0.20937387 3:0.050965563 4:0.02869381 5:0.017848217 6:0.03716497 7:0.10661554 8:0.081474867 9:0.033987615 10:0.27285066 
256 1:0.41965063 2:0.2475374 3:0.15251423 4:0.13173596 5:0.048561786 6:0.20032017 7:0.097120434 8:0.35000544 9:0.015951622 10:0.091950028 
256 1:0.54277861 2:0.2854409 3:0.075576883 4:0.061773284 5:0.034430322 6:0.10961936 7:0.099908574 8:0.11512078 9:0.14504456 10:0.31709344 
256 1:0.24338383 2:0.44765978 3:0.11620534 4:0.12397122 5:0.068779829 6:0.18972537 7:0.0047184428 8:0.14833972 9:0.0466646 10:0.01662559 
256 1:0.25564272 2:0.43693347 3:0.13427798 4:0.11203297 5:0.061112865 6:0.11139366 7:0.0058844152 8:0.012498349 9:0.043453474 10:0.016902332 
256 1:0.3442831 2:0.33343218 3:0.12577741 4:0.13299937 5:0.063507935 6:0.12849381 7:0.069815816 8:0.16401582 9:0.059616965 10:0.1023835 
256 1:0.48551728 2:0.17059941 3:0.14006672 4:0.12835767 5:0.075458926 6:0.15446874 7:0.01839924 8:0.1365348 9:0.043543961 10:0.11231652 
256 1:0.31968472 2:0.23636742 3:0.21477463 4:0.14151732 5:0.087655921 6:0.22975742 7:0.12458615 8:0.19479562 9:0.21867178 10:0.078552433 
240.80907749789807 1:0.69559845 2:0.21809391 3:0.048981893 4:0.023080335 5:0.014245404 6:0.047978669 7:0.095659585 8:0.0051007573 9:0.25473385 10:0.036017407 
256 1:0.22710116 2:0.46468164 3:0.12901849 4:0.10365471 5:0.075544004 6:0.078605099 7:0.011416898 8:0.14716547 9:0.046050987 10:0.133928 
68.560215704802843 1:0.28042467 2:0.20066005 3:0.12459984 4:0.13170641 5:0.26260904 6:0.20583849 7:0.15756058 8:0.26635109 9:0.32524572 10:0.34011116 
256 1:0.47067215 2:0.20994101 3:0.14718035 4:0.10905485 5:0.063151652 6:0.047792794 7:0.084490929 8:0.038014899 9:0.057502426 10:0.16449939 
183.17092683253506 1:0.33338485 2:0.40593273 3:0.133517 4:0.076476259 5:0.050689169 6:0.30132251 7:0.11071828 8:0.088472718 9:0.080455238 10:0.049821613 
256 1:0.66145704 2:0.16633503 3:0.08278967 4:0.054340088 5:0.035078172 6:0.089860352 7:0.02655897 8:0.2843157 9:0.18389938 10:0.085801381 
256 1:0.46157757 2:0.32244632 3:0.1057725 4:0.075007178 5:0.035196438 6:0.0042692844 7:0.011063273 8:0.10496323 9:0.17434533 10:0.075463699 
256 1:0.51357289 2:0.28189941 3:0.11529059 4:0.054644271 5:0.034592838 6:0.074866455 7:0.043511051 8:0.12351534 9:0.075362561 10:0.36394311 
256 1:0.3158651 2:0.32859255 3:0.13602954 4:0.15763374 5:0.061879077 6:0.2237353 7:0.13312504 8:0.091928723 9:0.14222244 10:0.057530988 
256 1:0.42785818 2:0.29425615 3:0.14406122 4:0.084951651 5:0.048872792 6:0.009124772 7:0.03506249 8:0.0067921166 9:0.056430041 10:0.059023738 
256 1:0.43072178 2:0.25794494 3:0.15414303 4:0.10623228 5:0.050957974 6:0.18936943 7:0.0066410594 8:0.099308894 9:0.071054593 10:0.23848482 
256 1:0.65027557 2:0.19375057 3:0.076523395 4:0.061317868 5:0.018132593 6:0.14240884 7:0.091785333 8:0.049330238 9:0.2082905 10:0.098013657 
256 1:0.44905789 2:0.30392751 3:0.10261833 4:0.096282964 5:0.048113307 6:0.033312139 7:0.00027300381 8:0.099147723 9:0.02679828 10:0.036729528 
97.139969688584912 1:0.84585702 2:0.12584693 3:0.018258762 4:0.0063431202 5:0.0036941704 6:0.98821884 7:0.92685053 8:0.65313333 9:0.28294862 10:0.14252464 
256 1:0.40106539 2:0.24271369 3:0.17035244 4:0.12523997 5:0.060628521 6:0.039762969 7:0.1316199 8:0.010022631 9:0.038411986 10:0.03519831 
256 1:0.50133642 2:0.20224805 3:0.15051252 4:0.096048131 5:0.049854883 6:0.0022326484 7:0.041447333 8:0.038916127 9:0.027368422 10:0.058298387 
256 1:0.52548992 2:0.24897049 3:0.1105376 4:0.080712289 5:0.034289709 6:0.26386536 7:0.095101954 8:0.17890692 9:0.091017675 10:0.052456614 
256 1:0.42658686 2:0.32553206 3:0.14968142 4:0.06743563 5:0.030764032 6:0.0755964 7:0.11181797 8:0.067142231 9:0.013622738 10:0.012776986 
256 1:0.17098748 2:0.2782928 3:0.36530423 4:0.15105971 5:0.034355774 6:0.011084968 7:0.0066124703 8:0.015404087 9:0.008279476 10:0.17205648 
256 1:0.34405731 2:0.19823791 3:0.18062352 4:0.17528209 5:0.10179916 6:0.20519567 7:0.11769957 8:0.060125344 9:0.042842608 10:0.23483189 
256 1:0.46802858 2:0.38263532 3:0.089204756 4:0.044812007 5:0.015319331 6:0.25486351 7:0.016711746 8:0.25243623 9:0.071027834 10:0.015900257 
245.5686260746252 1:0.57540906 2:0.17791188 3:0.06510241 4:0.12418192 5:0.057394735 6:0.25607353 7:0.2868625 8:0.45192167 9:0.15205707 10:0.030716707 
256 1:0.60892716 2:0.17803047 3:0.075627611 4:0.096975281 5:0.040439487 6:0.0023390793 7:0.059738965 8:0.17911282 9:0.16456068 10:0.0055930714 
256 1:0.24653058 2:0.3754921 3:0.17006366 4:0.14345132 5:0.064462341 6:0.091818621 7:0.018230819 8:0.2762172 9:0.18697557 10:0.18563556 
208.54633870595674 1:0.56479209 2:0.15824392 3:0.11024179 4:0.1138922 5:0.052829994 6:0.22934373 7:0.17458189 8:0.11714265 9:0.29198616 10:0.38206956 
256 1:0.45613132 2:0.39459828 3:0.096169761 4:0.038398747 5:0.014701892 6:0.12981735 7:0.10234662 8:0.018527444 9:0.047666991 10:0.022841649 
256 1:0.42082597 2:0.25554355 3:0.13590239 4:0.1224475 5:0.065280586 6:0.042086035 7:0.02854745 8:0.10116712 9:0.00053329463 10:0.057065321 
256 1:0.63734537 2:0.21445533 3:0.085686232 4:0.043041023 5:0.019472043 6:0.087724392 7:0.057663495 8:0.047473936 9:0.037952422 10:0.011244819 
256 1:0.39893577 2:0.27196728 3:0.10277424 4:0.17107304 5:0.055249673 6:0.11202661 7:0.018642241 8:0.075791394 9:0.10078313 10:0.048608138 
256 1:0.34290327 2:0.20775607 3:0.17311435 4:0.21512192 5:0.061104389 6:0.003418617 7:0.024199891 8:0.0304222 9:0.07199851 10:0.10132827 
256 1:0.45058102 2:0.25554383 3:0.12072643 4:0.10664362 5:0.066505108 6:0.031151312 7:0.21068711 8:0.064318158 9:0.0047686353 10:0.0048649482 
256 1:0.25791962 2:0.28617859 3:0.19527038 4:0.17762306 5:0.083008355 6:0.015765881 7:0.041373305 8:0.083786296 9:0.030261393 10:0.14592117 
256 1:0.34996196 2:0.30298482 3:0.14616484 4:0.12837506 5:0.072513321 6:0.13519433 7:0.10957881 8:0.049950413 9:0.058609968 10:0.022179734 
256 1:0.41188009 2:0.31704202 3:0.16365781 4:0.072633298 5:0.034786778 6:0.14543523 7:0.020978575 8:0.092485394 9:0.095641089 10:0.13516493 
256 1:0.63481936 2:0.2291612 3:0.06299182 4:0.048723868 5:0.024303747 6:0.044196129 7:0.066639111 8:0.20055616 9:0.15311151 10:0.35625529 
256 1:0.48461852 2:0.24923017 3:0.12286056 4:0.095307516 5:0.047983231 6:0.046598038 7:0.056151328 8:0.042976656 9:0.051777715 10:0.075687221 
256 1:0.57168559 2:0.15971541 3:0.11955828 4:0.10163478 5:0.04740594 6:0.3004177 7:0.15284146 8:0.30555427 9:0.10603768 10:0.09124806 
256 1:0.68883182 2:0.14941609 3:0.059113272 4:0.067161463 5:0.035477355 6:0.058332484 7:0.13609234 8:0.12788688 9:0.074505442 10:0.063426194 
256 1:0.5315028 2:0.34307868 3:0.080833444 4:0.03282998 5:0.01175509 6:0.068779582 7:0.10335711 8:0.012348691 9:0.044693632 10:0.019420606 
256 1:0.52033001 2:0.24296462 3:0.08789946 4:0.1029026 5:0.045903317 6:0.1639684 7:0.091598877 8:0.14422974 9:0.18172914 10:0.32643877 
256 1:0.55830013 2:0.18041289 3:0.099854684 4:0.10109755 5:0.060334745 6:0.52925204 7:0.22074987 8:0.19488304 9:0.29551029 10:0.15368166 
256 1:0.38194618 2:0.37266853 3:0.11635495 4:0.086515353 5:0.042514994 6:0.11229334 7:0.09706253 8:0.086563167 9:0.13522723 10:0.0026208492 
44.138517849714709 1:0.69101717 2:0.19948992 3:0.039212804 4:0.045262182 5:0.02501792 6:0.07364638 7:0.084375897 8:0.022641335 9:0.046751128 10:0.30897911 
256 1:0.41986606 2:0.39325685 3:0.08358846 4:0.069267961 5:0.034020672 6:0.062841322 7:0.0056187754 8:0.084207413 9:0.027349457 10:0.22539854 
84.130377344342463 1:0.62233797 2:0.26172863 3:0.05581297 4:0.041752443 5:0.018367989 6:0.036275189 7:0.017519142 8:0.022209988 9:0.096496287 10:0.18442249 
256 1:0.72799239 2:0.17392487 3:0.057024794 4:0.029301748 5:0.011756196 6:0.04069383 7:0.013666442 8:0.15105715 9:0.20872255 10:0.16026255 
256 1:0.71583342 2:0.17048594 3:0.055465043 4:0.042013673 5:0.016201922 6:0.028602513 7:0.045046013 8:0.091770702 9:0.037118461 10:0.029739666 
256 1:0.63969119 2:0.25112663 3:0.057344671 4:0.037372006 5:0.014465505 6:0.035471427 7:0.037017625 8:0.10970343 9:0.051077018 10:0.034723331 
256 1:0.38627057 2:0.27825088 3:0.20201233 4:0.10070966 5:0.032756557 6:0.11043961 7:0.052118832 8:0.069771945 9:0.098191503 10:0.14371829 
256 1:0.35619703 2:0.35642546 3:0.1448697 4:0.1027835 5:0.039724317 6:0.15528854 7:0.22295528 8:0.016716625 9:0.00099035845 10:0.069117933 
255.04830064318344 1:0.21624591 2:0.17678966 3:0.19333458 4:0.29601118 5:0.11761867 6:0.006798676 7:0.065578298 8:0.042055087 9:0.030665652 10:0.07564609 
256 1:0.57304112 2:0.22834754 3:0.085693398 4:0.077771933 5:0.035146017 6:0.010015505 7:0.052749412 8:0.13073256 9:0.055368446 10:0.19755892 
256 1:0.40294441 2:0.36396901 3:0.10169997 4:0.085824689 5:0.045561924 6:0.053223835 7:0.0062285425 8:0.17266947 9:0.050307334 10:0.045148536 
256 1:0.4179801 2:0.2322649 3:0.1397296 4:0.14476953 5:0.065255878 6:0.13405744 7:0.06900853 8:0.093564751 9:0.071755587 10:0.10068742 
256 1:0.32910303 2:0.49003633 3:0.082096666 4:0.065624985 5:0.033138992 6:0.11731505 7:0.073991527 8:0.25685296 9:0.046417353 10:0.0016508208 
256 1:0.20980225 2:0.58409198 3:0.075364018 4:0.090232901 5:0.040508844 6:0.21170234 7:0.066364622 8:0.25311841 9:0.13485975 10:0.026994891 
256 1:0.35015901 2:0.40420039 3:0.10120557 4:0.095603681 5:0.048831347 6:0.26390699 7:0.075397062 8:0.13241894 9:0.079969476 10:0.048697211 
256 1:0.60352617 2:0.24042143 3:0.078571818 4:0.049760394 5:0.027720186 6:0.031583543 7:0.084573225 8:0.15703255 9:0.10705073 10:0.17576509 
256 1:0.43931506 2:0.29840568 3:0.10365421 4:0.10533443 5:0.053290618 6:0.049845319 7:0.0083027419 8:0.13994806 9:0.038140987 10:0.10402757 
256 1:0.39620291 2:0.34893276 3:0.11715066 4:0.090346942 5:0.047366726 6:0.21537775 7:0.010924076 8:0.017127945 9:0.075653603 10:0.23205866 
256 1:0.55945132 2:0.16618647 3:0.12074407 4:0.090648207 5:0.062969936 6:0.09386273 7:0.073423667 8:0.071036726 9:0.0068225961 10:0.050302809 
256 1:0.80267492 2:0.1383553 3:0.026313636 4:0.019011359 5:0.013644782 6:0.036746794 7:0.014954454 8:0.020450351 9:0.08835535 10:0.15818294 
256 1:0.39660002 2:0.19258467 3:0.21910878 4:0.12321976 5:0.068486775 6:0.15910982 7:0.16572508 8:0.17247825 9:0.11314719 10:0.1049018 
254.84194974260646 1:0.36514665 2:0.24653304 3:0.13652016 4:0.1687792 5:0.083020945 6:0.047114393 7:0.00080556321 8:0.22253884 9:0.015483229 10:0.078371619 
256 1:0.71812365 2:0.16868926 3:0.040477257 4:0.051504874 5:0.021204959 6:0.017849898 7:0.1165153 8:0.1632128 9:0.23253888 10:0.085348401 
256 1:0.47915993 2:0.18303029 3:0.12333137 4:0.16877722 5:0.045701191 6:0.040396448 7:0.08159191 8:0.055802807 9:0.0375014 10:0.014768396 
256 1:0.43475486 2:0.224242 3:0.158198 4:0.13026667 5:0.052538465 6:0.15909545 7:0.15550202 8:0.16393182 9:0.2246835 10:0.19758472 
256 1:0.38811598 2:0.39571424 3:0.10432653 4:0.076886039 5:0.03495721 6:0.13473993 7:0.083502541 8:0.067292289 9:0.11067786 10:0.10432326 
256 1:0.34124878 2:0.32345272 3:0.16221275 4:0.1118414 5:0.061244358 6:0.050415231 7:0.17735645 8:0.082572718 9:0.1457995 10:0.13657707 
256 1:0.66023585 2:0.19416918 3:0.094998422 4:0.034001078 5:0.016595469 6:0.034119014 7:0.088965964 8:0.21416152 9:0.0039847124 10:0.014896535 
127.70455382516711 1:0.21786321 2:0.48440099 3:0.12574197 4:0.11985308 5:0.052140743 6:0.045528051 7:0.10954988 8:0.11129894 9:0.34149497 10:0.30783392 
256 1:0.42453644 2:0.25633279 3:0.15539266 4:0.10949931 5:0.054238805 6:0.017739002 7:0.0098276483 8:0.23186467 9:0.21122618 10:0.060580796 
256 1:0.48109714 2:0.22635852 3:0.12865259 4:0.11691768 5:0.046974071 6:0.19243981 7:0.049329763 8:0.0090233286 9:0.058600727 10:0.11165697 
256 1:0.28854188 2:0.23311229 3:0.26835119 4:0.12083829 5:0.089156352 6:0.075496692 7:0.063377188 8:0.12597184 9:0.13206953 10:0.048533366 
256 1:0.28558009 2:0.3529947 3:0.1685197 4:0.13438947 5:0.058516043 6:0.25734538 7:0.20749645 8:0.12937718 9:0.23168708 10:0.074162164 
256 1:0.66501401 2:0.22673484 3:0.069054557 4:0.029518825 5:0.0096777686 6:0.027449696 7:0.013036712 8:0.011161073 9:0.1076789 10:0.099492365 
256 1:0.37470933 2:0.37885857 3:0.097925247 4:0.1036288 5:0.04487805 6:0.066532215 7:0.017093957 8:0.14923281 9:0.12402422 10:0.072690825 
256 1:0.46542132 2:0.23153885 3:0.12540338 4:0.12528453 5:0.052351919 6:0.12699502 7:0.18143686 8:0.24065172 9:0.18607937 10:0.07743926 
256 1:0.59981786 2:0.28342854 3:0.051552656 4:0.042663596 5:0.022537356 6:0.1163235 7:0.15242498 8:0.1134452 9:0.089503968 10:0.17796577 
256 1:0.48191574 2:0.24837644 3:0.12370849 4:0.09562648 5:0.050372843 6:0.044832395 7:0.056709976 8:0.041509225 9:0.049353083 10:0.095432661 
256 1:0.44025564 2:0.26791198 3:0.12331633 4:0.1081435 5:0.060372545 6:0.13606309 7:0.089574783 8:0.084203365 9:0.01355042 10:0.19879739 
256 1:0.41738227 2:0.2326407 3:0.18948162 4:0.10586896 5:0.05462644 6:0.25972199 7:0.035495364 8:0.070581588 9:0.034055568 10:0.0091767664 
256 1:0.36479422 2:0.40159062 3:0.10005634 4:0.089739466 5:0.043819351 6:0.0023377416 7:0.11819574 8:0.18528436 9:0.012814621 10:0.026569471 
200.65763776126059 1:0.36013298 2:0.33280545 3:0.1264978 4:0.12340419 5:0.057159579 6:0.59852294 7:0.06738633 8:0.024770513 9:0.19056906 10:0.024329906 
256 1:0.61082478 2:0.23806558 3:0.077546497 4:0.050716026 5:0.022847112 6:0.049913127 7:0.13146623 8:0.19680044 9:0.11830499 10:0.011879139 
26.631984253395817 1:0.46355142 2:0.13543969 3:0.09408393 4:0.18338176 5:0.1235432 6:0.030064872 7:0.26378453 8:0.28094972 9:0.37663501 10:0.43025874 
256 1:0.50936689 2:0.2048429 3:0.12559634 4:0.13356921 5:0.026624659 6:0.017011876 7:0.017829453 8:0.002626884 9:0.062504422 10:0.0882559 
256 1:0.64207116 2:0.27689847 3:0.048153227 4:0.025831834 5:0.0070453091 6:0.083977612 7:0.068448781 8:0.10732012 9:0.06377794 10:0.16780308 
256 1:0.55490975 2:0.27419055 3:0.076810574 4:0.064371575 5:0.029717548 6:0.054715196 7:0.12978228 8:0.043737457 9:0.10161487 10:0.25510024 
256 1:0.23249127 2:0.34958034 3:0.18299544 4:0.14762137 5:0.087311584 6:0.11560314 7:0.088805109 8:0.1533807 9:0.085211511 10:0.0062679743 
256 1:0.48767559 2:0.27794452 3:0.12000275 4:0.070283932 5:0.044093213 6:0.16571067 7:0.15975742 8:0.0030883703 9:0.1940163 10:0.096884361 
256 1:0.62274336 2:0.2473832 3:0.058463963 4:0.048755494 5:0.022653981 6:0.017009743 7:0.17162487 8:0.040690239 9:0.071953635 10:0.058405049 
256 1:0.61015744 2:0.18908604 3:0.094630206 4:0.069204368 5:0.036921941 6:0.024752044 7:0.1248547 8:0.045320133 9:0.13814478 10:0.10215324 
256 1:0.7862368 2:0.12737422 3:0.039902132 4:0.022415194 5:0.024071654 6:0.10264431 7:0.098264574 8:0.18311769 9:0.13982433 10:0.12084707 
256 1:0.50729341 2:0.2437635 3:0.13185699 4:0.081939366 5:0.035146739 6:0.2716479 7:0.09940927 8:0.17792078 9:0.15338918 10:0.021848644 
256 1:0.59672661 2:0.24561877 3:0.11634924 4:0.03128399 5:0.010021384 6:0.0012312767 7:0.04115599 8:0.1366485 9:0.087419242 10:0.14052611 
256 1:0.60062264 2:0.24589643 3:0.067213726 4:0.054912859 5:0.03135435 6:0.19282387 7:0.023046444 8:0.027050154 9:0.19421713 10:0.11354712 
55.293763220448945 1:0.85699308 2:0.11846159 3:0.011220944 4:0.0093412758 5:0.0039831115 6:0.95767534 7:0.80239171 8:0.36964569 9:0.32113095 10:0.092327701 
256 1:0.71251142 2:0.19736098 3:0.049921368 4:0.023980016 5:0.016226217 6:0.020769628 7:0.0030850924 8:0.0099379753 9:0.15819779 10:0.36565393 
256 1:0.73638111 2:0.15990515 3:0.047085755 4:0.03814427 5:0.018483717 6:0.068677491 7:0.010136827 8:0.0671702 9:0.16398909 10:0.24232545 
256 1:0.34488291 2:0.34718001 3:0.13969013 4:0.1145435 5:0.053703453 6:0.032304213 7:0.052283932 8:0.086871987 9:0.20842935 10:0.026016733 
256 1:0.66689614 2:0.21920099 3:0.06880551 4:0.029062435 5:0.016034932 6:0.051024905 7:0.030017355 8:0.0500265 9:0.19352182 10:0.15513215 
256 1:0.64711101 2:0.24639486 3:0.059259368 4:0.030282567 5:0.016952188 6:0.02183962 7:0.0034333858 8:0.17036912 9:0.11685636 10:0.19464314 
256 1:0.3123453 2:0.34432433 3:0.19377885 4:0.099946036 5:0.049605484 6:0.19281645 7:0.021334621 8:0.013909213 9:0.085164425 10:0.11700261 
256 1:0.50499669 2:0.17229567 3:0.15467731 4:0.10361519 5:0.064415139 6:0.19865739 7:0.013981318 8:0.06867742 9:0.064087389 10:0.0095870391 
256 1:0.46707636 2:0.34033177 3:0.069139896 4:0.084675869 5:0.038776102 6:0.076177552 7:0.025262928 8:0.066435909 9:0.053650184 10:0.15788321 
256 1:0.60620411 2:0.20291117 3:0.081101363 4:0.073993836 5:0.035789523 6:0.033645382 7:0.009013963 8:0.075566987 9:0.042364819 10:0.026689795 
256 1:0.73336114 2:0.17950229 3:0.041968808 4:0.029072834 5:0.016094927 6:0.13262432 7:0.041209617 8:0.13651172 9:0.085619341 10:0.14113942 
256 1:0.63367849 2:0.23936336 3:0.072744198 4:0.040065486 5:0.014148464 6:0.16216538 7:0.15138332 8:0.14561052 9:0.025849791 10:0.033394821 
256 1:0.56831092 2:0.2266796 3:0.09319503 4:0.077629856 5:0.034184596 6:0.15435043 7:0.028297607 8:0.10494445 9:0.1193868 10:0.025338687 
256 1:0.62085139 2:0.17255375 3:0.079459503 4:0.083388106 5:0.043747243 6:0.14355756 7:0.133842 8:0.14658531 9:0.10081958 10:0.17464373 
256 1:0.56566644 2:0.21259671 3:0.11354018 4:0.081154957 5:0.027041711 6:0.02929594 7:0.064119179 8:0.027335797 9:0.018078357 10:0.0052725081 
256 1:0.26145909 2:0.3590583 3:0.15452117 4:0.15233461 5:0.07262683 6:0.14634304 7:0.2175205 8:0.12477293 9:0.14014298 10:0.053019869 
256 1:0.61629341 2:0.1852413 3:0.088988436 4:0.071262951 5:0.038213901 6:0.088468378 7:0.034680338 8:0.0056029796 9:0.12267892 10:0.076123624 
256 1:0.30172973 2:0.25714228 3:0.18928218 4:0.15900502 5:0.092840785 6:0.069430667 7:0.099887165 8:0.038527618 9:0.02471616 10:0.29064922 
256 1:0.38504296 2:0.24078951 3:0.1574183 4:0.14913148 5:0.067617762 6:0.29725223 7:0.23109176 8:0.44542107 9:0.44634544 10:0.4709094 
256 1:0.65971369 2:0.209991 3:0.050224083 4:0.053435246 5:0.026635982 6:0.080631458 7:0.12265308 8:0.24367485 9:0.12740704 10:0.034179702 
256 1:0.74333225 2:0.18922064 3:0.029396115 4:0.027385568 5:0.010665424 6:0.019029276 7:0.060300915 8:0.1235473 9:0.19623071 10:0.047919478 
256 1:0.56189384 2:0.21177711 3:0.12043174 4:0.077646974 5:0.028250341 6:0.038655411 7:0.081458493 8:0.029704726 9:0.04379994 10:0.10278744 
256 1:0.49339614 2:0.27484544 3:0.12116375 4:0.064594745 5:0.045999928 6:0.03135452 7:0.095012785 8:0.23486682 9:0.055755765 10:0.068891073 
256 1:0.28970313 2:0.24999479 3:0.20504821 4:0.16942803 5:0.08582583 6:0.20051539 7:0.11095563 8:0.027885209 9:0.19026672 10:0.11720019 
256 1:0.73274316 2:0.17621703 3:0.040936619 4:0.033386933 5:0.016716263 6:0.027936414 7:0.019741872 8:0.033317554 9:0.093363912 10:0.2354137 
82.190898472176386 1:0.35267696 2:0.29330522 3:0.14828249 4:0.11842762 5:0.087307712 6:0.073875085 7:0.023878053 8:0.38962264 9:0.2053128 10:0.022141651 
256 1:0.63929223 2:0.19953505 3:0.074665592 4:0.055579243 5:0.030927881 6:0.031129136 7:0.13332471 8:0.10183172 9:0.27196466 10:0.42289548 
256 1:0.42464894 2:0.27525855 3:0.13736389 4:0.10488283 5:0.057845791 6:0.18197583 7:0.061385953 8:0.063187903 9:0.018276513 10:0.11414624 
256 1:0.58820664 2:0.28322696 3:0.060653269 4:0.047186314 5:0.020726819 6:0.019999258 7:0.074850713 8:0.038500439 9:0.062569721 10:0.15433028 
256 1:0.64750857 2:0.21105493 3:0.071640236 4:0.049044516 5:0.020751753 6:0.00087608752 7:0.022202097 8:0.053759012 9:0.19979193 10:0.024770836 
256 1:0.41237258 2:0.26592384 3:0.15711278 4:0.11170525 5:0.05288555 6:0.053409061 7:0.11405885 8:0.069184875 9:0.014431796 10:0.11680585 
256 1:0.37101822 2:0.38881161 3:0.098222986 4:0.097892978 5:0.044054205 6:0.065836347 7:0.045311246 8:0.14447352 9:0.072618005 10:0.041336574 
256 1:0.40105414 2:0.24842553 3:0.17905999 4:0.10220967 5:0.069250666 6:0.16605999 7:0.16376398 8:0.0093503079 9:0.12114555 10:0.27970864 
256 1:0.56417044 2:0.24585444 3:0.100425 4:0.053318822 5:0.0362313 6:0.19222167 7:0.071306722 8:0.14613007 9:0.05020005 10:0.081925169 
256 1:0.3097707 2:0.41337114 3:0.14948717 4:0.08732392 5:0.040047071 6:0.11079388 7:0.038974569 8:0.025802847 9:0.029994321 10:0.0090991857 
256 1:0.51993799 2:0.30849021 3:0.084498321 4:0.059632901 5:0.027440581 6:0.021065146 7:0.0019656981 8:0.04656897 9:0.11446023 10:0.10944931 
256 1:0.24065166 2:0.46548637 3:0.1035464 4:0.13019587 5:0.060119695 6:0.23803908 7:0.22290129 8:0.16930274 9:0.019655702 10:0.059371662 
256 1:0.59090858 2:0.19168814 3:0.090974483 4:0.091139548 5:0.035289253 6:0.053031297 7:0.10227724 8:0.094867917 9:0.10618487 10:0.045102613 
256 1:0.49650261 2:0.28057578 3:0.099601399 4:0.08702046 5:0.036299752 6:0.021385667 7:0.08685055 8:0.16746873 9:0.0324412 10:0.0098319842 
256 1:0.37006309 2:0.30014781 3:0.146767 4:0.12268782 5:0.060334277 6:0.067197787 7:0.032406081 8:0.14063824 9:0.096688901 10:0.038716636 
29.638144168865132 1:0.80618836 2:0.15064591 3:0.025460309 4:0.012960735 5:0.0047446804 6:0.1797015 7:0.50158261 8:0.29115369 9:0.10291106 10:0.10852605 
256 1:0.53825338 2:0.3180866 3:0.067088627 4:0.052295811 5:0.024275585 6:0.066178483 7:0.10269138 8:0.020328943 9:0.0042393349 10:0.11571166 
151.61458424062914 1:0.24147386 2:0.29443947 3:0.17593734 4:0.18416405 5:0.10398527 6:0.091834525 7:0.26576497 8:0.1224314 9:0.040656329 10:0.22288712 
256 1:0.5124962 2:0.33672732 3:0.073262139 4:0.054470847 5:0.023043493 6:0.06046015 7:0.090762619 8:0.077580399 9:0.08841162 10:0.20041326 
256 1:0.47756803 2:0.22127476 3:0.14349889 4:0.09811211 5:0.059546206 6:0.094500674 7:0.0056471175 8:0.011560229 9:0.070962496 10:0.14080218 
9.3165360706901019 1:0.26987972 2:0.33638175 3:0.14067613 4:0.1830898 5:0.069972605 6:0.2485148 7:0.29844493 8:0.059287008 9:0.22451297 10:0.1457783 
256 1:0.68179386 2:0.17506033 3:0.047557668 4:0.065303389 5:0.030284757 6:0.044653388 7:0.00048586642 8:0.0072408103 9:0.00045222545 10:0.089357673 
235.48077912078716 1:0.5371841 2:0.19811714 3:0.11505385 4:0.092996416 5:0.05664849 6:0.11141758 7:0.064410631 8:0.061715402 9:0.16147139 10:0.25915841 
256 1:0.59927115 2:0.21972824 3:0.084535035 4:0.065912608 5:0.030552967 6:0.13606689 7:0.041011929 8:0.056226171 9:0.27197225 10:0.012766836 
256 1:0.48760679 2:0.32044262 3:0.11514954 4:0.04607653 5:0.030724522 6:0.021586359 7:0.016411928 8:0.03055453 9:0.078256142 10:0.28257306 
256 1:0.38526354 2:0.3534047 3:0.13064709 4:0.10057335 5:0.030111323 6:0.20095067 7:0.076696915 8:0.1001444 9:0.035128829 10:0.030559667 
256 1:0.33492589 2:0.28880703 3:0.14835948 4:0.16017632 5:0.067731285 6:0.22177549 7:0.082563216 8:0.097008557 9:0.061057833 10:0.21582987 
256 1:0.68524652 2:0.19787023 3:0.067213166 4:0.033430368 5:0.016239712 6:0.064497301 7:0.016508891 8:0.13574935 9:0.09480531 10:0.0018750498 
256 1:0.28219118 2:0.50931958 3:0.077103473 4:0.07922382 5:0.05216195 6:0.14832865 7:0.16699976 8:0.14389048 9:0.039320358 10:0.03468223 
256 1:0.44009035 2:0.34615612 3:0.10194746 4:0.076460022 5:0.035346049 6:0.087252171 7:0.072781688 8:0.038027509 9:0.24665096 10:0.14545542 
256 1:0.40608183 2:0.30924334 3:0.16053724 4:0.085952107 5:0.038185476 6:0.088720701 7:0.047149358 8:0.13285233 9:0.15612157 10:0.087168067 
256 1:0.68422256 2:0.24332874 3:0.033443459 4:0.027342027 5:0.011663217 6:0.074115246 7:0.1650181 8:0.018450513 9:0.33683894 10:0.32238961 
256 1:0.23934974 2:0.51407295 3:0.10097425 4:0.096942102 5:0.04866096 6:0.2507336 7:0.1202042 8:0.25958643 9:0.16551561 10:0.023267934 
256 1:0.46444589 2:0.25396888 3:0.15864779 4:0.078272571 5:0.044664867 6:0.23367099 7:0.0021633581 8:0.037210469 9:0.044089834 10:0.16555345 
256 1:0.76195163 2:0.15354639 3:0.035400602 4:0.031612457 5:0.017488918 6:0.071256721 7:0.049430289 8:0.018568055 9:0.21412523 10:0.080714726 
256 1:0.51059189 2:0.26957637 3:0.11646203 4:0.070270381 5:0.033099327 6:0.030001198 7:0.010388927 8:0.14516087 9:0.077290244 10:0.091674791 
256 1:0.61734278 2:0.21203813 3:0.091894721 4:0.054771639 5:0.023952728 6:0.2874305 7:0.20204586 8:0.07050062 9:0.018760667 10:0.10950206 
256 1:0.45686148 2:0.22724334 3:0.13428659 4:0.12125137 5:0.060357224 6:0.018802421 7:0.077249866 8:0.011890577 9:0.099628278 10:0.10702777 
256 1:0.4462173 2:0.32341197 3:0.10929735 4:0.080798087 5:0.040275293 6:0.059652592 7:0.0040045992 8:0.14128061 9:0.088006346 10:0.08755483 
256 1:0.57950798 2:0.2739721 3:0.060313308 4:0.06109344 5:0.025113172 6:0.030023734 7:0.026953264 8:0.038103674 9:0.05450074 10:0.070556627 
127.78540428624703 1:0.26818059 2:0.41485112 3:0.15145582 4:0.099404169 5:0.066108291 6:0.22521261 7:0.097237981 8:0.44834476 9:0.019754578 10:0.14293284 
256 1:0.78231782 2:0.15493446 3:0.028433837 4:0.024836201 5:0.0094776856 6:0.028426015 7:0.020665765 8:0.12120746 9:0.037293622 10:0.078584489 
256 1:0.33775994 2:0.31784845 3:0.14414888 4:0.12865967 5:0.07158306 6:0.058668638 7:0.0078302185 8:0.15879797 9:0.091339841 10:0.045880523 
256 1:0.67302976 2:0.20482922 3:0.05664226 4:0.044491093 5:0.021007672 6:0.018382155 7:0.10529037 8:0.0044792649 9:0.2301494 10:0.10235294 
72.537799983526497 1:0.28735577 2:0.45062754 3:0.11772753 4:0.10397239 5:0.040316767 6:0.058649799 7:0.35653799 8:0.0029175879 9:0.13705725 10:0.074457417 
256 1:0.48384071 2:0.21352357 3:0.14083222 4:0.098555282 5:0.063248215 6:0.026345226 7:0.088078382 8:0.19677927 9:0.36551767 10:0.3835563 
256 1:0.35304804 2:0.29410151 3:0.17239072 4:0.11561971 5:0.064840014 6:0.12229776 7:0.15615154 8:0.082479672 9:0.028021253 10:0.10007112 
40.636024522575354 1:0.59569924 2:0.13750418 3:0.037922038 4:0.14932521 5:0.079549334 6:0.18142294 7:0.0089012424 8:0.22333821 9:0.16814168 10:0.14529479 
256 1:0.21944746 2:0.47246643 3:0.15504617 4:0.11092331 5:0.042116637 6:0.12595595 7:0.017382742 8:0.19142111 9:0.01730395 10:0.0077941865 
256 1:0.28177132 2:0.48455331 3:0.094957382 4:0.086701217 5:0.052016774 6:0.2097156 7:0.12790622 8:0.066817401 9:0.17424488 10:0.19600461 
256 1:0.44720975 2:0.25781051 3:0.15546483 4:0.091856323 5:0.047658589 6:0.033301134 7:0.015317812 8:0.031775493 9:0.08607876 10:0.15430971 
256 1:0.65074521 2:0.19729902 3:0.062069516 4:0.064785661 5:0.025100597 6:0.21923398 7:0.11289617 8:0.25056947 9:0.33025105 10:0.0070697057 
216.47370167983706 1:0.29607425 2:0.34669589 3:0.14773031 4:0.13187518 5:0.077624371 6:0.1380632 7:0.031362046 8:0.19124953 9:0.010229732 10:0.23569457 
192.20113236401232 1:0.46391343 2:0.21130961 3:0.13036515 4:0.13066142 5:0.063750385 6:0.14144331 7:0.066306373 8:0.31973514 9:0.34396377 10:0.13488413 
256 1:0.60487743 2:0.17852326 3:0.1143531 4:0.071221881 5:0.031024322 6:0.093712206 7:0.0073222694 8:0.043816554 9:0.092150387 10:0.014287646 
256 1:0.18449727 2:0.37887212 3:0.18890813 4:0.15179915 5:0.095923333 6:0.33307735 7:0.062620631 8:0.2574058 9:0.17845061 10:0.13651342 
256 1:0.66382166 2:0.16224906 3:0.067050029 4:0.069108001 5:0.037771243 6:0.052403551 7:0.073482335 8:0.18038094 9:0.0023876856 10:0.079460603 
256 1:0.17433331 2:0.44677049 3:0.16656823 4:0.12251752 5:0.089810445 6:0.0085066172 7:0.077051311 8:0.16655814 9:0.024190688 10:0.045967977 
256 1:0.65341281 2:0.22124366 3:0.0694699 4:0.036302955 5:0.019570673 6:0.045058324 7:0.025313836 8:0.052470992 9:0.18031706 10:0.13994977 
256 1:0.65002038 2:0.20899385 3:0.076702662 4:0.047477822 5:0.016805287 6:0.18788435 7:0.10499689 8:0.14238982 9:0.060745444 10:0.01183601 
256 1:0.36914703 2:0.2593095 3:0.17841423 4:0.1229558 5:0.070173437 6:0.023051395 7:0.098445981 8:0.026123017 9:0.071286187 10:0.029729495 
256 1:0.34367334 2:0.38659864 3:0.13823117 4:0.10080594 5:0.030690908 6:0.24738246 7:0.095384955 8:0.037946812 9:0.15425345 10:0.10804855 
256 1:0.68816563 2:0.13986179 3:0.088709589 4:0.050770826 5:0.03249217 6:0.11040582 7:0.16704056 8:0.15011554 9:0.090332701 10:0.13624657 
256 1:0.7030035 2:0.20952868 3:0.049104228 4:0.024820012 5:0.013543586 6:0.02654723 7:0.018972702 8:0.075410666 9:0.21603281 10:0.36244256 
256 1:0.67444578 2:0.21892741 3:0.050470494 4:0.04032207 5:0.015834244 6:0.059759185 7:0.10467727 8:0.27275801 9:0.038843169 10:0.24746763 
256 1:0.43686285 2:0.34410333 3:0.09623822 4:0.081180976 5:0.041614617 6:0.025718322 7:0.046550039 8:0.11238351 9:0.045921702 10:0.068957164 
256 1:0.49632411 2:0.19786722 3:0.13961949 4:0.11826419 5:0.047924987 6:0.27142064 7:0.1360686 8:0.11737457 9:0.083095096 10:0.044370101 
256 1:0.5975516 2:0.22908956 3:0.080453044 4:0.060319653 5:0.032586138 6:0.0085608617 7:0.129077 8:0.089119036 9:0.089406922 10:0.081649497 
256 1:0.54542473 2:0.22070775 3:0.08472353 4:0.10033723 5:0.048806759 6:0.16666723 7:0.047658104 8:0.0059264603 9:0.27621345 10:0.13858186 
256 1:0.65910338 2:0.19079812 3:0.070124191 4:0.054844643 5:0.025129666 6:0.043795763 7:0.014799968 8:0.13870369 9:0.15330601 10:0.17506779 
143.2811999099618 1:0.4012437 2:0.22615748 3:0.14047929 4:0.15895283 5:0.0731667 6:0.16745883 7:0.24257062 8:0.032711945 9:0.016961617 10:0.11830904 
256 1:0.60350648 2:0.19792028 3:0.093408662 4:0.086924711 5:0.018239872 6:0.11089024 7:0.0015223526 8:0.038004892 9:0.10067734 10:0.080494883 
256 1:0.58052796 2:0.26351157 3:0.090867499 4:0.044522319 5:0.020570649 6:0.043447612 7:0.0027666867 8:0.17436694 9:0.052255919 10:0.02619638 
256 1:0.43018073 2:0.25618389 3:0.15058193 4:0.10627918 5:0.056774269 6:0.010624398 7:0.27330411 8:0.1397152 9:0.05332511 10:0.071086074 
256 1:0.48564963 2:0.33705353 3:0.070080213 4:0.071913294 5:0.035303327 6:0.0037194879 7:0.033188321 8:0.0091278394 9:0.13512177 10:0.00084520905 
232.02467132344893 1:0.40612894 2:0.19370566 3:0.18226047 4:0.13360974 5:0.084295193 6:0.27646058 7:0.2551509 8:0.17811685 9:0.41586188 10:0.28653203 
256 1:0.2655728 2:0.33477894 3:0.19677667 4:0.11992576 5:0.082945833 6:0.26029492 7:0.12958645 8:0.1652088 9:0.095154901 10:0.071132571 
256 1:0.69912428 2:0.19610292 3:0.059952599 4:0.03118257 5:0.013637633 6:0.004336832 7:0.0035083615 8:0.11312805 9:0.053363501 10:0.010544032 
138.58880929478372 1:0.36678351 2:0.27376859 3:0.15704373 4:0.12725815 5:0.075146025 6:0.12098989 7:0.0080524503 8:0.023206978 9:0.11835036 10:0.12091076 
256 1:0.65808699 2:0.17985465 3:0.074898811 4:0.056597267 5:0.030562275 6:0.057468105 7:0.0896291 8:0.053821963 9:0.024246759 10:0.039437547 
256 1:0.54779249 2:0.24507195 3:0.079633015 4:0.087315555 5:0.040186982 6:0.17116266 7:0.13359251 8:0.11446495 9:0.16297632 10:0.32023838 
241.88627686653058 1:0.23647774 2:0.43086744 3:0.13054163 4:0.13509761 5:0.067015578 6:0.20888521 7:0.22884124 8:0.10101102 9:0.14735332 10:0.0044557028 
256 1:0.74323657 2:0.16626673 3:0.040903845 4:0.032829733 5:0.016763119 6:0.031573439 7:0.13727648 8:0.12874287 9:0.090141041 10:0.1540253 
256 1:0.49877915 2:0.34892693 3:0.079367962 4:0.048667752 5:0.024258206 6:0.022300729 7:0.07133933 8:0.031927285 9:0.063181719 10:0.055271335 
256 1:0.55085799 2:0.26870992 3:0.09597314 4:0.055617851 5:0.0288411 6:0.053253941 7:0.033356531 8:0.0097295688 9:0.090288696 10:0.35766798 
256 1:0.66687503 2:0.22236522 3:0.080772702 4:0.022369286 5:0.0076177619 6:0.042922417 7:0.01309095 8:0.12827953 9:0.067109696 10:0.059970251 
256 1:0.4083809 2:0.33648073 3:0.11634471 4:0.087406183 5:0.051387473 6:0.061681343 7:0.16913739 8:0.0019520747 9:0.072172543 10:0.017497124 
256 1:0.31429344 2:0.4528359 3:0.10925237 4:0.08649468 5:0.037123608 6:0.2979622 7:0.055583242 8:0.052655705 9:0.023318521 10:0.012086438 
256 1:0.46748425 2:0.36439341 3:0.079159368 4:0.055552044 5:0.03341092 6:0.3408688 7:0.02352488 8:0.04045569 9:0.060919669 10:0.13537627 
256 1:0.76312837 2:0.13512201 3:0.047610671 4:0.034778398 5:0.019360554 6:0.082495592 7:0.14809402 8:0.28397764 9:0.04355993 10:0.13616089 
256 1:0.57958244 2:0.26105115 3:0.073665355 4:0.060646362 5:0.025054687 6:0.074900066 7:0.026598056 8:0.21929453 9:0.039648857 10:0.013861988 
256 1:0.53362418 2:0.2358055 3:0.10757351 4:0.084502826 5:0.038493987 6:0.0088320249 7:0.11502491 8:0.082668808 9:0.14474541 10:0.16793332 
256 1:0.61011949 2:0.22542309 3:0.080631009 4:0.056099562 5:0.027726853 6:0.046465768 7:0.078059556 8:0.12162436 9:0.12292471 10:0.12725095 
256 1:0.63395402 2:0.17435785 3:0.083157511 4:0.066138877 5:0.042391745 6:0.081993431 7:0.040443796 8:0.097747331 9:0.11097161 10:0.018694688 
256 1:0.25791889 2:0.31396699 3:0.21480305 4:0.15316274 5:0.060148334 6:0.035178742 7:0.066290026 8:0.056023653 9:0.10763669 10:0.088792193 
256 1:0.38642795 2:0.2406098 3:0.14844715 4:0.15147934 5:0.07303576 6:0.061001141 7:0.13666252 8:0.021735363 9:0.13045977 10:0.0066238401 
212.71643239494492 1:0.27839724 2:0.34802407 3:0.14557174 4:0.14321373 5:0.084793234 6:0.31718842 7:0.21850044 8:0.22825682 9:0.45821013 10:0.60676227 
256 1:0.51367598 2:0.31472158 3:0.086246902 4:0.059834752 5:0.025520788 6:0.12540483 7:0.052076221 8:0.063677612 9:0.11362841 10:0.0081889592 
76.589416893666055 1:0.67390831 2:0.16417337 3:0.043475327 4:0.066779016 5:0.051663984 6:0.18601353 7:0.24151345 8:0.051530778 9:0.05926692 10:0.11882599 
256 1:0.5337505 2:0.25069713 3:0.11036184 4:0.061749989 5:0.04344054 6:0.26818299 7:0.051654892 8:0.21507132 9:0.10073608 10:0.093345197 
256 1:0.47674647 2:0.26705232 3:0.10179205 4:0.11217896 5:0.042230198 6:0.20639052 7:0.20902891 8:0.16910327 9:0.22965833 10:0.10851564 
256 1:0.57149729 2:0.23200668 3:0.10068191 4:0.058345142 5:0.037468984 6:0.0067272776 7:0.057303069 8:0.13033251 9:0.039995247 10:0.039072666 
194.29732937363781 1:0.52144978 2:0.27130072 3:0.10265026 4:0.063881083 5:0.040718158 6:0.18266477 7:0.087195623 8:0.15529052 9:0.1167039 10:0.087129944 
256 1:0.58645002 2:0.22254048 3:0.094628614 4:0.071295396 5:0.025085498 6:0.0017894209 7:0.090682817 8:0.023996271 9:0.13233266 10:0.14410351 
256 1:0.36085297 2:0.32029242 3:0.14733668 4:0.11055684 5:0.060961079 6:0.22459755 7:0.04951795 8:0.052453335 9:0.0082073576 10:0.028260395 
131.17421465386653 1:0.73254124 2:0.16888458 3:0.044697705 4:0.031109048 5:0.022767426 6:0.012141615 7:0.085270186 8:0.13954243 9:0.014008306 10:0.11207719 
256 1:0.31163365 2:0.28930081 3:0.1428101 4:0.17929619 5:0.076959244 6:0.023615263 7:0.22186104 8:0.025842628 9:0.015651256 10:0.21163864 
256 1:0.37308661 2:0.31849242 3:0.15073055 4:0.1004674 5:0.057223017 6:0.25114103 7:0.040789825 8:0.067103575 9:0.004589455 10:0.014500899 
256 1:0.66533352 2:0.16527001 3:0.065087911 4:0.062148915 5:0.042159639 6:0.11144528 7:0.13632118 8:0.17953439 9:0.079640924 10:0.10511814 
256 1:0.63578641 2:0.22189254 3:0.074868102 4:0.048554684 5:0.018898272 6:0.038656972 7:0.0024513467 8:0.0078526984 9:0.20263921 10:0.1898532 
256 1:0.46988284 2:0.36486182 3:0.094153064 4:0.051098482 5:0.020003797 6:0.0033961591 7:0.037779912 8:0.042778898 9:0.058021249 10:0.091148577 
256 1:0.48777435 2:0.26064956 3:0.12527935 4:0.082767875 5:0.043528855 6:0.31052996 7:0.02774732 8:0.0511178 9:0.17746339 10:0.0760186 
256 1:0.58898263 2:0.16630931 3:0.11429231 4:0.082280655 5:0.048135092 6:0.10975456 7:0.07801866 8:0.1016804 9:0.13167538 10:0.12652202 
256 1:0.53678423 2:0.22049252 3:0.11110577 4:0.085763922 5:0.04585356 6:0.14519946 7:0.036217833 8:0.012403877 9:0.01435108 10:0.11970397 
256 1:0.5727426 2:0.17172485 3:0.12740804 4:0.080224733 5:0.047899779 6:0.14364903 7:0.0084582705 8:0.0069326497 9:0.31508537 10:0.31262696 
17.206883202457156 1:0.43168184 2:0.36055639 3:0.084450287 4:0.089564547 5:0.033746933 6:0.10817089 7:0.063811115 8:0.1043207 9:0.29451919 10:0.16738528 
128.90890445061206 1:0.2468984 2:0.20082415 3:0.093409364 4:0.23196016 5:0.22690793 6:0.23494954 7:0.21324262 8:0.17842035 9:0.19693452 10:0.077048766 
256 1:0.72425736 2:0.20616068 3:0.040493883 4:0.020696463 5:0.008391608 6:0.063503631 7:0.078339137 8:0.17533961 9:0.031866695 10:0.10390636 
256 1:0.42001387 2:0.37673985 3:0.12998193 4:0.043253064 5:0.030011277 6:0.031192649 7:0.038422076 8:0.11068111 9:0.056763949 10:0.080716086 
256 1:0.6880191 2:0.19456155 3:0.072845772 4:0.033237105 5:0.011336479 6:0.091773756 7:0.018292728 8:0.10815273 9:0.15883421 10:0.2879076 
256 1:0.41794368 2:0.28340232 3:0.14348202 4:0.10143626 5:0.053735725 6:0.098127265 7:0.18063412 8:0.24565446 9:0.20525791 10:0.21346802 
256 1:0.27909177 2:0.3320898 3:0.17132418 4:0.13555893 5:0.081935317 6:0.075369187 7:0.052435282 8:0.06228489 9:0.06954634 10:0.076961248 
256 1:0.18129085 2:0.56111739 3:0.080833631 4:0.11728404 5:0.05947409 6:0.086690303 7:0.02034436 8:0.034841048 9:0.034446129 10:0.088843122 
256 1:0.60923381 2:0.24184541 3:0.067088222 4:0.052648682 5:0.029183879 6:0.066093964 7:0.054357536 8:0.22409496 9:0.20611732 10:0.40770338 
122.53834488415178 1:0.61442518 2:0.1581555 3:0.069299266 4:0.073587741 5:0.084532317 6:0.39593973 7:0.24102851 8:0.018473048 9:0.20096095 10:0.10175781 
256 1:0.58309305 2:0.25602437 3:0.063881698 4:0.070825869 5:0.026175011 6:0.0020413985 7:0.030664926 8:0.10980486 9:0.0071669083 10:0.041742537 
15.183684031144725 1:0.76547019 2:0.15910316 3:0.028609336 4:0.029917331 5:0.016899978 6:0.10926483 7:0.041060287 8:0.29858583 9:0.33039107 10:0.27124276 
256 1:0.38998641 2:0.32706185 3:0.12345204 4:0.10481176 5:0.054687943 6:0.084979301 7:0.033439386 8:0.054965317 9:0.069413772 10:0.12128608 
256 1:0.1896932 2:0.34740197 3:0.18509373 4:0.19753375 5:0.080277356 6:0.14793671 7:0.07049711 8:0.12398381 9:0.16242949 10:0.20630726 
256 1:0.64774366 2:0.17802277 3:0.091890817 4:0.05807404 5:0.024268711 6:0.011042625 7:0.12732352 8:0.1402615 9:0.19474397 10:0.044153263 
256 1:0.30093523 2:0.33991363 3:0.14845969 4:0.14109083 5:0.069600617 6:0.082114004 7:0.021639162 8:0.029589183 9:0.035833092 10:0.059655237 
256 1:0.45841587 2:0.30580556 3:0.12054054 4:0.083312615 5:0.031925414 6:0.1005512 7:0.079351785 8:0.06742346 9:0.10343541 10:0.055239707 
256 1:0.76828097 2:0.15894049 3:0.031233703 4:0.02494242 5:0.016602423 6:0.043541608 7:0.029868972 8:0.26375179 9:0.19171793 10:0.07138609 
256 1:0.49441602 2:0.23295043 3:0.093785112 4:0.13527936 5:0.043569078 6:0.51514846 7:0.29641065 8:0.13323473 9:0.20871669 10:0.092842895 
256 1:0.67732099 2:0.18632866 3:0.080471948 4:0.038884442 5:0.016993952 6:0.12206547 7:0.0097261464 8:0.07839078 9:0.16253697 10:0.024378044 
256 1:0.63916791 2:0.13187305 3:0.10186186 4:0.079558762 5:0.047538424 6:0.029213662 7:0.029636332 8:0.026785859 9:0.032600671 10:0.045331106 
256 1:0.55462465 2:0.27101465 3:0.080869452 4:0.061262713 5:0.032228541 6:0.11517965 7:0.13376068 8:0.14018281 9:0.11433446 10:0.12979236 
256 1:0.29827444 2:0.38015921 3:0.13725686 4:0.11851031 5:0.065799183 6:0.17532119 7:0.0016940701 8:0.071017586 9:0.071454684 10:0.20383191 
256 1:0.53546894 2:0.29000882 3:0.095342546 4:0.058816416 5:0.020363281 6:0.066967534 7:0.42177624 8:0.25008185 9:0.10944571 10:0.17327296 
256 1:0.43193638 2:0.27028339 3:0.13574632 4:0.11036291 5:0.051670993 6:0.081089261 7:0.068829088 8:0.10363509 9:0.14451253 10:0.34251261 
256 1:0.46330207 2:0.37937679 3:0.080548662 4:0.052087347 5:0.024685129 6:0.19791817 7:0.032015449 8:0.012649102 9:0.051686921 10:0.042079283 
256 1:0.47000972 2:0.25454069 3:0.12472181 4:0.081793067 5:0.068934721 6:0.22114666 7:0.1276391 8:0.17727035 9:0.22027097 10:0.49938493 
256 1:0.41344192 2:0.15422364 3:0.13045849 4:0.16303375 5:0.1388422 6:0.051660762 7:0.22211858 8:0.16868405 9:0.42124228 10:0.52434803 
256 1:0.38227583 2:0.30455443 3:0.14471669 4:0.11407616 5:0.054376894 6:0.13232884 7:0.051353389 8:0.22637239 9:0.16927961 10:0.26932377 
256 1:0.44412131 2:0.3282245 3:0.092050196 4:0.094881769 5:0.040722232 6:0.15965116 7:0.062971446 8:0.1086619 9:0.10781226 10:0.067445579 
256 1:0.53582394 2:0.23932912 3:0.10434586 4:0.081864055 5:0.038637021 6:0.042267851 7:0.031836405 8:0.23726787 9:0.27657712 10:0.24368669 
256 1:0.67130123 2:0.19757453 3:0.064058221 4:0.047138686 5:0.01992734 6:0.028273854 7:0.047931298 8:0.031147174 9:0.13393643 10:0.080377671 
256 1:0.33034694 2:0.41307886 3:0.11973841 4:0.091784186 5:0.045051603 6:0.1696661 7:0.007216753 8:0.34144422 9:0.21425384 10:0.034647287 
256 1:0.27407852 2:0.38567953 3:0.15098967 4:0.10481294 5:0.084439342 6:0.089081693 7:0.031573045 8:0.081738317 9:0.064498645 10:0.35045763 
256 1:0.22768684 2:0.25470243 3:0.30087391 4:0.15454611 5:0.062190704 6:0.016400475 7:0.029926117 8:0.034489142 9:0.035887389 10:0.15257553 
240.26135267479705 1:0.42304605 2:0.20041863 3:0.16001315 4:0.14603603 5:0.07048614 6:0.1873476 7:0.15902234 8:0.080447735 9:0.20043673 10:0.015772728 
256 1:0.36249606 2:0.27270249 3:0.16649261 4:0.13568609 5:0.06262275 6:0.056955473 7:0.06280068 8:0.09761695 9:0.033405644 10:0.0095250403 
146.1878345681703 1:0.53679435 2:0.27470476 3:0.084025698 4:0.063772338 5:0.040702851 6:0.092994051 7:0.09888884 8:0.0043248506 9:0.11396174 10:0.27901073 
256 1:0.29967333 2:0.33069832 3:0.15627747 4:0.15615764 5:0.057193237 6:0.040015682 7:0.0092650135 8:0.012894353 9:0.032865128 10:0.082798283 
99.471873226121787 1:0.59367024 2:0.23436642 3:0.084194394 4:0.05784452 5:0.029924422 6:0.047866807 7:0.008925977 8:0.053240652 9:0.10463498 10:0.038566488 
168.67250783574318 1:0.28561505 2:0.20290323 3:0.25675721 4:0.17116853 5:0.083555971 6:0.25908351 7:0.23673519 8:0.54236936 9:0.2826757 10:0.47795516 
256 1:0.48756855 2:0.28504897 3:0.11892288 4:0.064827613 5:0.043631985 6:0.01187597 7:0.082868984 8:0.22461423 9:0.04520005 10:0.062748712 
2.4566950009023802 1:0.63353177 2:0.17197924 3:0.050648754 4:0.097895712 5:0.045944519 6:0.012833208 7:0.0095067289 8:0.13995359 9:0.038719921 10:0.020951742 
256 1:0.61578571 2:0.22398645 3:0.088658867 4:0.045827113 5:0.025741862 6:0.025746819 7:0.012761837 8:0.064532769 9:0.033203815 10:0.06570548 
256 1:0.32270293 2:0.45204952 3:0.12022817 4:0.079424114 5:0.025595266 6:0.062424428 7:0.07860237 8:0.076494863 9:0.027004216 10:0.061592431 
256 1:0.66365364 2:0.22414959 3:0.058177138 4:0.038527254 5:0.015492378 6:0.049789333 7:0.053696334 8:0.034881952 9:0.099158787 10:0.016502427 
256 1:0.34689447 2:0.31388472 3:0.1508749 4:0.13118597 5:0.057159933 6:0.00016311083 7:0.011705849 8:0.024645673 9:0.017640194 10:0.047185718 
256 1:0.3836743 2:0.34025824 3:0.13067332 4:0.10547653 5:0.039917602 6:0.054067473 7:0.26029992 8:0.059317749 9:0.05776016 10:0.11771253 
256 1:0.44015032 2:0.26807931 3:0.16754028 4:0.081030024 5:0.043200066 6:0.031992724 7:0.055343535 8:0.019038347 9:0.050801771 10:0.025710366 
256 1:0.46316827 2:0.30125481 3:0.10055694 4:0.097585006 5:0.037434977 6:0.11059715 7:0.0041581901 8:0.084120795 9:0.00037482747 10:0.092652541 
256 1:0.3558248 2:0.30525896 3:0.13544953 4:0.13807182 5:0.065394895 6:0.028996725 7:0.037909272 8:0.042653825 9:0.097172034 10:0.078043816 
256 1:0.45236524 2:0.28965741 3:0.10945377 4:0.099787339 5:0.048736244 6:0.0032116927 7:0.0079880044 8:0.12027231 9:0.088215644 10:0.074323642 
256 1:0.70512135 2:0.20322746 3:0.030572724 4:0.032854927 5:0.02822354 6:0.060928534 7:0.0037711609 8:0.051306234 9:0.23418202 10:0.51512179 
256 1:0.44003868 2:0.3127337 3:0.095160389 4:0.10319086 5:0.048876368 6:0.071226751 7:0.154707 8:0.2622231 9:0.060660438 10:0.042776457 
114.43853576851939 1:0.26965188 2:0.37930332 3:0.18336866 4:0.10564247 5:0.06203367 6:0.086694426 7:0.014548618 8:0.019045636 9:0.26799914 10:0.24556479 
256 1:0.53379824 2:0.18173353 3:0.10857112 4:0.1077061 5:0.068191015 6:0.051558586 7:0.080160251 8:0.10197993 9:0.2470509 10:0.36617671 
256 1:0.26349324 2:0.33024717 3:0.16741213 4:0.15371468 5:0.085132781 6:0.12594652 7:0.019165816 8:0.12292164 9:0.0048092872 10:0.099615289 
256 1:0.7984904 2:0.11722915 3:0.038409871 4:0.028106401 5:0.017764181 6:0.032794678 7:0.049037521 8:0.30322017 9:0.09786807 10:0.30723536 
256 1:0.3324607 2:0.36192944 3:0.10648344 4:0.14331756 5:0.055808867 6:0.079960395 7:0.049855771 8:0.12926912 9:0.086688518 10:0.20565555 
256 1:0.35699957 2:0.41351747 3:0.082403051 4:0.097077216 5:0.050002686 6:0.12978232 7:0.14043783 8:0.012171457 9:0.11364888 10:0.023300775 
113.11944057930938 1:0.44164661 2:0.26578088 3:0.11530784 4:0.12195925 5:0.055305421 6:0.21842025 7:0.18426125 8:0.058532765 9:0.097883314 10:0.087351444 
256 1:0.48914737 2:0.32944717 3:0.084747099 4:0.068678029 5:0.027980329 6:0.20500395 7:0.10794804 8:0.055775903 9:0.12256517 10:0.0021067096 
256 1:0.65811612 2:0.17033112 3:0.056719143 4:0.08634077 5:0.028492843 6:0.058710611 7:0.080993658 8:0.0083094686 9:0.010312854 10:0.057267781 
33.584250588155868 1:0.43203205 2:0.12416871 3:0.07697206 4:0.12027902 5:0.24654815 6:0.0040553536 7:0.017025012 8:0.03778401 9:0.013121155 10:0.026179267 
190.640618340608 1:0.65028099 2:0.19042744 3:0.059791148 4:0.06543386 5:0.03406656 6:0.052656337 7:0.0018978231 8:0.23955412 9:0.36755124 10:0.38538832 
256 1:0.31431732 2:0.316642 3:0.15845051 4:0.14722335 5:0.063366825 6:0.038117347 7:0.11545229 8:0.073699057 9:0.029890269 10:0.044577145 
256 1:0.36511514 2:0.16171819 3:0.084268525 4:0.18741668 5:0.20148146 6:0.088218825 7:0.010545075 8:0.035525042 9:0.092797685 10:0.21405736 
256 1:0.69432699 2:0.15156595 3:0.079352791 4:0.048356079 5:0.026398186 6:0.097925366 7:0.045029434 8:0.38957156 9:0.28892732 10:0.17323463 
242.0554415137332 1:0.17136748 2:0.45253883 3:0.1308179 4:0.15492107 5:0.09035473 6:0.071593018 7:0.29188664 8:0.14762334 9:0.11501589 10:0.0099096032 
256 1:0.2975972 2:0.39798234 3:0.1230752 4:0.12830267 5:0.053042591 6:0.10978924 7:0.04990002 8:0.086501171 9:0.05872432 10:0.084883481 
256 1:0.7034578 2:0.20756419 3:0.062385142 4:0.019213712 5:0.0073791588 6:0.038449949 7:0.037510435 8:0.12727653 9:0.022945723 10:0.043391958 
256 1:0.65339613 2:0.19619399 3:0.077359293 4:0.051642624 5:0.021407968 6:0.020527922 7:0.046600305 8:0.006695561 9:0.17673356 10:0.069376423 
256 1:0.34032001 2:0.36232816 3:0.12414384 4:0.11282057 5:0.060387421 6:0.14181035 7:0.036087803 8:0.0063778268 9:0.11506219 10:0.018076968 
256 1:0.63381467 2:0.2011931 3:0.062343542 4:0.061157572 5:0.041491115 6:0.1322516 7:0.11851581 8:0.26081429 9:0.12728035 10:0.035995615 
256 1:0.35818028 2:0.38586172 3:0.13090328 4:0.076126375 5:0.048928345 6:0.045685633 7:0.041051054 8:0.10047909 9:0.052220226 10:0.0028294449 
256 1:0.45853904 2:0.37880406 3:0.07604321 4:0.059067118 5:0.027546577 6:0.0023357502 7:0.055414553 8:0.11018415 9:0.071031811 10:0.13551788 
256 1:0.51764068 2:0.21736978 3:0.14029193 4:0.079947369 5:0.04475025 6:0.094974134 7:0.0043329984 8:0.021277301 9:0.046474932 10:0.085933126 
132.26064263391814 1:0.18708497 2:0.4667778 3:0.096412872 4:0.15343267 5:0.096291683 6:0.046591663 7:0.011368991 8:0.28841464 9:0.082158948 10:0.35562248 
256 1:0.80518301 2:0.12629104 3:0.017199683 4:0.037704335 5:0.01362194 6:0.022670169 7:0.014937109 8:0.19677479 9:0.4402344 10:0.056405242 
256 1:0.50109567 2:0.19438137 3:0.10890843 4:0.12599797 5:0.069616555 6:0.084002968 7:0.01551112 8:0.16141251 9:0.30693204 10:0.44039554 
256 1:0.33342594 2:0.19785341 3:0.21765272 4:0.1687163 5:0.082351632 6:0.098220355 7:0.010078501 8:0.041461222 9:0.24631311 10:0.1060322 
256 1:0.26854923 2:0.47028004 3:0.1033726 4:0.09577388 5:0.062024246 6:0.052558635 7:0.11280519 8:0.13408008 9:0.016412192 10:0.03161128 
256 1:0.33587708 2:0.19409217 3:0.24906978 4:0.16348018 5:0.057480788 6:0.13846976 7:0.062669407 8:0.14135803 9:0.056708467 10:0.0088898439 
256 1:0.26177428 2:0.36844278 3:0.16257036 4:0.15579234 5:0.051420235 6:0.045516394 7:0.014422016 8:0.011498968 9:0.018095772 10:0.051940564 
256 1:0.4219925 2:0.24870477 3:0.14399672 4:0.13131888 5:0.05398714 6:0.37731498 7:0.20005477 8:0.040803423 9:0.061686138 10:0.041156979 
256 1:0.50380642 2:0.29239516 3:0.083191877 4:0.083488601 5:0.037117946 6:0.0021347308 7:0.091176041 8:0.29376978 9:0.20012588 10:0.1890621 
256 1:0.31862016 2:0.1543691 3:0.25455268 4:0.20131282 5:0.071145243 6:0.060256305 7:0.10928876 8:0.13844139 9:0.13803307 10:0.16950186 
256 1:0.29660923 2:0.33549721 3:0.15784213 4:0.15582767 5:0.054223751 6:0.044657174 7:0.0061188295 8:0.010314587 9:0.034104908 10:0.091714103 
256 1:0.63023728 2:0.22187744 3:0.097925081 4:0.034765093 5:0.015195103 6:0.0091313654 7:0.0050864168 8:0.0091107009 9:0.052566722 10:0.040930836 
256 1:0.34279732 2:0.19848801 3:0.20838421 4:0.14911739 5:0.10121307 6:0.062360728 7:0.0090336133 8:0.19290785 9:0.099105904 10:0.30327603 
256 1:0.28628473 2:0.2777793 3:0.16382791 4:0.17791608 5:0.094191969 6:0.27967253 7:0.014287661 8:0.0041140667 9:0.037411518 10:0.061275725 
27.097350980121114 1:0.44504755 2:0.23605204 3:0.13714999 4:0.10922923 5:0.072521184 6:0.042568456 7:0.19021269 8:0.029667943 9:0.071807666 10:0.0047334699 
256 1:0.49819656 2:0.26082674 3:0.11404755 4:0.082047309 5:0.044881839 6:0.19428166 7:0.059649264 8:0.079022196 9:0.023268304 10:0.10847987 
50.59158193038099 1:0.078493646 2:0.21391966 3:0.35693353 4:0.17514399 5:0.17550917 6:0.060908918 7:0.14002812 8:0.099057149 9:0.17229823 10:0.082968948 
256 1:0.61428154 2:0.16579591 3:0.11707709 4:0.069281539 5:0.033563919 6:0.015368913 7:0.13847517 8:0.025192788 9:0.15951352 10:0.28650496 
89.424597931127309 1:0.57343859 2:0.21105415 3:0.08943965 4:0.08157426 5:0.044493349 6:0.020407396 7:0.0024041993 8:0.15234028 9:0.097202974 10:0.15671908 
256 1:0.39426987 2:0.29664367 3:0.15739784 4:0.10556375 5:0.046124863 6:0.12146253 7:0.085094797 8:0.02969417 9:0.030610343 10:0.11382627 
256 1:0.66217425 2:0.17722798 3:0.10047517 4:0.040109262 5:0.020013345 6:0.00010938345 7:0.099838566 8:0.26829552 9:0.18957232 10:0.13766409 
256 1:0.32126036 2:0.40234655 3:0.17459602 4:0.065838503 5:0.035958578 6:0.092483732 7:0.1717184 8:0.20885449 9:0.12540112 10:0.10448614 
256 1:0.47278592 2:0.32210727 3:0.097208287 4:0.063017293 5:0.044881233 6:0.043707364 7:0.11976748 8:0.0044681133 9:0.037800113 10:0.26184795 
256 1:0.70138961 2:0.22872916 3:0.041669135 4:0.020030061 5:0.008182026 6:0.073895481 7:0.005894372 8:0.094628497 9:0.21610194 10:0.23312636 
256 1:0.34292642 2:0.26521532 3:0.14208242 4:0.16712435 5:0.082651494 6:0.24646566 7:0.25582137 8:0.21179975 9:0.082859702 10:0.3682748 
256 1:0.66953708 2:0.12140043 3:0.087299997 4:0.073168184 5:0.048594307 6:0.057521193 7:0.020807381 8:0.061142604 9:0.088622651 10:0.022784612 
256 1:0.34688401 2:0.21856596 3:0.20144608 4:0.12877068 5:0.10433327 6:0.18023953 7:0.21042755 8:0.19487097 9:0.078793223 10:0.050865654 
256 1:0.62092545 2:0.22689014 3:0.079061861 4:0.054820837 5:0.018301714 6:0.064286701 7:0.093999421 8:0.010339935 9:0.21532487 10:0.11220853 
256 1:0.48252818 2:0.33360171 3:0.072420634 4:0.075056993 5:0.036392484 6:0.007697665 7:0.042751854 8:0.063972475 9:0.025557529 10:0.13215656 
256 1:0.53092933 2:0.24315617 3:0.10916657 4:0.079571375 5:0.037176553 6:0.071624386 7:0.030884282 8:0.10360776 9:0.012703478 10:0.040259429 
256 1:0.69763458 2:0.19532392 3:0.049999649 4:0.039372441 5:0.017669413 6:0.010124319 7:0.13246257 8:0.086159427 9:0.0093149087 10:0.16731222 
256 1:0.56594801 2:0.23354175 3:0.087509496 4:0.079154857 5:0.033845896 6:0.040548623 7:0.11225776 8:0.069295514 9:0.1453511 10:0.11214151 
256 1:0.41538299 2:0.30509166 3:0.11472027 4:0.12725896 5:0.03754611 6:0.21073378 7:0.0049125725 8:0.063822967 9:0.039959689 10:0.0021435927 
256 1:0.31242912 2:0.34183754 3:0.1328132 4:0.15347989 5:0.059440255 6:0.26711323 7:0.31654365 8:0.12833971 9:0.16243576 10:0.012915522 
256 1:0.72198878 2:0.15116671 3:0.052996039 4:0.045414995 5:0.028433476 6:0.07876575 7:0.089420142 8:0.021905104 9:0.47027412 10:0.51490181 
149.16881750821466 1:0.30578243 2:0.18325302 3:0.087125031 4:0.1725625 5:0.25127702 6:0.27286961 7:0.092603653 8:0.013686901 9:0.11167931 10:0.063330415 
256 1:0.24620023 2:0.53433579 3:0.1179478 4:0.069168371 5:0.0323478 6:0.070454363 7:0.012927745 8:0.1317445 9:0.095873399 10:0.046412911 
256 1:0.55851333 2:0.1919281 3:0.10128231 4:0.096099624 5:0.052176637 6:0.0096684887 7:0.095383959 8:0.1474127 9:0.23393411 10:0.33609802 
256 1:0.65624943 2:0.16586504 3:0.067967184 4:0.070204708 5:0.039713635 6:0.026494072 7:0.042860755 8:0.11066546 9:0.13686817 10:0.2865141 
256 1:0.51176046 2:0.20349291 3:0.10044378 4:0.13148975 5:0.052813104 6:0.308663 7:0.33419256 8:0.075947059 9:0.1978471 10:0.058531478 
256 1:0.40377046 2:0.16247089 3:0.19613547 4:0.15417892 5:0.083444263 6:0.088456483 7:0.071987761 8:0.061853565 9:0.0011497138 10:0.10091725 
256 1:0.27938999 2:0.33152695 3:0.17355083 4:0.14463705 5:0.070895183 6:0.073441009 7:0.11497727 8:0.16000113 9:0.23260813 10:0.12716053 
256 1:0.40158907 2:0.28750189 3:0.15913552 4:0.093866654 5:0.057906861 6:0.21730873 7:0.1569789 8:0.083519174 9:0.14147644 10:0.16882795 
256 1:0.4590723 2:0.25954782 3:0.12091008 4:0.1065813 5:0.053888507 6:0.33102043 7:0.085695971 8:0.25082629 9:0.094185675 10:0.080280936 
256 1:0.30589508 2:0.35072315 3:0.17061158 4:0.10802096 5:0.064749218 6:0.35581007 7:0.085703273 8:0.054578288 9:0.0021566067 10:0.063512738 
256 1:0.68989715 2:0.20265288 3:0.045457495 4:0.043484815 5:0.01850766 6:0.1614338 7:0.085979386 8:0.043749659 9:0.0052275148 10:0.15145932 
256 1:0.38669188 2:0.23812692 3:0.16041868 4:0.13564392 5:0.079118609 6:0.0025763313 7:0.10067643 8:0.027631344 9:0.058808752 10:0.035429912 
256 1:0.29026743 2:0.29589982 3:0.18776166 4:0.15437317 5:0.071697917 6:0.037752553 7:0.17403632 8:0.25828345 9:0.06807838 10:0.053331556 
256 1:0.3290758 2:0.34440851 3:0.16408654 4:0.10643492 5:0.055994234 6:0.20321897 7:0.055720994 8:0.20313249 9:0.16728571 10:0.062526246 
256 1:0.51562087 2:0.24047867 3:0.090823158 4:0.119698 5:0.033379302 6:0.12258622 7:0.14320558 8:0.017705069 9:0.07481791 10:0.034769446 
256 1:0.33085459 2:0.31870295 3:0.17682866 4:0.11856643 5:0.055047371 6:0.087164436 7:0.15655255 8:0.12787084 9:0.12094256 10:0.21281306 
256 1:0.46269793 2:0.210619 3:0.15700796 4:0.11526389 5:0.054411215 6:0.17144449 7:0.090595439 8:0.088489558 9:0.18117999 10:0.076983685 
256 1:0.23552213 2:0.2642836 3:0.18191379 4:0.23150947 5:0.086771008 6:0.22953695 7:0.14878342 8:0.17245986 9:0.19904075 10:0.11832313 
256 1:0.49609479 2:0.316377 3:0.091005101 4:0.067853985 5:0.028669122 6:0.038791285 7:0.042908432 8:0.033181742 9:0.25835354 10:0.13713811 
256 1:0.6447189 2:0.16860968 3:0.069126292 4:0.060755078 5:0.056790049 6:0.21569962 7:0.036257863 8:0.15454064 9:0.13759234 10:0.047163821 
256 1:0.78092723 2:0.1474306 3:0.023753976 4:0.033593688 5:0.014294509 6:0.015991826 7:0.18751907 8:0.12395019 9:0.40084968 10:0.31377466 
256 1:0.53375991 2:0.25520781 3:0.098266729 4:0.077433849 5:0.0353317 6:0.042636602 7:0.04004522 8:0.081734653 9:0.050088409 10:0.04199929 
256 1:0.68009526 2:0.17554043 3:0.071535333 4:0.049346917 5:0.023482066 6:0.021612539 7:0.10721682 8:0.084166579 9:0.14499835 10:0.19644467 
256 1:0.5695559 2:0.33248446 3:0.052817958 4:0.035286629 5:0.0098550532 6:0.13337148 7:0.10967251 8:0.092225291 9:0.10717519 10:0.076934755 
256 1:0.72851537 2:0.1805067 3:0.041921358 4:0.029139778 5:0.019916787 6:0.11982371 7:0.18485819 8:0.15297921 9:0.10660373 10:0.08289142 
256 1:0.43801182 2:0.33691169 3:0.10724452 4:0.079727307 5:0.038104664 6:0.15571757 7:0.053963609 8:0.10659563 9:0.029358493 10:0.042416101 
256 1:0.758416 2:0.16244708 3:0.03187795 4:0.028903435 5:0.018355535 6:0.047254882 7:0.017286698 8:0.25880017 9:0.1492714 10:0.11686797 
256 1:0.54362984 2:0.24064903 3:0.086934534 4:0.092090076 5:0.03669652 6:0.01023911 7:0.088365718 8:0.048929572 9:0.20409677 10:0.27921777 
256 1:0.28616882 2:0.37185737 3:0.13412167 4:0.13558083 5:0.072271324 6:0.035048908 7:0.034807165 8:0.11600958 9:0.026375216 10:0.12961316 
256 1:0.42246778 2:0.35200124 3:0.087396163 4:0.097984891 5:0.040149925 6:0.015483473 7:0.042361041 8:0.096763162 9:0.0026971869 10:0.029127829 
256 1:0.30049479 2:0.28143837 3:0.20655069 4:0.13701272 5:0.074503426 6:0.27443898 7:0.12102374 8:0.17626629 9:0.0017477921 10:0.14858389 
256 1:0.31935727 2:0.34175155 3:0.1488495 4:0.11919447 5:0.070847215 6:0.1809162 7:0.012095119 8:0.078653019 9:0.033754911 10:0.073422791 
256 1:0.72491773 2:0.20034919 3:0.028255653 4:0.028687919 5:0.017789505 6:0.32151301 7:0.041354211 8:0.088107868 9:0.20470898 10:0.1953327 
256 1:0.55156879 2:0.3030917 3:0.085063293 4:0.043908742 5:0.016367477 6:0.091549995 7:0.0017550654 8:0.12144717 9:0.072171648 10:0.049194662 
56.719260817138114 1:0.29440682 2:0.25519982 3:0.17952618 4:0.19622205 5:0.074645133 6:0.32305632 7:0.32670705 8:0.32273378 9:0.34634668 10:0.24756255 
256 1:0.5125562 2:0.2982409 3:0.10904309 4:0.053123268 5:0.027036536 6:0.42144831 7:0.096639054 8:0.25215605 9:0.12972565 10:0.065868743 
256 1:0.25562189 2:0.41759474 3:0.15024864 4:0.10911919 5:0.067415545 6:0.18598384 7:0.07480666 8:0.0049924701 9:0.10649309 10:0.0032354664 
233.33220832088071 1:0.26046769 2:0.23289573 3:0.10804001 4:0.1660007 5:0.23259588 6:0.14972407 7:0.0052884586 8:0.039567998 9:0.083930982 10:0.19080574 
256 1:0.16886158 2:0.39037294 3:0.18078307 4:0.16278137 5:0.097201043 6:0.012930212 7:0.087575918 8:0.22927258 9:0.13100248 10:0.10925747 
256 1:0.45461922 2:0.29117155 3:0.12393863 4:0.080871571 5:0.049399017 6:0.62272674 7:0.39410751 8:0.18039933 9:0.013402763 10:0.047510383 
256 1:0.42506046 2:0.3191125 3:0.084976328 4:0.12354489 5:0.047305826 6:0.042236488 7:0.053438181 8:0.14480262 9:0.11047091 10:0.012828029 
256 1:0.23767573 2:0.55030582 3:0.088729386 4:0.076556246 5:0.046732821 6:0.14489262 7:0.10923954 8:0.0071243071 9:0.14093697 10:0.029189972 
81.16411283290968 1:0.42826465 2:0.15476082 3:0.067009153 4:0.1909109 5:0.15905448 6:0.0039154484 7:0.015674947 8:0.038104898 9:0.2975295 10:0.22582976 
256 1:0.51089902 2:0.28675518 3:0.099383766 4:0.07682204 5:0.026139989 6:0.1790565 7:0.046999058 8:0.029488152 9:0.17265456 10:0.34605984 
256 1:0.54715327 2:0.17748678 3:0.12191492 4:0.094695159 5:0.05874986 6:0.015635369 7:0.063034786 8:0.092258445 9:0.33371995 10:0.0039513806 
256 1:0.76484245 2:0.12241951 3:0.050078735 4:0.042273221 5:0.020386088 6:0.0069264634 7:0.085118754 8:0.0054502965 9:0.083338665 10:0.27698946 
256 1:0.35875923 2:0.27701495 3:0.19006276 4:0.1157575 5:0.058405557 6:0.38682631 7:0.0051392319 8:0.1198905 9:0.11645992 10:0.14823988 
256 1:0.7045201 2:0.21032872 3:0.052978922 4:0.022236706 5:0.0099355483 6:0.24170995 7:0.3708498 8:0.30065327 9:0.31813121 10:0.25015928 
190.04157594935128 1:0.19334483 2:0.28961013 3:0.16761397 4:0.24386397 5:0.10556709 6:0.43316526 7:0.045497746 8:0.17293471 9:0.0072724878 10:0.23854165 
256 1:0.50363611 2:0.27599276 3:0.064557864 4:0.11359005 5:0.042223213 6:0.087730504 7:0.079167616 8:0.13681736 9:0.039273069 10:0.037529258 
155.71583548568864 1:0.37928106 2:0.2251085 3:0.15802354 4:0.16757508 5:0.070011818 6:0.073419389 7:0.21638884 8:0.29673553 9:0.35527847 10:0.23905103 
256 1:0.42850713 2:0.29590752 3:0.10092208 4:0.13292578 5:0.041737485 6:0.014885552 7:0.2387124 8:0.034948975 9:0.21353743 10:0.12429645 
256 1:0.69607034 2:0.17959345 3:0.057364911 4:0.044511735 5:0.02245956 6:0.075257994 7:0.10702014 8:0.11091523 9:0.091808333 10:0.096572059 
256 1:0.59338876 2:0.28460273 3:0.052338179 4:0.049775597 5:0.019894738 6:0.031773522 7:0.056968249 8:0.035966148 9:0.085351079 10:0.048781193 
74.031842147560667 1:0.13575617 2:0.54677824 3:0.13661271 4:0.12403958 5:0.0568133 6:0.35271842 7:0.28124098 8:0.087859768 9:0.19873353 10:0.042577186 
256 1:0.42501067 2:0.27456238 3:0.14542275 4:0.11084598 5:0.04415822 6:0.08698967 7:0.069101998 8:0.090048841 9:0.20457637 10:0.10807916 
256 1:0.3424273 2:0.32661118 3:0.153265 4:0.12518823 5:0.05250829 6:0.0040527283 7:0.097458654 8:0.012535822 9:0.060350313 10:0.22137495 
256 1:0.64537 2:0.21065529 3:0.090004477 4:0.037466858 5:0.016503376 6:0.034217765 7:0.02333103 8:0.014194087 9:0.0067618082 10:0.052480449 
256 1:0.2235234 2:0.54511049 3:0.11431459 4:0.086171203 5:0.030880319 6:0.28530106 7:0.12360812 8:0.0037135617 9:0.01434574 10:0.056074239 
256 1:0.66660994 2:0.20968034 3:0.076176678 4:0.034132951 5:0.01340009 6:0.0042033011 7:0.03966805 8:0.14120721 9:0.063732175 10:0.021370454 
256 1:0.44590679 2:0.26415108 3:0.12808109 4:0.10914629 5:0.05271476 6:0.023755111 7:0.18376634 8:0.19649002 9:0.11406335 10:0.34025834 
256 1:0.42205766 2:0.27107674 3:0.1512216 4:0.1074432 5:0.048200796 6:0.12652746 7:0.010485389 8:0.053320818 9:0.10095488 10:0.12617084 
256 1:0.46458699 2:0.29671959 3:0.11565747 4:0.081629581 5:0.041406363 6:0.01273153 7:0.028393368 8:0.14073608 9:0.12732873 10:0.085075686 
256 1:0.52123077 2:0.29070221 3:0.10607872 4:0.055241155 5:0.026747146 6:0.035155394 7:0.11516626 8:0.11828437 9:0.017106175 10:0.036207719 
256 1:0.35379556 2:0.34794332 3:0.11436702 4:0.13313504 5:0.050759062 6:0.067057599 7:0.16235855 8:0.061450886 9:0.036057243 10:0.28306665 
256 1:0.445023 2:0.27053567 3:0.1277184 4:0.10093039 5:0.055792544 6:0.086900836 7:0.16042469 8:0.14991411 9:0.027132278 10:0.060380203 
256 1:0.5139548 2:0.30391877 3:0.11329225 4:0.047491883 5:0.021342295 6:0.18842466 7:0.05284913 8:0.069493101 9:0.050892459 10:0.0052139989 
256 1:0.40824794 2:0.31042964 3:0.12789566 4:0.10478043 5:0.048646341 6:0.093960841 7:0.081801649 8:0.018840314 9:0.083292893 10:0.042752372 
256 1:0.47078499 2:0.26608494 3:0.1271794 4:0.097067239 5:0.038883428 6:0.11943063 7:0.22599405 8:0.077135327 9:0.19660014 10:0.16663234 
256 1:0.5512475 2:0.29059423 3:0.083768953 4:0.047925675 5:0.026463638 6:0.057647546 7:0.17509769 8:0.22780624 9:0.14664282 10:0.015907169 
256 1:0.63594592 2:0.21679968 3:0.057982702 4:0.054362584 5:0.034909109 6:0.14060817 7:0.015794649 8:0.0096535326 9:0.15937208 10:0.18533909 
256 1:0.34086307 2:0.31025293 3:0.13272417 4:0.14904141 5:0.067118418 6:0.17529339 7:0.035294347 8:0.09531311 9:0.033157758 10:0.047120677 
256 1:0.31621633 2:0.28016595 3:0.14391664 4:0.18168723 5:0.078013849 6:0.42903317 7:0.19404527 8:0.070018421 9:0.14956852 10:0.056156202 
256 1:0.36279414 2:0.49705001 3:0.082502035 4:0.037691948 5:0.019961877 6:0.075203247 7:0.054954673 8:0.054415016 9:0.097321185 10:0.025920953 
256 1:0.26883674 2:0.27293007 3:0.17576923 4:0.19235046 5:0.090113501 6:0.10644289 7:0.24138897 8:0.28981088 9:0.15308319 10:0.15794724 
256 1:0.70343353 2:0.1906326 3:0.047480379 4:0.036011079 5:0.022442413 6:0.1749695 7:0.052585117 8:0.035385679 9:0.1526173 10:0.23038682 
256 1:0.28172981 2:0.31743235 3:0.18118318 4:0.14139008 5:0.078264587 6:0.28625745 7:0.14916777 8:0.1685856 9:0.11240662 10:0.18582496 
256 1:0.31005695 2:0.3921274 3:0.12024666 4:0.11091614 5:0.066652844 6:0.054646921 7:0.075393158 8:0.12819749 9:0.0031944901 10:0.048775835 
256 1:0.49824574 2:0.30590466 3:0.082751623 4:0.075859087 5:0.037238891 6:0.06525039 7:0.01538015 8:0.16896759 9:0.0059934054 10:0.069091521 
256 1:0.46655612 2:0.26449544 3:0.13003512 4:0.081220218 5:0.0576931 6:0.033709854 7:0.1355917 8:0.084886534 9:0.015766963 10:0.16279902 
256 1:0.44226846 2:0.45399191 3:0.055596999 4:0.031228678 5:0.016913956 6:0.068403912 7:0.049421918 8:0.15811579 9:0.031914297 10:0.0071236565 
256 1:0.51656119 2:0.30211427 3:0.097397393 4:0.056236526 5:0.027690626 6:0.011576043 7:0.02927772 8:0.026161649 9:0.03034478 10:0.026033041 
256 1:0.33134499 2:0.40489515 3:0.11518529 4:0.10671517 5:0.041859405 6:0.026861426 7:0.24937205 8:0.16869614 9:0.12596915 10:0.087068545 
256 1:0.20425616 2:0.41185554 3:0.14238166 4:0.15843933 5:0.08306731 6:0.075626189 7:0.12687008 8:0.014915684 9:0.039346632 10:0.057594574 
256 1:0.48014279 2:0.26890029 3:0.098036025 4:0.1072716 5:0.045649289 6:0.11468835 7:0.06454853 8:0.031432922 9:0.1169472 10:0.047970942 
256 1:0.42264692 2:0.25795109 3:0.16226497 4:0.10278218 5:0.054354843 6:0.095516346 7:0.097231204 8:0.065517956 9:0.14181686 10:0.042823758 
256 1:0.36979194 2:0.27966876 3:0.15122568 4:0.13004421 5:0.069269413 6:0.055864395 7:0.1121578 8:0.059483228 9:0.058292213 10:0.051407546 
256 1:0.64413048 2:0.1984554 3:0.084630774 4:0.046797959 5:0.025985387 6:0.0071961207 7:0.19697388 8:0.048019078 9:0.010663456 10:0.12483585 
256 1:0.26035567 2:0.35989396 3:0.16458116 4:0.1629265 5:0.05224272 6:0.12283226 7:0.008717088 8:0.091464189 9:0.021480035 10:0.079733421 
256 1:0.54535594 2:0.26358165 3:0.070659779 4:0.085240954 5:0.035161677 6:0.036003558 7:0.11254335 8:0.20409812 9:0.1033513 10:0.09139411 
256 1:0.5955447 2:0.22703485 3:0.084152801 4:0.060612669 5:0.032654979 6:0.025680455 7:0.12013578 8:0.081921175 9:0.093577802 10:0.098786242 
256 1:0.45771956 2:0.35689783 3:0.086899246 4:0.073529099 5:0.024954259 6:0.064819022 7:0.20900247 8:0.33457042 9:0.2189401 10:0.4002527 
256 1:0.68420944 2:0.1209607 3:0.069918508 4:0.078540833 5:0.046370518 6:0.0074286319 7:0.1791769 8:0.034631995 9:0.025739749 10:0.010838335 
27.345043577328273 1:0.22424654 2:0.19853536 3:0.095244532 4:0.29393064 5:0.18804293 6:0.21569646 7:0.38032708 8:0.3406379 9:0.22195548 10:0.066873242 
256 1:0.39979946 2:0.26964097 3:0.166338 4:0.11662108 5:0.047600482 6:0.010660633 7:0.041894713 8:0.0011064839 9:0.020599753 10:0.014530838 
256 1:0.46288707 2:0.29321102 3:0.1003304 4:0.11146088 5:0.032110632 6:0.18285948 7:0.21310723 8:0.084014841 9:0.13359084 10:0.17327707 
256 1:0.6613368 2:0.17741799 3:0.083365478 4:0.065790093 5:0.012089638 6:0.019293519 7:0.067690706 8:0.0009482227 9:0.025571744 10:0.066020372 
256 1:0.29049018 2:0.33768025 3:0.15832496 4:0.12707279 5:0.08643181 6:0.067697234 7:0.060567254 8:0.20235441 9:0.032922238 10:0.020250443 
256 1:0.39164593 2:0.16300555 3:0.20982311 4:0.19175007 5:0.043775339 6:0.10681537 7:0.098534751 8:0.028322802 9:0.023650387 10:0.10031902 
256 1:0.62087551 2:0.21474629 3:0.074153307 4:0.058667232 5:0.031557653 6:0.049772877 7:0.027539091 8:0.16908555 9:0.13412416 10:0.12933988 
256 1:0.27125108 2:0.39769697 3:0.13116058 4:0.14810225 5:0.051789123 6:0.12010949 7:0.099677657 8:0.016840626 9:0.058503812 10:0.10902272 
256 1:0.30783762 2:0.3676359 3:0.14857107 4:0.12065471 5:0.055300689 6:0.10317508 7:0.15524194 8:0.2743692 9:0.03764202 10:0.077311575 
256 1:0.67862398 2:0.24377976 3:0.047168975 4:0.021652761 5:0.0087745302 6:0.059439727 7:0.01681366 8:0.11381405 9:0.13910603 10:0.06534864 
256 1:0.58720394 2:0.23378167 3:0.089498347 4:0.060327689 5:0.029188358 6:0.011087401 7:0.0011138032 8:0.063126825 9:0.080007401 10:0.1094294 
67.807860580718113 1:0.5533749 2:0.27841155 3:0.085643773 4:0.060639217 5:0.021930558 6:0.11242469 7:0.082422085 8:0.034536207 9:0.00717803 10:0.015135096 
256 1:0.48120393 2:0.31536402 3:0.072407048 4:0.09075352 5:0.040271475 6:0.44397572 7:0.04879696 8:0.2644222 9:0.13781993 10:0.1514828 
256 1:0.30773956 2:0.31463778 3:0.16034233 4:0.1388586 5:0.078421722 6:0.22138335 7:0.12467461 8:0.015782956 9:0.077937591 10:0.150672 
256 1:0.74035134 2:0.19106049 3:0.040664586 4:0.016656072 5:0.011267512 6:0.030691527 7:0.053970307 8:0.11489046 9:0.043360925 10:0.16777116 
256 1:0.52319865 2:0.2365988 3:0.089975843 4:0.10147762 5:0.048749089 6:0.064287216 7:0.062421732 8:0.13714999 9:0.18201435 10:0.39220712 
256 1:0.57120271 2:0.28477178 3:0.088966051 4:0.035846505 5:0.019212948 6:0.0075317231 7:0.067292609 8:0.056118566 9:0.22425597 10:0.13998679 
256 1:0.55762233 2:0.24890312 3:0.10991729 4:0.04815802 5:0.035399243 6:0.098846141 7:0.080784898 8:0.10181395 9:0.10474012 10:0.097735549 
256 1:0.4665566 2:0.27737308 3:0.10878637 4:0.097434269 5:0.049849669 6:0.11956337 7:0.069153055 8:0.045985905 9:0.043084056 10:0.17966773 
256 1:0.53933238 2:0.30412492 3:0.082855353 4:0.051396395 5:0.022290955 6:0.11475164 7:0.081748108 8:0.20697118 9:0.10171517 10:0.1087258 
256 1:0.36824972 2:0.41098413 3:0.10064597 4:0.077160731 5:0.042959457 6:0.097173587 7:0.074825678 8:0.062523887 9:0.11055915 10:0.16147153 
256 1:0.3357016 2:0.23008611 3:0.17505494 4:0.18479171 5:0.074365636 6:0.23815649 7:0.085547296 8:0.13847181 9:0.14625579 10:0.057240645 
165.79274880318454 1:0.35602015 2:0.27915101 3:0.15403686 4:0.14373568 5:0.067056295 6:0.052899832 7:0.27725299 8:0.20638662 9:0.23900759 10:0.0026933518 
256 1:0.57933742 2:0.25586593 3:0.087893076 4:0.052873659 5:0.024029916 6:0.11896794 7:0.10966838 8:0.062483986 9:0.02094767 10:0.16462936 
256 1:0.58274155 2:0.20341321 3:0.10599493 4:0.075533915 5:0.032316399 6:0.056634961 7:0.056587791 8:0.0098759891 9:0.017708946 10:0.093445407 
256 1:0.44001313 2:0.30978629 3:0.09947103 4:0.11066733 5:0.040062208 6:0.15228153 7:0.062423209 8:0.16111455 9:0.049643728 10:0.025011982 
256 1:0.29697826 2:0.33236108 3:0.18911662 4:0.12650803 5:0.055036011 6:0.070640701 7:0.036775738 8:0.19201665 9:0.084019873 10:0.15887648 
95.634964740519692 1:0.18639737 2:0.48173161 3:0.12158508 4:0.12573999 5:0.084545954 6:0.023057196 7:0.030981019 8:0.099362068 9:0.37465597 10:0.53029509 
256 1:0.70760964 2:0.16279597 3:0.051012712 4:0.054697946 5:0.023883724 6:0.14179543 7:0.11563033 8:0.20577872 9:0.11538143 10:0.081450942 
256 1:0.43497791 2:0.40781748 3:0.09102422 4:0.046527857 5:0.019652537 6:0.028641765 7:0.016912398 8:0.036356431 9:0.0048025668 10:0.015582338 
256 1:0.43380805 2:0.3428876 3:0.14099327 4:0.050128605 5:0.032182481 6:0.19410655 7:0.086703198 8:0.075395012 9:0.087888336 10:0.014678591 
256 1:0.6634005 2:0.2156295 3:0.058338997 4:0.045008303 5:0.017622701 6:0.18272223 7:0.064796098 8:0.10150545 9:0.14327289 10:0.050104144 
256 1:0.51989394 2:0.22389617 3:0.12308769 4:0.088836942 5:0.044285253 6:0.063563496 7:0.0026750269 8:0.046007334 9:0.12282299 10:0.1988744 
256 1:0.33129243 2:0.30082828 3:0.18845697 4:0.1192549 5:0.060167414 6:0.035373197 7:0.034218042 8:0.00029030282 9:0.1417611 10:0.098969699 
256 1:0.62111568 2:0.2363026 3:0.06126404 4:0.05657747 5:0.024740206 6:0.010211833 7:0.028785955 8:0.097611575 9:0.090975997 10:0.0094146102 
256 1:0.59466511 2:0.25964761 3:0.10781544 4:0.029109805 5:0.0087620422 6:0.069472959 7:0.035836218 8:0.0027500371 9:0.076834014 10:0.058780416 
256 1:0.39049596 2:0.25034714 3:0.16595516 4:0.11987648 5:0.073325258 6:0.075024598 7:0.061278396 8:0.026809323 9:0.060922338 10:0.063260125 
256 1:0.24196795 2:0.39820004 3:0.16187738 4:0.13618757 5:0.061767061 6:0.097925306 7:0.05538876 8:0.091499428 9:0.098845478 10:0.028028138 
127.7726387672987 1:0.46518462 2:0.27936502 3:0.077458176 4:0.11803695 5:0.059955231 6:0.015980365 7:0.025996197 8:0.40762691 9:0.031030716 10:0.071174606 
256 1:0.76267319 2:0.14988433 3:0.04145755 4:0.030706054 5:0.015278878 6:0.031991156 7:0.1027212 8:0.19569593 9:0.087911029 10:0.072330512 
256 1:0.60887042 2:0.1574145 3:0.097979746 4:0.087149939 5:0.048585394 6:0.11846342 7:0.009482622 8:0.067569899 9:0.079169664 10:0.048453964 
126.83907282324864 1:0.32259289 2:0.3879188 3:0.12072028 4:0.11125735 5:0.05751068 6:0.3658221 7:0.32673539 8:0.059701972 9:0.040880488 10:0.11257132 
256 1:0.79399538 2:0.13744699 3:0.04144715 4:0.017843349 5:0.0092671329 6:0.066259904 7:0.041615843 8:0.18282278 9:0.1119747 10:0.064553503 
102.45162214429753 1:0.41216572 2:0.24593795 3:0.1478569 4:0.11645056 5:0.077588868 6:0.0040346775 7:0.02952482 8:0.033240245 9:0.12109297 10:0.0066139066 
256 1:0.36229199 2:0.40551722 3:0.10794309 4:0.084773372 5:0.03947433 6:0.36969075 7:0.064512442 8:0.062926191 9:0.023715586 10:0.021608665 
256 1:0.68783302 2:0.11873122 3:0.0778323 4:0.084958314 5:0.030645139 6:0.36806626 7:0.10068401 8:0.14624138 9:0.090001707 10:0.017610366 
256 1:0.3608975 2:0.36305062 3:0.13253642 4:0.089207083 5:0.054308375 6:0.068392983 7:0.27944935 8:0.15928001 9:0.042602293 10:0.10261057 
256 1:0.75377698 2:0.18893759 3:0.039444639 4:0.013825294 5:0.004015496 6:0.017676557 7:0.012183962 8:0.060070522 9:0.00034690326 10:0.016120662 
256 1:0.45380009 2:0.19105625 3:0.1622718 4:0.12756897 5:0.065302885 6:0.12217226 7:0.14107735 8:0.0082696055 9:0.10437904 10:0.17408124 
256 1:0.54135538 2:0.22844809 3:0.11741131 4:0.084150781 5:0.02863444 6:0.041525474 7:0.050939894 8:0.022956799 9:0.0248639 10:0.0099396946 
7.7862254109562823 1:0.14880357 2:0.31809885 3:0.22325874 4:0.18624193 5:0.12359691 6:0.34945347 7:0.53146008 8:0.45672136 9:0.21591095 10:0.4119992 
256 1:0.46966795 2:0.19085945 3:0.16757193 4:0.12553672 5:0.046363948 6:0.0016071972 7:0.034658732 8:0.05319556 9:0.0042306094 10:0.042736997 
256 1:0.4168784 2:0.2139714 3:0.19831522 4:0.12486499 5:0.045969982 6:0.13238084 7:0.20323459 8:0.011368157 9:0.0013032268 10:0.031705654 
256 1:0.54316042 2:0.24239808 3:0.088344578 4:0.084120218 5:0.041976699 6:0.068602382 7:0.00013920518 8:0.11919476 9:0.058149837 10:0.057053862 
256 1:0.28884879 2:0.36194519 3:0.17406939 4:0.12001833 5:0.055118294 6:0.065042062 7:0.09345078 8:0.12616401 9:0.20259935 10:0.15010885 
256 1:0.41735949 2:0.20308918 3:0.19461257 4:0.12529904 5:0.05963972 6:0.048029867 7:0.12044781 8:0.14731049 9:0.17929083 10:0.19501052 
256 1:0.54562901 2:0.21054872 3:0.10375217 4:0.11857189 5:0.021498212 6:0.13913351 7:0.14902013 8:0.13370732 9:0.2274746 10:0.046285263 
256 1:0.34562204 2:0.40652105 3:0.10798403 4:0.10947098 5:0.030401893 6:0.019245756 7:0.17536904 8:0.21729113 9:0.057485163 10:0.18905281 
256 1:0.23828366 2:0.48814003 3:0.1251518 4:0.091209449 5:0.057215059 6:0.080132875 7:0.055501086 8:0.08965603 9:0.0044426563 10:0.075364022 
58.352391314283722 1:0.29147063 2:0.1189887 3:0.055097383 4:0.34981943 5:0.18462385 6:0.22586923 7:0.067580538 8:0.2854955 9:0.074076227 10:0.073698583 
256 1:0.38156019 2:0.45162058 3:0.068621055 4:0.063252545 5:0.034945628 6:0.13516252 7:0.13047147 8:0.24687027 9:0.19540804 10:0.17280496 
256 1:0.73468349 2:0.15875686 3:0.046258058 4:0.040865937 5:0.019435658 6:0.043871804 7:0.111847 8:0.19147064 9:0.20703108 10:0.24460393 
239.40602006802922 1:0.38093062 2:0.1038418 3:0.055068951 4:0.11586099 5:0.34429764 6:0.34197865 7:0.044177747 8:0.048146839 9:0.16736544 10:0.20470745 
110.02460047282489 1:0.46467766 2:0.32270671 3:0.084673301 4:0.087410992 5:0.040531337 6:0.05268086 7:0.08792247 8:0.27043912 9:0.26366063 10:0.42685168 
256 1:0.41045165 2:0.32882495 3:0.11302054 4:0.09884221 5:0.048860646 6:0.15099284 7:0.11672197 8:0.20938802 9:0.10061008 10:0.098949506 
256 1:0.5822636 2:0.20520959 3:0.082607603 4:0.090152621 5:0.039766586 6:0.16743971 7:0.013076351 8:0.10421478 9:0.032792064 10:0.20300729 
256 1:0.38480604 2:0.30639677 3:0.13029358 4:0.1097514 5:0.068752212 6:0.010614894 7:0.0017418507 8:0.024062269 9:0.063454506 10:0.31864769 
256 1:0.35551509 2:0.37250544 3:0.1016581 4:0.11815359 5:0.052167768 6:0.013186705 7:0.0013412797 8:0.12497817 9:0.13443815 10:0.083834793 
256 1:0.40683385 2:0.32167788 3:0.1261492 4:0.092687249 5:0.052651821 6:0.10323917 7:0.086101206 8:0.14331811 9:0.082033908 10:0.23033571 
256 1:0.61347862 2:0.23032171 3:0.068261215 4:0.06154455 5:0.026393909 6:0.048600223 7:0.0071256329 8:0.20347054 9:0.13464903 10:0.077715526 
256 1:0.4994915 2:0.271263 3:0.094193894 4:0.090897524 5:0.04415408 6:0.042965916 7:0.006286433 8:0.11735862 9:0.1055113 10:0.06151838 
256 1:0.26965027 2:0.33231932 3:0.19345763 4:0.14104152 5:0.063531249 6:0.078363306 7:0.076019191 8:0.34611697 9:0.068275583 10:0.032427898 
256 1:0.29907393 2:0.3474849 3:0.1501215 4:0.12814415 5:0.075175523 6:0.078866363 7:0.11090945 8:0.16531001 9:0.059168713 10:0.27146034 
256 1:0.2569097 2:0.36284026 3:0.17996646 4:0.12592888 5:0.074354706 6:0.45449343 7:0.086586704 8:0.12760261 9:0.065306419 10:0.093974994 
256 1:0.44233088 2:0.39180193 3:0.089673612 4:0.053342359 5:0.022851226 6:0.14328369 7:0.0079427634 8:0.010197705 9:0.0025907025 10:0.066334587 
256 1:0.38175182 2:0.31953521 3:0.12996933 4:0.12002119 5:0.048722446 6:0.22851876 7:0.013212494 8:0.011454416 9:0.11886236 10:0.0971232 
256 1:0.66033021 2:0.21698045 3:0.049097605 4:0.050676761 5:0.022914973 6:0.069370478 7:0.074577348 8:0.13845747 9:0.10827991 10:0.043572517 
256 1:0.37301357 2:0.37085 3:0.10129365 4:0.10902001 5:0.045822775 6:0.084618886 7:0.1310937 8:0.24893529 9:0.17782836 10:0.10685478 
256 1:0.47226951 2:0.24705757 3:0.10789948 4:0.11815204 5:0.054621404 6:0.014032852 7:0.15763244 8:0.05020491 9:0.087750405 10:0.066488712 
256 1:0.57183805 2:0.21592511 3:0.07352045 4:0.096153666 5:0.042562723 6:0.24013083 7:0.0018053971 8:0.0060500968 9:0.094119363 10:0.016033953 
256 1:0.65446234 2:0.24494854 3:0.065611254 4:0.025628001 5:0.0093498638 6:0.14107311 7:0.16980681 8:0.13583002 9:0.04644869 10:0.048749372 
256 1:0.51802918 2:0.25275502 3:0.11235427 4:0.073236532 5:0.043624999 6:0.014613857 7:0.078838568 8:0.097648383 9:0.0071293099 10:0.08630522 
256 1:0.60930315 2:0.28076518 3:0.040780552 4:0.046884272 5:0.022266852 6:0.0391345 7:0.02506765 8:0.34483756 9:0.091525138 10:0.43708814 
256 1:0.25667477 2:0.28888764 3:0.16405303 4:0.19028485 5:0.10009971 6:0.12197428 7:0.11089044 8:0.013866082 9:0.013857194 10:0.05036606 
256 1:0.38344269 2:0.36905394 3:0.10562324 4:0.10205023 5:0.039829899 6:0.066053682 7:0.054414829 8:0.056824496 9:0.0087563452 10:0.026847265 
256 1:0.6260211 2:0.18694395 3:0.080542913 4:0.068776931 5:0.037715106 6:0.034182288 7:0.014104302 8:0.20924213 9:0.050631282 10:0.030618921 
256 1:0.20140087 2:0.41214458 3:0.19242188 4:0.13154807 5:0.062484595 6:0.0082407665 7:0.027709874 8:0.066665743 9:0.11234662 10:0.0080949984 
256 1:0.35028282 2:0.24889692 3:0.20342264 4:0.10416741 5:0.093230208 6:0.10461336 7:0.046972064 8:0.024136015 9:0.08908673 10:0.03459335 
256 1:0.44308272 2:0.33477478 3:0.095941098 4:0.085796139 5:0.040405263 6:0.068735982 7:0.0093417552 8:0.097461128 9:0.092417975 10:0.053374767 
256 1:0.75242406 2:0.15049168 3:0.047102498 4:0.031511836 5:0.018469924 6:0.004891871 7:0.0011688009 8:0.22599773 9:0.18131433 10:0.37701102 
256 1:0.64232478 2:0.20728832 3:0.066226978 4:0.055514692 5:0.028645229 6:0.019055672 7:0.078361975 8:0.093732305 9:0.12872714 10:0.33954395 
256 1:0.52650972 2:0.34614482 3:0.066269922 4:0.043007401 5:0.018068137 6:0.16604803 7:0.058902558 8:0.055114142 9:0.068544717 10:0.057586937 
256 1:0.43106825 2:0.1649674 3:0.16630775 4:0.1648099 5:0.0728467 6:0.17209235 7:0.058922132 8:0.34163374 9:0.35513989 10:0.41804232 
256 1:0.67431883 2:0.18793384 3:0.081245631 4:0.038141446 5:0.018360247 6:0.017528299 7:0.045156308 8:0.014765079 9:0.11991023 10:0.059088802 
256 1:0.57648086 2:0.26653916 3:0.084617626 4:0.050907891 5:0.021454466 6:0.13213688 7:0.11448873 8:0.060830154 9:0.12887326 10:0.0082559681 
0.66269809352935272 1:0.44616933 2:0.28733723 3:0.1123458 4:0.095985256 5:0.058162383 6:0.37695589 7:0.24304011 8:0.25766958 9:0.18963762 10:0.26654641 
256 1:0.31923587 2:0.17209498 3:0.27574794 4:0.17549715 5:0.057424064 6:0.12354021 7:0.04884665 8:0.13301951 9:0.056719562 10:0.047298571 
256 1:0.4068593 2:0.26346891 3:0.18506956 4:0.097755127 5:0.046847096 6:0.016159623 7:0.070238929 8:0.17852074 9:0.027417189 10:0.17966257 
256 1:0.40075541 2:0.29517782 3:0.13702666 4:0.10852095 5:0.05851916 6:0.10548074 7:0.11366361 8:0.17722962 9:0.013348395 10:0.0079639612 
256 1:0.20607642 2:0.39017115 3:0.18305495 4:0.16905679 5:0.051640692 6:0.13092421 7:0.29796359 8:0.088159196 9:0.068575067 10:0.076509596 
256 1:0.31788723 2:0.28509311 3:0.18353518 4:0.15220134 5:0.061283134 6:0.22699102 7:0.14103742 8:0.14696504 9:0.074844081 10:0.0028918891 
256 1:0.33211382 2:0.36102249 3:0.15789737 4:0.10166773 5:0.047298596 6:0.26766109 7:0.18805092 8:0.20624057 9:0.25619266 10:0.32734935 
256 1:0.5957394 2:0.20704905 3:0.099200316 4:0.07354196 5:0.024469276 6:0.11073682 7:0.082570919 8:0.054659678 9:0.058812388 10:0.15047265 
256 1:0.2015913 2:0.32623787 3:0.17054767 4:0.21527555 5:0.086347609 6:0.1516698 7:0.070830434 8:0.05677603 9:0.07732356 10:0.14545854 
256 1:0.50690324 2:0.19764819 3:0.091602963 4:0.12659723 5:0.077248379 6:0.00030398794 7:0.004365385 8:0.31429233 9:0.41155732 10:0.37426508 
256 1:0.55327518 2:0.30915699 3:0.082720683 4:0.039591243 5:0.0152559 6:0.078548336 7:0.014730619 8:0.23127133 9:0.10770246 10:0.045936124 
256 1:0.2948612 2:0.27589855 3:0.20029939 4:0.14302772 5:0.085913144 6:0.19075223 7:0.10451832 8:0.094425919 9:0.10837921 10:0.014841395 
256 1:0.72698013 2:0.19227485 3:0.03322433 4:0.029859312 5:0.017661372 6:0.14116608 7:0.055756441 8:0.0037593596 9:0.016366514 10:0.081432234 
256 1:0.63975903 2:0.15332195 3:0.091727119 4:0.07827664 5:0.036915261 6:0.15429999 7:0.26747239 8:0.11162086 9:0.049100689 10:0.18181543 
256 1:0.49008014 2:0.23263533 3:0.10670099 4:0.11649077 5:0.054092772 6:0.14172592 7:0.23875548 8:0.020913947 9:0.23773731 10:0.014481409 
256 1:0.4935499 2:0.28941464 3:0.10886078 4:0.075570843 5:0.032603835 6:0.06625938 7:0.019972179 8:0.10146973 9:0.025460908 10:0.013284579 
256 1:0.67042717 2:0.21591748 3:0.05032903 4:0.041582956 5:0.021743372 6:0.091987819 7:0.12303172 8:0.096566135 9:0.2910648 10:0.063499034 
256 1:0.44289767 2:0.34209803 3:0.095462847 4:0.077570754 5:0.041970699 6:0.028433177 7:0.050793686 8:0.16947539 9:0.035230123 10:0.057636396 
256 1:0.59897221 2:0.14022709 3:0.11231377 4:0.099041531 5:0.049445395 6:0.26850209 7:0.10557584 8:0.092841421 9:0.12382597 10:0.15498845 
256 1:0.54549082 2:0.29862557 3:0.060977044 4:0.068421546 5:0.026485021 6:0.0078504666 7:0.021938171 8:0.12432996 9:0.027490116 10:0.19283244 
256 1:0.46642116 2:0.23124677 3:0.12894793 4:0.12155939 5:0.051824749 6:0.099189592 7:0.05554215 8:0.20729351 9:0.055822046 10:0.14916368 
256 1:0.40006244 2:0.31130467 3:0.12814922 4:0.10297351 5:0.057510156 6:0.03784232 7:0.046572362 8:0.051612837 9:0.048405043 10:0.1100268 
256 1:0.4393562 2:0.24171462 3:0.12876179 4:0.12928524 5:0.060882149 6:0.22161542 7:0.079292824 8:0.011934213 9:0.052275782 10:0.1138434 
256 1:0.19614857 2:0.32904936 3:0.21689898 4:0.18375661 5:0.074146482 6:0.2440749 7:0.015809953 8:0.12100104 9:0.12185405 10:0.026141304 
256 1:0.22908755 2:0.45631795 3:0.10279841 4:0.15043757 5:0.061358522 6:0.024932024 7:0.12858976 8:0.081570572 9:0.0024377726 10:0.082159579 
256 1:0.56976287 2:0.21483267 3:0.0714916 4:0.092871027 5:0.05104183 6:0.36126915 7:0.055839422 8:0.13680008 9:0.22367788 10:0.12757085 
256 1:0.35938668 2:0.3579589 3:0.14818069 4:0.08543329 5:0.04904044 6:0.27937739 7:0.099905846 8:0.14798393 9:0.0082287467 10:0.047208315 
256 1:0.61099064 2:0.23775264 3:0.086872296 4:0.045320257 5:0.019064163 6:0.089399881 7:0.041433424 8:0.15238053 9:0.0040702883 10:0.0082789758 
256 1:0.57224795 2:0.15107848 3:0.12575335 4:0.10840533 5:0.042514887 6:0.11978121 7:0.22897661 8:0.19578608 9:0.356116 10:0.39891446 
256 1:0.46647417 2:0.28495353 3:0.14518771 4:0.06622675 5:0.037157842 6:0.010410629 7:0.047172691 8:0.066995588 9:0.03933731 10:0.0093936257 
256 1:0.63310395 2:0.21467258 3:0.077099048 4:0.050764544 5:0.024359876 6:0.064480468 7:0.18396905 8:0.12048182 9:0.28066185 10:0.31599221 
256 1:0.39832459 2:0.21662229 3:0.1443931 4:0.11155798 5:0.12910204 6:0.038173606 7:0.076350845 8:0.029942234 9:0.030723589 10:0.38037841 
256 1:0.28637685 2:0.2580847 3:0.20098427 4:0.1448281 5:0.10972609 6:0.050375033 7:0.11977594 8:0.070784877 9:0.059937862 10:0.24479478 
256 1:0.68198869 2:0.17539535 3:0.078206541 4:0.044990372 5:0.01941905 6:0.090795407 7:0.06252199 8:0.077990449 9:0.019498763 10:0.057727475 
256 1:0.50582499 2:0.25977085 3:0.085605955 4:0.10460337 5:0.044194832 6:0.32217397 7:0.074590454 8:0.081165903 9:0.087518733 10:0.23421725 
256 1:0.59392548 2:0.11201253 3:0.10878458 4:0.11048167 5:0.074795732 6:0.16478266 7:0.17802839 8:0.34010506 9:0.29531122 10:0.2491042 
256 1:0.66579139 2:0.21255156 3:0.050490714 4:0.049479358 5:0.021686977 6:0.078244537 7:0.11693271 8:0.27009526 9:0.14394935 10:0.069957907 
256 1:0.40394424 2:0.21610628 3:0.15694288 4:0.16342524 5:0.059581352 6:0.28025391 7:0.0065229326 8:0.22910093 9:0.21436694 10:0.0390717 
52.955347804348833 1:0.63451434 2:0.23650103 3:0.050904301 4:0.046659868 5:0.031420468 6:0.22773724 7:0.039347953 8:0.19747446 9:0.27055724 10:0.045278624 
256 1:0.74192973 2:0.15523768 3:0.04034371 4:0.039169092 5:0.023319786 6:0.012461671 7:0.075666735 8:0.046642141 9:0.018615414 10:0.007168028 
256 1:0.46471384 2:0.26543107 3:0.13016329 4:0.092867391 5:0.04682441 6:0.055176449 7:0.066015374 8:0.15955933 9:0.21135341 10:0.18434827 
256 1:0.35118791 2:0.28771496 3:0.13225832 4:0.16145965 5:0.067379149 6:0.11531 7:0.18227657 8:0.24494401 9:0.083737507 10:0.025256631 
256 1:0.67378757 2:0.23097968 3:0.034629025 4:0.03996663 5:0.020637087 6:0.09932207 7:0.074984669 8:0.24918625 9:0.22918692 10:0.00069570507 
256 1:0.57703821 2:0.28843122 3:0.062979237 4:0.049590635 5:0.021960701 6:0.039495278 7:0.011665697 8:0.024096051 9:0.09067483 10:0.13549367 
256 1:0.79607415 2:0.16975089 3:0.019451805 4:0.0098121639 5:0.0049109883 6:0.0081159036 7:0.032856669 8:0.060001176 9:0.090274467 10:0.10009286 
256 1:0.58840945 2:0.27406147 3:0.071915125 4:0.044532513 5:0.021081444 6:0.12668287 7:0.043319827 8:0.1030845 9:0.28449215 10:0.23685997 
256 1:0.48791027 2:0.23175067 3:0.14323789 4:0.087241856 5:0.049859315 6:0.076363668 7:0.018382359 8:0.034968719 9:0.092007855 10:0.10963992 
256 1:0.73771889 2:0.18686394 3:0.030060724 4:0.032335672 5:0.013020778 6:0.027188601 7:0.057912367 8:0.13694028 9:0.23265171 10:0.042919068 
256 1:0.32012527 2:0.26038577 3:0.16041018 4:0.17319712 5:0.085881664 6:0.13652775 7:0.0042315121 8:0.033153563 9:0.0044697564 10:0.085712755 
256 1:0.61002951 2:0.24997702 3:0.082894621 4:0.044542597 5:0.012556256 6:0.010049333 7:0.12139627 8:0.26041259 9:0.24572262 10:0.038252098 
256 1:0.40035891 2:0.34812109 3:0.097477014 4:0.11513256 5:0.038910426 6:0.041948197 7:0.0078407618 8:0.16630777 9:0.16235909 10:0.064348989 
256 1:0.50139677 2:0.32457651 3:0.076959417 4:0.068690766 5:0.028376534 6:0.1000016 7:0.037287666 8:0.099396578 9:0.12616635 10:0.19105239 
256 1:0.56523619 2:0.20128091 3:0.072725514 4:0.12174012 5:0.03901727 6:0.2716114 7:0.22901755 8:0.033496785 9:0.1032626 10:0.061495259 
