svm_type c_svc
kernel_type rbf
gamma 2
nr_class 2
total_sv 5848
rho 31.855892339317666
label 1 0
probA -1.3167783550422041
probB -0.13861264715529814
nr_sv 2870 2978
SV
8192 1:0.65064063 2:0.24373665 3:0.044096211 4:0.039196165 5:0.022330344 6:0.31439676 7:0.17375138 8:0.30009104 9:0.53965414 10:0.63239701 
8192 1:0.44359259 2:0.16814185 3:0.18972616 4:0.12964809 5:0.068891323 6:0.53799805 7:0.36283935 8:0.42181764 9:0.29575604 10:0.34387294 
8192 1:0.52599913 2:0.24818343 3:0.097337795 4:0.082256099 5:0.046223537 6:0.58448951 7:0.29152405 8:0.37412809 9:0.39948164 10:0.32323448 
7555.9958523286123 1:0.66814318 2:0.13087672 3:0.090574108 4:0.055662419 5:0.054743578 6:0.17631014 7:0.18081015 8:0.42062994 9:0.32597138 10:0.62158248 
3429.0026152954656 1:0.47742455 2:0.32038955 3:0.11251914 4:0.062681038 5:0.02698572 6:0.086325926 7:0.20050366 8:0.285136 9:0.35074123 10:0.33521846 
2729.5066620210227 1:0.35917052 2:0.27508898 3:0.083817064 4:0.13479419 5:0.14712925 6:0.30962154 7:0.23693334 8:0.26536741 9:0.48257685 10:0.54756424 
8192 1:0.62168749 2:0.25981998 3:0.069594428 4:0.034019408 5:0.014878694 6:0.16856369 7:0.13382597 8:0.31889028 9:0.31585795 10:0.37885194 
8192 1:0.63738839 2:0.22832808 3:0.046482763 4:0.054736303 5:0.033064465 6:0.5272302 7:0.21290557 8:0.17184583 9:0.44161654 10:0.56037809 
8192 1:0.6803759 2:0.21698667 3:0.056913988 4:0.02952103 5:0.016202412 6:0.06873805 7:0.14972382 8:0.32933086 9:0.40346213 10:0.29141218 
8192 1:0.7010328 2:0.23636609 3:0.034157986 4:0.01958317 5:0.0088599537 6:0.16219458 7:0.16106219 8:0.26366042 9:0.28780774 10:0.29453999 
8192 1:0.52180727 2:0.25506326 3:0.11108155 4:0.074140976 5:0.037906944 6:0.30634235 7:0.20918675 8:0.3107347 9:0.28711057 10:0.2570401 
8192 1:0.66217592 2:0.20534901 3:0.046595296 4:0.060257205 5:0.025622569 6:0.17731976 7:0.18180738 8:0.16245899 9:0.39062314 10:0.54883197 
3049.7426064061701 1:0.72257525 2:0.19989805 3:0.047125097 4:0.021104298 5:0.0092973032 6:0.51025248 7:0.12400218 8:0.22708988 9:0.51368624 10:0.55279866 
56.057506708886343 1:0.30769036 2:0.22408816 3:0.19577539 4:0.21307142 5:0.059374678 6:1.0594843 7:0.91875589 8:1.0198396 9:1.0659895 10:0.72215484 
8192 1:0.51540301 2:0.3500523 3:0.065444975 4:0.047379607 5:0.021720104 6:0.03667242 7:0.20128736 8:0.30480559 9:0.37337296 10:0.41110972 
8192 1:0.35152407 2:0.38679265 3:0.1412598 4:0.077947908 5:0.042475566 6:0.15891275 7:0.11521513 8:0.27441302 9:0.18884062 10:0.28142769 
8192 1:0.46801237 2:0.30918054 3:0.097846784 4:0.084297313 5:0.040662991 6:0.18954247 7:0.32652807 8:0.49893314 9:0.33281704 10:0.40647166 
8192 1:0.32431113 2:0.35713266 3:0.13493671 4:0.1177124 5:0.065907099 6:0.14625539 7:0.21686398 8:0.30545447 9:0.27720166 10:0.24390705 
8192 1:0.69791632 2:0.18820823 3:0.048402521 4:0.038157942 5:0.027314983 6:0.49368894 7:0.19336016 8:0.2195717 9:0.38956214 10:0.39801626 
8192 1:0.7235483 2:0.12524158 3:0.067865076 4:0.055209886 5:0.028135156 6:1.1571445 7:0.33208323 8:0.35182282 9:0.26643916 10:0.3818392 
3162.4720838822132 1:0.69572927 2:0.204166 3:0.041867552 4:0.038945595 5:0.019291581 6:0.21936169 7:0.11099104 8:0.13533101 9:0.44854113 10:0.43772878 
5476.516233162567 1:0.63996341 2:0.19172769 3:0.076419014 4:0.063251985 5:0.028637898 6:0.17144074 7:0.14600717 8:0.10074947 9:0.34906866 10:0.46551616 
8192 1:0.60375467 2:0.25576353 3:0.083423112 4:0.041440631 5:0.015618058 6:0.28506659 7:0.34823153 8:0.28128863 9:0.31515686 10:0.26813375 
8192 1:0.34665372 2:0.31463744 3:0.15857087 4:0.12449515 5:0.055642825 6:0.44338316 7:0.24293666 8:0.39566021 9:0.3537749 10:0.27694642 
8192 1:0.40790745 2:0.22296084 3:0.15478861 4:0.13821063 5:0.076132474 6:0.13448924 7:0.19358873 8:0.365203 9:0.3028863 10:0.30033863 
8192 1:0.50535124 2:0.26494581 3:0.095552955 4:0.089766865 5:0.044383124 6:0.38840522 7:0.24355254 8:0.24745199 9:0.28922923 10:0.28871431 
8192 1:0.6781866 2:0.2288966 3:0.044733473 4:0.03228662 5:0.01589671 6:0.14771117 7:0.090762863 8:0.25700628 9:0.33101019 10:0.31780517 
8192 1:0.40030207 2:0.2122324 3:0.13934612 4:0.15486413 5:0.093255275 6:0.044248458 7:0.25484436 8:0.31810716 9:0.32839106 10:0.28403493 
8192 1:0.5688455 2:0.18203093 3:0.13667885 4:0.068925654 5:0.043519054 6:0.43427311 7:0.21621743 8:0.22218498 9:0.29437577 10:0.41113746 
8192 1:0.72504049 2:0.17777189 3:0.03929984 4:0.037919008 5:0.019968771 6:0.083470606 7:0.10532348 8:0.19490491 9:0.38898037 10:0.35733805 
8192 1:0.71353244 2:0.17144986 3:0.0608704 4:0.035844392 5:0.018302913 6:0.90247023 7:0.40402256 8:0.14498304 9:0.30617122 10:0.35999401 
2682.6489230623692 1:0.55483933 2:0.081091648 3:0.039068592 4:0.080433084 5:0.24456734 6:0.68445573 7:0.27429849 8:0.36966824 9:0.64259561 10:0.68864609 
8192 1:0.51579309 2:0.18565321 3:0.15107111 4:0.098383614 5:0.04909898 6:0.37473293 7:0.3211294 8:0.36647002 9:0.36419208 10:0.47914263 
8192 1:0.58060094 2:0.27772694 3:0.086402449 4:0.037877474 5:0.017392194 6:0.18791559 7:0.21199876 8:0.25105148 9:0.40781537 10:0.17000866 
8192 1:0.59731655 2:0.20634889 3:0.09481034 4:0.06684365 5:0.034680574 6:0.51086946 7:0.11445398 8:0.22615088 9:0.40643063 10:0.36951999 
8192 1:0.27270777 2:0.42327186 3:0.15854219 4:0.10265129 5:0.042826901 6:0.46229419 7:0.17404841 8:0.36076867 9:0.51679721 10:0.57101159 
7495.4103214341349 1:0.41210227 2:0.19692881 3:0.14407362 4:0.13678304 5:0.11011225 6:0.2505681 7:0.35391938 8:0.22927855 9:0.42646753 10:0.62174007 
8192 1:0.4188239 2:0.21972368 3:0.15246156 4:0.14674197 5:0.062248889 6:0.10428043 7:0.10837522 8:0.24799442 9:0.34670833 10:0.17910144 
8192 1:0.67215971 2:0.181625 3:0.077707683 4:0.044575722 5:0.023931886 6:0.12193143 7:0.20730952 8:0.34489101 9:0.48071638 10:0.60171698 
8192 1:0.39423802 2:0.31182696 3:0.13699861 4:0.11243441 5:0.044501994 6:0.49896553 7:0.034859851 8:0.20574606 9:0.32950207 10:0.32619836 
8192 1:0.7710955 2:0.15948822 3:0.037234682 4:0.021967031 5:0.010214571 6:0.50194848 7:0.20474966 8:0.25354762 9:0.28045507 10:0.34994652 
8192 1:0.75782719 2:0.16309477 3:0.03727987 4:0.029117392 5:0.012680777 6:0.97073783 7:0.4787055 8:0.48020212 9:0.45312197 10:0.3895291 
8192 1:0.69099029 2:0.24218254 3:0.045964389 4:0.015822373 5:0.0050404065 6:0.12246983 7:0.14242465 8:0.22624482 9:0.25775106 10:0.264568 
8192 1:0.5260106 2:0.19514767 3:0.12172817 4:0.10079412 5:0.056319429 6:0.33803264 7:0.086351148 8:0.30437134 9:0.26454001 10:0.4378097 
8192 1:0.65386014 2:0.21464875 3:0.072993244 4:0.039711967 5:0.018785892 6:0.21418357 7:0.14621195 8:0.19621205 9:0.29989986 10:0.34467412 
8192 1:0.69174962 2:0.1957592 3:0.046437382 4:0.040814533 5:0.025239274 6:0.05055945 7:0.16711899 8:0.24337943 9:0.25017248 10:0.21379905 
8192 1:0.53879251 2:0.20482389 3:0.11891486 4:0.092430995 5:0.045037747 6:0.13915791 7:0.16242493 8:0.3219528 9:0.32738424 10:0.34015522 
7747.7604206679089 1:0.69052392 2:0.15814582 3:0.068775921 4:0.058593212 5:0.023961125 6:1.0892728 7:0.84212012 8:0.89633493 9:0.35966618 10:0.34944648 
8192 1:0.55247739 2:0.22740194 3:0.083661704 4:0.10586898 5:0.030589994 6:0.27358 7:0.36700032 8:0.30889906 9:0.33144942 10:0.2826796 
8192 1:0.54389174 2:0.27994159 3:0.06351567 4:0.073747672 5:0.038903334 6:0.036246245 7:0.13466681 8:0.13191703 9:0.31279416 10:0.31377116 
8192 1:0.53625092 2:0.29520269 3:0.10441119 4:0.039668329 5:0.024466872 6:0.12861309 7:0.23589922 8:0.25817237 9:0.32832657 10:0.51841329 
8192 1:0.64309449 2:0.23466865 3:0.048005387 4:0.052111672 5:0.022119796 6:0.11544722 7:0.18268217 8:0.43877492 9:0.46361097 10:0.37191917 
8192 1:0.6810823 2:0.18982884 3:0.044476315 4:0.049267203 5:0.035345337 6:0.19212172 7:0.087572103 8:0.31342922 9:0.3628019 10:0.48690948 
8192 1:0.69828799 2:0.19225846 3:0.047108288 4:0.037971311 5:0.024373955 6:0.22974173 7:0.2373983 8:0.2830935 9:0.42068077 10:0.52829395 
8192 1:0.55869502 2:0.20070489 3:0.070217371 4:0.07531716 5:0.095065554 6:0.31556493 7:0.22087872 8:0.25512465 9:0.17374869 10:0.27515185 
5615.8610390862759 1:0.3599611 2:0.19148691 3:0.093983731 4:0.20678614 5:0.14778212 6:0.58271437 7:0.46840091 8:0.3898947 9:0.61132868 10:0.54947309 
8192 1:0.19881503 2:0.60589553 3:0.10937807 4:0.0589572 5:0.026954175 6:0.40734516 7:0.23024769 8:0.3422633 9:0.23972322 10:0.34015453 
8192 1:0.44526863 2:0.30104156 3:0.12985938 4:0.089760428 5:0.034069999 6:0.144155 7:0.45905032 8:0.31860197 9:0.35307771 10:0.38447439 
8192 1:0.62146283 2:0.21888586 3:0.05675283 4:0.070606722 5:0.032291757 6:0.14039611 7:0.23475464 8:0.47156711 9:0.5567982 10:0.47829185 
8192 1:0.45188979 2:0.25519366 3:0.18010787 4:0.089654418 5:0.023154259 6:0.45666783 7:0.46038001 8:0.68854476 9:0.48045327 10:0.28332256 
8192 1:0.65130385 2:0.18231532 3:0.049286099 4:0.077239403 5:0.039855334 6:0.15437597 7:0.1317914 8:0.33087808 9:0.37616993 10:0.36380803 
8192 1:0.7494585 2:0.15668064 3:0.042838049 4:0.034799947 5:0.016222858 6:0.41288396 7:0.17687998 8:0.1521162 9:0.38332943 10:0.39642212 
8192 1:0.56195399 2:0.1728577 3:0.10659489 4:0.10164168 5:0.056951743 6:0.27396416 7:0.37737789 8:0.41133232 9:0.35188686 10:0.23446738 
8192 1:0.41573496 2:0.23279717 3:0.12900024 4:0.11735377 5:0.10511386 6:0.35410197 7:0.25672673 8:0.29657723 9:0.42521773 10:0.74981314 
8192 1:0.38625085 2:0.30912097 3:0.11907021 4:0.13253602 5:0.053021943 6:0.32166356 7:0.13329295 8:0.28301338 9:0.35673855 10:0.34100487 
8192 1:0.72033945 2:0.19683425 3:0.026590259 4:0.037737887 5:0.018498153 6:0.097936001 7:0.083449447 8:0.24345327 9:0.51902738 10:0.48595797 
8192 1:0.56004596 2:0.22970172 3:0.10559373 4:0.067208969 5:0.037449618 6:0.15956922 7:0.13739036 8:0.32279517 9:0.34771523 10:0.41893376 
8192 1:0.64930501 2:0.16245089 3:0.077414185 4:0.082795052 5:0.028034863 6:0.27133198 7:0.18151794 8:0.31119389 9:0.21530163 10:0.28368387 
8192 1:0.44594686 2:0.28323266 3:0.11278405 4:0.10669845 5:0.051337975 6:0.48642647 7:0.28909287 8:0.33071417 9:0.22780686 10:0.14815581 
8192 1:0.48211179 2:0.35447065 3:0.054570114 4:0.070930021 5:0.037917424 6:0.62837283 7:0.38541058 8:0.25703785 9:0.27015005 10:0.34518082 
8192 1:0.4320157 2:0.33751213 3:0.10050003 4:0.084113505 5:0.045858631 6:0.063842417 7:0.1411657 8:0.28904205 9:0.33954335 10:0.280536 
8192 1:0.73851692 2:0.19365714 3:0.043682123 4:0.017509086 5:0.0066347331 6:0.19948286 7:0.083810319 8:0.15351624 9:0.22642486 10:0.32771841 
8192 1:0.45706879 2:0.191822 3:0.13569304 4:0.1365657 5:0.078850478 6:0.39426682 7:0.19153429 8:0.3422885 9:0.57776728 10:0.63257734 
8192 1:0.35486223 2:0.33012708 3:0.17744268 4:0.089409428 5:0.04815859 6:0.53963613 7:0.39922025 8:0.24565358 9:0.24195102 10:0.38044401 
8192 1:0.59537154 2:0.22823595 3:0.063962028 4:0.075498917 5:0.036931564 6:1.1581609 7:0.20071329 8:0.25370249 9:0.37623622 10:0.45333983 
8192 1:0.70375488 2:0.19330351 3:0.044726156 4:0.038173875 5:0.020041584 6:0.077154718 7:0.069490692 8:0.22109397 9:0.34666437 10:0.44576189 
8192 1:0.42876528 2:0.20284031 3:0.16509582 4:0.14238601 5:0.060912587 6:0.15485123 7:0.36390626 8:0.41786012 9:0.34407454 10:0.34284317 
8192 1:0.46960399 2:0.2383686 3:0.15049627 4:0.098007589 5:0.043523547 6:0.41855509 7:0.20460392 8:0.24274338 9:0.26339539 10:0.38098032 
8192 1:0.38511459 2:0.23808665 3:0.18301407 4:0.13432264 5:0.059462045 6:0.39537877 7:0.43876824 8:0.3448778 9:0.37466075 10:0.53741137 
8192 1:0.63700042 2:0.19334621 3:0.089577849 4:0.057439406 5:0.022636111 6:0.098068242 7:0.073717892 8:0.30917529 9:0.3446951 10:0.35696816 
8192 1:0.60224482 2:0.2111021 3:0.079487602 4:0.068813248 5:0.038352234 6:0.16022 7:0.16659948 8:0.33330453 9:0.3487365 10:0.28662237 
8192 1:0.78722083 2:0.14504187 3:0.027115004 4:0.026370964 5:0.014251324 6:0.11655354 7:0.17831253 8:0.53640168 9:0.33855516 10:0.23394575 
109.10988774074026 1:0.10758491 2:0.10024615 3:0.15101427 4:0.35876858 5:0.28238609 6:0.36878641 7:0.39154256 8:0.61089274 9:0.66392227 10:0.7198184 
8192 1:0.62863356 2:0.25295277 3:0.050534376 4:0.048879341 5:0.018999961 6:0.10495874 7:0.13639142 8:0.28562913 9:0.33711722 10:0.28392609 
8192 1:0.62654372 2:0.20084058 3:0.092932708 4:0.049548301 5:0.030134693 6:0.19688574 7:0.18308327 8:0.35005484 9:0.3211173 10:0.3224935 
8192 1:0.45537589 2:0.30604742 3:0.10695485 4:0.086765415 5:0.044856419 6:0.2990549 7:0.2063938 8:0.3579979 9:0.3116148 10:0.36051464 
8192 1:0.38040402 2:0.28748889 3:0.14486262 4:0.13021188 5:0.057032583 6:0.2366859 7:0.31099695 8:0.39440395 9:0.39876456 10:0.29581612 
8192 1:0.51762019 2:0.28000661 3:0.080328719 4:0.077248395 5:0.044796086 6:0.12515771 7:0.16886084 8:0.36495659 9:0.29212948 10:0.30239804 
8192 1:0.59063185 2:0.20573444 3:0.071829548 4:0.078353868 5:0.0534503 6:0.12749883 7:0.12024128 8:0.24402604 9:0.58639462 10:0.68092719 
8192 1:0.73317259 2:0.20455997 3:0.021471533 4:0.022786673 5:0.018009237 6:0.41044985 7:0.17584606 8:0.14499188 9:0.27113154 10:0.2578262 
2472.8020181063671 1:0.72608838 2:0.19507802 3:0.041581154 4:0.02659304 5:0.0106594 6:0.10546394 7:0.22799226 8:0.10841586 9:0.2929491 10:0.26832156 
8192 1:0.51438979 2:0.30298844 3:0.10193882 4:0.051292484 5:0.029390468 6:0.19606077 7:0.15028759 8:0.44817561 9:0.40895374 10:0.39254462 
1183.1678773374945 1:0.9094146 2:0.057373334 3:0.013983716 4:0.012853923 5:0.0063744273 6:1.4688679 7:0.80695505 8:0.24597237 9:0.23972687 10:0.27260195 
8192 1:0.68043442 2:0.21015516 3:0.045761183 4:0.038397763 5:0.025251469 6:0.27296546 7:0.21571918 8:0.36145049 9:0.4315555 10:0.45278628 
8192 1:0.67846708 2:0.21327719 3:0.049477856 4:0.038782033 5:0.019995839 6:0.13122368 7:0.065330464 8:0.20349264 9:0.34234446 10:0.4049539 
8192 1:0.69747814 2:0.18042024 3:0.070738812 4:0.036617493 5:0.014745316 6:0.15353699 7:0.13706744 8:0.4445383 9:0.53382725 10:0.29966419 
8192 1:0.7815965 2:0.14087388 3:0.032204148 4:0.029332453 5:0.015993011 6:0.16775457 7:0.061379362 8:0.32787551 9:0.45749817 10:0.38311849 
8192 1:0.82017555 2:0.10608361 3:0.037387947 4:0.023862547 5:0.012490345 6:0.13101722 7:0.33771087 8:0.27810684 9:0.29234111 10:0.33670624 
8192 1:0.65867744 2:0.19381773 3:0.069570952 4:0.045771957 5:0.03216192 6:0.075610721 7:0.027272434 8:0.17711602 9:0.38178685 10:0.37282915 
8192 1:0.43906307 2:0.23506233 3:0.13763543 4:0.12959734 5:0.058641827 6:0.27258088 7:0.28041782 8:0.28582479 9:0.27954261 10:0.29132214 
8192 1:0.74266953 2:0.19616804 3:0.038152822 4:0.014514989 5:0.0084946145 6:0.14309975 7:0.15331528 8:0.2410853 9:0.25333418 10:0.27906302 
8192 1:0.62471167 2:0.21662242 3:0.089442867 4:0.04555266 5:0.023670382 6:0.11531071 7:0.21138314 8:0.24219999 9:0.27318454 10:0.31290713 
8192 1:0.73123145 2:0.21933706 3:0.030164793 4:0.014148444 5:0.0051182559 6:0.086338623 7:0.14839344 8:0.19257704 9:0.2653821 10:0.25129623 
3351.5810801560365 1:0.40033305 2:0.28611775 3:0.095537593 4:0.1371645 5:0.080847111 6:0.59210348 7:0.13318564 8:0.051074503 9:0.38688082 10:0.35691229 
5165.6662176425989 1:0.53526003 2:0.30164061 3:0.082667841 4:0.048573115 5:0.031858405 6:0.15018161 7:0.15101685 8:0.16708208 9:0.19615943 10:0.22893177 
8192 1:0.65725846 2:0.21447428 3:0.055944204 4:0.045609109 5:0.026713944 6:0.4263632 7:0.093585045 8:0.42061395 9:0.38954393 10:0.36200188 
6645.8105662161024 1:0.66935964 2:0.16346735 3:0.058742517 4:0.07356619 5:0.034864309 6:0.10475143 7:0.1619472 8:0.40664001 9:0.42761892 10:0.24624107 
8192 1:0.71750672 2:0.18732171 3:0.058153634 4:0.026166564 5:0.010851364 6:0.20127989 7:0.20016429 8:0.23289389 9:0.48034781 10:0.38817863 
8192 1:0.72046714 2:0.18329464 3:0.049011519 4:0.031054167 5:0.01617253 6:0.21189074 7:0.14918613 8:0.22344347 9:0.25606175 10:0.28962877 
3319.7745494455107 1:0.36360442 2:0.32506146 3:0.20206211 4:0.077114171 5:0.032157841 6:0.17683202 7:0.30399991 8:0.25770824 9:0.33829893 10:0.49855926 
8192 1:0.77619087 2:0.12657721 3:0.045582237 4:0.034183619 5:0.017466065 6:0.46726148 7:0.19912533 8:0.25361636 9:0.39262992 10:0.38634692 
1585.2689280625564 1:0.58320292 2:0.1299957 3:0.10353381 4:0.1526298 5:0.030637776 6:0.54944448 7:0.26275444 8:0.60894106 9:0.78145217 10:0.49921724 
8192 1:0.65554727 2:0.19588427 3:0.076384916 4:0.047977339 5:0.024206213 6:0.12061819 7:0.1230069 8:0.16283242 9:0.33217529 10:0.3021481 
8192 1:0.6396987 2:0.1671164 3:0.061178937 4:0.075919145 5:0.056086817 6:0.33188549 7:0.2247526 8:0.45071617 9:0.30397837 10:0.40471572 
8192 1:0.64711675 2:0.19560209 3:0.067569875 4:0.066084672 5:0.023626612 6:0.23292203 7:0.062462531 8:0.2207841 9:0.20319868 10:0.27357856 
187.74431487424025 1:0.33365133 2:0.14918691 3:0.20157066 4:0.20889016 5:0.10670094 6:0.56689529 7:0.37682052 8:0.5451155 9:0.52817726 10:0.47412695 
8192 1:0.64013875 2:0.21204221 3:0.074839097 4:0.045398639 5:0.027581313 6:0.1706172 7:0.3459353 8:0.28620755 9:0.33037243 10:0.4820191 
8192 1:0.67229065 2:0.2001545 3:0.051617433 4:0.046672243 5:0.029265167 6:0.10474069 7:0.094895075 8:0.25966081 9:0.36713994 10:0.18637711 
8192 1:0.48129431 2:0.33421485 3:0.0859992 4:0.068755995 5:0.029735644 6:0.32568315 7:0.32814683 8:0.44935585 9:0.40352349 10:0.54175917 
8192 1:0.53851973 2:0.21523756 3:0.084135292 4:0.10265845 5:0.059448963 6:0.36406635 7:0.26660063 8:0.336286 9:0.40439054 10:0.59381791 
8192 1:0.54625555 2:0.26674081 3:0.073998812 4:0.072684228 5:0.040320594 6:0.14625664 7:0.14375835 8:0.51880035 9:0.43117561 10:0.5334139 
8192 1:0.55919516 2:0.220223 3:0.10744096 4:0.081854876 5:0.031286006 6:0.28274393 7:0.19965838 8:0.29986087 9:0.19562398 10:0.42893642 
8192 1:0.56429348 2:0.22275999 3:0.089545147 4:0.069003941 5:0.054397441 6:0.28763207 7:0.2821393 8:0.3008431 9:0.35807462 10:0.75656309 
8192 1:0.43848147 2:0.25574975 3:0.1191873 4:0.12171724 5:0.064864243 6:0.10681106 7:0.21200103 8:0.29303437 9:0.32814092 10:0.21209584 
294.6071693014398 1:0.5583005 2:0.1600931 3:0.12824545 4:0.098562938 5:0.05479801 6:0.19885951 7:0.2831283 8:0.34751173 9:0.37077949 10:0.42029677 
2853.5152001230272 1:0.40976913 2:0.23938004 3:0.098929355 4:0.16016386 5:0.091757608 6:0.20887725 7:0.34345243 8:0.22807192 9:0.40748107 10:0.50443905 
8192 1:0.4941589 2:0.2180962 3:0.10660253 4:0.12192317 5:0.059219191 6:0.55946757 7:0.23946087 8:0.47575052 9:0.60797899 10:0.47873765 
8192 1:0.50609723 2:0.15288095 3:0.10431831 4:0.14101158 5:0.09569193 6:0.47567177 7:0.11546749 8:0.32476095 9:0.51933905 10:0.64013742 
8192 1:0.60867938 2:0.18091065 3:0.087011167 4:0.086553062 5:0.036845743 6:0.57002066 7:0.37196814 8:0.29406854 9:0.31151597 10:0.36238495 
8192 1:0.65331723 2:0.26487442 3:0.045135578 4:0.027820549 5:0.0088522281 6:0.1486338 7:0.15380425 8:0.23053332 9:0.36488946 10:0.25390412 
8192 1:0.63009038 2:0.28907913 3:0.04991707 4:0.02202395 5:0.0088894646 6:0.19074718 7:0.13275011 8:0.30219335 9:0.28117916 10:0.18340156 
8192 1:0.61472535 2:0.24647701 3:0.056136558 4:0.056383799 5:0.026277287 6:0.29092071 7:0.31933841 8:0.35586064 9:0.38420745 10:0.36650741 
1019.5152613298084 1:0.40122355 2:0.15178934 3:0.091077002 4:0.14927973 5:0.20663037 6:0.34662405 7:0.56657943 8:0.7714612 9:0.83299707 10:0.85283992 
8192 1:0.50197554 2:0.1806989 3:0.069886097 4:0.15098862 5:0.09645085 6:0.60204077 7:0.3496303 8:0.4686319 9:0.4688412 10:0.51526877 
8192 1:0.60159935 2:0.20189146 3:0.072252822 4:0.083618464 5:0.040637905 6:0.22795714 7:0.19256512 8:0.26494145 9:0.51720105 10:0.43093731 
8192 1:0.63447297 2:0.20688032 3:0.069293472 4:0.059174617 5:0.030178623 6:0.083758879 7:0.10856614 8:0.26694954 9:0.49467147 10:0.48466409 
8192 1:0.61821962 2:0.1710299 3:0.07496293 4:0.090638847 5:0.045148702 6:0.2922006 7:0.39123441 8:0.33993603 9:0.36664454 10:0.3782545 
8192 1:0.50088801 2:0.2211373 3:0.14746508 4:0.087136591 5:0.043373021 6:0.18992102 7:0.23720984 8:0.30829987 9:0.3672341 10:0.27971664 
8192 1:0.53548804 2:0.30438551 3:0.095788137 4:0.044475921 5:0.019862392 6:0.2931248 7:0.12241111 8:0.1832444 9:0.24147852 10:0.36101532 
8192 1:0.71769603 2:0.17461006 3:0.044448536 4:0.041469876 5:0.021775502 6:0.079458731 7:0.12578146 8:0.26625642 9:0.39950702 10:0.42156936 
8192 1:0.50251482 2:0.24735636 3:0.1153182 4:0.081643042 5:0.053167572 6:0.42139271 7:0.30137124 8:0.37793976 9:0.25532689 10:0.66795595 
2326.069120014512 1:0.66584086 2:0.12236932 3:0.057447959 4:0.1063503 5:0.047991563 6:0.30899978 7:0.47745503 8:0.25174255 9:0.43097086 10:0.49753537 
8192 1:0.42559512 2:0.33612667 3:0.10099053 4:0.089965168 5:0.047322517 6:0.14704606 7:0.13952651 8:0.31926621 9:0.35123525 10:0.29439088 
8192 1:0.54264046 2:0.23031122 3:0.073529584 4:0.097805142 5:0.05571359 6:0.5179134 7:0.17144963 8:0.26550201 9:0.35851389 10:0.29802462 
8192 1:0.39890943 2:0.31032752 3:0.11003061 4:0.11156551 5:0.069166945 6:0.40173356 7:0.2035952 8:0.13210727 9:0.25662347 10:0.30172944 
6497.6320220299285 1:0.57541164 2:0.20544704 3:0.072667667 4:0.055196057 5:0.091277589 6:0.45832395 7:0.44268683 8:0.50620242 9:0.50554145 10:0.55978543 
8192 1:0.35550685 2:0.28850783 3:0.1839032 4:0.109888 5:0.062194124 6:0.15025701 7:0.37800279 8:0.33343408 9:0.29953964 10:0.2951437 
8192 1:0.671509 2:0.16113699 3:0.066861436 4:0.066555428 5:0.033937149 6:0.20685576 7:0.30252007 8:0.32639341 9:0.36063485 10:0.3576483 
8192 1:0.33541787 2:0.29352989 3:0.17084481 4:0.13737691 5:0.062830528 6:0.13600991 7:0.23992113 8:0.38413839 9:0.32889133 10:0.34925829 
6910.385719030257 1:0.36884046 2:0.27381348 3:0.1238934 4:0.17560748 5:0.057845184 6:0.59483478 7:0.18874232 8:0.13911223 9:0.31440654 10:0.4012154 
8192 1:0.68855467 2:0.14743883 3:0.073227934 4:0.063795694 5:0.026982871 6:1.2486134 7:0.43326119 8:0.19894144 9:0.17796052 10:0.34172395 
8192 1:0.59335921 2:0.23894159 3:0.10398354 4:0.04557048 5:0.018145185 6:0.14737819 7:0.22216795 8:0.30935915 9:0.38970703 10:0.43255642 
8192 1:0.78783199 2:0.14820776 3:0.032814361 4:0.020975028 5:0.010170852 6:0.10637829 7:0.13849823 8:0.22816157 9:0.38155716 10:0.25673617 
8192 1:0.64124077 2:0.21297532 3:0.069556491 4:0.048138047 5:0.028089377 6:0.16273481 7:0.24018397 8:0.3689069 9:0.50259212 10:0.38992754 
8192 1:0.41871988 2:0.19914996 3:0.20812012 4:0.09914132 5:0.074868719 6:0.48027071 7:0.30029447 8:0.34632071 9:0.39848405 10:0.60378615 
8192 1:0.7937874 2:0.15518658 3:0.034458481 4:0.011591354 5:0.0049761856 6:0.15656837 7:0.1728254 8:0.27699207 9:0.25391475 10:0.31687745 
8192 1:0.76030442 2:0.12631522 3:0.047443053 4:0.047890606 5:0.018046706 6:0.67035321 7:0.45229357 8:0.30302264 9:0.58990169 10:0.37750426 
8192 1:0.49746332 2:0.30818057 3:0.10569189 4:0.054791574 5:0.033872646 6:0.089120229 7:0.16910152 8:0.26930829 9:0.28328124 10:0.22273366 
8192 1:0.65505479 2:0.21527624 3:0.061774982 4:0.04635032 5:0.021543671 6:0.19449168 7:0.11675653 8:0.27119162 9:0.31101153 10:0.33972101 
8192 1:0.53076992 2:0.30568048 3:0.096470694 4:0.048137082 5:0.018941828 6:0.29419098 7:0.32259783 8:0.28554131 9:0.3693628 10:0.3244018 
8192 1:0.48663636 2:0.34239359 3:0.098905294 4:0.047133884 5:0.02493087 6:0.10108837 7:0.12847379 8:0.24819459 9:0.49124779 10:0.54731176 
8192 1:0.68716381 2:0.19347808 3:0.055493759 4:0.039809713 5:0.024054633 6:0.1671179 7:0.22648121 8:0.24782368 9:0.21803802 10:0.14752945 
8192 1:0.79270182 2:0.11581529 3:0.038377242 4:0.029691563 5:0.023414087 6:0.6237441 7:0.18766232 8:0.21673874 9:0.15525684 10:0.37006349 
655.31447144890376 1:0.2654505 2:0.27794266 3:0.13941613 4:0.2023069 5:0.11488381 6:0.35814401 7:0.43040241 8:0.81498733 9:0.61286792 10:0.71180398 
8192 1:0.50093114 2:0.23681967 3:0.13206746 4:0.083702814 5:0.046478917 6:0.34413688 7:0.25976327 8:0.36475777 9:0.31234073 10:0.3227671 
8192 1:0.3443337 2:0.27622991 3:0.20294973 4:0.11458933 5:0.061897327 6:0.41691345 7:0.35487483 8:0.36796192 9:0.35501693 10:0.31448694 
8192 1:0.52243391 2:0.21232116 3:0.089453345 4:0.091561816 5:0.084229765 6:0.44242577 7:0.33355313 8:0.73375739 9:0.51105841 10:0.61755431 
8192 1:0.66599703 2:0.18257206 3:0.047165715 4:0.069746515 5:0.034518679 6:0.19399997 7:0.093731502 8:0.23884778 9:0.34259179 10:0.32118625 
8192 1:0.31620658 2:0.31993359 3:0.16688966 4:0.12040077 5:0.076569395 6:0.2807079 7:0.41378608 8:0.40296091 9:0.27179109 10:0.29590773 
8192 1:0.65442264 2:0.24594053 3:0.052886742 4:0.032404708 5:0.014345387 6:0.14304568 7:0.15492678 8:0.26645679 9:0.30451655 10:0.30906706 
8192 1:0.44943875 2:0.23040814 3:0.17339407 4:0.095872788 5:0.05088625 6:0.30550929 7:0.17155054 8:0.34404055 9:0.24868205 10:0.30157961 
8192 1:0.35858332 2:0.37407048 3:0.15393427 4:0.078726373 5:0.034685549 6:0.32853175 7:0.23508843 8:0.30844267 9:0.28294944 10:0.33519241 
8192 1:0.71312123 2:0.16225994 3:0.046133927 4:0.047237195 5:0.031247717 6:0.071935989 7:0.24062597 8:0.22295869 9:0.16759225 10:0.25890551 
7564.8703315738221 1:0.73318318 2:0.1786519 3:0.040149037 4:0.034524847 5:0.013491039 6:0.077791112 7:0.18798138 8:0.155121 9:0.26553135 10:0.30636487 
8192 1:0.54015745 2:0.2323199 3:0.083941989 4:0.090341196 5:0.05323947 6:0.34217476 7:0.43599453 8:0.62180015 9:0.6475063 10:0.66291563 
3887.7627386583008 1:0.4574154 2:0.17700303 3:0.1572755 4:0.14922543 5:0.05908064 6:0.53561685 7:0.39495871 8:0.40880991 9:0.40424609 10:0.55649581 
8192 1:0.69513727 2:0.17778133 3:0.073666291 4:0.035417438 5:0.017997674 6:0.11746381 7:0.20074674 8:0.33483002 9:0.41808997 10:0.54139067 
8192 1:0.58517999 2:0.19797588 3:0.086329831 4:0.081287806 5:0.0492265 6:0.61165624 7:0.22000028 8:0.27600196 9:0.33161963 10:0.40664433 
8192 1:0.48005446 2:0.2245469 3:0.13063255 4:0.11316342 5:0.051602669 6:0.37213549 7:0.24195864 8:0.29802371 9:0.27519786 10:0.27289164 
5609.2951912403523 1:0.3545672 2:0.34839403 3:0.14787204 4:0.088513494 5:0.060653238 6:0.63482409 7:0.39472154 8:0.44776173 9:0.20848584 10:0.25784957 
8192 1:0.6174636 2:0.20075553 3:0.060738312 4:0.074821148 5:0.046221413 6:0.21936483 7:0.13355756 8:0.33721806 9:0.37251721 10:0.43683983 
8192 1:0.64898835 2:0.24292829 3:0.053179836 4:0.038701119 5:0.016202401 6:0.091461754 7:0.21663337 8:0.33613353 9:0.31678122 10:0.25838494 
7889.9311644172194 1:0.43317429 2:0.30494862 3:0.15186482 4:0.078057701 5:0.031954568 6:0.14160619 7:0.18622954 8:0.30306699 9:0.3970171 10:0.41088785 
8128.3606170948287 1:0.36334611 2:0.44282681 3:0.077082207 4:0.066872277 5:0.049872601 6:0.15324471 7:0.15923747 8:0.26981717 9:0.31797959 10:0.55549532 
8192 1:0.52732939 2:0.25099009 3:0.08552552 4:0.093816375 5:0.042338629 6:0.21577489 7:0.19670144 8:0.22221906 9:0.18142558 10:0.30676491 
2846.3354192927222 1:0.35050285 2:0.30770069 3:0.14048752 4:0.12082106 5:0.080487882 6:0.30273186 7:0.48053898 8:0.2600051 9:0.28280307 10:0.63117176 
8192 1:0.71875312 2:0.18711607 3:0.036365575 4:0.036817089 5:0.020948149 6:0.28239221 7:0.19468435 8:0.29640413 9:0.48876971 10:0.42910632 
5003.7964779490048 1:0.58901407 2:0.3022318 3:0.034224909 4:0.046145232 5:0.028383986 6:0.33526755 7:0.25195814 8:0.22524948 9:0.41874641 10:0.50692431 
8192 1:0.59147859 2:0.28391852 3:0.075520649 4:0.033964225 5:0.015118013 6:0.20527378 7:0.12790657 8:0.22136758 9:0.19779305 10:0.28079961 
5151.6316469522535 1:0.81643441 2:0.11518404 3:0.030031688 4:0.024743224 5:0.013606636 6:1.540088 7:0.49108093 8:0.31682101 9:0.27800563 10:0.38151824 
5589.979497812541 1:0.58956347 2:0.19646445 3:0.073313971 4:0.078928268 5:0.061729845 6:0.071653621 7:0.16852262 8:0.31575398 9:0.62301871 10:0.68593928 
8192 1:0.55367449 2:0.20449266 3:0.10214601 4:0.096634781 5:0.043052064 6:0.53347294 7:0.43384724 8:0.38554147 9:0.41167146 10:0.38402671 
8192 1:0.66570348 2:0.16111542 3:0.09298646 4:0.054191751 5:0.026002889 6:0.15569184 7:0.15808635 8:0.27855225 9:0.30325787 10:0.37703311 
8192 1:0.66368378 2:0.17779264 3:0.074214905 4:0.055125677 5:0.029183003 6:0.097713074 7:0.15198994 8:0.37186328 9:0.41747552 10:0.41803409 
8192 1:0.6691302 2:0.21814873 3:0.069749705 4:0.030302414 5:0.012668956 6:0.22658325 7:0.11814859 8:0.17259104 9:0.30141412 10:0.3468782 
8192 1:0.61116877 2:0.15755797 3:0.095370361 4:0.092147302 5:0.043755595 6:1.096693 7:0.27722594 8:0.35774517 9:0.47433227 10:0.39351339 
8192 1:0.77729951 2:0.15260926 3:0.032565318 4:0.024752267 5:0.012773649 6:0.11653407 7:0.14601087 8:0.22205119 9:0.48736101 10:0.54619082 
8192 1:0.39110925 2:0.47134534 3:0.049712552 4:0.050220865 5:0.037611995 6:0.25093314 7:0.17597868 8:0.2257201 9:0.47331886 10:0.51694048 
8192 1:0.41701959 2:0.34191056 3:0.14271724 4:0.071312389 5:0.027040213 6:0.10407949 7:0.23122949 8:0.32302271 9:0.27098295 10:0.35477499 
4723.7033676620749 1:0.87299693 2:0.072511015 3:0.027170625 4:0.017819195 5:0.0095022386 6:1.2412051 7:0.30776447 8:0.23379012 9:0.32895533 10:0.2752654 
8192 1:0.36042164 2:0.29920701 3:0.17070559 4:0.11392118 5:0.055744572 6:0.25262804 7:0.25487478 8:0.24284001 9:0.29061798 10:0.26858323 
8192 1:0.35291719 2:0.29480869 3:0.16408214 4:0.12168133 5:0.066510642 6:0.14847643 7:0.34008659 8:0.28513299 9:0.30421607 10:0.23318574 
8192 1:0.40459212 2:0.29506316 3:0.13577179 4:0.1158588 5:0.048714137 6:0.12046476 7:0.22068087 8:0.38104375 9:0.34980683 10:0.27108629 
8192 1:0.37710361 2:0.37596745 3:0.10048834 4:0.10105871 5:0.045381888 6:0.1806082 7:0.14270707 8:0.26303546 9:0.37105182 10:0.28536088 
8192 1:0.43638767 2:0.24181654 3:0.14760898 4:0.12030326 5:0.053883545 6:0.35164765 7:0.20899224 8:0.32310004 9:0.34344963 10:0.30302668 
8192 1:0.69224136 2:0.14836865 3:0.077233155 4:0.050664907 5:0.031491926 6:0.23992521 7:0.2390798 8:0.28157517 9:0.36358325 10:0.3674694 
8192 1:0.57261749 2:0.29774434 3:0.061321824 4:0.04333217 5:0.024984178 6:0.24019871 7:0.16030803 8:0.15250697 9:0.20570164 10:0.29060039 
8192 1:0.50615177 2:0.16710382 3:0.091171135 4:0.15336395 5:0.082209319 6:0.48654992 7:0.16800777 8:0.30674347 9:0.47113451 10:0.49332081 
8192 1:0.76864256 2:0.14035585 3:0.04268505 4:0.033706477 5:0.014610064 6:0.58279029 7:0.26624323 8:0.10726623 9:0.27294844 10:0.25812006 
8192 1:0.65841889 2:0.24724477 3:0.063530179 4:0.022373511 5:0.0084326514 6:0.1216926 7:0.12371033 8:0.32872828 9:0.20341567 10:0.31719141 
2862.2209414072768 1:0.29019257 2:0.3596042 3:0.17589363 4:0.10922866 5:0.065080934 6:0.13483225 7:0.14757113 8:0.29460013 9:0.41943181 10:0.55951635 
8192 1:0.47461261 2:0.24437962 3:0.12045689 4:0.094924298 5:0.065626588 6:0.072436121 7:0.1790596 8:0.35587411 9:0.53908917 10:0.67173852 
8192 1:0.48779211 2:0.23404874 3:0.13172401 4:0.093713562 5:0.052721582 6:0.43293922 7:0.21274363 8:0.29678772 9:0.27797075 10:0.45049612 
8192 1:0.58916613 2:0.2336718 3:0.077091452 4:0.06660822 5:0.033462392 6:0.057837104 7:0.10735146 8:0.15679894 9:0.3161126 10:0.338675 
5408.3415590137693 1:0.43645269 2:0.31847906 3:0.093409533 4:0.097361315 5:0.054297405 6:0.39732095 7:0.27204911 8:0.2361695 9:0.2912189 10:0.22271086 
8192 1:0.50371955 2:0.14569295 3:0.17131473 4:0.11720385 5:0.062068921 6:0.21081342 7:0.15650187 8:0.38208002 9:0.34104129 10:0.44020842 
8192 1:0.56514606 2:0.21795337 3:0.08199009 4:0.081902517 5:0.05300796 6:0.47509296 7:0.21923274 8:0.35509162 9:0.51170138 10:0.50441772 
7721.1563972069835 1:0.18575657 2:0.52181944 3:0.12473267 4:0.0983285 5:0.069362822 6:0.14463601 7:0.24008452 8:0.50578308 9:0.41906224 10:0.41940503 
8192 1:0.64599373 2:0.2235253 3:0.092101774 4:0.028959768 5:0.0094194237 6:0.11056376 7:0.13310834 8:0.23549013 9:0.29673125 10:0.27993752 
8192 1:0.44187517 2:0.23631145 3:0.1059658 4:0.13972427 5:0.076123319 6:0.30869201 7:0.10780896 8:0.33211823 9:0.34597526 10:0.29795665 
8192 1:0.45859245 2:0.30319779 3:0.10124852 4:0.096601882 5:0.040359361 6:0.41368701 7:0.28655782 8:0.33000562 9:0.29377544 10:0.29908776 
8192 1:0.52614689 2:0.26290987 3:0.096953272 4:0.08030072 5:0.033689245 6:0.45918265 7:0.24084659 8:0.32391433 9:0.41840045 10:0.24624485 
8192 1:0.45042272 2:0.22084296 3:0.13917245 4:0.13372011 5:0.05584175 6:0.34120732 7:0.16513408 8:0.28287036 9:0.3966458 10:0.30270632 
8192 1:0.61120201 2:0.16875035 3:0.05263889 4:0.10096909 5:0.066439657 6:1.178137 7:0.58859548 8:0.31478561 9:0.47071643 10:0.41542959 
8192 1:0.34125962 2:0.4333626 3:0.11541689 4:0.077813009 5:0.032147875 6:0.25556935 7:0.19338496 8:0.10333879 9:0.26390951 10:0.30998105 
8192 1:0.61580358 2:0.2655166 3:0.06315378 4:0.035702187 5:0.019823851 6:0.15157585 7:0.16839554 8:0.33709045 9:0.28327679 10:0.42621382 
8192 1:0.76576845 2:0.16037899 3:0.052755823 4:0.017487476 5:0.0036092619 6:0.16571857 7:0.1132967 8:0.21441715 9:0.25169307 10:0.27090173 
8192 1:0.63321057 2:0.21534068 3:0.073119915 4:0.052704278 5:0.025624556 6:0.067235123 7:0.23839897 8:0.28694098 9:0.24609611 10:0.30257766 
1336.5150456644585 1:0.87672282 2:0.086887436 3:0.016838674 4:0.011569174 5:0.0079818959 6:1.5567744 7:1.1040464 8:0.47070978 9:0.32000951 10:0.23742835 
3885.8986127650032 1:0.87576488 2:0.069610453 3:0.026675255 4:0.018036008 5:0.0099133998 6:1.3468223 7:0.34471653 8:0.29857645 9:0.19025833 10:0.29531843 
8192 1:0.45921256 2:0.33796787 3:0.10493665 4:0.065401897 5:0.032481014 6:0.14358239 7:0.2495524 8:0.35050186 9:0.22518808 10:0.39160575 
8192 1:0.64632213 2:0.15215133 3:0.11576068 4:0.058822272 5:0.026943582 6:0.41376892 7:0.38769989 8:0.32823896 9:0.24777121 10:0.37645289 
3446.6000322191162 1:0.45838372 2:0.40657401 3:0.050784623 4:0.04981718 5:0.034440466 6:0.14403102 7:0.14712476 8:0.18545833 9:0.32426566 10:0.63445664 
8192 1:0.42277871 2:0.32368854 3:0.13120138 4:0.08151168 5:0.04081969 6:0.29547778 7:0.28881539 8:0.43438635 9:0.39407748 10:0.41828205 
8192 1:0.43156179 2:0.3898609 3:0.092210837 4:0.060543853 5:0.025822617 6:0.31827141 7:0.20452927 8:0.17058283 9:0.25338163 10:0.15679919 
8192 1:0.38005415 2:0.31683883 3:0.13233693 4:0.11992734 5:0.050842753 6:0.1005183 7:0.26069801 8:0.39402613 9:0.34861773 10:0.27628666 
8192 1:0.46327821 2:0.24497852 3:0.13244568 4:0.10251564 5:0.056781946 6:0.25763438 7:0.1838311 8:0.3012679 9:0.32980888 10:0.306654 
8192 1:0.58311833 2:0.20747624 3:0.10691527 4:0.074853501 5:0.027636664 6:0.3593563 7:0.2611367 8:0.30295478 9:0.30307578 10:0.2712525 
5821.7020684272729 1:0.7903396 2:0.077859193 3:0.034865096 4:0.065427282 5:0.031508825 6:1.0181514 7:0.13568049 8:0.1936871 9:0.5046087 10:0.44124678 
6388.6896080203878 1:0.66520232 2:0.18400413 3:0.065000672 4:0.055292251 5:0.030500628 6:0.066238075 7:0.25181532 8:0.31707336 9:0.40419865 10:0.45108649 
8192 1:0.52423468 2:0.22634637 3:0.15676922 4:0.061105402 5:0.031544327 6:0.2025798 7:0.14742772 8:0.31106578 9:0.28727403 10:0.32032787 
1721.6240612484908 1:0.87469576 2:0.076175704 3:0.019304047 4:0.017356455 5:0.012468033 6:1.0716914 7:0.15524519 8:0.20866511 9:0.44687772 10:0.58718687 
8192 1:0.55409518 2:0.24608505 3:0.097895777 4:0.067040377 5:0.034883617 6:0.29222086 7:0.17691265 8:0.39231083 9:0.38748974 10:0.32941675 
8192 1:0.66522958 2:0.19937349 3:0.055288577 4:0.048547046 5:0.031561305 6:0.38602648 7:0.12752434 8:0.41233362 9:0.39227578 10:0.43428431 
1288.0567372210319 1:0.62678754 2:0.15396523 3:0.065535019 4:0.086365475 5:0.06734673 6:1.1857749 7:1.0531068 8:1.0071322 9:0.76341574 10:0.57490235 
837.51327276510824 1:0.42839322 2:0.23159278 3:0.11920581 4:0.14754951 5:0.07325868 6:0.31272412 7:0.35825741 8:0.11729728 9:0.26455257 10:0.61759688 
7872.9350994798524 1:0.50063841 2:0.25225424 3:0.12777928 4:0.070609742 5:0.048718331 6:0.12214471 7:0.17269537 8:0.36053685 9:0.42195475 10:0.56033438 
8192 1:0.75494024 2:0.14559952 3:0.030965142 4:0.046501152 5:0.021993946 6:0.32650341 7:0.36299459 8:0.21985614 9:0.41950924 10:0.28668011 
1145.6601341051655 1:0.61652117 2:0.22433511 3:0.056280546 4:0.068287974 5:0.034575199 6:1.3782895 7:0.22220997 8:0.45217293 9:0.52286921 10:0.5148036 
8192 1:0.625633 2:0.2019657 3:0.082918689 4:0.060329875 5:0.029152738 6:0.17309534 7:0.21252576 8:0.31208587 9:0.28980684 10:0.28636687 
8192 1:0.56730457 2:0.3232019 3:0.053019558 4:0.033874927 5:0.022599042 6:0.24251493 7:0.27013654 8:0.44885199 9:0.3278284 10:0.36059763 
8192 1:0.67375527 2:0.22917728 3:0.053417376 4:0.028632493 5:0.015017578 6:0.15924993 7:0.20022056 8:0.32590886 9:0.32001764 10:0.27538081 
8192 1:0.76580129 2:0.14876981 3:0.035167979 4:0.03267118 5:0.01758974 6:0.64631482 7:0.44608038 8:0.21082996 9:0.3711868 10:0.5037714 
8192 1:0.64222859 2:0.23819773 3:0.06446868 4:0.036378456 5:0.018726552 6:0.057477996 7:0.091079743 8:0.2146076 9:0.29088377 10:0.29111072 
8192 1:0.46070192 2:0.31751937 3:0.13228747 4:0.056516641 5:0.032974605 6:0.13830168 7:0.34886761 8:0.39573084 9:0.32544783 10:0.60802556 
8192 1:0.48072452 2:0.22622781 3:0.083502354 4:0.13878184 5:0.070763474 6:0.46992101 7:0.36934286 8:0.30435945 9:0.55857241 10:0.61653979 
8192 1:0.68969523 2:0.16935369 3:0.058724832 4:0.052837909 5:0.029388339 6:0.25222856 7:0.1619513 8:0.27438997 9:0.52160721 10:0.64859683 
8192 1:0.39435438 2:0.31318803 3:0.17086424 4:0.088261947 5:0.033331399 6:0.27565687 7:0.32383434 8:0.29308893 9:0.28046318 10:0.33029834 
8192 1:0.57459473 2:0.23690737 3:0.085888033 4:0.06995403 5:0.032655833 6:0.16190016 7:0.23991109 8:0.32940659 9:0.47974671 10:0.41718801 
3621.7488255891708 1:0.43015698 2:0.34113604 3:0.096055227 4:0.089304297 5:0.043347447 6:0.2188631 7:0.14697362 8:0.27509467 9:0.37255036 10:0.26480027 
8192 1:0.61049958 2:0.23941765 3:0.064436097 4:0.056311641 5:0.029335024 6:0.15566112 7:0.11701779 8:0.18636841 9:0.32923946 10:0.31420819 
8192 1:0.57589888 2:0.27189122 3:0.067788046 4:0.055111463 5:0.029310387 6:0.11060264 7:0.16944503 8:0.30412562 9:0.29658333 10:0.27762977 
8192 1:0.33169221 2:0.30882737 3:0.20156966 4:0.099160442 5:0.058750319 6:0.26214649 7:0.32373314 8:0.33070576 9:0.26479492 10:0.36983967 
8192 1:0.78424727 2:0.15871112 3:0.029385674 4:0.019603946 5:0.0080519901 6:0.091310006 7:0.092059036 8:0.10732748 9:0.39065012 10:0.29254229 
8192 1:0.43653112 2:0.36151196 3:0.097729715 4:0.072387254 5:0.031839943 6:0.47655102 7:0.23307725 8:0.27940094 9:0.31241907 10:0.29065896 
1430.522867534231 1:0.57408444 2:0.24830919 3:0.082760207 4:0.053243127 5:0.041603031 6:0.25161418 7:0.087788603 8:0.1743722 9:0.37637184 10:0.59484543 
8192 1:0.72721098 2:0.12391749 3:0.062707432 4:0.057992606 5:0.028171498 6:0.14543816 7:0.19632688 8:0.25545353 9:0.44637546 10:0.37959789 
8192 1:0.59488436 2:0.18595609 3:0.070227396 4:0.099530844 5:0.049401303 6:0.77800326 7:0.091708959 8:0.2365524 9:0.28466968 10:0.29123017 
8192 1:0.50920156 2:0.19613049 3:0.12075328 4:0.11993449 5:0.053980185 6:0.18170322 7:0.16889531 8:0.14888828 9:0.28841342 10:0.24417112 
6864.1855241233952 1:0.59557387 2:0.24618331 3:0.077462212 4:0.052184966 5:0.02859564 6:0.30300819 7:0.19750677 8:0.092451424 9:0.33266807 10:0.44997968 
7154.6167769803687 1:0.60416183 2:0.26794231 3:0.091060107 4:0.026960132 5:0.0098756153 6:0.17830397 7:0.075214322 8:0.13652388 9:0.23366261 10:0.29222353 
8192 1:0.57262032 2:0.22658067 3:0.07282193 4:0.082264006 5:0.045713075 6:0.3490623 7:0.27198188 8:0.49141182 9:0.31502375 10:0.3640333 
8192 1:0.67798002 2:0.17793138 3:0.05788579 4:0.049293205 5:0.036909607 6:0.17182075 7:0.12780709 8:0.42745122 9:0.58729596 10:0.73071276 
8192 1:0.60948966 2:0.28196329 3:0.059224116 4:0.026433262 5:0.02288967 6:0.13804545 7:0.18710274 8:0.25988031 9:0.34359953 10:0.62676583 
8192 1:0.52348021 2:0.2731436 3:0.08278896 4:0.072524728 5:0.048062502 6:0.20193354 7:0.17177856 8:0.15501482 9:0.259509 10:0.28736063 
8192 1:0.56143626 2:0.17460443 3:0.10498005 4:0.09950669 5:0.059472569 6:0.40954068 7:0.15719086 8:0.28394685 9:0.48608278 10:0.62207285 
8192 1:0.56576439 2:0.25334695 3:0.068960959 4:0.077072129 5:0.034855571 6:0.13516271 7:0.1995057 8:0.47304964 9:0.53934007 10:0.55107337 
8192 1:0.7460745 2:0.16656007 3:0.045674449 4:0.027600552 5:0.014090431 6:0.75426389 7:0.21036032 8:0.6047642 9:0.58874719 10:0.5820857 
8192 1:0.7424776 2:0.15245891 3:0.050977936 4:0.031015443 5:0.023070107 6:0.1750123 7:0.03782822 8:0.20287381 9:0.39290891 10:0.42100665 
8192 1:0.57052364 2:0.20253775 3:0.098451023 4:0.085799627 5:0.04268796 6:0.14563957 7:0.34949765 8:0.23145229 9:0.43124895 10:0.38542736 
1415.3903669716765 1:0.41554586 2:0.24353453 3:0.18890813 4:0.10337583 5:0.048635636 6:0.19062697 7:0.19649099 8:0.14899409 9:0.40137419 10:0.33685388 
406.43495193412718 1:0.66339648 2:0.20070663 3:0.056853011 4:0.046678754 5:0.032365131 6:0.060036188 7:0.21566693 8:0.30130143 9:0.27573197 10:0.49507439 
8192 1:0.54531234 2:0.17934811 3:0.1078661 4:0.11151461 5:0.055958846 6:0.55316577 7:0.18740253 8:0.35546303 9:0.41123809 10:0.39278909 
8192 1:0.73005414 2:0.1852202 3:0.041892542 4:0.028507271 5:0.01432584 6:0.15382988 7:0.17098866 8:0.18886727 9:0.23734665 10:0.28658921 
8192 1:0.67875133 2:0.23123236 3:0.050430276 4:0.02725256 5:0.012333472 6:0.13382057 7:0.22450354 8:0.33475062 9:0.27847717 10:0.28205858 
8192 1:0.52896191 2:0.27139377 3:0.12043431 4:0.048114636 5:0.031095378 6:0.39163315 7:0.091821172 8:0.25545058 9:0.31929689 10:0.40604952 
8192 1:0.6778971 2:0.22351914 3:0.052641072 4:0.029265755 5:0.016676933 6:0.19663995 7:0.13692333 8:0.32099583 9:0.36944082 10:0.33098932 
5842.5375056211869 1:0.6540084 2:0.2031537 3:0.075756459 4:0.040168154 5:0.026913287 6:0.24220891 7:0.31269927 8:0.27752793 9:0.21974145 10:0.39793213 
5319.3107761600477 1:0.61468346 2:0.16256978 3:0.078976994 4:0.080920034 5:0.062849735 6:0.31913259 7:0.35593283 8:0.65702077 9:0.23440643 10:0.31825087 
1167.0834308378983 1:0.63302317 2:0.17063144 3:0.085601383 4:0.063292016 5:0.047451993 6:0.36602875 7:0.7530543 8:1.0807053 9:0.76809785 10:0.69722092 
8192 1:0.62542863 2:0.22438872 3:0.056634302 4:0.057563126 5:0.035985213 6:0.70544043 7:0.29901632 8:0.20194172 9:0.30406595 10:0.36064738 
2182.6907192077533 1:0.32639168 2:0.20249216 3:0.12462679 4:0.14489664 5:0.20159272 6:0.39793496 7:0.26642209 8:0.52226535 9:0.25231233 10:0.47040885 
8192 1:0.52407516 2:0.2685891 3:0.073480049 4:0.088918786 5:0.044936905 6:0.59814181 7:0.41105805 8:0.31537704 9:0.34071341 10:0.41294544 
8192 1:0.45545877 2:0.27033529 3:0.11609888 4:0.098779127 5:0.059327929 6:0.36824906 7:0.10959827 8:0.26533453 9:0.45144098 10:0.5184107 
836.26166538708878 1:0.79302865 2:0.10217434 3:0.044470471 4:0.037812217 5:0.022514324 6:0.86037409 7:0.35385705 8:0.35412568 9:0.47810963 10:0.41525855 
8192 1:0.70921573 2:0.16372518 3:0.052902502 4:0.04344603 5:0.030710554 6:0.54819447 7:0.30334835 8:0.41731371 9:0.25339382 10:0.34880756 
8192 1:0.57280971 2:0.2389594 3:0.059794144 4:0.065599534 5:0.062837211 6:0.48326688 7:0.29211214 8:0.58286208 9:0.52976532 10:0.9027245 
982.94744678201232 1:0.27799362 2:0.345317 3:0.23045469 4:0.080745486 5:0.0654892 6:0.40216272 7:0.35327129 8:0.42655876 9:0.32092452 10:0.65650127 
8192 1:0.63771638 2:0.21335061 3:0.06024102 4:0.058287458 5:0.030404529 6:0.22440616 7:0.11177066 8:0.30032941 9:0.43414982 10:0.41542475 
8192 1:0.56855174 2:0.22205363 3:0.11009663 4:0.066839309 5:0.03245869 6:0.56805849 7:0.17016934 8:0.16781688 9:0.35346452 10:0.35431452 
8192 1:0.68682393 2:0.1824609 3:0.042133523 4:0.058487354 5:0.030094294 6:0.16576688 7:0.10473588 8:0.2990595 9:0.37698618 10:0.38076927 
8192 1:0.48557242 2:0.26023643 3:0.14523367 4:0.080297785 5:0.028659707 6:0.29748018 7:0.32015546 8:0.38120445 9:0.39522242 10:0.26226032 
6452.2994808400781 1:0.85027876 2:0.09901595 3:0.020262083 4:0.017934235 5:0.012508974 6:0.33613057 7:0.10204566 8:0.13525627 9:0.21070087 10:0.42106017 
8192 1:0.48393086 2:0.21966398 3:0.12240321 4:0.11792432 5:0.056077633 6:0.26659844 7:0.15105316 8:0.20929567 9:0.29101927 10:0.2749742 
8192 1:0.34753593 2:0.30390948 3:0.18095163 4:0.11338623 5:0.054216728 6:0.28067683 7:0.20275584 8:0.30947563 9:0.40093019 10:0.39419912 
8192 1:0.5129361 2:0.19880024 3:0.11201159 4:0.12310356 5:0.05314851 6:0.27459573 7:0.30349591 8:0.28710116 9:0.21463284 10:0.14989519 
8192 1:0.57101709 2:0.20190735 3:0.076443155 4:0.13003286 5:0.020599551 6:0.1108249 7:0.14385262 8:0.13803686 9:0.29888674 10:0.05406193 
8192 1:0.34770583 2:0.35271323 3:0.10216653 4:0.1279627 5:0.069451709 6:0.21449583 7:0.38469766 8:0.32928428 9:0.26077429 10:0.18744167 
8192 1:0.64303454 2:0.2167107 3:0.055341136 4:0.05309376 5:0.031819865 6:0.14070908 7:0.096822352 8:0.23476821 9:0.30896386 10:0.36855776 
8192 1:0.75679416 2:0.1881635 3:0.013913618 4:0.023780203 5:0.017348515 6:0.21565849 7:0.12937971 8:0.35379302 9:0.22000006 10:0.30101114 
8192 1:0.6597783 2:0.2401115 3:0.053250057 4:0.035093477 5:0.011766666 6:0.16471653 7:0.18296285 8:0.26848322 9:0.29132608 10:0.26486817 
8192 1:0.55901531 2:0.31860578 3:0.070615709 4:0.033965382 5:0.01779782 6:0.062782727 7:0.172757 8:0.27404574 9:0.33426094 10:0.24977767 
8192 1:0.513805 2:0.25546909 3:0.094242963 4:0.091225527 5:0.045257413 6:0.25416469 7:0.24011564 8:0.22671954 9:0.26923469 10:0.27931898 
8192 1:0.63778453 2:0.21486423 3:0.06326194 4:0.050660807 5:0.033428493 6:0.41114017 7:0.23594957 8:0.22758877 9:0.26271577 10:0.26819836 
8192 1:0.55479473 2:0.19357367 3:0.095272119 4:0.10475963 5:0.051599847 6:0.47073061 7:0.20183384 8:0.36517704 9:0.44319358 10:0.57367393 
8192 1:0.40119663 2:0.22279002 3:0.12274405 4:0.14247658 5:0.11079272 6:0.36657577 7:0.2020748 8:0.42864128 9:0.57006096 10:0.78538986 
8192 1:0.49479883 2:0.23433176 3:0.1319818 4:0.090290496 5:0.048597114 6:0.33919208 7:0.41036844 8:0.21791829 9:0.34665131 10:0.52314947 
8192 1:0.70919881 2:0.21760384 3:0.027548965 4:0.024746025 5:0.020902361 6:0.11264793 7:0.197392 8:0.28303448 9:0.24174895 10:0.23549156 
8192 1:0.78001509 2:0.13109037 3:0.043214496 4:0.031296813 5:0.014383223 6:0.23354221 7:0.20363336 8:0.25853726 9:0.32371861 10:0.32944016 
8192 1:0.73680578 2:0.19500095 3:0.029979103 4:0.024799681 5:0.013414486 6:0.1330342 7:0.072318431 8:0.1906389 9:0.29505616 10:0.42235572 
8192 1:0.772915 2:0.14821646 3:0.042489605 4:0.023753568 5:0.012625369 6:0.047834771 7:0.045338589 8:0.16560951 9:0.38343751 10:0.3158645 
8192 1:0.75873323 2:0.18327862 3:0.033758216 4:0.015470564 5:0.0087593676 6:0.26596047 7:0.094928573 8:0.18781453 9:0.27911491 10:0.3617983 
8192 1:0.47615074 2:0.292054 3:0.11388221 4:0.082651819 5:0.035261231 6:0.25879642 7:0.25989453 8:0.3952606 9:0.31970698 10:0.38866059 
8192 1:0.50333046 2:0.30333891 3:0.10473713 4:0.056434275 5:0.032159222 6:0.12715906 7:0.14539357 8:0.4077276 9:0.47833442 10:0.44256392 
8192 1:0.56092345 2:0.28170784 3:0.077870886 4:0.056269366 5:0.023228459 6:0.067859155 7:0.17930783 8:0.32163719 9:0.31923406 10:0.37376046 
8192 1:0.57836699 2:0.20375286 3:0.080261184 4:0.092249602 5:0.045369361 6:0.4867952 7:0.19873721 8:0.26778625 9:0.48202617 10:0.51681375 
8192 1:0.32128701 2:0.24337182 3:0.20288659 4:0.14042404 5:0.092030555 6:0.31311897 7:0.42883061 8:0.49759977 9:0.28654172 10:0.1993952 
8192 1:0.50324112 2:0.31963302 3:0.07143352 4:0.077560812 5:0.028131528 6:0.15052588 7:0.31446309 8:0.3245315 9:0.36514127 10:0.32353172 
8192 1:0.41218614 2:0.27739012 3:0.16210798 4:0.10948607 5:0.038829682 6:0.20428964 7:0.41225261 8:0.33640431 9:0.29397884 10:0.33450529 
8192 1:0.44209741 2:0.33271526 3:0.10676756 4:0.079202733 5:0.039217041 6:0.3063859 7:0.29815589 8:0.29973159 9:0.29066019 10:0.24451241 
8192 1:0.43949765 2:0.21368404 3:0.097504781 4:0.15927903 5:0.0900345 6:0.21518586 7:0.25804213 8:0.31430452 9:0.50714548 10:0.49559496 
8192 1:0.56612291 2:0.25472999 3:0.10184648 4:0.05062047 5:0.026680148 6:0.10010861 7:0.19651409 8:0.38941147 9:0.36797838 10:0.37683528 
8192 1:0.76080765 2:0.17983564 3:0.030416577 4:0.020857584 5:0.0080825457 6:0.068393377 7:0.068972396 8:0.2458679 9:0.35770537 10:0.46348672 
1087.5099632013414 1:0.42963614 2:0.21317892 3:0.085711264 4:0.11204923 5:0.15942443 6:0.29507746 7:0.23835358 8:0.25459082 9:0.49304456 10:0.9447903 
8192 1:0.38174088 2:0.31202702 3:0.1668208 4:0.094966503 5:0.044444792 6:0.48404741 7:0.45642371 8:0.33212242 9:0.37498269 10:0.3352243 
5322.0529493548947 1:0.46386564 2:0.23512644 3:0.11751631 4:0.11433056 5:0.069161049 6:0.12767352 7:0.34957439 8:0.39183625 9:0.26699744 10:0.32037687 
1201.9369481757776 1:0.26772925 2:0.1307543 3:0.18350973 4:0.282623 5:0.13538372 6:0.4354086 7:0.30003867 8:0.71591799 9:0.61385727 10:0.41703733 
7129.4780731792298 1:0.24677405 2:0.42838882 3:0.14504081 4:0.12772912 5:0.052067197 6:0.29439837 7:0.26606622 8:0.37355244 9:0.37637517 10:0.56340051 
2349.7889644216452 1:0.59147024 2:0.2943607 3:0.03804592 4:0.049996447 5:0.026126694 6:0.040396824 7:0.17121395 8:0.11036424 9:0.31625614 10:0.34565365 
8192 1:0.67092985 2:0.20022773 3:0.051326407 4:0.05804962 5:0.019466385 6:0.093569424 7:0.18884982 8:0.30485013 9:0.20053994 10:0.32525549 
8192 1:0.54707173 2:0.22344291 3:0.10448065 4:0.079052698 5:0.04595201 6:0.017738848 7:0.22635766 8:0.25507621 9:0.27872808 10:0.36434742 
836.09689176586915 1:0.81833975 2:0.1124235 3:0.021801646 4:0.026851095 5:0.02058401 6:1.1216301 7:0.08986523 8:0.17710319 9:0.51044308 10:0.56316487 
8192 1:0.6029109 2:0.29572403 3:0.059997064 4:0.031597831 5:0.0097701771 6:0.13113897 7:0.15387039 8:0.21398177 9:0.23399975 10:0.2497969 
8192 1:0.71836722 2:0.17464484 3:0.055363009 4:0.03341949 5:0.018205435 6:0.17091031 7:0.17708283 8:0.41070565 9:0.30034351 10:0.35902095 
8192 1:0.66464081 2:0.21752988 3:0.052347489 4:0.040101857 5:0.025379964 6:0.16572359 7:0.15328491 8:0.22743285 9:0.25741075 10:0.31419378 
8192 1:0.61697819 2:0.19197825 3:0.081788673 4:0.073315485 5:0.035939409 6:0.16554505 7:0.17985909 8:0.23456578 9:0.28732759 10:0.32904104 
8192 1:0.55835068 2:0.1725596 3:0.11739386 4:0.087230451 5:0.064465405 6:0.17777016 7:0.22296285 8:0.31774104 9:0.25918525 10:0.30281471 
8192 1:0.66439333 2:0.23718553 3:0.056877245 4:0.030813971 5:0.01072992 6:0.20363103 7:0.15642993 8:0.16840793 9:0.20667601 10:0.27960449 
8192 1:0.326539 2:0.3793264 3:0.1508838 4:0.10184501 5:0.041405797 6:0.38699957 7:0.30690187 8:0.43948907 9:0.19697751 10:0.28741554 
8192 1:0.73156599 2:0.16164384 3:0.056591822 4:0.034331045 5:0.015867304 6:0.49088756 7:0.16322878 8:0.27109849 9:0.38453757 10:0.37815415 
8192 1:0.4738651 2:0.27748687 3:0.12661669 4:0.081620782 5:0.040410554 6:0.52863936 7:0.5042299 8:0.35016398 9:0.37434869 10:0.36254777 
8192 1:0.48590129 2:0.30756895 3:0.12230646 4:0.060956307 5:0.023266994 6:0.14128219 7:0.25532818 8:0.16727963 9:0.24063652 10:0.25512623 
8192 1:0.62059677 2:0.15011588 3:0.085782435 4:0.0871676 5:0.056337314 6:0.73871172 7:0.14726347 8:0.32008947 9:0.26423454 10:0.20706636 
8192 1:0.47195626 2:0.22931643 3:0.13438752 4:0.11170128 5:0.052638502 6:0.35681628 7:0.23196082 8:0.4533438 9:0.38001448 10:0.36652325 
8192 1:0.76633063 2:0.15923859 3:0.034587915 4:0.026720658 5:0.013122208 6:0.10365802 7:0.062682215 8:0.30077779 9:0.40578733 10:0.26182025 
8192 1:0.34477407 2:0.33163525 3:0.14651236 4:0.1182744 5:0.058803916 6:0.25093431 7:0.30927826 8:0.45992235 9:0.32394516 10:0.49285467 
8192 1:0.6618857 2:0.20335094 3:0.068467871 4:0.04628317 5:0.020012321 6:0.19963263 7:0.28506273 8:0.26976574 9:0.33358332 10:0.24461131 
8192 1:0.4557672 2:0.26956052 3:0.12825266 4:0.098361356 5:0.048058265 6:0.42714221 7:0.21407467 8:0.17764152 9:0.27474941 10:0.4211476 
6319.6400180344117 1:0.54793196 2:0.25114426 3:0.069340249 4:0.074642764 5:0.056940763 6:0.20044243 7:0.13838251 8:0.45749159 9:0.24639686 10:0.46091478 
8192 1:0.36809469 2:0.39743108 3:0.082307697 4:0.10382363 5:0.048342903 6:0.22337894 7:0.17798056 8:0.2483727 9:0.31909244 10:0.40828202 
8192 1:0.68443906 2:0.23961962 3:0.058093749 4:0.012543736 5:0.0053038337 6:0.13853521 7:0.10381172 8:0.20631546 9:0.3447412 10:0.23373057 
8192 1:0.47904591 2:0.38509877 3:0.06697392 4:0.049252317 5:0.019629091 6:0.26515249 7:0.15381121 8:0.13909719 9:0.25105044 10:0.2640418 
8192 1:0.66779259 2:0.25816453 3:0.025834859 4:0.033845107 5:0.014362913 6:0.23805162 7:0.16509086 8:0.37832911 9:0.39753645 10:0.40576665 
8192 1:0.87811497 2:0.077658259 3:0.024080329 4:0.011813258 5:0.0083331869 6:1.6427018 7:1.1515255 8:0.58648234 9:0.36532414 10:0.47162254 
2044.8901632701668 1:0.67324292 2:0.18111651 3:0.057854636 4:0.055197635 5:0.032588299 6:1.0048907 7:0.46486097 8:0.59673902 9:0.46313502 10:0.52909875 
2996.7132645230877 1:0.48789638 2:0.28039844 3:0.09432088 4:0.083415526 5:0.053968765 6:0.74125549 7:0.29355067 8:0.79969066 9:0.34120598 10:0.49833837 
8192 1:0.50197815 2:0.24125623 3:0.1148528 4:0.090031574 5:0.051881241 6:0.38969096 7:0.25015785 8:0.44351558 9:0.3759108 10:0.46904924 
3662.6831015679286 1:0.29244211 2:0.41017267 3:0.06985429 4:0.1434253 5:0.084105624 6:0.63118325 7:0.38403332 8:0.19185853 9:0.33428658 10:0.42129497 
8192 1:0.29951226 2:0.27128905 3:0.19823764 4:0.14781935 5:0.083141706 6:0.23294043 7:0.14704509 8:0.26619079 9:0.28765456 10:0.38649077 
8192 1:0.66002392 2:0.20453633 3:0.058846565 4:0.050188141 5:0.026405041 6:0.096184871 7:0.16408593 8:0.36027863 9:0.38027294 10:0.28308213 
2228.13827459704 1:0.51841408 2:0.19510133 3:0.15646651 4:0.080113416 5:0.049904668 6:0.24066599 7:0.23714341 8:0.31858545 9:0.37142197 10:0.28679808 
8192 1:0.45626423 2:0.2846835 3:0.12423329 4:0.096468346 5:0.038350629 6:0.26361901 7:0.42522631 8:0.42879047 9:0.36107649 10:0.3018022 
8192 1:0.47466033 2:0.23591054 3:0.14927976 4:0.094082113 5:0.046067257 6:0.1828755 7:0.2450084 8:0.34191081 9:0.37966653 10:0.38612261 
8192 1:0.65718835 2:0.15407572 3:0.075615987 4:0.080077881 5:0.033042062 6:0.41024053 7:0.23427976 8:0.25679317 9:0.43707513 10:0.38931651 
8192 1:0.5693725 2:0.1987118 3:0.12259395 4:0.071872767 5:0.037448991 6:0.13102659 7:0.12502606 8:0.27205686 9:0.34742251 10:0.43552483 
3667.8241268381553 1:0.61922592 2:0.10727437 3:0.086137058 4:0.11363563 5:0.073727025 6:0.56517149 7:0.30139805 8:0.28056244 9:0.46608371 10:0.60431682 
8192 1:0.43196929 2:0.29128609 3:0.1185016 4:0.10384866 5:0.054394354 6:0.8544296 7:0.23093413 8:0.37295305 9:0.40537432 10:0.53427608 
8192 1:0.74698777 2:0.11372483 3:0.04302814 4:0.056575971 5:0.03968329 6:0.78642981 7:0.24284304 8:0.27924285 9:0.35362751 10:0.6487 
1846.9019770605742 1:0.49792848 2:0.27458252 3:0.092715993 4:0.077563681 5:0.057209323 6:0.10369084 7:0.24520577 8:0.27536926 9:0.30996416 10:0.62924646 
8192 1:0.54165225 2:0.22098534 3:0.05621263 4:0.11229105 5:0.068858731 6:0.35279493 7:0.40507178 8:0.21907785 9:0.56372444 10:0.50467679 
8192 1:0.75535072 2:0.17795151 3:0.045308177 4:0.014951758 5:0.0064378346 6:0.09018303 7:0.11086381 8:0.2143116 9:0.37227802 10:0.33647328 
119.12631677183393 1:0.34420212 2:0.25554043 3:0.17774474 4:0.11977521 5:0.10273751 6:1.1419217 7:1.44962 8:1.3085395 9:1.0295223 10:0.82102523 
5909.2593168972071 1:0.85342739 2:0.070786545 3:0.038345157 4:0.023559951 5:0.013880958 6:1.463715 7:0.53921188 8:0.19344124 9:0.15469783 10:0.44382134 
8192 1:0.46770303 2:0.26187404 3:0.15816641 4:0.065178086 5:0.04707844 6:0.35764675 7:0.32489541 8:0.45219583 9:0.40693886 10:0.30576837 
8192 1:0.64353304 2:0.20067399 3:0.083305747 4:0.047846589 5:0.02464064 6:0.21701609 7:0.24059566 8:0.35346623 9:0.28046817 10:0.20899336 
8192 1:0.74290808 2:0.11644445 3:0.072321995 4:0.045521328 5:0.022804145 6:0.40030832 7:0.38698873 8:0.23551405 9:0.25380166 10:0.40953773 
8192 1:0.81100985 2:0.08871201 3:0.03232857 4:0.040557951 5:0.027391621 6:0.11802457 7:0.18630879 8:0.31872339 9:0.33858476 10:0.35596953 
8192 1:0.26517799 2:0.43747292 3:0.14469884 4:0.1116297 5:0.041020559 6:0.11244716 7:0.2995288 8:0.35579573 9:0.18855725 10:0.23680984 
8192 1:0.44580138 2:0.2837133 3:0.10274618 4:0.10253896 5:0.065200185 6:0.35495699 7:0.15281281 8:0.30617554 9:0.29273 10:0.22885471 
8192 1:0.47479905 2:0.22843612 3:0.12525317 4:0.12020524 5:0.051306419 6:0.28886485 7:0.17883783 8:0.27310951 9:0.3197549 10:0.35469841 
8192 1:0.42205051 2:0.23745257 3:0.17187435 4:0.10714501 5:0.061477565 6:0.23147512 7:0.33597546 8:0.30141632 9:0.28536895 10:0.49402171 
3299.7859130958527 1:0.7572185 2:0.19689277 3:0.026359764 4:0.01454968 5:0.0049792828 6:0.053584474 7:0.095439899 8:0.086732143 9:0.30954664 10:0.38419981 
8192 1:0.60563882 2:0.18227523 3:0.0951033 4:0.075697654 5:0.041284997 6:0.10633998 7:0.22106433 8:0.52550829 9:0.47940224 10:0.48614477 
8192 1:0.4963396 2:0.3272969 3:0.095752868 4:0.055975105 5:0.024635534 6:0.12674946 7:0.33693743 8:0.3057217 9:0.33538235 10:0.37905978 
8192 1:0.70590996 2:0.21060928 3:0.042852831 4:0.026062977 5:0.014564952 6:0.13283323 7:0.10730863 8:0.23276878 9:0.26704167 10:0.32278776 
8192 1:0.34800558 2:0.24532446 3:0.16751217 4:0.17540267 5:0.063755115 6:0.25345741 7:0.27942663 8:0.36307734 9:0.33940051 10:0.32946476 
8192 1:0.35411517 2:0.28637229 3:0.14113189 4:0.14125648 5:0.077124167 6:0.26129368 7:0.342327 8:0.3388806 9:0.26491769 10:0.23889746 
8192 1:0.48877523 2:0.23833937 3:0.13893749 4:0.074061029 5:0.059886878 6:0.56655425 7:0.30090371 8:0.4553147 9:0.2895465 10:0.30338481 
8192 1:0.6397892 2:0.22253808 3:0.067880561 4:0.043808908 5:0.025983251 6:0.17007367 7:0.24835281 8:0.13616814 9:0.37903876 10:0.54801807 
8192 1:0.75633762 2:0.18671196 3:0.03070289 4:0.018035112 5:0.0082124172 6:0.13181246 7:0.092075739 8:0.064168243 9:0.27154137 10:0.32245399 
167.93829667593167 1:0.077671963 2:0.071905968 3:0.063778483 4:0.19720306 5:0.58944052 6:0.37705644 7:0.58458907 8:0.67177666 9:0.73761206 10:0.73828325 
3644.8345285584264 1:0.44135825 2:0.36606995 3:0.090981938 4:0.067108573 5:0.034481282 6:0.49580093 7:0.35595931 8:0.45488363 9:0.45963149 10:0.27004531 
8192 1:0.32202235 2:0.26555721 3:0.17889947 4:0.13392938 5:0.099591601 6:0.34736952 7:0.24592502 8:0.18423296 9:0.30285006 10:0.21771231 
8192 1:0.5132747 2:0.32321587 3:0.097197357 4:0.039053433 5:0.027258641 6:0.11550099 7:0.21491857 8:0.42604386 9:0.17476822 10:0.35546534 
8192 1:0.70409562 2:0.1696948 3:0.055010064 4:0.04785778 5:0.023341743 6:0.093001279 7:0.094029727 8:0.26421619 9:0.30967787 10:0.27170248 
3433.1413896661334 1:0.70477425 2:0.14131838 3:0.046827687 4:0.057299555 5:0.049780133 6:0.10389189 7:0.12638209 8:0.29340087 9:0.30510767 10:0.32129685 
8192 1:0.53353399 2:0.22576062 3:0.087968152 4:0.095428659 5:0.057308576 6:0.48898559 7:0.22770485 8:0.36821322 9:0.54176007 10:0.54645236 
8192 1:0.56502833 2:0.18714289 3:0.10874087 4:0.094914124 5:0.04417379 6:0.43182579 7:0.30297839 8:0.32112044 9:0.3808995 10:0.31245756 
4658.8464332667218 1:0.44198942 2:0.21000528 3:0.14245376 4:0.13382905 5:0.07172249 6:0.23318012 7:0.12164191 8:0.30385861 9:0.37079022 10:0.34919125 
8192 1:0.5702073 2:0.25082946 3:0.080237065 4:0.065042992 5:0.033683183 6:0.11762007 7:0.20201462 8:0.22082392 9:0.29237743 10:0.25741926 
8192 1:0.65915417 2:0.23514963 3:0.072082719 4:0.024578949 5:0.0090345358 6:0.17817549 7:0.11768843 8:0.27116327 9:0.28221819 10:0.27465342 
8192 1:0.40281602 2:0.33158934 3:0.12237749 4:0.0939942 5:0.049222939 6:0.51931236 7:0.19513704 8:0.1861748 9:0.41760028 10:0.44226097 
8192 1:0.71107084 2:0.17946793 3:0.051623874 4:0.031452553 5:0.026384807 6:0.76545406 7:0.19578658 8:0.20957751 9:0.30354953 10:0.51720752 
5216.5000786806804 1:0.48622819 2:0.24956973 3:0.097907054 4:0.11727959 5:0.049015429 6:0.29945631 7:0.31149971 8:0.30574673 9:0.49372907 10:0.44274819 
2082.6973500003828 1:0.38731007 2:0.1952217 3:0.18550867 4:0.13473844 5:0.097221115 6:0.17168152 7:0.20404154 8:0.44889668 9:0.15992699 10:0.25243187 
8192 1:0.64298073 2:0.18902552 3:0.060158771 4:0.062303404 5:0.04553157 6:0.35411126 7:0.28153624 8:0.23799256 9:0.38421349 10:0.32417155 
8192 1:0.30047063 2:0.47939125 3:0.095264399 4:0.080813669 5:0.044060049 6:0.31037472 7:0.30328987 8:0.25102754 9:0.20821689 10:0.32778898 
608.26473611470658 1:0.33277962 2:0.18593052 3:0.07277529 4:0.13494357 5:0.27357101 6:0.31102321 7:0.49604976 8:0.75144098 9:0.867413 10:0.88700063 
8192 1:0.66111568 2:0.20809656 3:0.058489557 4:0.047198049 5:0.025100155 6:0.096415437 7:0.13898898 8:0.33105878 9:0.3744632 10:0.30358863 
8192 1:0.54446063 2:0.28386425 3:0.070662961 4:0.065658432 5:0.035353726 6:0.074092226 7:0.20492197 8:0.31328696 9:0.36826737 10:0.21358159 
8192 1:0.55323025 2:0.18981577 3:0.11620194 4:0.090228243 5:0.0505238 6:0.076645636 7:0.23623583 8:0.40900187 9:0.45165703 10:0.42356788 
8192 1:0.66545666 2:0.18473464 3:0.059585129 4:0.063420749 5:0.026802813 6:0.63848454 7:0.24943216 8:0.31724201 9:0.46266704 10:0.36803513 
8192 1:0.63261553 2:0.23172071 3:0.05670174 4:0.051423666 5:0.027538349 6:0.15908639 7:0.065304603 8:0.23669272 9:0.57000751 10:0.5979389 
8192 1:0.52899804 2:0.22334859 3:0.11249056 4:0.094130502 5:0.041032298 6:0.078562197 7:0.20509693 8:0.34543096 9:0.33664014 10:0.35608129 
8192 1:0.59412581 2:0.20638894 3:0.095933399 4:0.066812605 5:0.036739252 6:0.41301783 7:0.29226271 8:0.47927347 9:0.37101068 10:0.53022823 
8192 1:0.66232247 2:0.19211115 3:0.059514879 4:0.053726864 5:0.032324639 6:0.22017372 7:0.1456234 8:0.37973043 9:0.31471449 10:0.42844713 
8192 1:0.67767868 2:0.20935534 3:0.085070542 4:0.021092174 5:0.00680326 6:0.080197384 7:0.10632677 8:0.1926549 9:0.23800518 10:0.28679366 
8192 1:0.56799884 2:0.25754006 3:0.099927627 4:0.047622648 5:0.02691083 6:0.33679515 7:0.25946605 8:0.32361107 9:0.33939651 10:0.44030279 
8192 1:0.51892618 2:0.22730271 3:0.10326575 4:0.10001759 5:0.050487767 6:0.37226212 7:0.22510167 8:0.38793371 9:0.36359789 10:0.43857703 
8192 1:0.7020269 2:0.16410101 3:0.070019637 4:0.045182315 5:0.018670137 6:0.089108444 7:0.13324695 8:0.20070703 9:0.24924089 10:0.30433457 
3526.6804196081207 1:0.37941865 2:0.20994627 3:0.12601059 4:0.18140696 5:0.10321753 6:0.64986358 7:0.3596076 8:0.67020775 9:0.6989182 10:0.67518906 
1187.1713220563256 1:0.8628933 2:0.042626979 3:0.040246223 4:0.034105122 5:0.020128373 6:1.3060679 7:0.72244785 8:0.72961452 9:0.7839837 10:0.50777345 
8192 1:0.48357246 2:0.27148921 3:0.10291505 4:0.089795084 5:0.052228199 6:0.5976049 7:0.56943738 8:0.37716738 9:0.45766739 10:0.36590117 
8192 1:0.64162937 2:0.20405831 3:0.065333748 4:0.055777149 5:0.033201427 6:0.85690733 7:0.3137647 8:0.45541182 9:0.42384474 10:0.48595059 
8192 1:0.78716184 2:0.13155735 3:0.038885834 4:0.026325757 5:0.016069227 6:0.13058965 7:0.1671635 8:0.14632459 9:0.17991745 10:0.33495189 
8192 1:0.4062337 2:0.30347689 3:0.12272473 4:0.10726072 5:0.060303963 6:0.32843701 7:0.13122756 8:0.31343753 9:0.32186042 10:0.41804143 
8192 1:0.33832114 2:0.39542814 3:0.10456692 4:0.098406308 5:0.063277498 6:0.25239291 7:0.12269845 8:0.28085821 9:0.37639485 10:0.48699299 
8192 1:0.46046093 2:0.26012962 3:0.13161916 4:0.10008863 5:0.047701658 6:0.3225335 7:0.2114541 8:0.22796631 9:0.30938033 10:0.32275136 
118.32355494299222 1:0.7869973 2:0.15227817 3:0.03119716 4:0.024306548 5:0.0052208179 6:1.5271147 7:1.3414086 8:1.1665325 9:1.3889451 10:1.090114 
2599.013769828844 1:0.9013111 2:0.063652591 3:0.0075434472 4:0.013460555 5:0.014032303 6:0.10383432 7:0.27499667 8:0.30155204 9:0.26951605 10:0.38064539 
1360.053520525674 1:0.82795264 2:0.13261578 3:0.022393047 4:0.011207381 5:0.0058311537 6:1.5617135 7:1.1967409 8:0.50474984 9:0.27282485 10:0.28799536 
8192 1:0.65337164 2:0.21052387 3:0.05937018 4:0.05038559 5:0.026348729 6:0.15813782 7:0.20885552 8:0.36206082 9:0.45622404 10:0.43759145 
7410.4839854280999 1:0.81916083 2:0.11201047 3:0.03068448 4:0.024701207 5:0.013443013 6:0.86903111 7:0.32722405 8:0.27040132 9:0.49604537 10:0.52468301 
8192 1:0.45190832 2:0.24258585 3:0.12098874 4:0.12240825 5:0.06210884 6:0.21976278 7:0.18827436 8:0.28085011 9:0.30066177 10:0.35695676 
195.64543454171675 1:0.7033802 2:0.18133152 3:0.056371594 4:0.037967462 5:0.020949224 6:1.5368691 7:1.5640516 8:1.5552325 9:1.5318007 10:1.3674307 
8192 1:0.62216159 2:0.2170885 3:0.067549146 4:0.055700206 5:0.037500558 6:0.48242622 7:0.24070699 8:0.3762154 9:0.38863715 10:0.82645864 
8192 1:0.79778177 2:0.12979357 3:0.029950104 4:0.028910668 5:0.013563885 6:0.45017764 7:0.1412313 8:0.15398475 9:0.49750148 10:0.47089502 
4324.7497723619199 1:0.64083867 2:0.126103 3:0.06317199 4:0.095407494 5:0.074478846 6:0.59772927 7:0.36454729 8:0.3295215 9:0.40003502 10:0.55369819 
5363.6421593345622 1:0.661196 2:0.15440914 3:0.077046319 4:0.068349948 5:0.038998591 6:0.077096937 7:0.18771892 8:0.31479413 9:0.44562438 10:0.42481943 
8192 1:0.47688255 2:0.27753032 3:0.12384491 4:0.081935147 5:0.039807078 6:0.24164008 7:0.22844919 8:0.31374204 9:0.57893178 10:0.51541431 
8192 1:0.69404472 2:0.20879431 3:0.049398534 4:0.033637933 5:0.014124511 6:0.22985187 7:0.16639201 8:0.11518669 9:0.3347088 10:0.38998066 
8192 1:0.53113716 2:0.30768242 3:0.084145015 4:0.048758129 5:0.028277276 6:0.16308553 7:0.26504412 8:0.37425902 9:0.39818959 10:0.40277182 
3824.5060692067104 1:0.78132748 2:0.11677293 3:0.048765525 4:0.038549899 5:0.014584172 6:1.1048162 7:0.73951989 8:0.79450435 9:0.54530382 10:0.3628493 
3217.2863515018762 1:0.51671358 2:0.37340902 3:0.049050346 4:0.042552011 5:0.018275041 6:0.094855768 7:0.26952548 8:0.25275001 9:0.33043206 10:0.49912189 
8192 1:0.75199597 2:0.1801877 3:0.017930172 4:0.03633042 5:0.01355573 6:0.17652955 7:0.25522465 8:0.18872227 9:0.5049882 10:0.30420727 
8192 1:0.62303764 2:0.27373555 3:0.051395821 4:0.037607604 5:0.014223387 6:0.1284363 7:0.22010381 8:0.33054859 9:0.32808616 10:0.2445588 
8192 1:0.40219151 2:0.33143528 3:0.1141355 4:0.097799549 5:0.054438165 6:0.098623965 7:0.073544306 8:0.30236138 9:0.2261957 10:0.40881182 
2422.5863901285907 1:0.48655541 2:0.17651242 3:0.10130073 4:0.1303916 5:0.10523984 6:0.15174468 7:0.13177527 8:0.35389017 9:0.47419864 10:0.68716222 
8192 1:0.48474678 2:0.2586774 3:0.10729347 4:0.1051766 5:0.044105751 6:0.21145611 7:0.2448941 8:0.53856579 9:0.42169987 10:0.69464813 
545.11492114974828 1:0.84070073 2:0.13343609 3:0.015422915 4:0.0071790649 5:0.0032612019 6:1.6813522 7:1.5703544 8:0.99975536 9:0.80164592 10:0.5968045 
2164.9907760985661 1:0.38204556 2:0.22811258 3:0.12055065 4:0.18558612 5:0.083705101 6:0.53208794 7:0.18819458 8:0.49172867 9:0.40696356 10:0.43865256 
8192 1:0.66005271 2:0.16052316 3:0.07037169 4:0.064692432 5:0.044360008 6:0.28089758 7:0.36960339 8:0.29934238 9:0.28477353 10:0.28069922 
8192 1:0.56320683 2:0.22641313 3:0.099332737 4:0.072762778 5:0.038284526 6:0.2411025 7:0.31120496 8:0.44226524 9:0.29631359 10:0.28834842 
8192 1:0.69537534 2:0.19500801 3:0.053678336 4:0.03754356 5:0.018394756 6:0.22885491 7:0.17378623 8:0.30698623 9:0.37598212 10:0.32624962 
2559.1344418559197 1:0.39376337 2:0.23857148 3:0.065246425 4:0.070152405 5:0.23226631 6:0.1354555 7:0.19491908 8:0.2377544 9:0.51130723 10:0.68873264 
8192 1:0.69227675 2:0.17253842 3:0.053215774 4:0.053811285 5:0.028157767 6:0.2377514 7:0.23607336 8:0.34161169 9:0.47249484 10:0.4519737 
8192 1:0.72865034 2:0.14809488 3:0.035534366 4:0.056826984 5:0.030893425 6:0.45746582 7:0.30394822 8:0.17877804 9:0.4210921 10:0.55998145 
8192 1:0.77178591 2:0.16077066 3:0.03413427 4:0.017947448 5:0.015361706 6:0.80634771 7:0.28242637 8:0.22944132 9:0.29049161 10:0.56033676 
8192 1:0.61395436 2:0.29915014 3:0.039585333 4:0.032501521 5:0.014808649 6:0.1691961 7:0.1108357 8:0.18602588 9:0.28486663 10:0.37548118 
8192 1:0.51263273 2:0.20567601 3:0.10403036 4:0.11189512 5:0.065765785 6:0.11246297 7:0.26338273 8:0.37452454 9:0.39138408 10:0.59243852 
8192 1:0.5355308 2:0.20771181 3:0.075474136 4:0.11536673 5:0.065916529 6:0.54705717 7:0.24154418 8:0.14488738 9:0.28563109 10:0.23748094 
3112.2750180317503 1:0.52725008 2:0.16194109 3:0.095870893 4:0.13168363 5:0.083254308 6:0.18432215 7:0.33442482 8:0.40648842 9:0.53044241 10:0.51990336 
8192 1:0.699311 2:0.19057556 3:0.047564255 4:0.038591514 5:0.023957678 6:0.081344669 7:0.1223094 8:0.28502328 9:0.41476162 10:0.60165433 
4875.0551214182206 1:0.39106416 2:0.20904806 3:0.19527884 4:0.13256338 5:0.072045565 6:0.054298811 7:0.26684629 8:0.51524711 9:0.4945996 10:0.46828329 
8192 1:0.70683748 2:0.15103608 3:0.083938176 4:0.036098785 5:0.022089481 6:0.42152187 7:0.053219969 8:0.077251546 9:0.38904788 10:0.2957349 
8192 1:0.39779078 2:0.22567431 3:0.19143999 4:0.11617853 5:0.068916394 6:0.35471385 7:0.33409979 8:0.36929293 9:0.44418522 10:0.64753194 
8192 1:0.52945799 2:0.20783976 3:0.11582032 4:0.10571057 5:0.041171353 6:0.40678422 7:0.35817485 8:0.33045136 9:0.26862953 10:0.22417659 
8192 1:0.63453862 2:0.18112679 3:0.080983672 4:0.068835324 5:0.034515596 6:0.17894806 7:0.12766776 8:0.16421962 9:0.14442732 10:0.19292018 
8192 1:0.56013563 2:0.26907655 3:0.092236235 4:0.055899342 5:0.022652241 6:0.19080495 7:0.12545548 8:0.16121447 9:0.32708542 10:0.32319446 
8192 1:0.42210362 2:0.42441765 3:0.085875154 4:0.042840008 5:0.024763566 6:0.087574757 7:0.12804001 8:0.19316077 9:0.31401067 10:0.21679517 
8192 1:0.56805632 2:0.23074763 3:0.08946096 4:0.073619682 5:0.038115408 6:0.24635027 7:0.26991764 8:0.35143724 9:0.40250498 10:0.31836786 
8192 1:0.53482416 2:0.23100141 3:0.11523496 4:0.083001212 5:0.035938254 6:0.20490968 7:0.16518392 8:0.25456658 9:0.38331786 10:0.29292415 
8192 1:0.42951102 2:0.24784711 3:0.15918265 4:0.11168181 5:0.051777413 6:0.22912745 7:0.2985268 8:0.26052697 9:0.28725887 10:0.36537914 
8192 1:0.36038415 2:0.23021761 3:0.20095011 4:0.13779428 5:0.070653847 6:0.42883289 7:0.49753037 8:0.34240548 9:0.19299728 10:0.30207483 
8192 1:0.53834848 2:0.19577703 3:0.1279383 4:0.094830659 5:0.043105536 6:0.46269894 7:0.15398606 8:0.34247993 9:0.37027468 10:0.43175359 
8192 1:0.62248438 2:0.20706306 3:0.076920812 4:0.06490726 5:0.028624484 6:0.189543 7:0.18472251 8:0.26927485 9:0.34461653 10:0.34074387 
8192 1:0.41227819 2:0.29330288 3:0.12676268 4:0.10087624 5:0.066780007 6:0.17002045 7:0.097579854 8:0.17024146 9:0.29701456 10:0.28649329 
8192 1:0.84591016 2:0.062442677 3:0.028562101 4:0.034487675 5:0.028597386 6:1.0818953 7:0.36010396 8:0.17136857 9:0.42701824 10:0.61204021 
8192 1:0.50675712 2:0.25160892 3:0.11353864 4:0.086649044 5:0.041446272 6:0.36235284 7:0.20057265 8:0.27549361 9:0.28696519 10:0.36508064 
8192 1:0.46293484 2:0.31363102 3:0.13493189 4:0.055887236 5:0.032615022 6:0.42097067 7:0.28572779 8:0.29403924 9:0.25948151 10:0.27313097 
8192 1:0.61663189 2:0.20162625 3:0.064216629 4:0.075667043 5:0.041858187 6:0.45934099 7:0.28410969 8:0.38423566 9:0.36237446 10:0.46170547 
8192 1:0.37153408 2:0.31342392 3:0.1466474 4:0.11410179 5:0.054292805 6:0.5572478 7:0.29349123 8:0.20423608 9:0.30985023 10:0.36329128 
8192 1:0.56000081 2:0.22832068 3:0.096384658 4:0.079395512 5:0.035898347 6:0.26911643 7:0.28779609 8:0.4240344 9:0.48589457 10:0.43299653 
8192 1:0.40172189 2:0.32953375 3:0.098094088 4:0.11944165 5:0.051208622 6:0.45016109 7:0.29306164 8:0.41709861 9:0.30700716 10:0.10639798 
8192 1:0.44785212 2:0.26820788 3:0.099425146 4:0.11384188 5:0.070672972 6:0.64918228 7:0.24447305 8:0.20352615 9:0.30889776 10:0.34642707 
8192 1:0.65903749 2:0.12022273 3:0.061797539 4:0.09917377 5:0.059768463 6:0.66905706 7:0.17794056 8:0.3464 9:0.46237441 10:0.52610384 
8192 1:0.69403939 2:0.22252397 3:0.050407115 4:0.022685514 5:0.010344019 6:0.12120175 7:0.15001803 8:0.2621413 9:0.45283614 10:0.49210605 
8192 1:0.63908804 2:0.16140031 3:0.11690025 4:0.055137452 5:0.027473952 6:0.26856324 7:0.11290868 8:0.30263434 9:0.43119695 10:0.47846345 
8192 1:0.78504171 2:0.13090092 3:0.031568707 4:0.033456139 5:0.019032524 6:0.078523912 7:0.14687636 8:0.29842438 9:0.43107949 10:0.22130902 
8192 1:0.57366216 2:0.21084395 3:0.079904234 4:0.086438879 5:0.049150781 6:0.3297775 7:0.34525971 8:0.20057774 9:0.34535427 10:0.30742204 
8192 1:0.90577497 2:0.061841694 3:0.015881527 4:0.011266684 5:0.0052351238 6:1.4529263 7:0.65605912 8:0.17549907 9:0.28308261 10:0.26000599 
8192 1:0.80583739 2:0.13510447 3:0.020411864 4:0.021209866 5:0.017436402 6:0.86448892 7:0.61471483 8:0.3759221 9:0.35293784 10:0.37914473 
8192 1:0.67599184 2:0.20136185 3:0.066833751 4:0.037887823 5:0.01792474 6:0.12479701 7:0.15749569 8:0.27739656 9:0.24966517 10:0.22606321 
8192 1:0.2006457 2:0.54927745 3:0.08161183 4:0.11313304 5:0.05533198 6:0.26126789 7:0.24273889 8:0.22002358 9:0.2743491 10:0.34633092 
8192 1:0.46686632 2:0.30632232 3:0.10038704 4:0.08645418 5:0.039970138 6:0.23988941 7:0.33802339 8:0.21877403 9:0.34006032 10:0.2253333 
8192 1:0.53243658 2:0.2916457 3:0.1137101 4:0.04364899 5:0.018558629 6:0.22954288 7:0.32384087 8:0.2981552 9:0.30824916 10:0.34663059 
8192 1:0.67987234 2:0.19041342 3:0.057668516 4:0.047059336 5:0.024986391 6:0.092810932 7:0.31377716 8:0.29235112 9:0.3275584 10:0.35206683 
8192 1:0.44503145 2:0.25591761 3:0.12993203 4:0.1148732 5:0.054245717 6:0.2034008 7:0.40045058 8:0.45456587 9:0.37246497 10:0.30665447 
8192 1:0.40824102 2:0.25775726 3:0.16892898 4:0.10943475 5:0.055637974 6:0.42410186 7:0.3073317 8:0.36590835 9:0.36139626 10:0.25994557 
8192 1:0.51452884 2:0.26097364 3:0.099433651 4:0.084013481 5:0.041050388 6:0.52895278 7:0.48609128 8:0.37906992 9:0.35602714 10:0.49219193 
8192 1:0.67313414 2:0.14763378 3:0.074161817 4:0.069837499 5:0.035232762 6:0.32257979 7:0.27746601 8:0.16574585 9:0.35403271 10:0.40427467 
8192 1:0.32651914 2:0.3302062 3:0.13224485 4:0.13487421 5:0.076155593 6:0.14061021 7:0.36922027 8:0.43823907 9:0.39179887 10:0.18295903 
8192 1:0.38576353 2:0.23546742 3:0.15546739 4:0.14826597 5:0.075035691 6:0.53080269 7:0.27313873 8:0.57203034 9:0.31956668 10:0.27033612 
8192 1:0.65845195 2:0.18950043 3:0.06223261 4:0.058023282 5:0.03179173 6:0.77132042 7:0.22251894 8:0.17684127 9:0.42086357 10:0.4392539 
8192 1:0.74993784 2:0.18257621 3:0.040243173 4:0.019753506 5:0.0074892668 6:0.37543016 7:0.056805428 8:0.14083984 9:0.13561781 10:0.16689879 
8192 1:0.39919566 2:0.23537689 3:0.1333723 4:0.15185314 5:0.080202003 6:0.086547568 7:0.12705056 8:0.37476121 9:0.27237659 10:0.25274363 
1606.0440495630423 1:0.92489597 2:0.03612279 3:0.013473038 4:0.016974068 5:0.008534136 6:1.6563197 7:0.27392894 8:0.17421317 9:0.23641375 10:0.22359877 
8192 1:0.55267619 2:0.27451911 3:0.092249899 4:0.054143313 5:0.026411495 6:0.055472067 7:0.22161452 8:0.22484881 9:0.35998473 10:0.27657618 
8192 1:0.57330283 2:0.22148867 3:0.083766452 4:0.084237164 5:0.037204886 6:0.31439113 7:0.11898646 8:0.33207248 9:0.39838872 10:0.32919679 
8192 1:0.49088744 2:0.2246158 3:0.13452401 4:0.10233139 5:0.047641358 6:0.28164464 7:0.3915847 8:0.35803085 9:0.38899063 10:0.48198317 
8192 1:0.73633736 2:0.17184401 3:0.035964618 4:0.03580466 5:0.02004935 6:0.13623093 7:0.069956942 8:0.24745194 9:0.48328727 10:0.48628656 
870.01103025404257 1:0.22057587 2:0.21344366 3:0.30073095 4:0.20127801 5:0.063971503 6:0.17101098 7:0.19080076 8:0.10742081 9:0.13284127 10:0.14624205 
8192 1:0.62347813 2:0.21998675 3:0.06159868 4:0.05562915 5:0.03930729 6:0.26885455 7:0.17725135 8:0.26452083 9:0.2755325 10:0.37290614 
8192 1:0.56581636 2:0.3134869 3:0.049181891 4:0.0447832 5:0.026731646 6:0.081616035 7:0.10904223 8:0.25886154 9:0.2930864 10:0.48519722 
8192 1:0.56016747 2:0.23063613 3:0.096924693 4:0.069495707 5:0.042775996 6:0.41524566 7:0.12460053 8:0.27607317 9:0.37522467 10:0.39103949 
8192 1:0.67320285 2:0.21036208 3:0.065840298 4:0.035383549 5:0.01521122 6:0.10990141 7:0.080668684 8:0.25253178 9:0.3487733 10:0.33674935 
8192 1:0.65102357 2:0.20521267 3:0.083611121 4:0.043709571 5:0.016443065 6:0.16624349 7:0.13680516 8:0.15857297 9:0.29478584 10:0.32100025 
4538.1639044477652 1:0.41160428 2:0.13992925 3:0.12749431 4:0.18026804 5:0.14070412 6:0.80272069 7:0.38188471 8:0.30420683 9:0.43182534 10:0.68586383 
8192 1:0.46522842 2:0.19304569 3:0.083684745 4:0.10821984 5:0.1498213 6:0.29682375 7:0.26708301 8:0.27343506 9:0.46649517 10:0.93250382 
7490.7531806715233 1:0.57977494 2:0.23173622 3:0.073923606 4:0.068353321 5:0.046211911 6:0.30315441 7:0.41691401 8:0.31054428 9:0.50992237 10:0.57969096 
8192 1:0.52449674 2:0.20378519 3:0.13569848 4:0.089936783 5:0.046082806 6:0.47656417 7:0.26429543 8:0.37910045 9:0.3177057 10:0.28882335 
8192 1:0.51305413 2:0.25031842 3:0.11882758 4:0.079886707 5:0.037913163 6:0.47975588 7:0.10316994 8:0.1902117 9:0.25534519 10:0.30536378 
8192 1:0.78583421 2:0.12508804 3:0.04067086 4:0.031673092 5:0.016733795 6:1.2337032 7:0.51446834 8:0.41039812 9:0.23638608 10:0.32604858 
8192 1:0.6451567 2:0.29689207 3:0.034435082 4:0.017895657 5:0.0056204938 6:0.18003511 7:0.082989424 8:0.19353655 9:0.26708933 10:0.30328974 
8192 1:0.53462563 2:0.19873899 3:0.092296049 4:0.11654119 5:0.057798146 6:0.66846381 7:0.16562899 8:0.23352558 9:0.42649013 10:0.37840384 
8192 1:0.33607015 2:0.18949505 3:0.12905044 4:0.21043345 5:0.1349509 6:0.47358614 7:0.340014 8:0.29638824 9:0.2856424 10:0.2776467 
8192 1:0.80701588 2:0.13816141 3:0.030832183 4:0.01736692 5:0.0066236071 6:0.1559409 7:0.16511432 8:0.24536061 9:0.31855029 10:0.28374175 
8192 1:0.5476439 2:0.23840346 3:0.10486576 4:0.070721092 5:0.03836579 6:0.25880412 7:0.094638044 8:0.174648 9:0.32747815 10:0.40944076 
3396.8557374266229 1:0.35955771 2:0.18814351 3:0.15911599 4:0.12401941 5:0.16916339 6:0.40520815 7:0.33420052 8:0.29539648 9:0.42177808 10:0.86012927 
8192 1:0.67708666 2:0.16560971 3:0.061537448 4:0.061721867 5:0.03404432 6:0.12394408 7:0.16696791 8:0.34422788 9:0.39380394 10:0.4819936 
8192 1:0.62359164 2:0.21801661 3:0.075481681 4:0.050390257 5:0.032519811 6:0.17659065 7:0.21435035 8:0.3875123 9:0.33916181 10:0.32055862 
8192 1:0.28580458 2:0.35150967 3:0.1397812 4:0.16460754 5:0.058297018 6:0.16459072 7:0.31186364 8:0.22153896 9:0.33606715 10:0.26542566 
8192 1:0.69575525 2:0.14537522 3:0.071743085 4:0.059779853 5:0.027346591 6:0.61606731 7:0.49863861 8:0.61633055 9:0.49317809 10:0.18705255 
8192 1:0.34337089 2:0.4055613 3:0.15083963 4:0.068009482 5:0.032218696 6:0.7181696 7:0.24394364 8:0.23140684 9:0.30604999 10:0.30881619 
8192 1:0.52728003 2:0.30320374 3:0.075608756 4:0.06469723 5:0.02921024 6:0.38130814 7:0.2094395 8:0.29228239 9:0.36440604 10:0.28607792 
8192 1:0.72610664 2:0.18567731 3:0.03340531 4:0.032730544 5:0.022080196 6:0.15876927 7:0.10159219 8:0.22528031 9:0.33828632 10:0.34833273 
5932.5551204136063 1:0.50007023 2:0.19806361 3:0.15365939 4:0.11737727 5:0.030829495 6:0.19511366 7:0.16271 8:0.17771441 9:0.23326362 10:0.38154136 
8192 1:0.62630383 2:0.24483972 3:0.0586163 4:0.050010059 5:0.020230097 6:0.19556893 7:0.20764713 8:0.45414423 9:0.35696499 10:0.40104589 
8192 1:0.55538406 2:0.26534467 3:0.08355569 4:0.058554106 5:0.03716147 6:0.22964385 7:0.12810798 8:0.41022473 9:0.36043569 10:0.33681419 
8192 1:0.6565239 2:0.12830276 3:0.077230868 4:0.092666784 5:0.045275693 6:0.54849607 7:0.41867179 8:0.47956426 9:0.37975111 10:0.28788786 
1961.2752754821465 1:0.49642963 2:0.2149006 3:0.10340394 4:0.10630187 5:0.07896396 6:0.38327361 7:0.58715953 8:0.48284823 9:0.54476793 10:0.61073188 
8192 1:0.47519729 2:0.21884222 3:0.10977984 4:0.12499285 5:0.071187802 6:0.11500785 7:0.27607961 8:0.15107414 9:0.29418306 10:0.2351203 
8192 1:0.62991183 2:0.14135089 3:0.073917801 4:0.10011777 5:0.054701704 6:0.61398097 7:0.16170178 8:0.33176309 9:0.43623786 10:0.50092083 
8192 1:0.65697864 2:0.26083862 3:0.037523644 4:0.029916238 5:0.014742867 6:0.066292183 7:0.1505604 8:0.15070388 9:0.4878217 10:0.45548547 
8192 1:0.42462653 2:0.33145688 3:0.086277782 4:0.10719845 5:0.050440357 6:0.49387543 7:0.29017683 8:0.19813464 9:0.3432243 10:0.25452409 
8192 1:0.47739373 2:0.31005819 3:0.07327135 4:0.089129167 5:0.050147565 6:0.46263 7:0.18348235 8:0.40897241 9:0.53431078 10:0.4235795 
8192 1:0.87673702 2:0.080465106 3:0.01773254 4:0.016374659 5:0.0086906778 6:1.2865978 7:0.64528099 8:0.35771336 9:0.4523518 10:0.41031208 
8192 1:0.73722789 2:0.10900892 3:0.051645188 4:0.061554562 5:0.040563445 6:0.49275501 7:0.11137108 8:0.44532985 9:0.48515402 10:0.48377518 
8192 1:0.44845613 2:0.3387896 3:0.10164593 4:0.075249872 5:0.03585847 6:0.28509697 7:0.28199399 8:0.29219204 9:0.30322049 10:0.24125571 
8192 1:0.59133182 2:0.18182535 3:0.1155199 4:0.071733636 5:0.039589288 6:0.31001861 7:0.3066021 8:0.42577991 9:0.31462822 10:0.5270399 
8192 1:0.65587947 2:0.20035907 3:0.065937989 4:0.049673141 5:0.028150336 6:0.40554298 7:0.22612324 8:0.39909284 9:0.43621619 10:0.46249711 
8192 1:0.73375861 2:0.12574498 3:0.051751848 4:0.05820138 5:0.030543182 6:0.6366829 7:0.20835665 8:0.29307625 9:0.45724474 10:0.61800842 
8192 1:0.74558174 2:0.17572513 3:0.044164811 4:0.021882991 5:0.012645329 6:0.078802474 7:0.22009715 8:0.37234317 9:0.37413581 10:0.41275725 
8192 1:0.63776129 2:0.24628219 3:0.057047975 4:0.041167934 5:0.017740606 6:0.17762106 7:0.22242683 8:0.40879727 9:0.39929622 10:0.29418434 
6043.8702685866101 1:0.31164134 2:0.18082903 3:0.12606034 4:0.24738731 5:0.13408198 6:0.53499463 7:0.52646459 8:0.40297412 9:0.4196524 10:0.42746811 
8192 1:0.50957902 2:0.21883613 3:0.14692088 4:0.088405759 5:0.036258208 6:0.46794851 7:0.27527765 8:0.27733353 9:0.25953939 10:0.36164554 
8192 1:0.42905234 2:0.24370152 3:0.137865 4:0.12459599 5:0.064785148 6:0.61848149 7:0.40995754 8:0.41037634 9:0.30796422 10:0.35997322 
8192 1:0.63098324 2:0.23426471 3:0.040316658 4:0.064141353 5:0.030294039 6:0.25552403 7:0.16503428 8:0.2704691 9:0.20595262 10:0.29853974 
1091.9369796936314 1:0.36538401 2:0.16277871 3:0.193469 4:0.1721263 5:0.10624198 6:0.44374716 7:0.26810252 8:0.63862886 9:0.67226472 10:0.34499008 
8192 1:0.49886647 2:0.29770197 3:0.11447215 4:0.061505624 5:0.027453795 6:0.38406275 7:0.27911943 8:0.2837683 9:0.29713965 10:0.3101668 
8192 1:0.70098997 2:0.15582334 3:0.057488833 4:0.047905117 5:0.037792735 6:0.35702303 7:0.29138547 8:0.23947248 9:0.38913661 10:0.27274883 
8192 1:0.28151025 2:0.30304813 3:0.17582877 4:0.17235347 5:0.06725938 6:0.24761259 7:0.35229491 8:0.32416081 9:0.36684802 10:0.32828514 
8192 1:0.44315411 2:0.22289795 3:0.1648134 4:0.11583412 5:0.053300411 6:0.12380574 7:0.34799752 8:0.23240733 9:0.28741475 10:0.35802923 
8192 1:0.33496432 2:0.24048816 3:0.21214114 4:0.1459812 5:0.06642519 6:0.23652631 7:0.13614787 8:0.2880123 9:0.49422212 10:0.39427071 
5999.1349777430123 1:0.85284065 2:0.086549539 3:0.024288122 4:0.021237922 5:0.015083767 6:1.0842659 7:0.20442484 8:0.20460023 9:0.40893478 10:0.52353997 
8192 1:0.38978365 2:0.24206177 3:0.18234779 4:0.12268636 5:0.063120425 6:0.39092743 7:0.20071117 8:0.34207842 9:0.33786026 10:0.32528818 
8192 1:0.35467813 2:0.20283916 3:0.13529188 4:0.19795287 5:0.10923797 6:0.2551928 7:0.27662104 8:0.34887937 9:0.62709517 10:0.4622676 
8192 1:0.66517883 2:0.16722655 3:0.065525042 4:0.061227607 5:0.040841966 6:0.037956961 7:0.17659 8:0.28595904 9:0.4619244 10:0.56710168 
8192 1:0.59638943 2:0.20705658 3:0.096424339 4:0.0696502 5:0.03047945 6:0.036393221 7:0.11264837 8:0.18732395 9:0.30332088 10:0.34769472 
8192 1:0.68830689 2:0.22372131 3:0.041612837 4:0.027758862 5:0.018600101 6:0.29711956 7:0.4193171 8:0.27406013 9:0.37054135 10:0.49577658 
8192 1:0.68158569 2:0.18281087 3:0.066732064 4:0.04790919 5:0.02096219 6:0.099675252 7:0.18319576 8:0.26807627 9:0.33333509 10:0.39518718 
8192 1:0.35786555 2:0.36238168 3:0.14824208 4:0.08955893 5:0.041951762 6:0.44436555 7:0.16768751 8:0.30110726 9:0.30798956 10:0.34690851 
8192 1:0.70527709 2:0.13952492 3:0.0500863 4:0.0703788 5:0.03473289 6:0.43120982 7:0.2011492 8:0.38154318 9:0.49320834 10:0.42552936 
1076.1458872318783 1:0.7145774 2:0.20370169 3:0.047731519 4:0.020325961 5:0.013663428 6:0.08636168 7:0.1033036 8:0.23235045 9:0.40467543 10:0.57851353 
5562.0210100444519 1:0.62106342 2:0.27544803 3:0.072224368 4:0.024524127 5:0.0067400586 6:0.18780792 7:0.16706825 8:0.14694124 9:0.23297598 10:0.22414956 
8192 1:0.35210594 2:0.21392929 3:0.23133506 4:0.13474305 5:0.06788666 6:0.38178861 7:0.26571155 8:0.30101179 9:0.23417266 10:0.29566682 
8192 1:0.4574045 2:0.34004645 3:0.072360826 4:0.08460879 5:0.04557943 6:0.39298328 7:0.12781738 8:0.34790925 9:0.46533998 10:0.35575066 
8192 1:0.75804871 2:0.21264361 3:0.020140087 4:0.007180011 5:0.0019875786 6:0.12353753 7:0.12880687 8:0.16433415 9:0.3058951 10:0.26191888 
8192 1:0.77232463 2:0.15344437 3:0.040793787 4:0.019657798 5:0.013779417 6:0.15084413 7:0.13738202 8:0.30482772 9:0.53640877 10:0.40924224 
6769.4164989342089 1:0.63031384 2:0.27775376 3:0.037110673 4:0.035581586 5:0.01924015 6:0.087958855 7:0.14449364 8:0.41495858 9:0.49436953 10:0.52540048 
8192 1:0.51383744 2:0.27963541 3:0.073982058 4:0.080129375 5:0.052415721 6:0.36920751 7:0.19342823 8:0.4244309 9:0.56778858 10:0.44085557 
8192 1:0.67498686 2:0.1752464 3:0.069279582 4:0.0559398 5:0.024547353 6:0.11200463 7:0.17873237 8:0.22105572 9:0.41094909 10:0.45007533 
8192 1:0.50104689 2:0.27050075 3:0.11737109 4:0.071887485 5:0.039193788 6:0.12738141 7:0.15486296 8:0.25795021 9:0.25975158 10:0.25849782 
8192 1:0.58602972 2:0.14516665 3:0.054499976 4:0.11931667 5:0.094986991 6:0.43396275 7:0.18275432 8:0.32301019 9:0.48972596 10:0.54575671 
8192 1:0.66795775 2:0.12285113 3:0.085158992 4:0.081793146 5:0.042238979 6:0.38603224 7:0.29103356 8:0.47773518 9:0.4617251 10:0.59843472 
8192 1:0.46954524 2:0.20458361 3:0.17483943 4:0.10266404 5:0.048367669 6:0.47735064 7:0.39517462 8:0.33572043 9:0.33314782 10:0.26890631 
8192 1:0.56666763 2:0.26002881 3:0.10278816 4:0.048493892 5:0.022021507 6:0.090540203 7:0.29040764 8:0.24343005 9:0.29469819 10:0.37773765 
8192 1:0.51620191 2:0.2937043 3:0.094273489 4:0.067845258 5:0.027975039 6:0.56957239 7:0.18412772 8:0.096485032 9:0.28817918 10:0.31870964 
8192 1:0.69322144 2:0.20609777 3:0.045387033 4:0.039641643 5:0.015652114 6:0.12757068 7:0.14768134 8:0.1978772 9:0.35304149 10:0.29697842 
8192 1:0.72315337 2:0.18240383 3:0.034372811 4:0.03731627 5:0.02275371 6:0.17208506 7:0.15638149 8:0.45959301 9:0.51238362 10:0.53406273 
8192 1:0.71323333 2:0.19965517 3:0.049379863 4:0.025857128 5:0.011874508 6:0.48590828 7:0.15101129 8:0.18068235 9:0.46428259 10:0.48767003 
8192 1:0.47201361 2:0.27848562 3:0.099167017 4:0.097710747 5:0.05262301 6:0.127608 7:0.21679854 8:0.45925767 9:0.5107386 10:0.63110095 
8192 1:0.57514518 2:0.23764506 3:0.10826349 4:0.056208475 5:0.022737794 6:0.14630769 7:0.26133475 8:0.34614549 9:0.41788846 10:0.46165003 
8192 1:0.60738244 2:0.16766929 3:0.12638139 4:0.065567284 5:0.032999598 6:0.43409924 7:0.36702156 8:0.31970363 9:0.27836812 10:0.32872386 
8192 1:0.50774038 2:0.25973401 3:0.13207059 4:0.07281021 5:0.027644805 6:0.30340944 7:0.18786113 8:0.23616335 9:0.18720563 10:0.2543181 
8192 1:0.74476818 2:0.1536782 3:0.035169215 4:0.039094829 5:0.027289573 6:0.81561492 7:0.46448224 8:0.23485105 9:0.36355877 10:0.3730971 
8192 1:0.76806158 2:0.18091449 3:0.017193998 4:0.023773528 5:0.010056405 6:0.096662672 7:0.071338762 8:0.21576039 9:0.51038468 10:0.50602679 
8192 1:0.40151983 2:0.25551603 3:0.14886254 4:0.13315835 5:0.060943239 6:0.51507059 7:0.17697439 8:0.33455272 9:0.42557601 10:0.38427762 
8192 1:0.50405596 2:0.26613257 3:0.11562831 4:0.080407534 5:0.033775624 6:0.23219376 7:0.22902139 8:0.25128717 9:0.33911032 10:0.30795681 
8192 1:0.69971057 2:0.13371558 3:0.052173196 4:0.068603541 5:0.045797107 6:0.79290846 7:0.55599263 8:0.45539772 9:0.54029899 10:0.66450111 
8192 1:0.37463958 2:0.31794891 3:0.10719702 4:0.13335743 5:0.066857059 6:0.30315043 7:0.20714314 8:0.29598149 9:0.31106502 10:0.22246138 
8192 1:0.6911153 2:0.24164526 3:0.044060831 4:0.017596606 5:0.0055819981 6:0.12650512 7:0.10680289 8:0.20898115 9:0.26915979 10:0.28241948 
8192 1:0.55015342 2:0.17168878 3:0.10544112 4:0.10515174 5:0.067564931 6:0.40666307 7:0.23566102 8:0.35862815 9:0.41880073 10:0.60013755 
8192 1:0.67018361 2:0.16710574 3:0.05312542 4:0.06655934 5:0.043025892 6:0.11647834 7:0.19206749 8:0.27898141 9:0.27165499 10:0.24508812 
7432.6635212161082 1:0.60150933 2:0.18028554 3:0.084296037 4:0.087654888 5:0.046254205 6:0.1565165 7:0.25011366 8:0.35296271 9:0.3508734 10:0.35394645 
8192 1:0.43930877 2:0.26553931 3:0.11973633 4:0.11267987 5:0.062735722 6:0.0854895 7:0.21210879 8:0.24119801 9:0.24955907 10:0.26098726 
8192 1:0.47194825 2:0.29633438 3:0.11339913 4:0.084902242 5:0.033416009 6:0.23172404 7:0.26218587 8:0.22708262 9:0.29981308 10:0.31410316 
5637.4493379756868 1:0.37670405 2:0.24213048 3:0.092061483 4:0.18224312 5:0.10686086 6:0.1334368 7:0.29312187 8:0.236666 9:0.34218249 10:0.36105957 
8192 1:0.46368481 2:0.13021882 3:0.092313585 4:0.16593075 5:0.14785205 6:0.31911031 7:0.30441601 8:0.20758345 9:0.41955066 10:0.62012611 
8192 1:0.37448815 2:0.21753287 3:0.1528259 4:0.16772522 5:0.087427859 6:0.32478067 7:0.33622059 8:0.2520014 9:0.30653932 10:0.23224476 
8192 1:0.33810145 2:0.277975 3:0.20496572 4:0.11249829 5:0.06645954 6:0.44675735 7:0.28985259 8:0.43052859 9:0.31039868 10:0.36147763 
8192 1:0.77717096 2:0.14997269 3:0.03548361 4:0.025241093 5:0.012131639 6:0.15314894 7:0.16721121 8:0.30901678 9:0.32683728 10:0.46321261 
8192 1:0.76611653 2:0.12736099 3:0.064196689 4:0.027723999 5:0.014601793 6:1.0489754 7:0.15864477 8:0.24831175 9:0.30694329 10:0.36591989 
8192 1:0.77527595 2:0.14225231 3:0.036127879 4:0.030904976 5:0.015438885 6:0.38552263 7:0.31938311 8:0.43421629 9:0.52374956 10:0.51566624 
8192 1:0.44583316 2:0.34206208 3:0.093129413 4:0.086996234 5:0.031979107 6:0.32265016 7:0.12135332 8:0.32877981 9:0.44482237 10:0.274816 
1552.4264258252042 1:0.54068423 2:0.15127023 3:0.11513216 4:0.10032041 5:0.092592961 6:0.57275053 7:0.5025368 8:0.45722417 9:0.42321929 10:0.5251484 
8192 1:0.50717788 2:0.27403946 3:0.086617989 4:0.08732425 5:0.044840416 6:0.31900254 7:0.27662936 8:0.35743808 9:0.31131818 10:0.53020853 
8192 1:0.53890219 2:0.35633332 3:0.048101081 4:0.036033452 5:0.02062995 6:0.2648166 7:0.23065021 8:0.42570186 9:0.42964307 10:0.35807002 
8192 1:0.55475635 2:0.20629247 3:0.14527302 4:0.062231097 5:0.031447059 6:0.20246268 7:0.29263468 8:0.34187921 9:0.37161728 10:0.26209852 
8192 1:0.49471517 2:0.24940677 3:0.13504015 4:0.090340609 5:0.030497299 6:0.38490553 7:0.24692106 8:0.28521213 9:0.39482143 10:0.40819503 
8192 1:0.86863763 2:0.0890648 3:0.01707959 4:0.016721128 5:0.0084968482 6:1.1317334 7:0.52497762 8:0.27353349 9:0.50971252 10:0.45547752 
8192 1:0.63451782 2:0.1961906 3:0.064719728 4:0.067284758 5:0.037287093 6:0.47805027 7:0.17097726 8:0.34747022 9:0.42206213 10:0.41608496 
8192 1:0.48685682 2:0.21739432 3:0.14514236 4:0.095991382 5:0.054615119 6:0.18046159 7:0.23502811 8:0.29622429 9:0.34988089 10:0.27966093 
8192 1:0.49819894 2:0.23471946 3:0.14780674 4:0.076273633 5:0.043001227 6:0.10484067 7:0.3807746 8:0.31233326 9:0.29303902 10:0.24144191 
8192 1:0.39966405 2:0.29798142 3:0.14046633 4:0.10814428 5:0.053743918 6:0.1710135 7:0.20378044 8:0.24176569 9:0.30988645 10:0.31977853 
2493.1277541305549 1:0.58720791 2:0.22444196 3:0.061743761 4:0.078040623 5:0.048565741 6:0.27457576 7:0.16743891 8:0.26468885 9:0.43730145 10:0.47957098 
8192 1:0.79244031 2:0.1439862 3:0.040927854 4:0.015089046 5:0.0075565829 6:0.094626874 7:0.040337653 8:0.2553149 9:0.30387989 10:0.31679531 
312.31822786920844 1:0.058446724 2:0.042419978 3:0.042283072 4:0.18654207 5:0.67030815 6:0.40723564 7:0.41901431 8:0.55319232 9:0.71409877 10:0.7512239 
8192 1:0.60530073 2:0.24468387 3:0.089433452 4:0.043142565 5:0.017439383 6:0.20148338 7:0.19799514 8:0.27031275 9:0.23135258 10:0.289118 
8192 1:0.49059869 2:0.3491793 3:0.081064994 4:0.057150755 5:0.022006256 6:0.1568553 7:0.13683509 8:0.17698839 9:0.28531106 10:0.28986148 
104.84251020631129 1:0.5614671 2:0.2831124 3:0.064595493 4:0.0622107 5:0.028614311 6:0.17606671 7:0.3503848 8:0.14143815 9:0.33142458 10:0.32642581 
8192 1:0.69450666 2:0.16561891 3:0.07294747 4:0.04412342 5:0.022803547 6:0.73997939 7:0.14448841 8:0.29494718 9:0.41446479 10:0.36927431 
8192 1:0.79247203 2:0.12323699 3:0.041389011 4:0.025811638 5:0.017090335 6:1.0221637 7:0.16813589 8:0.24528159 9:0.3382943 10:0.37413439 
8192 1:0.44538581 2:0.30901281 3:0.088553895 4:0.10468009 5:0.052367396 6:0.38137438 7:0.20971292 8:0.25026627 9:0.28354626 10:0.46450726 
2564.5289646936335 1:0.69910156 2:0.12393842 3:0.077403895 4:0.062799552 5:0.03675657 6:1.3671068 7:0.33445247 8:0.37773457 9:0.60971607 10:0.54032091 
8192 1:0.61346148 2:0.24846691 3:0.057667428 4:0.046616764 5:0.033787411 6:0.34448234 7:0.16204428 8:0.36908244 9:0.36193409 10:0.52877131 
1219.0407636133834 1:0.31681727 2:0.19179548 3:0.14324663 4:0.22617833 5:0.12196229 6:0.29794473 7:0.2903814 8:0.4120969 9:0.70726075 10:0.77638775 
228.72159552126652 1:0.83202048 2:0.12682855 3:0.024906802 4:0.011507249 5:0.004736919 6:0.75800083 7:1.1229267 8:0.7471804 9:0.48544335 10:0.43318761 
171.71190082121836 1:0.31802224 2:0.098747954 3:0.085048436 4:0.25558322 5:0.24259816 6:0.3443844 7:0.38672395 8:0.61893057 9:0.65171028 10:0.76714453 
8192 1:0.50775124 2:0.26131824 3:0.086639386 4:0.10858734 5:0.035703791 6:0.30732579 7:0.26605844 8:0.30104143 9:0.22855931 10:0.29132582 
8192 1:0.64781039 2:0.2274116 3:0.067115805 4:0.038921747 5:0.018740456 6:0.2192728 7:0.22491717 8:0.29726666 9:0.34010187 10:0.26710995 
8192 1:0.77638232 2:0.16397291 3:0.033716331 4:0.017278835 5:0.008649603 6:0.13061382 7:0.19239041 8:0.28543103 9:0.29435244 10:0.31838131 
8192 1:0.75771175 2:0.18416139 3:0.033983558 4:0.017748418 5:0.0063948792 6:0.17075104 7:0.13686255 8:0.17190563 9:0.31281006 10:0.3082785 
8192 1:0.76945986 2:0.14945103 3:0.027419518 4:0.036836467 5:0.01683313 6:0.24252293 7:0.26073302 8:0.13940758 9:0.41945923 10:0.32580159 
8192 1:0.65790424 2:0.22987503 3:0.059517297 4:0.036019043 5:0.016684385 6:0.22081694 7:0.28372228 8:0.15945763 9:0.39985206 10:0.31494241 
6240.8224657459377 1:0.49657622 2:0.26714867 3:0.1088174 4:0.080632909 5:0.046824795 6:0.099080653 7:0.10844663 8:0.1602497 9:0.30338572 10:0.33214252 
8192 1:0.57318982 2:0.25816551 3:0.06637541 4:0.062734573 5:0.039534689 6:0.16919372 7:0.15608088 8:0.36764689 9:0.56150997 10:0.61276832 
8192 1:0.79637454 2:0.1278824 3:0.041031938 4:0.023364145 5:0.011346974 6:0.47318537 7:0.15676276 8:0.29667489 9:0.31279571 10:0.22768666 
8192 1:0.67772219 2:0.16457416 3:0.060958127 4:0.062046785 5:0.034698741 6:0.21016829 7:0.17381634 8:0.2766974 9:0.28108829 10:0.40519137 
8192 1:0.7452929 2:0.18948879 3:0.043148226 4:0.015611881 5:0.0064582005 6:0.17517616 7:0.14573646 8:0.13765331 9:0.25594321 10:0.24791803 
8192 1:0.59797077 2:0.22597004 3:0.073575029 4:0.06464546 5:0.037838704 6:0.070761195 7:0.15278871 8:0.30970733 9:0.3671827 10:0.56777515 
4723.6540218086466 1:0.50565263 2:0.17923774 3:0.06404764 4:0.15761543 5:0.093446563 6:0.40732047 7:0.32377039 8:0.28706308 9:0.3866396 10:0.32155589 
8192 1:0.48702517 2:0.23705977 3:0.13397062 4:0.099555056 5:0.042389383 6:0.6568411 7:0.30799278 8:0.30921663 9:0.46739931 10:0.39795808 
8192 1:0.31856897 2:0.25754161 3:0.19378157 4:0.18457677 5:0.045531072 6:0.20057706 7:0.24480446 8:0.27707349 9:0.30851642 10:0.48194952 
8192 1:0.49185296 2:0.31665031 3:0.10595628 4:0.055318069 5:0.030222383 6:0.22299127 7:0.27715441 8:0.33159537 9:0.28569548 10:0.30463354 
8192 1:0.61847819 2:0.233656 3:0.071509694 4:0.053684276 5:0.022671845 6:0.20123047 7:0.1781099 8:0.29684927 9:0.42124831 10:0.37314274 
8192 1:0.60904503 2:0.30180885 3:0.046702294 4:0.025147885 5:0.017295947 6:0.21743137 7:0.28758413 8:0.33385972 9:0.43666425 10:0.51056704 
8192 1:0.48624572 2:0.20083208 3:0.091426283 4:0.14295946 5:0.078536463 6:0.62849096 7:0.38225241 8:0.33309702 9:0.48213578 10:0.45342144 
8192 1:0.83297533 2:0.09931179 3:0.037189816 4:0.017067638 5:0.013455429 6:1.0972059 7:0.19465867 8:0.30098441 9:0.28710573 10:0.40313004 
8192 1:0.86834773 2:0.080324986 3:0.026616364 4:0.016287648 5:0.0084232769 6:1.2984651 7:0.25359031 8:0.22298332 9:0.19182228 10:0.3024014 
8192 1:0.43437762 2:0.33430337 3:0.12067455 4:0.076726299 5:0.033918167 6:0.17773189 7:0.42693292 8:0.43025397 9:0.37005479 10:0.3004136 
8192 1:0.53573811 2:0.29978006 3:0.085257055 4:0.056121795 5:0.023102983 6:0.065088805 7:0.14966173 8:0.22171078 9:0.29093428 10:0.36280106 
8192 1:0.46781363 2:0.40084921 3:0.082570454 4:0.035553984 5:0.013212725 6:0.27937447 7:0.30033655 8:0.31149773 9:0.25449383 10:0.29042608 
4446.3867953676063 1:0.26150466 2:0.31776125 3:0.13843379 4:0.19991307 5:0.082387233 6:0.43692119 7:0.51404205 8:0.25432689 9:0.31263921 10:0.296527 
8192 1:0.63598946 2:0.15683153 3:0.069016601 4:0.089138398 5:0.049024013 6:0.41702268 7:0.24033886 8:0.26813068 9:0.33586896 10:0.39334734 
4455.1129988242319 1:0.39882435 2:0.20468923 3:0.081288822 4:0.17378373 5:0.14141387 6:0.14023325 7:0.42063487 8:0.31012055 9:0.45878413 10:0.41946102 
8192 1:0.71199404 2:0.17651536 3:0.035577982 4:0.048031945 5:0.027880671 6:0.14010905 7:0.19560529 8:0.31235621 9:0.58505247 10:0.61721103 
8192 1:0.57251909 2:0.22924307 3:0.062142356 4:0.092566079 5:0.043529407 6:0.15581598 7:0.22168077 8:0.32358424 9:0.13885745 10:0.30487015 
8192 1:0.55490161 2:0.14069007 3:0.10108016 4:0.12609376 5:0.077234403 6:0.41903332 7:0.066249997 8:0.28055141 9:0.47844777 10:0.60151091 
8192 1:0.61100545 2:0.14228041 3:0.058269247 4:0.13348806 5:0.054956839 6:0.26770346 7:0.28702501 8:0.26229008 9:0.20314705 10:0.24648836 
8192 1:0.58352232 2:0.23918368 3:0.072814464 4:0.065181769 5:0.039297769 6:0.25576241 7:0.10211761 8:0.22946205 9:0.38066477 10:0.31476844 
8192 1:0.62379025 2:0.18839687 3:0.081426525 4:0.067176888 5:0.039209469 6:0.35542207 7:0.33249366 8:0.327821 9:0.21600411 10:0.42176907 
8192 1:0.28501084 2:0.21441772 3:0.15222196 4:0.22689293 5:0.12145656 6:0.097555488 7:0.30994775 8:0.3873769 9:0.25074043 10:0.33112152 
8192 1:0.37553698 2:0.31040655 3:0.1413255 4:0.11653148 5:0.056199493 6:0.20105583 7:0.16382558 8:0.25988531 9:0.30362387 10:0.30236945 
8192 1:0.50175677 2:0.24819779 3:0.11601408 4:0.096448146 5:0.03758321 6:0.31056236 7:0.3407112 8:0.25999536 9:0.27624458 10:0.304786 
8192 1:0.77015869 2:0.16408393 3:0.045455465 4:0.014951644 5:0.0053502675 6:0.13058312 7:0.14585201 8:0.1885865 9:0.27580857 10:0.31057459 
8192 1:0.48458018 2:0.24214576 3:0.13687208 4:0.089038215 5:0.047363763 6:0.27930255 7:0.21089279 8:0.29456517 9:0.22654258 10:0.38367038 
2923.2658815625337 1:0.73924306 2:0.18374814 3:0.038867476 4:0.023241731 5:0.014899595 6:0.10362597 7:0.044793557 8:0.23017311 9:0.46056608 10:0.42664566 
8192 1:0.59519017 2:0.16977055 3:0.12341018 4:0.077507639 5:0.034121455 6:0.5845779 7:0.31972694 8:0.24440224 9:0.33749775 10:0.35520175 
8192 1:0.47603356 2:0.22488495 3:0.10763352 4:0.12329081 5:0.068157157 6:0.35487132 7:0.36369335 8:0.45965675 9:0.40423582 10:0.72910466 
8192 1:0.76532941 2:0.1829285 3:0.031036305 4:0.01582849 5:0.0048772957 6:0.11672385 7:0.11300105 8:0.11081985 9:0.4420088 10:0.25148661 
8192 1:0.58016891 2:0.23435591 3:0.090987905 4:0.064841822 5:0.029645461 6:0.18264646 7:0.14671485 8:0.33631796 9:0.40095366 10:0.40470529 
8091.9334187961676 1:0.41696101 2:0.17563234 3:0.071213035 4:0.18940369 5:0.14678993 6:0.53999824 7:0.38633475 8:0.42351495 9:0.61060577 10:0.67207436 
8192 1:0.44763927 2:0.16649034 3:0.14891466 4:0.14710662 5:0.089849112 6:0.30821872 7:0.2269654 8:0.31260765 9:0.18758293 10:0.2022148 
8192 1:0.42593771 2:0.15242209 3:0.11403523 4:0.15388577 5:0.1537192 6:0.14101646 7:0.27710452 8:0.38834955 9:0.5326525 10:0.51577273 
8192 1:0.39586278 2:0.45437223 3:0.058527072 4:0.055581257 5:0.035656663 6:0.19807286 7:0.16522318 8:0.25296238 9:0.4178908 10:0.44141527 
8192 1:0.79198072 2:0.15784221 3:0.035990535 4:0.0096731565 5:0.0045133835 6:0.27262688 7:0.099648193 8:0.20943669 9:0.30217838 10:0.33241336 
8192 1:0.65127749 2:0.16891831 3:0.068631521 4:0.06925656 5:0.041916113 6:0.52983919 7:0.28433663 8:0.17484322 9:0.35272446 10:0.39869211 
8192 1:0.73116386 2:0.21701672 3:0.021069536 4:0.020399876 5:0.010350007 6:0.040560459 7:0.11173874 8:0.12904605 9:0.4066643 10:0.59131513 
2698.783797648121 1:0.25034293 2:0.36996382 3:0.14485007 4:0.14926442 5:0.085578764 6:0.18072201 7:0.37820333 8:0.48822586 9:0.27162314 10:0.33069578 
8192 1:0.5852063 2:0.17421448 3:0.090261604 4:0.093799966 5:0.056517652 6:0.54409076 7:0.48541206 8:0.33350114 9:0.34417951 10:0.26663225 
8192 1:0.47048906 2:0.27003948 3:0.10775356 4:0.10405841 5:0.047659482 6:0.52605673 7:0.25411919 8:0.36200841 9:0.34967995 10:0.31812284 
1302.0786936518584 1:0.2808921 2:0.24148316 3:0.16302509 4:0.19665362 5:0.11794602 6:0.53020595 7:0.23440573 8:0.30464945 9:0.58496944 10:0.56133541 
6213.1702185770673 1:0.34934737 2:0.17491067 3:0.19027096 4:0.1789086 5:0.1065624 6:0.28732747 7:0.17803978 8:0.32716333 9:0.35779846 10:0.33211903 
8192 1:0.49800954 2:0.28900987 3:0.11643566 4:0.06822593 5:0.028319 6:0.2351781 7:0.37516158 8:0.16171959 9:0.30918545 10:0.37591132 
8192 1:0.49548391 2:0.21301682 3:0.12912196 4:0.10632875 5:0.056048561 6:0.28815787 7:0.31212709 8:0.27620792 9:0.39366603 10:0.55696938 
8192 1:0.5167169 2:0.22573924 3:0.11567183 4:0.099625737 5:0.042246296 6:0.36142785 7:0.29734027 8:0.44999152 9:0.42071799 10:0.48796042 
