svm_type c_svc
kernel_type rbf
gamma 4
nr_class 2
total_sv 9522
rho -13.881446155624154
label 0 1
probA -1.6957595365265123
probB -0.015894568283497779
nr_sv 4772 4750
SV
256 1:0.66814835 2:0.19353828 3:0.068144534 4:0.047428893 5:0.022739951 6:0.070797507 7:0.036828988 8:0.079498878 9:0.074688499 10:0.086753842 
256 1:0.43412728 2:0.32951721 3:0.091977548 4:0.094487788 5:0.049890177 6:0.13418134 7:0.030641854 8:0.043502802 9:0.068654285 10:0.069763822 
256 1:0.63314031 2:0.30141264 3:0.033491347 4:0.019117151 5:0.012838544 6:0.023870342 7:0.029121666 8:0.060622926 9:0.089134187 10:0.094817943 
256 1:0.61147191 2:0.26230196 3:0.069554229 4:0.035705686 5:0.020966213 6:0.034462431 7:0.019546212 8:0.029363981 9:0.080187158 10:0.094706772 
256 1:0.49802528 2:0.1997045 3:0.16082159 4:0.093744816 5:0.047703808 6:0.06451704 7:0.037069028 8:0.067348005 9:0.062067394 10:0.089062205 
256 1:0.46678249 2:0.25405066 3:0.12332997 4:0.091223789 5:0.064613089 6:0.21731067 7:0.070341517 8:0.089188932 9:0.064197622 10:0.084973982 
256 1:0.7208724 2:0.16134754 3:0.028590679 4:0.054253674 5:0.0349357 6:0.082439487 7:0.082405456 8:0.081520713 9:0.11605339 10:0.10887772 
256 1:0.59352326 2:0.14126554 3:0.10165968 4:0.097223107 5:0.066328417 6:0.09173336 7:0.045544427 8:0.051408562 9:0.041547405 10:0.051684767 
256 1:0.38647175 2:0.35110743 3:0.085036133 4:0.11331919 5:0.064065498 6:0.0644072 7:0.027000421 8:0.047750703 9:0.043543852 10:0.059813349 
256 1:0.51637986 2:0.32539932 3:0.087712679 4:0.05236505 5:0.018143086 6:0.0055553417 7:0.032276773 8:0.062024057 9:0.065253953 10:0.09256756 
256 1:0.60599892 2:0.22136578 3:0.078803053 4:0.057131105 5:0.036701138 6:0.11027722 7:0.016071829 8:0.028398331 9:0.03723144 10:0.075402067 
256 1:0.66523575 2:0.20458893 3:0.068091476 4:0.041075766 5:0.02100808 6:0.074527096 7:0.056755593 8:0.043833796 9:0.064666517 10:0.086349469 
256 1:0.44903743 2:0.33873341 3:0.066219834 4:0.10837359 5:0.037635741 6:0.099144989 7:0.02242413 8:0.080862225 9:0.10898818 10:0.094014335 
256 1:0.47138388 2:0.27771161 3:0.1132303 4:0.092116083 5:0.045558136 6:0.11443025 7:0.035273201 8:0.048894909 9:0.083127257 10:0.072659847 
256 1:0.56481266 2:0.23595356 3:0.063215873 4:0.073827613 5:0.06219029 6:0.062419205 7:0.023098022 8:0.056656574 9:0.052067873 10:0.091715096 
256 1:0.69389605 2:0.19467494 3:0.069505245 4:0.021800994 5:0.020122776 6:0.015788101 7:0.013278162 8:0.047206444 9:0.065839758 10:0.068108174 
256 1:0.53834116 2:0.24423548 3:0.097209202 4:0.09353981 5:0.02667435 6:0.071388251 7:0.014926004 8:0.034382336 9:0.09550855 10:0.070867291 
256 1:0.68659045 2:0.1476414 3:0.053403906 4:0.067542623 5:0.044821621 6:0.077786946 7:0.081850352 8:0.044013466 9:0.061629772 10:0.082101976 
256 1:0.74251302 2:0.13588885 3:0.042994807 4:0.046485582 5:0.032117738 6:0.066484068 7:0.030377482 8:0.072353974 9:0.1458915 10:0.13783652 
256 1:0.39738982 2:0.36588895 3:0.13240909 4:0.070820898 5:0.033491233 6:0.092483741 7:0.070701255 8:0.037210621 9:0.05743224 10:0.056239075 
256 1:0.73082339 2:0.11555508 3:0.036904718 4:0.062951242 5:0.053765572 6:0.11068208 7:0.061893305 8:0.056468725 9:0.10966556 10:0.11282607 
256 1:0.42177508 2:0.37721912 3:0.079945525 4:0.076606951 5:0.044453324 6:0.031160882 7:0.021803475 8:0.037626657 9:0.07453329 10:0.077876567 
256 1:0.39563747 2:0.31708867 3:0.1372339 4:0.09382549 5:0.056214469 6:0.094429695 7:0.03934702 8:0.078250641 9:0.062335533 10:0.09133941 
256 1:0.69626628 2:0.18333365 3:0.062151533 4:0.037386669 5:0.020861867 6:0.054480828 7:0.016712984 8:0.062836233 9:0.061888234 10:0.060990001 
256 1:0.17799686 2:0.41905086 3:0.088671775 4:0.093820803 5:0.22045971 6:0.03735434 7:0.047198656 8:0.074591586 9:0.10912591 10:0.16968369 
256 1:0.90036478 2:0.077940817 3:0.0069497597 4:0.008381368 5:0.0063632711 6:0.29999284 7:0.21781577 8:0.079800026 9:0.11153118 10:0.10164456 
256 1:0.65241086 2:0.27420916 3:0.036308843 4:0.023954124 5:0.013117005 6:0.015396047 7:0.018032718 8:0.046464347 9:0.069162312 10:0.073905714 
256 1:0.43465899 2:0.21391455 3:0.1547606 4:0.17304885 5:0.023617016 6:0.042600568 7:0.042913808 8:0.068542074 9:0.042963904 10:0.060862177 
256 1:0.27769851 2:0.32823678 3:0.22269956 4:0.11942141 5:0.051943731 6:0.1337348 7:0.075719471 8:0.041521958 9:0.10415894 10:0.093624628 
256 1:0.55069743 2:0.15265185 3:0.055640157 4:0.14924858 5:0.091761977 6:0.094481538 7:0.056568098 8:0.030661566 9:0.061616712 10:0.076598496 
256 1:0.41903396 2:0.28676698 3:0.099092855 4:0.11980496 5:0.075301241 6:0.020439638 7:0.038327397 8:0.039958656 9:0.065064776 10:0.061686858 
256 1:0.69891633 2:0.22241355 3:0.052988164 4:0.019481733 5:0.0062002207 6:0.016629718 7:0.027041246 8:0.049120961 9:0.058502756 10:0.064682541 
256 1:0.72774944 2:0.1982297 3:0.03798087 4:0.024710094 5:0.011329891 6:0.034956323 7:0.021889146 8:0.04614061 9:0.067716825 10:0.054647938 
256 1:0.55069776 2:0.21609887 3:0.07571213 4:0.097523211 5:0.059968029 6:0.0517733 7:0.064387683 8:0.079962953 9:0.057653815 10:0.045748988 
256 1:0.54661729 2:0.29584484 3:0.049736026 4:0.057949264 5:0.049852587 6:0.088667406 7:0.034511909 8:0.039083736 9:0.079108966 10:0.073859879 
256 1:0.70590007 2:0.20112559 3:0.042547957 4:0.029990022 5:0.020436359 6:0.014443871 7:0.01942409 8:0.0567781 9:0.072814157 10:0.10227617 
256 1:0.60486511 2:0.19522549 3:0.098566993 4:0.065113778 5:0.036228631 6:0.054012724 7:0.046370792 8:0.063275648 9:0.076191621 10:0.12612641 
256 1:0.77157277 2:0.18519762 3:0.025894743 4:0.010974231 5:0.0063606278 6:0.025814194 7:0.034245595 8:0.044727877 9:0.090501068 10:0.075131094 
256 1:0.71849382 2:0.1400945 3:0.040868304 4:0.064900418 5:0.035642953 6:0.043462671 7:0.035567652 8:0.060621373 9:0.055409146 10:0.062928195 
256 1:0.53029056 2:0.25193628 3:0.078996697 4:0.082917057 5:0.055859411 6:0.04201501 7:0.039980609 8:0.064846484 9:0.060405644 10:0.074673397 
256 1:0.45767231 2:0.28053989 3:0.13862812 4:0.088644129 5:0.034515552 6:0.055523756 7:0.043763976 8:0.069223877 9:0.065817427 10:0.054578545 
256 1:0.68883812 2:0.2266756 3:0.049951611 4:0.021725744 5:0.012808917 6:0.027421015 7:0.041911525 8:0.079033819 9:0.049983256 10:0.048410661 
256 1:0.5755279 2:0.22753798 3:0.10909433 4:0.054883482 5:0.032956307 6:0.070785408 7:0.073493067 8:0.068870812 9:0.10825466 10:0.060731409 
256 1:0.36115437 2:0.33839694 3:0.12747121 4:0.10880143 5:0.064176051 6:0.066739773 7:0.023404627 8:0.058676008 9:0.038832852 10:0.05807203 
256 1:0.36449008 2:0.41317535 3:0.069614831 4:0.089662857 5:0.06305688 6:0.076589763 7:0.046670133 8:0.078834793 9:0.048081903 10:0.036129081 
256 1:0.4449625 2:0.34257113 3:0.080810305 4:0.068506437 5:0.063149631 6:0.05340716 7:0.043333166 8:0.068280128 9:0.097738324 10:0.15516858 
256 1:0.43397184 2:0.330702 3:0.12313527 4:0.087151809 5:0.025039082 6:0.039374267 7:0.027345757 8:0.048883642 9:0.062614425 10:0.067252136 
256 1:0.75349805 2:0.15706535 3:0.053439932 4:0.024924411 5:0.011072259 6:0.016868916 7:0.034378661 8:0.058125969 9:0.06065639 10:0.060262395 
256 1:0.70137951 2:0.16693841 3:0.061604738 4:0.047424267 5:0.022653072 6:0.045487296 7:0.035244562 8:0.063327947 9:0.087867883 10:0.087076378 
256 1:0.80773801 2:0.12211279 3:0.033776165 4:0.024494084 5:0.011878957 6:0.16087258 7:0.14529493 8:0.1528595 9:0.14089319 10:0.081675597 
256 1:0.67086513 2:0.21181256 3:0.04432185 4:0.049108486 5:0.023891973 6:0.011198914 7:0.030109427 8:0.055892566 9:0.10646079 10:0.10216398 
256 1:0.5483308 2:0.32647921 3:0.074522712 4:0.037701507 5:0.012965767 6:0.066304648 7:0.054994129 8:0.037367752 9:0.067360898 10:0.040678195 
256 1:0.59348609 2:0.2181754 3:0.12573922 4:0.043129572 5:0.01946972 6:0.059310872 7:0.018675542 8:0.036995497 9:0.037160703 10:0.058699599 
256 1:0.43927094 2:0.3265194 3:0.081819904 4:0.10064085 5:0.051748911 6:0.080670366 7:0.02782014 8:0.042555967 9:0.065888295 10:0.048054384 
256 1:0.61285837 2:0.21792886 3:0.062898636 4:0.081062076 5:0.025252055 6:0.042680535 7:0.046015426 8:0.10215442 9:0.11305459 10:0.091459041 
256 1:0.61305344 2:0.24226185 3:0.069740016 4:0.05375466 5:0.02119003 6:0.087375813 7:0.077727762 8:0.082838467 9:0.094521972 10:0.093021971 
256 1:0.36842636 2:0.26497183 3:0.20509778 4:0.10610389 5:0.05540014 6:0.03891807 7:0.059137275 8:0.054028939 9:0.063995536 10:0.041757742 
256 1:0.42322635 2:0.15907642 3:0.095436698 4:0.19620057 5:0.12605996 6:0.069806059 7:0.055190837 8:0.064931842 9:0.110657 10:0.091391891 
256 1:0.71622644 2:0.17913565 3:0.045575399 4:0.033818236 5:0.025244272 6:0.10233184 7:0.030003694 8:0.050365692 9:0.060833833 10:0.074021978 
256 1:0.44572447 2:0.18947777 3:0.14931501 4:0.15585382 5:0.059628932 6:0.068467298 7:0.069315816 8:0.074742024 9:0.062211024 10:0.035945548 
256 1:0.6807927 2:0.23517624 3:0.038267779 4:0.031860402 5:0.013902877 6:0.024093169 7:0.051685552 8:0.089922675 9:0.075430984 10:0.062676388 
256 1:0.42894332 2:0.32533867 3:0.12903985 4:0.084139484 5:0.032538682 6:0.057509145 7:0.074241136 8:0.086350711 9:0.076755186 10:0.052136096 
256 1:0.77131795 2:0.14132157 3:0.042638078 4:0.027682476 5:0.017039925 6:0.13156101 7:0.068950327 8:0.038619616 9:0.088665312 10:0.11537083 
256 1:0.42540386 2:0.31452059 3:0.096787862 4:0.11175289 5:0.051534788 6:0.1149243 7:0.012531053 8:0.073765045 9:0.099854773 10:0.090589949 
256 1:0.50472302 2:0.25458057 3:0.12927446 4:0.085375634 5:0.026046304 6:0.1284274 7:0.065600134 8:0.046325851 9:0.072347971 10:0.074150563 
256 1:0.56600254 2:0.22098466 3:0.087905874 4:0.083270876 5:0.04183605 6:0.099193664 7:0.0092234273 8:0.02104024 9:0.061327845 10:0.067238882 
256 1:0.63161498 2:0.18592068 3:0.083749064 4:0.059431051 5:0.039284234 6:0.15705568 7:0.10215608 8:0.14793904 9:0.13021016 10:0.10704931 
256 1:0.72272999 2:0.21525622 3:0.028781882 4:0.021583303 5:0.011648607 6:0.013268381 7:0.038768186 8:0.038130513 9:0.1288344 10:0.12983163 
256 1:0.42706973 2:0.37384085 3:0.08212115 4:0.081992979 5:0.034975295 6:0.020609639 7:0.061948751 8:0.045734339 9:0.059288712 10:0.052964607 
256 1:0.29297505 2:0.34683342 3:0.19184148 4:0.10636141 5:0.061988647 6:0.079480128 7:0.043545712 8:0.064000765 9:0.057100763 10:0.053228717 
256 1:0.65003207 2:0.18963458 3:0.07496029 4:0.057528195 5:0.027844866 6:0.085277345 7:0.041262413 8:0.057780745 9:0.0768279 10:0.072514452 
256 1:0.36627166 2:0.26967025 3:0.17331688 4:0.14019991 5:0.050541308 6:0.062469381 7:0.066452573 8:0.093019387 9:0.076179598 10:0.071412796 
256 1:0.74102015 2:0.1227465 3:0.06102975 4:0.050686642 5:0.024516952 6:0.27878168 7:0.24576268 8:0.2523916 9:0.17661359 10:0.1002494 
256 1:0.60072321 2:0.24879646 3:0.052760228 4:0.066373496 5:0.031346612 6:0.071459088 7:0.027043407 8:0.084120883 9:0.075096945 10:0.074014169 
256 1:0.35261362 2:0.2849209 3:0.15458016 4:0.13944313 5:0.068442191 6:0.015380553 7:0.057255982 8:0.07078283 9:0.062092262 10:0.041718581 
256 1:0.23050743 2:0.54916394 3:0.10388929 4:0.073347913 5:0.043091424 6:0.029821468 7:0.043178706 8:0.027975779 9:0.036147023 10:0.046118935 
256 1:0.2774846 2:0.5300094 3:0.080518458 4:0.06662742 5:0.045360125 6:0.077304379 7:0.036488127 8:0.041276222 9:0.051494593 10:0.068261407 
256 1:0.26732859 2:0.49063801 3:0.082555744 4:0.11483444 5:0.044643221 6:0.059481093 7:0.026656871 8:0.043416651 9:0.091091011 10:0.10120354 
256 1:0.65504923 2:0.17318985 3:0.073740691 4:0.066948617 5:0.031071613 6:0.027844695 7:0.042000828 8:0.054874853 9:0.039846205 10:0.051160975 
256 1:0.58420637 2:0.24018132 3:0.098857125 4:0.05502937 5:0.021725815 6:0.0083678738 7:0.03539015 8:0.064801905 9:0.045288053 10:0.053021398 
256 1:0.4861195 2:0.26253788 3:0.114575 4:0.10320697 5:0.033560637 6:0.047924135 7:0.046865514 8:0.055899511 9:0.048387542 10:0.061102753 
256 1:0.41635727 2:0.38156817 3:0.09247489 4:0.068390756 5:0.041208916 6:0.060149027 7:0.029183343 8:0.039943699 9:0.049351884 10:0.048239774 
256 1:0.39502074 2:0.21984386 3:0.17731143 4:0.11821722 5:0.089606755 6:0.035024286 7:0.053463077 8:0.089242427 9:0.092399619 10:0.098211228 
256 1:0.34544678 2:0.21704975 3:0.10909486 4:0.22588157 5:0.10252704 6:0.045282534 7:0.051720509 8:0.081149224 9:0.1018362 10:0.1095664 
256 1:0.69165303 2:0.16962451 3:0.061390037 4:0.049267965 5:0.028064463 6:0.082367329 7:0.039125308 8:0.028430936 9:0.059507687 10:0.067808463 
256 1:0.53022557 2:0.23948707 3:0.11198571 4:0.08761654 5:0.03068511 6:0.10652429 7:0.05561822 8:0.030308491 9:0.055419361 10:0.062276749 
256 1:0.51576922 2:0.20178852 3:0.084458718 4:0.10308666 5:0.094896879 6:0.068772532 7:0.036911652 8:0.055987293 9:0.063602673 10:0.15569838 
256 1:0.43010154 2:0.26072595 3:0.15468181 4:0.11296001 5:0.041530696 6:0.094414298 7:0.080695681 8:0.06148289 9:0.078126861 10:0.059990387 
256 1:0.68296443 2:0.18661053 3:0.065102197 4:0.044818855 5:0.020503987 6:0.098709515 7:0.046528487 8:0.033853754 9:0.060736031 10:0.074719678 
256 1:0.6789893 2:0.14896726 3:0.076522023 4:0.067146414 5:0.028375004 6:0.080080518 7:0.050804585 8:0.038783538 9:0.081014896 10:0.087044761 
256 1:0.68304617 2:0.18885768 3:0.053526473 4:0.052105101 5:0.022464582 6:0.057014694 7:0.026240399 8:0.04882105 9:0.050224971 10:0.05895145 
256 1:0.52621069 2:0.27688051 3:0.10742265 4:0.06772204 5:0.021764109 6:0.027590433 7:0.029008303 8:0.039027957 9:0.047711726 10:0.0342893 
256 1:0.59360838 2:0.18251318 3:0.095714761 4:0.078664147 5:0.049499522 6:0.046457125 7:0.039195192 8:0.041875903 9:0.074136709 10:0.064010187 
256 1:0.7086217 2:0.13156027 3:0.063042659 4:0.058146368 5:0.038629 6:0.19578486 7:0.045353022 8:0.039785583 9:0.065429979 10:0.12046954 
256 1:0.50133215 2:0.17299199 3:0.12837408 4:0.12070148 5:0.076600303 6:0.068594004 7:0.038655678 8:0.090766371 9:0.059725036 10:0.064277629 
256 1:0.74802782 2:0.15667346 3:0.049206035 4:0.029838104 5:0.016254584 6:0.0073556722 7:0.044119583 8:0.065087864 9:0.049675443 10:0.062607962 
256 1:0.50014061 2:0.14978147 3:0.12006514 4:0.13313291 5:0.096879871 6:0.17768653 7:0.10387521 8:0.089261146 9:0.070766454 10:0.050966721 
256 1:0.53415599 2:0.27284361 3:0.081642043 4:0.074428307 5:0.036930051 6:0.10484304 7:0.035864803 8:0.056273126 9:0.068850312 10:0.068258718 
256 1:0.57782837 2:0.18563576 3:0.10401019 4:0.089014202 5:0.04351148 6:0.062256739 7:0.05505328 8:0.080065282 9:0.088797792 10:0.12872479 
256 1:0.69599924 2:0.17200475 3:0.055144668 4:0.051874019 5:0.024977327 6:0.062637572 7:0.026437818 8:0.049151286 9:0.056144983 10:0.062036899 
256 1:0.58935762 2:0.26114036 3:0.068333843 4:0.051816367 5:0.029351817 6:0.071357059 7:0.037001107 8:0.057466563 9:0.080557097 10:0.093733373 
256 1:0.92467378 2:0.038608134 3:0.018511257 4:0.011014857 5:0.0071919676 6:0.33950592 7:0.22255381 8:0.042398244 9:0.046983306 10:0.076255765 
256 1:0.53482633 2:0.26242275 3:0.1161646 4:0.062605392 5:0.023980924 6:0.043748296 7:0.05217712 8:0.066060211 9:0.079759159 10:0.055802975 
256 1:0.45692755 2:0.34306739 3:0.065014676 4:0.08903206 5:0.045958321 6:0.047701609 7:0.055465673 8:0.068016883 9:0.082614751 10:0.068691938 
256 1:0.55313329 2:0.21999853 3:0.083297225 4:0.095649466 5:0.047921486 6:0.1051272 7:0.019229191 8:0.042685348 9:0.053595299 10:0.069867689 
256 1:0.5413276 2:0.25234825 3:0.072683329 4:0.080764302 5:0.052876516 6:0.020280962 7:0.034363258 8:0.079601934 9:0.11032766 10:0.12085952 
256 1:0.53845032 2:0.22806817 3:0.089626852 4:0.10001323 5:0.043841427 6:0.036249816 7:0.048935478 8:0.049232967 9:0.060214286 10:0.050081189 
256 1:0.74960598 2:0.13930953 3:0.04438894 4:0.048906705 5:0.017788843 6:0.01560492 7:0.029521939 8:0.052547076 9:0.078220233 10:0.062004185 
256 1:0.56031941 2:0.32562463 3:0.052740514 4:0.036948496 5:0.024366955 6:0.052230716 7:0.03933395 8:0.038219013 9:0.03603569 10:0.044651501 
256 1:0.63799524 2:0.20504284 3:0.063205559 4:0.062946699 5:0.030809662 6:0.015458156 7:0.050380077 8:0.064325299 9:0.08929979 10:0.092276735 
256 1:0.50491087 2:0.28710413 3:0.10010795 4:0.076794894 5:0.031082162 6:0.033837744 7:0.039971598 8:0.043902839 9:0.046231057 10:0.065886528 
256 1:0.61450185 2:0.18291496 3:0.094842105 4:0.075197336 5:0.032543748 6:0.078941887 7:0.020616413 8:0.044937969 9:0.068515909 10:0.080705615 
256 1:0.85020534 2:0.11194054 3:0.014192691 4:0.01405492 5:0.0096065075 6:0.15163787 7:0.037944744 8:0.048374163 9:0.093070989 10:0.12245507 
256 1:0.68758137 2:0.21233261 3:0.058625129 4:0.027782988 5:0.013677911 6:0.032709768 7:0.028732924 8:0.034445017 9:0.039569452 10:0.071055081 
256 1:0.82104799 2:0.12991554 3:0.024309945 4:0.015827194 5:0.0088993391 6:0.26827601 7:0.070464513 8:0.04228269 9:0.049549574 10:0.065462454 
256 1:0.42358104 2:0.23243167 3:0.1684628 4:0.11062858 5:0.064895906 6:0.035386498 7:0.037087998 8:0.06021463 9:0.062794043 10:0.088507436 
256 1:0.56056501 2:0.18790085 3:0.093314799 4:0.099341645 5:0.058877691 6:0.073739393 7:0.052172746 8:0.063147765 9:0.050766555 10:0.062175872 
256 1:0.66468508 2:0.21972632 3:0.05525233 4:0.041626046 5:0.018710221 6:0.022715644 7:0.031095786 8:0.038005609 9:0.080828709 10:0.09413784 
256 1:0.52872338 2:0.25837396 3:0.083005497 4:0.084283638 5:0.045613523 6:0.0586813 7:0.041410631 8:0.044844894 9:0.028720425 10:0.039286179 
256 1:0.50425758 2:0.3359636 3:0.091609275 4:0.056742847 5:0.0114267 6:0.021091614 7:0.038503049 8:0.021272637 9:0.053689237 10:0.061049595 
256 1:0.53809692 2:0.19369858 3:0.10898054 4:0.093989613 5:0.065234348 6:0.043169297 7:0.036482743 8:0.078008142 9:0.076281236 10:0.14917738 
188.51421582425294 1:0.72478343 2:0.052396839 3:0.073844332 4:0.078526483 5:0.070448921 6:0.17474143 7:0.13846805 8:0.093447222 9:0.091875248 10:0.082130765 
256 1:0.41011613 2:0.18060531 3:0.16366794 4:0.13082615 5:0.11478447 6:0.04211307 7:0.075560089 8:0.043219452 9:0.089047659 10:0.14873974 
256 1:0.65979546 2:0.19780478 3:0.078963199 4:0.041350923 5:0.022085645 6:0.038087092 7:0.020344829 8:0.018841748 9:0.055532773 10:0.055672221 
256 1:0.24478029 2:0.35945055 3:0.19936072 4:0.12421631 5:0.072192126 6:0.072697388 7:0.08364162 8:0.076710578 9:0.065315896 10:0.048161515 
256 1:0.63501266 2:0.19195855 3:0.08617712 4:0.055462706 5:0.031388961 6:0.048243023 7:0.02386084 8:0.043929288 9:0.05912259 10:0.036130395 
256 1:0.72086664 2:0.17780445 3:0.038172686 4:0.04157599 5:0.02158024 6:0.01593327 7:0.035203622 8:0.086168242 9:0.090660685 10:0.10529039 
256 1:0.8098505 2:0.10603108 3:0.032504345 4:0.033924986 5:0.01768909 6:0.042221395 7:0.039799228 8:0.037627407 9:0.066390503 10:0.099322716 
256 1:0.45882383 2:0.23295946 3:0.10351612 4:0.12890437 5:0.075796226 6:0.14865227 7:0.051416777 8:0.067320548 9:0.10545757 10:0.11786249 
256 1:0.22727071 2:0.097949578 3:0.077431822 4:0.17060239 5:0.4267455 6:0.053510224 7:0.076563761 8:0.10462124 9:0.11924067 10:0.12198956 
256 1:0.32123154 2:0.29873639 3:0.1548274 4:0.16164948 5:0.063555202 6:0.074983924 7:0.056933082 8:0.062709196 9:0.06000913 10:0.036209597 
256 1:0.64477264 2:0.27745238 3:0.048317918 4:0.019238081 5:0.01021898 6:0.021519201 7:0.019776239 8:0.032966169 9:0.06856504 10:0.10646004 
256 1:0.43937926 2:0.13656629 3:0.1955335 4:0.20034868 5:0.028172268 6:0.073341983 7:0.052086999 8:0.060385926 9:0.06402664 10:0.059596387 
256 1:0.59659569 2:0.26888922 3:0.059911546 4:0.045037996 5:0.029565544 6:0.052378469 7:0.043047737 8:0.048527162 9:0.060986962 10:0.097737818 
256 1:0.55987706 2:0.19257107 3:0.049147095 4:0.11017101 5:0.088233769 6:0.14203177 7:0.040602697 8:0.051506762 9:0.071647853 10:0.091083956 
256 1:0.69922251 2:0.19464063 3:0.048136976 4:0.04034624 5:0.017653637 6:0.087899864 7:0.08473485 8:0.051640666 9:0.087859913 10:0.080151286 
256 1:0.73566143 2:0.18070436 3:0.049136005 4:0.024344393 5:0.010153809 6:0.052539848 7:0.02787848 8:0.017480129 9:0.060243836 10:0.071800435 
256 1:0.38652515 2:0.20151347 3:0.18769431 4:0.13751866 5:0.086748416 6:0.083507257 7:0.052872103 8:0.073096452 9:0.064150242 10:0.074083393 
256 1:0.55751968 2:0.21690147 3:0.10493908 4:0.083633406 5:0.037006367 6:0.08382535 7:0.087424337 8:0.060730625 9:0.072766774 10:0.059560934 
256 1:0.51467834 2:0.21259732 3:0.097408682 4:0.11242712 5:0.062888539 6:0.026783819 7:0.052375709 8:0.0813636 9:0.10228452 10:0.091981953 
256 1:0.2802551 2:0.44258623 3:0.13505748 4:0.089725865 5:0.052375324 6:0.043740331 7:0.058796524 8:0.090578988 9:0.10284989 10:0.053193846 
256 1:0.77118969 2:0.16868082 3:0.022136568 4:0.024044746 5:0.013948174 6:0.04133264 7:0.052149921 8:0.067558724 9:0.074620512 10:0.11475352 
256 1:0.33457169 2:0.47177542 3:0.10395685 4:0.058795729 5:0.030900309 6:0.031454732 7:0.073752955 8:0.081985896 9:0.055989108 10:0.057344077 
256 1:0.41120758 2:0.24677028 3:0.11584038 4:0.13875635 5:0.087425409 6:0.10643413 7:0.032742836 8:0.061508415 9:0.09375853 10:0.098977347 
256 1:0.4386481 2:0.18607428 3:0.15428394 4:0.13447858 5:0.0865151 6:0.13115384 7:0.10585189 8:0.10090334 9:0.089611352 10:0.15876556 
256 1:0.50904949 2:0.28208687 3:0.10646606 4:0.083233994 5:0.019163595 6:0.026375121 7:0.043409931 8:0.071238962 9:0.060923254 10:0.069946152 
256 1:0.40859756 2:0.26457816 3:0.086244166 4:0.13024533 5:0.11033478 6:0.068322773 7:0.023148291 8:0.037354852 9:0.061674529 10:0.16708061 
256 1:0.35368033 2:0.3529734 3:0.1138544 4:0.11683875 5:0.062653123 6:0.096853865 7:0.05496432 8:0.092173809 9:0.076824959 10:0.091889695 
256 1:0.34205553 2:0.29718003 3:0.17851678 4:0.11594855 5:0.066299098 6:0.072692076 7:0.064488461 8:0.059301827 9:0.054153671 10:0.080892245 
256 1:0.65873433 2:0.13308078 3:0.073578194 4:0.081814226 5:0.05279247 6:0.090019262 7:0.036029486 8:0.096041166 9:0.12620041 10:0.11932356 
256 1:0.47526617 2:0.25930467 3:0.12476187 4:0.091821449 5:0.048845835 6:0.14148399 7:0.034770778 8:0.040610982 9:0.066081574 10:0.087437572 
256 1:0.60050108 2:0.20373011 3:0.067528017 4:0.085892178 5:0.042348617 6:0.064860415 7:0.062038903 8:0.075875856 9:0.077771802 10:0.084225934 
256 1:0.65564567 2:0.19285045 3:0.07306761 4:0.053154589 5:0.025281687 6:0.04301314 7:0.041373005 8:0.054515995 9:0.058712136 10:0.039505251 
256 1:0.68522627 2:0.20260228 3:0.070897915 4:0.028663974 5:0.012609565 6:0.024690858 7:0.043825662 8:0.059041574 9:0.060937038 10:0.047795945 
256 1:0.4766335 2:0.17921842 3:0.098153964 4:0.1477152 5:0.098278909 6:0.15537203 7:0.077202953 8:0.070481036 9:0.054931762 10:0.053896315 
256 1:0.45924861 2:0.28511722 3:0.069908024 4:0.084921538 5:0.1008046 6:0.040290665 7:0.032031331 8:0.079104669 9:0.085515304 10:0.091069354 
256 1:0.44912235 2:0.21247998 3:0.10921936 4:0.17405893 5:0.055119382 6:0.072386035 7:0.032903756 8:0.067289811 9:0.047953101 10:0.069093596 
143.39144816881765 1:0.65490547 2:0.1297905 3:0.092484975 4:0.068127639 5:0.054691411 6:0.033339552 7:0.066209277 8:0.12766365 9:0.096139274 10:0.050819185 
256 1:0.79456334 2:0.1289999 3:0.036527802 4:0.027756602 5:0.01215236 6:0.023855032 7:0.044073604 8:0.032199733 9:0.047861382 10:0.05047233 
256 1:0.70986623 2:0.16911647 3:0.045972339 4:0.049355201 5:0.025689756 6:0.06369759 7:0.047769806 8:0.035533196 9:0.044119089 10:0.064450982 
256 1:0.53872269 2:0.20435353 3:0.10916811 4:0.085839695 5:0.061915977 6:0.039337687 7:0.041756055 8:0.09128966 9:0.07789162 10:0.14620622 
256 1:0.43200271 2:0.27957304 3:0.14974941 4:0.09532495 5:0.043349882 6:0.049572787 7:0.053093095 8:0.082883026 9:0.05799617 10:0.067617753 
256 1:0.54325569 2:0.2714992 3:0.070423518 4:0.070833408 5:0.043988188 6:0.065247431 7:0.018616003 8:0.060028377 9:0.062090574 10:0.077699017 
256 1:0.43000666 2:0.32813708 3:0.10608132 4:0.096360909 5:0.039414029 6:0.072256548 7:0.047697417 8:0.052713238 9:0.086758085 10:0.083271854 
256 1:0.64730456 2:0.17721403 3:0.066192715 4:0.073782064 5:0.035506623 6:0.077174909 7:0.064327181 8:0.078847711 9:0.080924885 10:0.077225641 
256 1:0.61510279 2:0.22213647 3:0.064969185 4:0.065523647 5:0.032267914 6:0.081587047 7:0.037477262 8:0.037233307 9:0.069216923 10:0.055834238 
256 1:0.5703351 2:0.21659147 3:0.09016738 4:0.095542545 5:0.027363506 6:0.082978061 7:0.073988804 8:0.053333758 9:0.064241003 10:0.064676394 
256 1:0.65138667 2:0.1666436 3:0.060860697 4:0.069373168 5:0.051735871 6:0.23026688 7:0.094001767 8:0.07756128 9:0.10434923 10:0.097306188 
256 1:0.67370309 2:0.15918271 3:0.079854355 4:0.054003574 5:0.033256267 6:0.12649663 7:0.069040344 8:0.033528999 9:0.066253042 10:0.13018648 
256 1:0.58505418 2:0.24724449 3:0.085054295 4:0.056118707 5:0.02652833 6:0.03926681 7:0.015694649 8:0.032481419 9:0.063023877 10:0.055679406 
26.881078307234169 1:0.68497243 2:0.11775849 3:0.080290093 4:0.082964493 5:0.034014488 6:0.17056645 7:0.15202807 8:0.2448639 9:0.21083084 10:0.10628872 
256 1:0.36865925 2:0.29254861 3:0.079813482 4:0.1181713 5:0.14080735 6:0.045430073 7:0.014685628 8:0.055684714 9:0.11596261 10:0.14610284 
256 1:0.49936853 2:0.23844792 3:0.077949436 4:0.10849292 5:0.075741194 6:0.092335367 7:0.055842713 8:0.013890418 9:0.040573191 10:0.05049882 
256 1:0.73665874 2:0.18466496 3:0.044854026 4:0.025365939 5:0.0084563429 6:0.017232495 7:0.015687853 8:0.055584002 9:0.0736244 10:0.055318469 
256 1:0.3797797 2:0.25306524 3:0.19335785 4:0.1252299 5:0.048567306 6:0.074211106 7:0.077944665 8:0.066410917 9:0.054564969 10:0.063364233 
256 1:0.49898314 2:0.26355205 3:0.099678694 4:0.086222084 5:0.051564037 6:0.054205206 7:0.034310827 8:0.036843019 9:0.060947397 10:0.062766957 
256 1:0.42344473 2:0.30570263 3:0.10476449 4:0.10656264 5:0.059525517 6:0.093016198 7:0.059577278 8:0.080023483 9:0.1466244 10:0.14622588 
256 1:0.59523463 2:0.25102478 3:0.057613208 4:0.056688223 5:0.039439164 6:0.026837047 7:0.028812346 8:0.065911148 9:0.098858887 10:0.10374947 
256 1:0.68415923 2:0.19063588 3:0.065020006 4:0.046692843 5:0.01349204 6:0.037770355 7:0.018879485 8:0.026908281 9:0.067991692 10:0.048718276 
256 1:0.53055409 2:0.19758957 3:0.1002089 4:0.10859964 5:0.063047798 6:0.026423462 7:0.030550404 8:0.07302889 9:0.095390036 10:0.1148214 
256 1:0.85945896 2:0.091839599 3:0.035614694 4:0.0099647494 5:0.003122003 6:0.31388749 7:0.24250508 8:0.089295284 9:0.099292251 10:0.053374758 
256 1:0.46665477 2:0.24294758 3:0.1326425 4:0.096422228 5:0.061332919 6:0.14203434 7:0.058414926 8:0.076642138 9:0.058135921 10:0.052408886 
256 1:0.77387033 2:0.1676634 3:0.033352102 4:0.01857885 5:0.0065353148 6:0.09777695 7:0.035918211 8:0.010917318 9:0.076185794 10:0.05625566 
256 1:0.51073226 2:0.30602641 3:0.088308519 4:0.059122943 5:0.035809866 6:0.11880575 7:0.061951774 8:0.071336548 9:0.051692736 10:0.051316591 
256 1:0.72415305 2:0.203432 3:0.038377757 4:0.022095308 5:0.011941888 6:0.027681736 7:0.025933774 8:0.03904785 9:0.064704076 10:0.049272496 
256 1:0.66352402 2:0.22866033 3:0.063546735 4:0.029621475 5:0.014647448 6:0.024177155 7:0.029798936 8:0.020313672 9:0.043132614 10:0.047135801 
256 1:0.60086343 2:0.11007245 3:0.040535781 4:0.090867332 5:0.15766102 6:0.065781627 7:0.037929203 8:0.071810101 9:0.12320139 10:0.20023478 
256 1:0.5792375 2:0.21456473 3:0.069215643 4:0.095612853 5:0.04136927 6:0.014613486 7:0.039548475 8:0.045990556 9:0.083081111 10:0.075728472 
256 1:0.42013212 2:0.38071651 3:0.073955563 4:0.07524089 5:0.04995492 6:0.14025707 7:0.05379119 8:0.041694418 9:0.047533072 10:0.047985236 
256 1:0.61477461 2:0.22235405 3:0.076597201 4:0.05362977 5:0.032644368 6:0.074554507 7:0.045844876 8:0.09232601 9:0.084778437 10:0.064190854 
256 1:0.77957832 2:0.10804756 3:0.052206986 4:0.027956049 5:0.032211077 6:0.13237211 7:0.072580323 8:0.1205494 9:0.10103204 10:0.069775399 
256 1:0.4198135 2:0.3209293 3:0.12060622 4:0.10355691 5:0.035094065 6:0.047089755 7:0.03967046 8:0.081341129 9:0.074033817 10:0.12848281 
256 1:0.67975624 2:0.21030741 3:0.057404143 4:0.032662789 5:0.019869417 6:0.065758832 7:0.055145258 8:0.04501714 9:0.04221573 10:0.05457902 
256 1:0.70672245 2:0.14054174 3:0.090269136 4:0.039568087 5:0.022898585 6:0.23168809 7:0.089919817 8:0.089724143 9:0.098636001 10:0.070022279 
256 1:0.54840201 2:0.23902584 3:0.08496473 4:0.076220657 5:0.051386765 6:0.043695091 7:0.030914706 8:0.073993686 9:0.11598013 10:0.12982935 
256 1:0.38202549 2:0.21753573 3:0.17672744 4:0.12417821 5:0.099533134 6:0.05362388 7:0.038176877 8:0.060198491 9:0.075396516 10:0.14927206 
256 1:0.54541282 2:0.18634006 3:0.13267491 4:0.09462934 5:0.040942871 6:0.04000879 7:0.097544351 8:0.054989377 9:0.053519226 10:0.082780334 
256 1:0.37665524 2:0.43728458 3:0.080823517 4:0.065248698 5:0.039987964 6:0.028357169 7:0.023426045 8:0.028755276 9:0.0587747 10:0.052371595 
256 1:0.55758071 2:0.24588084 3:0.091766059 4:0.065522073 5:0.039250328 6:0.03162576 7:0.035023517 8:0.064495606 9:0.057173358 10:0.07156811 
256 1:0.60116075 2:0.20028178 3:0.10255745 4:0.063105833 5:0.032894182 6:0.060378628 7:0.053591093 8:0.053976528 9:0.056191623 10:0.063414931 
256 1:0.4545013 2:0.40725362 3:0.059392285 4:0.049275693 5:0.029577102 6:0.01698576 7:0.03975356 8:0.033176711 9:0.030592526 10:0.084118729 
256 1:0.57049159 2:0.30920976 3:0.058259079 4:0.045495859 5:0.016543713 6:0.027123949 7:0.02276925 8:0.049347829 9:0.04733246 10:0.045857739 
256 1:0.65213775 2:0.1472863 3:0.080988427 4:0.082078486 5:0.037509029 6:0.013524928 7:0.053438417 8:0.048578895 9:0.051459552 10:0.054374874 
256 1:0.6133717 2:0.20441184 3:0.10360005 4:0.054319648 5:0.024296763 6:0.059470002 7:0.029368003 8:0.052312497 9:0.06360733 10:0.058428633 
256 1:0.61114369 2:0.23644708 3:0.058026763 4:0.056548825 5:0.037833641 6:0.0057704213 7:0.054258738 8:0.042966947 9:0.025048763 10:0.045084568 
256 1:0.77476743 2:0.10949284 3:0.03301385 4:0.050744994 5:0.031980893 6:0.041603456 7:0.050393121 8:0.063227594 9:0.073144272 10:0.065122832 
256 1:0.63468016 2:0.16943859 3:0.083726496 4:0.079686795 5:0.032467967 6:0.065942326 7:0.041912077 8:0.046951666 9:0.062725456 10:0.094602101 
256 1:0.53297142 2:0.24959948 3:0.085077405 4:0.089489354 5:0.04286234 6:0.095073254 7:0.048639237 8:0.094604674 9:0.10047905 10:0.11235254 
256 1:0.46737587 2:0.3862851 3:0.078976865 4:0.041414456 5:0.025947705 6:0.067817143 7:0.031343781 8:0.055110913 9:0.049944854 10:0.059230034 
256 1:0.41615612 2:0.24538388 3:0.14030631 4:0.13063021 5:0.067523484 6:0.051681719 7:0.05062138 8:0.069320965 9:0.056175626 10:0.060090298 
256 1:0.61660349 2:0.14161794 3:0.081141302 4:0.10185255 5:0.058784714 6:0.13460504 7:0.018754776 8:0.060510209 9:0.07615419 10:0.086914944 
256 1:0.50709011 2:0.29463366 3:0.091935582 4:0.07110538 5:0.035235261 6:0.031670308 7:0.027436361 8:0.027033976 9:0.053030593 10:0.05540344 
256 1:0.66284227 2:0.22939518 3:0.041985089 4:0.042236783 5:0.023540669 6:0.066158796 7:0.04192831 8:0.057056823 9:0.070530752 10:0.083466532 
256 1:0.49851856 2:0.25163777 3:0.099682592 4:0.089924216 5:0.060236865 6:0.064173468 7:0.033150805 8:0.07823502 9:0.058000013 10:0.054350906 
256 1:0.75573457 2:0.14921142 3:0.04445261 4:0.031920313 5:0.018681085 6:0.049121237 7:0.031638464 8:0.022706167 9:0.052154607 10:0.05326023 
42.890188257668015 1:0.76291636 2:0.14803138 3:0.048261837 4:0.027630407 5:0.013160016 6:0.097988885 7:0.036851411 8:0.066493487 9:0.066140118 10:0.093582043 
256 1:0.73035634 2:0.15111193 3:0.032372873 4:0.055699668 5:0.03045919 6:0.033650192 7:0.036278552 8:0.034507112 9:0.076175867 10:0.076683421 
256 1:0.62304807 2:0.20857114 3:0.073049537 4:0.059436227 5:0.035895029 6:0.064550419 7:0.031539846 8:0.027458536 9:0.063146879 10:0.07191163 
256 1:0.40203961 2:0.17911747 3:0.11013038 4:0.17427639 5:0.13443615 6:0.10055809 7:0.044480318 8:0.061974449 9:0.080973986 10:0.1526952 
256 1:0.64324656 2:0.20116793 3:0.075501063 4:0.055901167 5:0.024183277 6:0.085770681 7:0.045035775 8:0.048641062 9:0.085754404 10:0.090164785 
256 1:0.59485672 2:0.18952711 3:0.10502359 4:0.075558634 5:0.035033946 6:0.1515515 7:0.11886013 8:0.16616006 9:0.13543793 10:0.10166395 
256 1:0.28992465 2:0.51883941 3:0.092204177 4:0.059748004 5:0.039283752 6:0.023380669 7:0.037200271 8:0.06463573 9:0.058185715 10:0.057074268 
256 1:0.65655655 2:0.24629559 3:0.041599312 4:0.037758138 5:0.017790416 6:0.037954869 7:0.013452949 8:0.064318389 9:0.064098439 10:0.059677215 
256 1:0.43926611 2:0.35231385 3:0.14012695 4:0.051161736 5:0.017131358 6:0.076600094 7:0.055984193 8:0.026893699 9:0.04017924 10:0.050436773 
256 1:0.40349825 2:0.27353775 3:0.1154769 4:0.12992632 5:0.077560774 6:0.12768663 7:0.048479599 8:0.061780875 9:0.042728066 10:0.054022278 
211.97993831834557 1:0.78229885 2:0.1116926 3:0.052732105 4:0.034322997 5:0.018953446 6:0.037321516 7:0.030953764 8:0.02495063 9:0.054662322 10:0.040953662 
256 1:0.70943741 2:0.22670172 3:0.032777889 4:0.017317713 5:0.013765266 6:0.086981553 7:0.083538255 8:0.1009188 9:0.084574869 10:0.060193132 
256 1:0.45349878 2:0.28275505 3:0.13868852 4:0.052940961 5:0.072116686 6:0.022841077 7:0.015909005 8:0.10291151 9:0.077926461 10:0.064042047 
256 1:0.85195682 2:0.10509303 3:0.01996583 4:0.015277767 5:0.0077065493 6:0.2558221 7:0.067364057 8:0.04671962 9:0.08612003 10:0.090328803 
256 1:0.72747157 2:0.15007617 3:0.048087531 4:0.046474736 5:0.027889996 6:0.089854048 7:0.035503486 8:0.0708973 9:0.07779272 10:0.06080797 
256 1:0.61681843 2:0.1843174 3:0.084500194 4:0.071495651 5:0.042868327 6:0.10667523 7:0.13494189 8:0.11291826 9:0.1043267 10:0.088415505 
256 1:0.5960175 2:0.23187636 3:0.095690255 4:0.053105431 5:0.023310454 6:0.042821295 7:0.075296336 8:0.083651865 9:0.05848405 10:0.079109879 
256 1:0.61811792 2:0.25383619 3:0.069119053 4:0.044550465 5:0.014376373 6:0.059028049 7:0.061099612 8:0.066038388 9:0.079872993 10:0.053591478 
256 1:0.6162738 2:0.20064863 3:0.058408584 4:0.086907678 5:0.037761312 6:0.011142196 7:0.036740976 8:0.032484693 9:0.069620081 10:0.050435547 
256 1:0.45928213 2:0.25973341 3:0.14809672 4:0.1024961 5:0.030391635 6:0.035160808 7:0.063803119 8:0.065484882 9:0.053291656 10:0.076380503 
65.734252310795426 1:0.74787425 2:0.16979631 3:0.036164382 4:0.026548834 5:0.019616221 6:0.059849113 7:0.023063994 8:0.060352834 9:0.071743423 10:0.041134326 
256 1:0.46225867 2:0.28547269 3:0.11249969 4:0.095325763 5:0.044443185 6:0.058463198 7:0.043711608 8:0.066803913 9:0.051834016 10:0.053868306 
256 1:0.58475129 2:0.18733672 3:0.077068516 4:0.088077918 5:0.062765556 6:0.17965423 7:0.11191599 8:0.07206846 9:0.086020038 10:0.12859162 
256 1:0.73924582 2:0.16690259 3:0.029932811 4:0.038605938 5:0.025312837 6:0.016201246 7:0.019837845 8:0.05229704 9:0.07206658 10:0.070518195 
256 1:0.57092863 2:0.22436115 3:0.093550826 4:0.07348415 5:0.037675236 6:0.12706994 7:0.087793474 8:0.076136846 9:0.064474297 10:0.06231896 
256 1:0.69186188 2:0.17936912 3:0.055271909 4:0.051352599 5:0.022144492 6:0.01952254 7:0.056894658 8:0.039570612 9:0.079556809 10:0.058581809 
256 1:0.60798294 2:0.15580274 3:0.097929884 4:0.09222655 5:0.046057892 6:0.075157638 7:0.08249729 8:0.064738285 9:0.064287308 10:0.063178908 
256 1:0.53110267 2:0.16130432 3:0.13465449 4:0.11311144 5:0.059827075 6:0.011257491 7:0.021725564 8:0.073923356 9:0.067252945 10:0.078906289 
256 1:0.35548921 2:0.25134813 3:0.12714415 4:0.18088821 5:0.0851303 6:0.14940235 7:0.1701697 8:0.1930926 9:0.15715703 10:0.096146038 
256 1:0.58424666 2:0.12774116 3:0.071026433 4:0.10298702 5:0.11399872 6:0.029855038 7:0.055568323 8:0.082622652 9:0.10561295 10:0.17118351 
256 1:0.60405561 2:0.24324067 3:0.056317954 4:0.061993306 5:0.034392456 6:0.021772657 7:0.014077121 8:0.043883661 9:0.063519975 10:0.052277253 
256 1:0.88534832 2:0.084059708 3:0.01501715 4:0.010571938 5:0.0050028879 6:0.30905598 7:0.106285 8:0.043741128 9:0.047757886 10:0.051737428 
118.45590389756035 1:0.76919967 2:0.14512181 3:0.050696195 4:0.027635093 5:0.0073472302 6:0.28348988 7:0.19191893 8:0.13788747 9:0.15471854 10:0.065494294 
256 1:0.5689875 2:0.16939311 3:0.095027797 4:0.11485126 5:0.051740331 6:0.11375104 7:0.090132387 8:0.060612681 9:0.061970096 10:0.083492205 
256 1:0.59420282 2:0.26216158 3:0.06571593 4:0.048314508 5:0.029605159 6:0.017556191 7:0.024137508 8:0.035929621 9:0.04612346 10:0.061990139 
256 1:0.55653924 2:0.24190333 3:0.085988581 4:0.080355372 5:0.035213479 6:0.040488839 7:0.036892033 8:0.058235626 9:0.056533692 10:0.048469272 
256 1:0.70566472 2:0.14802203 3:0.075746916 4:0.045064809 5:0.02550153 6:0.14079124 7:0.072740073 8:0.031966227 9:0.061918294 10:0.094614688 
256 1:0.71063936 2:0.18375393 3:0.0592529 4:0.032324522 5:0.014029289 6:0.10705907 7:0.04587103 8:0.034144416 9:0.06093155 10:0.06491177 
256 1:0.71416095 2:0.091700532 3:0.074831089 4:0.0631545 5:0.056152927 6:0.18301991 7:0.094369901 8:0.085262615 9:0.086480113 10:0.12432303 
256 1:0.25343429 2:0.39821758 3:0.13649346 4:0.15877119 5:0.05308349 6:0.060073863 7:0.050949813 8:0.054225948 9:0.038473906 10:0.05406274 
256 1:0.51038109 2:0.28565848 3:0.1048241 4:0.069596848 5:0.029539483 6:0.029241967 7:0.051890661 8:0.061184521 9:0.042389297 10:0.069614524 
256 1:0.58795515 2:0.23965245 3:0.080349159 4:0.06336144 5:0.028681804 6:0.10265232 7:0.067014385 8:0.065771979 9:0.063607057 10:0.059561923 
256 1:0.56236091 2:0.28720881 3:0.073706104 4:0.050283289 5:0.026440885 6:0.066429106 7:0.035771122 8:0.068182773 9:0.08317954 10:0.087462249 
256 1:0.63756874 2:0.16351587 3:0.10312171 4:0.062016332 5:0.033777349 6:0.036770504 7:0.027739586 8:0.079684405 9:0.13479588 10:0.12092858 
256 1:0.27742547 2:0.25836764 3:0.21583355 4:0.1843832 5:0.063990145 6:0.11190231 7:0.069988709 8:0.07342123 9:0.10592166 10:0.086988342 
256 1:0.55822904 2:0.21334343 3:0.088750789 4:0.075532814 5:0.064143931 6:0.076595768 7:0.076999374 8:0.093759114 9:0.090082703 10:0.070237995 
256 1:0.72077472 2:0.21173404 3:0.035196271 4:0.02269803 5:0.0095969474 6:0.064021593 7:0.064825783 8:0.057754182 9:0.099547915 10:0.096637538 
256 1:0.51653228 2:0.28230246 3:0.11582148 4:0.061963722 5:0.023380052 6:0.046042151 7:0.034404634 8:0.059679444 9:0.060834583 10:0.057734851 
256 1:0.91283005 2:0.074988598 3:0.0044616203 4:0.0054053012 5:0.0023144276 6:0.32027466 7:0.27896792 8:0.053068588 9:0.028774569 10:0.049958605 
256 1:0.56167734 2:0.17461187 3:0.10096693 4:0.10212342 5:0.060620446 6:0.052417803 7:0.027091196 8:0.096295108 9:0.060489719 10:0.052321942 
256 1:0.58589146 2:0.21726719 3:0.099584771 4:0.068300754 5:0.02895583 6:0.10127854 7:0.045179747 8:0.031153144 9:0.054342157 10:0.072548828 
256 1:0.61644356 2:0.16503024 3:0.11169327 4:0.069714115 5:0.037118813 6:0.037543178 7:0.029798152 8:0.067675958 9:0.11726156 10:0.10731779 
256 1:0.56075716 2:0.30530889 3:0.078527942 4:0.038429671 5:0.01697634 6:0.037513262 7:0.037325252 8:0.067145164 9:0.048762602 10:0.060037724 
256 1:0.71914652 2:0.12814879 3:0.067507298 4:0.050955768 5:0.03424162 6:0.2931344 7:0.072815614 8:0.090887427 9:0.043349824 10:0.049250824 
256 1:0.33656452 2:0.14825652 3:0.17190299 4:0.23046779 5:0.11280818 6:0.090544967 7:0.070515138 8:0.0932895 9:0.11976725 10:0.091454336 
256 1:0.70907619 2:0.16873446 3:0.031309853 4:0.058542135 5:0.032337367 6:0.057649775 7:0.031596401 8:0.058133185 9:0.10214583 10:0.096511455 
256 1:0.75723064 2:0.18237288 3:0.039531804 4:0.015458544 5:0.0054061315 6:0.025040023 7:0.01400456 8:0.051048026 9:0.053119445 10:0.054968922 
256 1:0.76071889 2:0.11993472 3:0.037753432 4:0.050865971 5:0.030726987 6:0.21585242 7:0.088345255 8:0.06389014 9:0.071833201 10:0.084946404 
256 1:0.63436383 2:0.25345523 3:0.061249507 4:0.03815435 5:0.012777084 6:0.026497484 7:0.016291425 8:0.066513638 9:0.072029163 10:0.04766788 
256 1:0.70169216 2:0.20029876 3:0.052528989 4:0.032115162 5:0.013364925 6:0.081289236 7:0.085518704 8:0.058094874 9:0.054265875 10:0.11601273 
256 1:0.54128363 2:0.23005413 3:0.11592326 4:0.075923623 5:0.036815353 6:0.10009661 7:0.052955131 8:0.096497432 9:0.093280112 10:0.060077164 
256 1:0.56575058 2:0.272203 3:0.047399503 4:0.062306903 5:0.052340018 6:0.036678685 7:0.016662584 8:0.07673758 9:0.12147759 10:0.13744669 
256 1:0.50714433 2:0.12711264 3:0.087380248 4:0.17445179 5:0.10391099 6:0.15807121 7:0.069475061 8:0.091201414 9:0.11399937 10:0.090083428 
256 1:0.62659974 2:0.1774984 3:0.076028531 4:0.074743827 5:0.045129507 6:0.12470602 7:0.037826916 8:0.051546033 9:0.054254831 10:0.098025381 
256 1:0.57055796 2:0.097149207 3:0.032165221 4:0.098356387 5:0.20177122 6:0.022028641 7:0.03309301 8:0.069979672 9:0.1162279 10:0.12467653 
256 1:0.46095677 2:0.20938866 3:0.14267835 4:0.1173681 5:0.069608119 6:0.066060916 7:0.03163314 8:0.062848778 9:0.10021746 10:0.10227077 
256 1:0.57677276 2:0.29957768 3:0.077540182 4:0.031961236 5:0.014148141 6:0.02558026 7:0.057560465 8:0.087545156 9:0.080377412 10:0.12388558 
256 1:0.69329862 2:0.17706397 3:0.066383923 4:0.041628213 5:0.02162528 6:0.01984918 7:0.066901967 8:0.046373867 9:0.11100183 10:0.10729278 
256 1:0.65366442 2:0.28796952 3:0.034626732 4:0.016531268 5:0.0072080585 6:0.019262224 7:0.01841112 8:0.04040085 9:0.067371354 10:0.073113409 
256 1:0.43014201 2:0.19633977 3:0.10607579 4:0.15146122 5:0.11598122 6:0.086877726 7:0.047178641 8:0.075857443 9:0.076654307 10:0.078318517 
256 1:0.47362904 2:0.26155719 3:0.13412169 4:0.089779874 5:0.040912206 6:0.070829662 7:0.016083301 8:0.072885029 9:0.087029386 10:0.096214445 
256 1:0.7542815 2:0.16246039 3:0.041485762 4:0.026492399 5:0.015279951 6:0.037051653 7:0.03485354 8:0.060159741 9:0.081641924 10:0.078186974 
256 1:0.61387148 2:0.2276148 3:0.076852134 4:0.054627615 5:0.027033978 6:0.014169055 7:0.013379994 8:0.048890295 9:0.055660273 10:0.050164064 
256 1:0.65101689 2:0.26142605 3:0.057120788 4:0.020600269 5:0.009836006 6:0.025878517 7:0.037548372 8:0.039446748 9:0.054022435 10:0.051673474 
256 1:0.71463856 2:0.1357752 3:0.070181779 4:0.048038299 5:0.031366157 6:0.051528633 7:0.040409982 8:0.070602278 9:0.048414918 10:0.06951167 
256 1:0.64592201 2:0.19205244 3:0.082658811 4:0.054016332 5:0.025350409 6:0.0186741 7:0.022956574 8:0.051042766 9:0.088762229 10:0.068514381 
256 1:0.42827947 2:0.19032246 3:0.13199722 4:0.14360373 5:0.10579712 6:0.095317063 7:0.077819169 8:0.064688757 9:0.081570193 10:0.14639862 
256 1:0.40737551 2:0.23624315 3:0.15714262 4:0.13704301 5:0.062195706 6:0.030828916 7:0.047478492 8:0.078504764 9:0.073690344 10:0.031312474 
107.84921548097778 1:0.38474237 2:0.33372601 3:0.10076382 4:0.10759035 5:0.073177448 6:0.27312088 7:0.13205726 8:0.072340957 9:0.056925937 10:0.12621599 
256 1:0.30871947 2:0.14252204 3:0.16651313 4:0.24048471 5:0.14176065 6:0.054133523 7:0.078074138 8:0.10543675 9:0.1601754 10:0.18507527 
256 1:0.67101635 2:0.22964326 3:0.03126779 4:0.036411545 5:0.031661055 6:0.021220585 7:0.047476993 8:0.039614186 9:0.063639176 10:0.16495542 
256 1:0.41482197 2:0.20348978 3:0.19464935 4:0.12021781 5:0.066821095 6:0.04597237 7:0.027014515 8:0.068318109 9:0.054595482 10:0.067163818 
256 1:0.64707257 2:0.17947107 3:0.066164275 4:0.063730949 5:0.043561137 6:0.032813575 7:0.047599178 8:0.078464338 9:0.094138209 10:0.10636718 
256 1:0.4257664 2:0.24764357 3:0.096608595 4:0.1465791 5:0.08340234 6:0.081221327 7:0.039618451 8:0.056296431 9:0.05425893 10:0.066278579 
256 1:0.80170482 2:0.13256859 3:0.031284934 4:0.021286832 5:0.013154818 6:0.026029458 7:0.042657692 8:0.049723593 9:0.046745782 10:0.053725508 
256 1:0.49262219 2:0.34981475 3:0.078727146 4:0.047946105 5:0.030889811 6:0.034322803 7:0.020616377 8:0.055771888 9:0.061124234 10:0.042958251 
256 1:0.73629841 2:0.14935925 3:0.054670023 4:0.041025422 5:0.018646903 6:0.047056033 7:0.043038355 8:0.029231033 9:0.044722864 10:0.048993365 
256 1:0.51905566 2:0.25551072 3:0.1107976 4:0.073793465 5:0.040842556 6:0.049885236 7:0.033425462 8:0.0670484 9:0.055821262 10:0.064208256 
256 1:0.88750832 2:0.067629488 3:0.025871541 4:0.013959215 5:0.0050314368 6:0.27610383 7:0.092484125 8:0.056191368 9:0.076004515 10:0.066805286 
256 1:0.72470905 2:0.15914978 3:0.035082965 4:0.050932063 5:0.030126139 6:0.15498611 7:0.069999111 8:0.075130553 9:0.14757686 10:0.075907017 
256 1:0.88880005 2:0.075963333 3:0.017652376 4:0.011713272 5:0.005870975 6:0.32800173 7:0.11410044 8:0.04264277 9:0.033461548 10:0.048034383 
256 1:0.41066242 2:0.29003148 3:0.15945726 4:0.093700364 5:0.046148474 6:0.017585974 7:0.056152732 8:0.053862009 9:0.041832183 10:0.045401702 
256 1:0.54202228 2:0.26309412 3:0.056328823 4:0.078252725 5:0.060302049 6:0.12919187 7:0.04528553 8:0.094124362 9:0.071708703 10:0.094880446 
256 1:0.78777181 2:0.16042978 3:0.033048446 4:0.011811272 5:0.0069386941 6:0.016927373 7:0.024235008 8:0.0322353 9:0.042327696 10:0.039097219 
256 1:0.6332401 2:0.17214491 3:0.089871427 4:0.063735122 5:0.041008441 6:0.092532354 7:0.042861436 8:0.045060042 9:0.087635394 10:0.087819249 
256 1:0.63774751 2:0.25614772 3:0.048309364 4:0.042432105 5:0.015363303 6:0.051362289 7:0.050183221 8:0.06158926 9:0.081177278 10:0.069768297 
256 1:0.48062571 2:0.21606814 3:0.089543102 4:0.13898003 5:0.074783012 6:0.050540012 7:0.039467659 8:0.065317841 9:0.088008182 10:0.083299395 
256 1:0.83467645 2:0.10201662 3:0.042516494 4:0.015625772 5:0.0051646637 6:0.30558605 7:0.20843622 8:0.10910745 9:0.080037807 10:0.07163079 
256 1:0.76568983 2:0.14934964 3:0.043724347 4:0.027193476 5:0.014042714 6:0.11545689 7:0.023524164 8:0.071056604 9:0.081297569 10:0.11190791 
256 1:0.61606876 2:0.14326548 3:0.098948913 4:0.089168588 5:0.052548257 6:0.038354174 7:0.053274239 8:0.038799786 9:0.03532187 10:0.026215852 
256 1:0.70860867 2:0.16641581 3:0.065249363 4:0.044985276 5:0.014740884 6:0.048053316 7:0.056891591 8:0.056925322 9:0.052514665 10:0.083380949 
256 1:0.73013464 2:0.17047458 3:0.051638035 4:0.03471433 5:0.013038421 6:0.021828358 7:0.040778387 8:0.083376651 9:0.089786936 10:0.099506103 
256 1:0.49713662 2:0.20632715 3:0.12622107 4:0.10493074 5:0.065384414 6:0.11695928 7:0.066753186 8:0.045980774 9:0.032628286 10:0.059109023 
256 1:0.41680748 2:0.292562 3:0.15217335 4:0.095151051 5:0.043306118 6:0.078726615 7:0.062353713 8:0.057751278 9:0.068947099 10:0.083129543 
256 1:0.45874968 2:0.21723019 3:0.16678151 4:0.10207969 5:0.055158933 6:0.087815007 7:0.054498475 8:0.056934521 9:0.056158218 10:0.075629329 
256 1:0.53730723 2:0.21092495 3:0.11422019 4:0.091908956 5:0.045638677 6:0.062205878 7:0.05654777 8:0.07162139 9:0.10435377 10:0.1337484 
256 1:0.36376183 2:0.30523047 3:0.18293533 4:0.096324162 5:0.051748203 6:0.060684442 7:0.072417905 8:0.044611436 9:0.067575683 10:0.049914879 
256 1:0.83532929 2:0.13174222 3:0.017249194 4:0.011198374 5:0.0044809216 6:0.20996306 7:0.032081455 8:0.039492403 9:0.072100799 10:0.067031717 
256 1:0.78186401 2:0.15072639 3:0.030659244 4:0.026905937 5:0.0098444161 6:0.044466653 7:0.019368708 8:0.062571804 9:0.090216101 10:0.079824534 
256 1:0.54573752 2:0.23228273 3:0.093259113 4:0.086531715 5:0.042188921 6:0.11059551 7:0.033037841 8:0.036687113 9:0.0421999 10:0.067077932 
256 1:0.66685922 2:0.17719643 3:0.065974945 4:0.058355427 5:0.031613974 6:0.03121404 7:0.021196251 8:0.067639802 9:0.10489322 10:0.11840582 
256 1:0.54915534 2:0.30564028 3:0.08873096 4:0.037010608 5:0.019462807 6:0.022923559 7:0.05077926 8:0.070255458 9:0.076565748 10:0.11085255 
256 1:0.66276369 2:0.16540051 3:0.083862078 4:0.06217198 5:0.025801736 6:0.024473489 7:0.081319583 8:0.064823283 9:0.062919827 10:0.057992522 
256 1:0.79513531 2:0.14268486 3:0.026853692 4:0.022900924 5:0.012425212 6:0.17967475 7:0.18236571 8:0.17277078 9:0.11247908 10:0.10661582 
256 1:0.90802937 2:0.077793945 3:0.005290008 4:0.0062111325 5:0.0026755475 6:0.31313681 7:0.2597707 8:0.049735241 9:0.018903091 10:0.052925243 
256 1:0.73811978 2:0.16942172 3:0.040455414 4:0.033362175 5:0.01864092 6:0.076881179 7:0.039922082 8:0.060201001 9:0.068183591 10:0.13498265 
256 1:0.58847222 2:0.24266823 3:0.072223276 4:0.064170731 5:0.032465544 6:0.036125584 7:0.0407511 8:0.071177856 9:0.065716973 10:0.078668928 
256 1:0.70810545 2:0.15809835 3:0.06050565 4:0.048658211 5:0.024632332 6:0.086628877 7:0.0941625 8:0.10897512 9:0.12842481 10:0.081800712 
256 1:0.24378278 2:0.085579904 3:0.060844689 4:0.17186067 5:0.43793196 6:0.045235517 7:0.071491209 8:0.10731198 9:0.12197671 10:0.12339647 
256 1:0.72227887 2:0.19142292 3:0.038697828 4:0.029719799 5:0.017880592 6:0.037845177 7:0.030308097 8:0.057577795 9:0.091609015 10:0.0923227 
256 1:0.77354455 2:0.16222225 3:0.033957123 4:0.022666716 5:0.0076093556 6:0.037636506 7:0.068430886 8:0.05961769 9:0.095544227 10:0.10367811 
256 1:0.56381882 2:0.22599137 3:0.10326269 4:0.06829934 5:0.038627779 6:0.032979464 7:0.039610847 8:0.068336813 9:0.065033583 10:0.067051946 
256 1:0.54257483 2:0.23670754 3:0.089255369 4:0.084715805 5:0.046746463 6:0.1394359 7:0.040765989 8:0.062516111 9:0.070798656 10:0.06798584 
256 1:0.66711947 2:0.16319645 3:0.072323092 4:0.05116458 5:0.04619641 6:0.034673493 7:0.031317981 8:0.088328956 9:0.084836837 10:0.062956133 
256 1:0.45259214 2:0.2041184 3:0.12338667 4:0.12965325 5:0.090249532 6:0.099853414 7:0.12707834 8:0.088095717 9:0.074445968 10:0.11720179 
256 1:0.53243089 2:0.16598739 3:0.140326 4:0.10806507 5:0.053190655 6:0.085551017 7:0.066040465 8:0.072189952 9:0.07980509 10:0.076286076 
256 1:0.56662505 2:0.28114471 3:0.070011506 4:0.052436093 5:0.02978264 6:0.054703161 7:0.030325061 8:0.042609023 9:0.058985654 10:0.061467308 
256 1:0.5330646 2:0.25750687 3:0.11518626 4:0.063203483 5:0.031038782 6:0.089956727 7:0.038544717 8:0.055501452 9:0.057757391 10:0.081730442 
256 1:0.56786404 2:0.21070898 3:0.056818777 4:0.095551298 5:0.0690569 6:0.11847439 7:0.034661685 8:0.056511394 9:0.05544419 10:0.11111423 
256 1:0.559828 2:0.32328979 3:0.05417961 4:0.040243071 5:0.022459529 6:0.027538932 7:0.02195716 8:0.032556443 9:0.055154179 10:0.044420914 
256 1:0.83266434 2:0.069356666 3:0.055337172 4:0.024764336 5:0.017877486 6:0.18374003 7:0.037239458 8:0.044796004 9:0.07719009 10:0.067172355 
256 1:0.51396316 2:0.15080063 3:0.077651777 4:0.16080431 5:0.096780119 6:0.1380735 7:0.068145499 8:0.043628818 9:0.10259823 10:0.121766 
256 1:0.30569084 2:0.29382233 3:0.16693489 4:0.1590922 5:0.074459733 6:0.036679029 7:0.063052908 8:0.056060194 9:0.048329757 10:0.053967257 
32.89352759055992 1:0.85320033 2:0.099941814 3:0.021453696 4:0.018825043 5:0.006579115 6:0.27693295 7:0.22575552 8:0.23970749 9:0.08232408 10:0.076001191 
256 1:0.32236033 2:0.28490656 3:0.18021173 4:0.15160457 5:0.060916815 6:0.087496263 7:0.032190419 8:0.067264048 9:0.075536957 10:0.058844892 
256 1:0.96768549 2:0.025121873 3:0.0035113207 4:0.0025085243 5:0.0011727931 6:0.32889234 7:0.19763808 8:0.10789645 9:0.054827497 10:0.051866191 
256 1:0.85580667 2:0.11298115 3:0.022083973 4:0.0073565185 5:0.0017716863 6:0.28571151 7:0.22825974 8:0.22298223 9:0.15127669 10:0.086425003 
256 1:0.35081462 2:0.2679864 3:0.18643137 4:0.13658119 5:0.058186423 6:0.14695915 7:0.092521465 8:0.088590754 9:0.076239331 10:0.067311398 
256 1:0.56791264 2:0.17168638 3:0.13092371 4:0.08403154 5:0.045445727 6:0.097064937 7:0.043919576 8:0.034977968 9:0.073728245 10:0.06551769 
256 1:0.61735753 2:0.18077957 3:0.075172466 4:0.080093292 5:0.046597139 6:0.019354999 7:0.027423771 8:0.026184188 9:0.048943605 10:0.057784056 
256 1:0.84483673 2:0.10268577 3:0.024031152 4:0.018990447 5:0.0094558983 6:0.32978318 7:0.045380834 8:0.037077999 9:0.049417181 10:0.048560177 
256 1:0.56514754 2:0.23672129 3:0.082566479 4:0.080834064 5:0.034730628 6:0.023157334 7:0.057159672 8:0.090419098 9:0.053954456 10:0.071182922 
256 1:0.61845747 2:0.22124807 3:0.065445733 4:0.060342484 5:0.034506252 6:0.034836316 7:0.050305945 8:0.067929135 9:0.075283047 10:0.070889244 
256 1:0.68434537 2:0.16577443 3:0.076028475 4:0.050718607 5:0.023133118 6:0.020839228 7:0.024039196 8:0.041283439 9:0.040167152 10:0.047123196 
256 1:0.45070281 2:0.29417754 3:0.1323779 4:0.088925391 5:0.033816364 6:0.048177185 7:0.076545388 8:0.099109825 9:0.071477426 10:0.09013021 
256 1:0.56375418 2:0.24929549 3:0.10089523 4:0.05529694 5:0.030758162 6:0.022372735 7:0.021768403 8:0.025714941 9:0.053409201 10:0.063551206 
256 1:0.70697272 2:0.17887768 3:0.048750785 4:0.040528406 5:0.024870406 6:0.054467333 7:0.034763666 8:0.039365738 9:0.047788722 10:0.055131496 
256 1:0.71327608 2:0.18262621 3:0.057872982 4:0.032435506 5:0.013789222 6:0.012462324 7:0.025998654 8:0.064128909 9:0.062671939 10:0.056871224 
256 1:0.28844246 2:0.25910312 3:0.1624408 4:0.18790065 5:0.10211296 6:0.062561436 7:0.054319516 8:0.088274047 9:0.056129599 10:0.056937082 
256 1:0.68815075 2:0.19661623 3:0.059247769 4:0.033881873 5:0.02210337 6:0.0083130822 7:0.056146104 8:0.059197459 9:0.043527351 10:0.058785875 
256 1:0.71459686 2:0.15807522 3:0.05618927 4:0.051013696 5:0.020124952 6:0.053574412 7:0.054741433 8:0.087954195 9:0.11859123 10:0.11217173 
256 1:0.66617069 2:0.24331108 3:0.04073665 4:0.031178776 5:0.018602804 6:0.054867928 7:0.024526231 8:0.031837119 9:0.088683549 10:0.082815585 
256 1:0.34268258 2:0.22521309 3:0.18899845 4:0.17369167 5:0.069414213 6:0.10728671 7:0.054750752 8:0.073091699 9:0.094088334 10:0.077638108 
256 1:0.46218897 2:0.32606385 3:0.11701047 4:0.063454942 5:0.031281777 6:0.042652306 7:0.005729531 8:0.044171388 9:0.045961178 10:0.060311412 
256 1:0.53288991 2:0.14045749 3:0.064596992 4:0.15356336 5:0.10849225 6:0.067691247 7:0.054563134 8:0.070683107 9:0.13272906 10:0.11380247 
256 1:0.42725199 2:0.27468021 3:0.095526231 4:0.12962521 5:0.072916355 6:0.053804589 7:0.023220231 8:0.054779545 9:0.039580444 10:0.050691589 
256 1:0.26915094 2:0.44986456 3:0.13660271 4:0.089832909 5:0.054548881 6:0.051109497 7:0.070048172 8:0.070419418 9:0.049505432 10:0.041092812 
256 1:0.6500223 2:0.18888813 3:0.061647487 4:0.064878986 5:0.034563096 6:0.028383833 7:0.027031472 8:0.060863294 9:0.057764419 10:0.059634027 
256 1:0.39267774 2:0.28257762 3:0.14520943 4:0.1255815 5:0.053953715 6:0.055426675 7:0.036964256 8:0.079943004 9:0.060620213 10:0.12150483 
256 1:0.44469188 2:0.25372556 3:0.17875454 4:0.086808339 5:0.036019683 6:0.058053687 7:0.049587926 8:0.054305307 9:0.073435574 10:0.077407848 
256 1:0.61964418 2:0.25843106 3:0.043787676 4:0.051127526 5:0.02700956 6:0.026746489 7:0.01465571 8:0.053434941 9:0.071165298 10:0.058695055 
256 1:0.38521484 2:0.26999428 3:0.12601353 4:0.15641035 5:0.062366994 6:0.066820973 7:0.040454442 8:0.085366183 9:0.057770664 10:0.043045211 
256 1:0.36958616 2:0.37028177 3:0.11911916 4:0.099481558 5:0.041531356 6:0.03374212 7:0.032500221 8:0.024150032 9:0.042759366 10:0.05259595 
256 1:0.87895998 2:0.056771119 3:0.028485872 4:0.021425423 5:0.014357603 6:0.16928709 7:0.024128207 8:0.04128477 9:0.081270807 10:0.080270948 
256 1:0.621458 2:0.15103024 3:0.074334789 4:0.10387957 5:0.049297403 6:0.0073922939 7:0.015364123 8:0.072759914 9:0.094836548 10:0.12536515 
256 1:0.57244375 2:0.21226565 3:0.081522794 4:0.090258983 5:0.043508826 6:0.0636049 7:0.029371349 8:0.030709895 9:0.058568268 10:0.043220974 
256 1:0.51413243 2:0.28987167 3:0.10535416 4:0.060262707 5:0.030379032 6:0.078671554 7:0.051483079 8:0.076137349 9:0.069978207 10:0.067747886 
256 1:0.78307013 2:0.1644589 3:0.024727235 4:0.018971046 5:0.008772683 6:0.14044027 7:0.014653896 8:0.022018266 9:0.064002611 10:0.072770679 
256 1:0.32501869 2:0.301652 3:0.14727986 4:0.14721498 5:0.078834472 6:0.085808841 7:0.072722823 8:0.071239166 9:0.097440288 10:0.10525392 
256 1:0.53135425 2:0.20448841 3:0.10343013 4:0.12088833 5:0.039838882 6:0.039769815 7:0.031038064 8:0.036228496 9:0.056660288 10:0.051235598 
256 1:0.29532123 2:0.13663751 3:0.079874896 4:0.30824681 5:0.17991955 6:0.045588707 7:0.034937774 8:0.086885576 9:0.13387894 10:0.10607445 
256 1:0.57016602 2:0.22464054 3:0.10916396 4:0.068699111 5:0.027330368 6:0.045765566 7:0.019362531 8:0.061690757 9:0.060623788 10:0.086835835 
256 1:0.63553192 2:0.25722985 3:0.062171777 4:0.028756138 5:0.016310319 6:0.034504809 7:0.031183756 8:0.064622271 9:0.063220045 10:0.10699624 
256 1:0.67022905 2:0.20490139 3:0.063885367 4:0.040002986 5:0.020981204 6:0.016160764 7:0.019799304 8:0.038198069 9:0.054964358 10:0.044318671 
256 1:0.81367563 2:0.11006411 3:0.024067915 4:0.027764587 5:0.024427763 6:0.22676806 7:0.054355683 8:0.058707441 9:0.058725299 10:0.14144661 
256 1:0.50640191 2:0.24935036 3:0.11154814 4:0.088171786 5:0.044527815 6:0.031829467 7:0.028742473 8:0.029456659 9:0.067079098 10:0.061125126 
256 1:0.28282159 2:0.3493389 3:0.17718519 4:0.11958811 5:0.071066211 6:0.032215886 7:0.047291201 8:0.060847838 9:0.054364935 10:0.05731433 
256 1:0.63995824 2:0.22410058 3:0.06311194 4:0.05071354 5:0.022115695 6:0.068693411 7:0.040309122 8:0.041032806 9:0.065400926 10:0.056740213 
256 1:0.62162074 2:0.18930902 3:0.07435445 4:0.080640669 5:0.034075119 6:0.086379974 7:0.066264373 8:0.033875572 9:0.054498363 10:0.063232019 
256 1:0.77551689 2:0.12768894 3:0.050124101 4:0.029074087 5:0.017595984 6:0.16302563 7:0.070509036 8:0.064893643 9:0.088986154 10:0.11902371 
256 1:0.30863676 2:0.15689389 3:0.085666407 4:0.28204078 5:0.16676216 6:0.076057589 7:0.076252005 8:0.063534683 9:0.14825529 10:0.12878931 
256 1:0.83699156 2:0.14288656 3:0.01133942 4:0.0065019669 5:0.0022804875 6:0.3334378 7:0.3165833 8:0.11733402 9:0.068640688 10:0.041629815 
256 1:0.40517783 2:0.38784318 3:0.1015427 4:0.08674298 5:0.018693314 6:0.015377036 7:0.026989399 8:0.031695279 9:0.040912264 10:0.047431101 
256 1:0.73422411 2:0.16707798 3:0.05537172 4:0.032226777 5:0.011099413 6:0.03968891 7:0.027840745 8:0.060039115 9:0.11918585 10:0.085465289 
204.36625029084317 1:0.68875322 2:0.13934961 3:0.010727063 4:0.010072676 5:0.15109743 6:0.24304937 7:0.24220204 8:0.2324798 9:0.21245963 10:0.22693043 
256 1:0.32892831 2:0.31846003 3:0.15278316 4:0.13297797 5:0.066850529 6:0.046751067 7:0.025076474 8:0.039477879 9:0.052547903 10:0.063936435 
256 1:0.61868641 2:0.23163557 3:0.070476463 4:0.04895795 5:0.030243613 6:0.0044218888 7:0.0102463 8:0.047668532 9:0.06731197 10:0.077858196 
256 1:0.62995055 2:0.22760134 3:0.071474705 4:0.049685762 5:0.021287636 6:0.026464222 7:0.061530856 8:0.066193109 9:0.070328376 10:0.042821309 
256 1:0.71749245 2:0.20175472 3:0.039199578 4:0.024924039 5:0.016629215 6:0.0080833879 7:0.039084313 8:0.043938925 9:0.0726914 10:0.047283356 
256 1:0.79555587 2:0.12167012 3:0.031467842 4:0.0331448 5:0.018161361 6:0.01879354 7:0.034814321 8:0.050103387 9:0.14011054 10:0.15091414 
190.49907447901944 1:0.81978727 2:0.11803303 3:0.040393401 4:0.015481707 5:0.0063045969 6:0.089705748 7:0.14207108 8:0.13151684 9:0.13755573 10:0.09410951 
256 1:0.5641083 2:0.2456482 3:0.08799641 4:0.071594228 5:0.030652858 6:0.025739689 7:0.038011124 8:0.07866149 9:0.057062895 10:0.066724051 
256 1:0.97088425 2:0.025415102 3:0.0020859164 4:0.0012087666 5:0.00040596715 6:0.34570654 7:0.33726233 8:0.17289821 9:0.20123567 10:0.099744331 
71.009406499757944 1:0.56242431 2:0.16406143 3:0.13136377 4:0.092319269 5:0.049831221 6:0.17109511 7:0.049105017 8:0.040604004 9:0.069707674 10:0.066252197 
256 1:0.71960327 2:0.19562591 3:0.042289391 4:0.0284376 5:0.014043823 6:0.019976698 7:0.029246054 8:0.032267861 9:0.051110485 10:0.047258784 
256 1:0.65820256 2:0.14322223 3:0.095594874 4:0.06620104 5:0.036779294 6:0.1899254 7:0.027214928 8:0.05105497 9:0.06758995 10:0.088515474 
256 1:0.72448184 2:0.19714243 3:0.048540223 4:0.022554791 5:0.0072807165 6:0.010488846 7:0.014156614 8:0.030506924 9:0.047530363 10:0.052236574 
256 1:0.39128839 2:0.33433564 3:0.10728811 4:0.10959816 5:0.057489702 6:0.074342037 7:0.013770474 8:0.056732708 9:0.09436737 10:0.064527033 
256 1:0.60134658 2:0.23995386 3:0.083101686 4:0.052565592 5:0.023032281 6:0.061832691 7:0.030902721 8:0.062637178 9:0.070823404 10:0.064776122 
46.670691482668218 1:0.82960227 2:0.13318865 3:0.011543733 4:0.015755831 5:0.0099095142 6:0.33466627 7:0.31686844 8:0.18735452 9:0.10032192 10:0.088948735 
256 1:0.68706076 2:0.19432978 3:0.054443504 4:0.042830958 5:0.021335006 6:0.032127809 7:0.027259122 8:0.065136156 9:0.078464496 10:0.063811477 
256 1:0.63068951 2:0.22431353 3:0.056083431 4:0.060017622 5:0.028895908 6:0.23857172 7:0.060067884 8:0.0393295 9:0.054879679 10:0.076649208 
256 1:0.31202239 2:0.27407029 3:0.19471687 4:0.14307882 5:0.076111626 6:0.052044063 7:0.040236317 8:0.059615955 9:0.049269849 10:0.045516029 
256 1:0.37725972 2:0.2263787 3:0.198292 4:0.13104003 5:0.067029544 6:0.041328315 7:0.031987038 8:0.057105306 9:0.063513786 10:0.064797639 
256 1:0.58509445 2:0.26331872 3:0.080333612 4:0.049397781 5:0.021855442 6:0.022782983 7:0.046997462 8:0.068097206 9:0.058852781 10:0.059301995 
256 1:0.28816044 2:0.18011966 3:0.073540392 4:0.28427762 5:0.17390189 6:0.099412567 7:0.040550195 8:0.08479769 9:0.12493846 10:0.084628426 
183.36806200723422 1:0.20830991 2:0.53252838 3:0.060391614 4:0.11944818 5:0.079321909 6:0.045711649 7:0.021525002 8:0.04093389 9:0.052939166 10:0.050433522 
256 1:0.43410115 2:0.23279838 3:0.15510784 4:0.1196702 5:0.058322439 6:0.072121957 7:0.059502392 8:0.094790106 9:0.061648463 10:0.10956003 
256 1:0.6868842 2:0.18519545 3:0.057175917 4:0.049311277 5:0.021433153 6:0.066951 7:0.046923904 8:0.053530952 9:0.069363391 10:0.066574747 
76.411953043149197 1:0.5551261 2:0.24026965 3:0.053552704 4:0.090477483 5:0.060574062 6:0.21470189 7:0.056928544 8:0.093871586 9:0.087544477 10:0.12546915 
256 1:0.65380499 2:0.21380603 3:0.07461174 4:0.037755777 5:0.020021456 6:0.027577038 7:0.022942791 8:0.056577261 9:0.071256391 10:0.070795014 
256 1:0.44657706 2:0.33783141 3:0.12131583 4:0.071863774 5:0.022411922 6:0.059719144 7:0.030143591 8:0.029791131 9:0.060018249 10:0.044338519 
256 1:0.42631665 2:0.2255686 3:0.15158671 4:0.1202496 5:0.07627844 6:0.032351629 7:0.061004647 8:0.044801342 9:0.065348189 10:0.10112358 
256 1:0.57198728 2:0.20919913 3:0.08847755 4:0.081014298 5:0.049321741 6:0.050456435 7:0.027732103 8:0.055998266 9:0.10321071 10:0.10369159 
256 1:0.24434495 2:0.38184677 3:0.15196723 4:0.16858599 5:0.053255064 6:0.048408641 7:0.044474873 8:0.055027388 9:0.057221766 10:0.053542708 
256 1:0.7396417 2:0.14006223 3:0.047189857 4:0.047679208 5:0.025427005 6:0.010439582 7:0.033501238 8:0.075486917 9:0.06217236 10:0.063475585 
256 1:0.40457696 2:0.27636389 3:0.16299922 4:0.10895884 5:0.047101089 6:0.065549126 7:0.068346982 8:0.081415128 9:0.064313095 10:0.10385763 
256 1:0.31413808 2:0.27931457 3:0.12522382 4:0.1300045 5:0.15131904 6:0.049079403 7:0.020158959 8:0.11799399 9:0.12063128 10:0.14503232 
256 1:0.73792669 2:0.17044574 3:0.050739155 4:0.02575928 5:0.01512914 6:0.025991918 7:0.023860506 8:0.057915203 9:0.065989908 10:0.044885498 
256 1:0.57515714 2:0.20876602 3:0.088474998 4:0.081863478 5:0.045738364 6:0.17137938 7:0.041699208 8:0.042603928 9:0.067831205 10:0.06686097 
256 1:0.55429192 2:0.2833601 3:0.084543218 4:0.05859331 5:0.019211457 6:0.017269065 7:0.039977732 8:0.069320971 9:0.085816701 10:0.071876075 
256 1:0.55728046 2:0.27418368 3:0.078843863 4:0.063268097 5:0.026423904 6:0.031852862 7:0.037006161 8:0.069411941 9:0.066974667 10:0.08183359 
256 1:0.65830942 2:0.18593487 3:0.082047488 4:0.048247619 5:0.025460598 6:0.025337804 7:0.039184361 8:0.055067018 9:0.065420574 10:0.065636282 
256 1:0.76308155 2:0.1008023 3:0.035812358 4:0.049925325 5:0.050378468 6:0.25131201 7:0.13579034 8:0.10701938 9:0.10753611 10:0.12993593 
256 1:0.30987228 2:0.31329775 3:0.17362655 4:0.14787484 5:0.055328587 6:0.095341549 7:0.058574965 8:0.060183004 9:0.058351177 10:0.048998984 
256 1:0.6101962 2:0.21533057 3:0.094443355 4:0.055228569 5:0.024801304 6:0.042083955 7:0.031134989 8:0.054318662 9:0.060308865 10:0.069559653 
256 1:0.32242257 2:0.25734964 3:0.21343354 4:0.11855563 5:0.088238616 6:0.033759793 7:0.05601253 8:0.10091633 9:0.090768722 10:0.13715735 
256 1:0.66709887 2:0.1183171 3:0.089565749 4:0.078971475 5:0.046046809 6:0.017924461 7:0.018915677 8:0.044770797 9:0.033938344 10:0.041337137 
256 1:0.54476506 2:0.30577519 3:0.081635917 4:0.045013993 5:0.022809842 6:0.054978748 7:0.025203163 8:0.059551044 9:0.054840464 10:0.065421892 
256 1:0.6277435 2:0.18062477 3:0.097496984 4:0.064650818 5:0.029483933 6:0.11385796 7:0.051282152 8:0.040599809 9:0.071585551 10:0.11821977 
256 1:0.73970952 2:0.17445238 3:0.052198713 4:0.025815001 5:0.0078243856 6:0.028129272 7:0.01884638 8:0.047796332 9:0.070132211 10:0.067512056 
256 1:0.69574316 2:0.18333404 3:0.039234944 4:0.04959283 5:0.032095025 6:0.019133138 7:0.016693857 8:0.058000143 9:0.072526475 10:0.077948672 
14.822625110387369 1:0.93654473 2:0.039511319 3:0.011904208 4:0.0087769449 5:0.0032627974 6:0.33577629 7:0.17195232 8:0.2054421 9:0.071034674 10:0.053590462 
256 1:0.51260944 2:0.22475242 3:0.13031283 4:0.09579484 5:0.036530469 6:0.049690972 7:0.048201462 8:0.025370596 9:0.053562097 10:0.045636409 
256 1:0.57321178 2:0.22606901 3:0.082551665 4:0.077012587 5:0.041154955 6:0.10659247 7:0.022707202 8:0.028129932 9:0.058620358 10:0.069472716 
256 1:0.67720678 2:0.11278961 3:0.081585928 4:0.076293664 5:0.052124012 6:0.093877033 7:0.012666643 8:0.024398681 9:0.091597064 10:0.063590881 
256 1:0.50498328 2:0.20734179 3:0.13794019 4:0.10483598 5:0.044898768 6:0.043465419 7:0.032778934 8:0.072032931 9:0.096492628 10:0.098641124 
256 1:0.30694462 2:0.33415488 3:0.13906691 4:0.1383507 5:0.081482887 6:0.073271873 7:0.031403439 8:0.066914259 9:0.051175233 10:0.052918955 
256 1:0.59513286 2:0.17665152 3:0.091808245 4:0.083875323 5:0.052532056 6:0.10006655 7:0.032275284 8:0.059771889 9:0.049749868 10:0.053491154 
256 1:0.61756316 2:0.22456471 3:0.079586216 4:0.055682915 5:0.022602994 6:0.072930077 7:0.026574751 8:0.043077868 9:0.063357342 10:0.050839914 
256 1:0.58131169 2:0.1860161 3:0.093112842 4:0.083372256 5:0.056187116 6:0.081287939 7:0.055092394 8:0.11673191 9:0.097470758 10:0.13239954 
256 1:0.4108412 2:0.38689614 3:0.084221446 4:0.07436198 5:0.043679233 6:0.019986971 7:0.03566984 8:0.051377449 9:0.036843225 10:0.041126864 
256 1:0.34954709 2:0.42915925 3:0.080837616 4:0.091429497 5:0.049026549 6:0.090967272 7:0.03668991 8:0.062824996 9:0.069252719 10:0.084424351 
256 1:0.44692483 2:0.24452968 3:0.077573162 4:0.055574478 5:0.17539785 6:0.04563332 7:0.051014938 8:0.086885046 9:0.11689311 10:0.12636421 
256 1:0.56028343 2:0.22809203 3:0.072145629 4:0.08322031 5:0.056258606 6:0.043020325 7:0.030595396 8:0.067594328 9:0.10266316 10:0.11398289 
256 1:0.55755938 2:0.18774812 3:0.11677862 4:0.090453791 5:0.047460085 6:0.09652172 7:0.090976533 8:0.099356761 9:0.12884432 10:0.099304739 
256 1:0.65323325 2:0.24199406 3:0.047878785 4:0.039659609 5:0.0172343 6:0.034170999 7:0.0290931 8:0.045771481 9:0.075212798 10:0.055312514 
256 1:0.69416585 2:0.21605323 3:0.050568674 4:0.027684751 5:0.011527497 6:0.055898158 7:0.03075363 8:0.043614369 9:0.064228227 10:0.06855818 
256 1:0.63385274 2:0.21512064 3:0.082247207 4:0.043134714 5:0.025644696 6:0.022665135 7:0.049978277 8:0.085654246 9:0.071210244 10:0.063411318 
256 1:0.59539581 2:0.14008724 3:0.099932426 4:0.10066988 5:0.063914649 6:0.14647265 7:0.077695975 8:0.04790789 9:0.045991301 10:0.067628999 
256 1:0.64309603 2:0.27053619 3:0.046101142 4:0.027489451 5:0.012777195 6:0.040537236 7:0.017874301 8:0.068166294 9:0.082256345 10:0.087687279 
93.820850711964994 1:0.27282308 2:0.3092441 3:0.17775839 4:0.19134345 5:0.048830985 6:0.063431492 7:0.057743131 8:0.10022988 9:0.095067285 10:0.038845188 
256 1:0.55926702 2:0.23974059 3:0.078217642 4:0.087064041 5:0.035710707 6:0.02327465 7:0.057536054 8:0.092458213 9:0.057751318 10:0.049193392 
256 1:0.51326899 2:0.28193711 3:0.085830237 4:0.084847117 5:0.034116542 6:0.089169426 7:0.067610907 8:0.073665967 9:0.069649336 10:0.041840201 
256 1:0.7130388 2:0.20475244 3:0.036627734 4:0.031513122 5:0.014067904 6:0.03748116 7:0.024463773 8:0.034433675 9:0.090672918 10:0.086758394 
256 1:0.63883489 2:0.17086947 3:0.074455831 4:0.072440543 5:0.04339927 6:0.014784269 7:0.02328921 8:0.058048653 9:0.097870801 10:0.11706482 
256 1:0.55835605 2:0.26679277 3:0.12438654 4:0.036497176 5:0.013967463 6:0.03432369 7:0.025391507 8:0.03774562 9:0.045982181 10:0.062162534 
256 1:0.45638101 2:0.25414996 3:0.12344527 4:0.1007216 5:0.065302156 6:0.03491185 7:0.030877746 8:0.055911159 9:0.05716518 10:0.081795202 
256 1:0.52277081 2:0.26224442 3:0.12054148 4:0.06598813 5:0.028455164 6:0.045575017 7:0.014464067 8:0.044973812 9:0.051207864 10:0.052031882 
256 1:0.74522144 2:0.097812281 3:0.045847612 4:0.061510197 5:0.049608475 6:0.1205344 7:0.068636864 8:0.030389314 9:0.088538121 10:0.094505724 
256 1:0.49789874 2:0.26006546 3:0.11933134 4:0.082461465 5:0.040242988 6:0.0074069735 7:0.039439498 8:0.056756356 9:0.064305285 10:0.089349106 
256 1:0.3778066 2:0.25523806 3:0.10800216 4:0.15177093 5:0.10718226 6:0.048639193 7:0.033541305 8:0.06837236 9:0.079240538 10:0.10092893 
256 1:0.7898872 2:0.17966699 3:0.015833065 4:0.010358378 5:0.004254368 6:0.020221328 7:0.030044038 8:0.037192528 9:0.06696357 10:0.082267489 
256 1:0.28136905 2:0.38088238 3:0.1676796 4:0.12376666 5:0.046302308 6:0.034007588 7:0.046728917 8:0.087668468 9:0.084801217 10:0.10967982 
256 1:0.55701137 2:0.24784349 3:0.072773471 4:0.080207685 5:0.042163983 6:0.090758043 7:0.031671935 8:0.056201172 9:0.044437301 10:0.063209309 
256 1:0.58452572 2:0.20605963 3:0.1187537 4:0.060759841 5:0.029901107 6:0.090904896 7:0.080763903 8:0.085270585 9:0.099787755 10:0.077196348 
256 1:0.49530905 2:0.18425665 3:0.1719421 4:0.097822928 5:0.050669277 6:0.051132968 7:0.054951514 8:0.057046073 9:0.061696336 10:0.074991411 
256 1:0.7260812 2:0.11325814 3:0.053805471 4:0.068111391 5:0.038743802 6:0.075015118 7:0.051562712 8:0.076145053 9:0.090677227 10:0.093405113 
256 1:0.54838327 2:0.20086257 3:0.075928415 4:0.1092504 5:0.065575348 6:0.071218336 7:0.041931841 8:0.038482224 9:0.028545249 10:0.03630103 
256 1:0.78330798 2:0.10294026 3:0.027212185 4:0.054895571 5:0.031644005 6:0.052379566 7:0.082056058 8:0.06155553 9:0.081254408 10:0.076406608 
256 1:0.36146454 2:0.3475966 3:0.14839774 4:0.10539314 5:0.037147986 6:0.066850636 7:0.042622891 8:0.060704616 9:0.055544418 10:0.053285109 
65.76453740549502 1:0.20250108 2:0.26066425 3:0.2868656 4:0.17446439 5:0.075504677 6:0.054334914 7:0.03088292 8:0.080044452 9:0.062220507 10:0.060318551 
256 1:0.55453836 2:0.34466176 3:0.051746868 4:0.033377659 5:0.015675351 6:0.047965614 7:0.044641128 8:0.036690996 9:0.050666509 10:0.047989994 
256 1:0.42893387 2:0.20759111 3:0.11915148 4:0.14068911 5:0.10363443 6:0.073874852 7:0.051900362 8:0.035658599 9:0.075880731 10:0.14651249 
256 1:0.42249261 2:0.29822449 3:0.11430337 4:0.11408801 5:0.050891518 6:0.017022983 7:0.025963456 8:0.034754387 9:0.046826032 10:0.072226455 
256 1:0.427064 2:0.22140144 3:0.12912884 4:0.14821388 5:0.074191837 6:0.030725276 7:0.054871378 8:0.042318857 9:0.05579208 10:0.049310803 
256 1:0.67818281 2:0.19813284 3:0.045457209 4:0.041443479 5:0.036783668 6:0.042168167 7:0.041868435 8:0.065911539 9:0.084527032 10:0.16313812 
256 1:0.5709075 2:0.26547325 3:0.082550233 4:0.06184262 5:0.019226397 6:0.059981183 7:0.055868399 8:0.079294523 9:0.083253508 10:0.07866019 
256 1:0.62446917 2:0.18376429 3:0.090587051 4:0.070601554 5:0.030577935 6:0.070158009 7:0.02404261 8:0.030451782 9:0.053910018 10:0.064142562 
256 1:0.64170054 2:0.14945378 3:0.079725954 4:0.080124533 5:0.048995192 6:0.04785602 7:0.038718312 8:0.062545966 9:0.081887254 10:0.088900481 
22.871015093875588 1:0.14448705 2:0.12944025 3:0.61030877 4:0.10139359 5:0.014370331 6:0.020149907 7:0.15280737 8:0.15816152 9:0.12414917 10:0.065454252 
256 1:0.6015229 2:0.12833608 3:0.11462043 4:0.12583731 5:0.029683277 6:0.039866369 7:0.064697349 8:0.08962291 9:0.1019739 10:0.041949456 
71.267606424861441 1:0.39061611 2:0.1669955 3:0.18801533 4:0.14210158 5:0.11227149 6:0.16184533 7:0.076664383 8:0.13992 9:0.12243205 10:0.17318331 
256 1:0.62096589 2:0.19323572 3:0.061657628 4:0.07351673 5:0.050624029 6:0.10914483 7:0.06025788 8:0.07190369 9:0.094418984 10:0.11123486 
256 1:0.47846347 2:0.2993093 3:0.080029248 4:0.096653703 5:0.045544282 6:0.074663491 7:0.026703767 8:0.043211223 9:0.049735935 10:0.048201561 
256 1:0.63603529 2:0.18289437 3:0.069980485 4:0.078394273 5:0.032695582 6:0.07429652 7:0.027454476 8:0.075623006 9:0.088212276 10:0.10423063 
256 1:0.59106542 2:0.21823937 3:0.083581253 4:0.06315866 5:0.043955291 6:0.043704583 7:0.012850448 8:0.083943497 9:0.081970715 10:0.079914958 
256 1:0.33151605 2:0.44147125 3:0.10095363 4:0.085570319 5:0.040488751 6:0.075809118 7:0.022694958 8:0.064471579 9:0.064448491 10:0.10127067 
256 1:0.65264076 2:0.17097081 3:0.087616332 4:0.060002951 5:0.028769143 6:0.068752704 7:0.020329518 8:0.046433316 9:0.062312836 10:0.058689586 
256 1:0.59126923 2:0.17405381 3:0.09304161 4:0.10629256 5:0.035342785 6:0.086056081 7:0.097667918 8:0.11702818 9:0.1307685 10:0.085687188 
256 1:0.35841302 2:0.39780231 3:0.091222551 4:0.094580324 5:0.057981791 6:0.11371642 7:0.036747173 8:0.069012736 9:0.067925144 10:0.085292029 
256 1:0.65769573 2:0.18658032 3:0.075326826 4:0.050630113 5:0.029767005 6:0.067757881 7:0.041574308 8:0.061889297 9:0.066437824 10:0.1099659 
256 1:0.37377292 2:0.22916667 3:0.1188606 4:0.16441841 5:0.1137814 6:0.10523901 7:0.075622842 8:0.10789292 9:0.14558504 10:0.16482 
256 1:0.56128642 2:0.25028163 3:0.10130581 4:0.05564713 5:0.031478999 6:0.078215347 7:0.051256185 8:0.056525446 9:0.057564019 10:0.11206817 
256 1:0.15655955 2:0.27585796 3:0.19530312 4:0.27212575 5:0.10015362 6:0.048743504 7:0.090896812 8:0.13045413 9:0.13798991 10:0.12996386 
256 1:0.33724915 2:0.29885686 3:0.16227985 4:0.14872143 5:0.052892709 6:0.034354689 7:0.040997619 8:0.069271669 9:0.049528566 10:0.050677223 
256 1:0.58287058 2:0.21775695 3:0.056394085 4:0.087789599 5:0.055188779 6:0.031251397 7:0.027878368 8:0.069714132 9:0.052386734 10:0.13831565 
256 1:0.22350538 2:0.43892052 3:0.1585106 4:0.1222674 5:0.056796098 6:0.035213934 7:0.076362111 8:0.066203099 9:0.057168833 10:0.050884765 
256 1:0.45290867 2:0.27082083 3:0.1182242 4:0.11035469 5:0.047691612 6:0.02805038 7:0.056704714 8:0.058555611 9:0.060282446 10:0.044307493 
256 1:0.42195153 2:0.27242734 3:0.10596818 4:0.11333565 5:0.086317289 6:0.21508655 7:0.11469956 8:0.080195621 9:0.062716329 10:0.047705304 
256 1:0.48815976 2:0.35547017 3:0.078191972 4:0.051079592 5:0.027098511 6:0.069098563 7:0.031377637 8:0.049694022 9:0.04695021 10:0.055572298 
256 1:0.76603412 2:0.17181789 3:0.029609992 4:0.02049962 5:0.012038373 6:0.018533174 7:0.020118466 8:0.055480966 9:0.094699242 10:0.090603436 
256 1:0.49426618 2:0.2208235 3:0.14769527 4:0.098988699 5:0.038226355 6:0.074660196 7:0.040294667 8:0.068734367 9:0.086220873 10:0.059499971 
256 1:0.46367884 2:0.25870282 3:0.1520198 4:0.083158475 5:0.042440062 6:0.037213772 7:0.041428212 8:0.067988522 9:0.071276176 10:0.092269024 
256 1:0.41691992 2:0.19822949 3:0.16496355 4:0.15303829 5:0.066848744 6:0.026044437 7:0.070520954 8:0.092105564 9:0.070616228 10:0.064852828 
256 1:0.34788951 2:0.29206962 3:0.19955841 4:0.10162687 5:0.058855592 6:0.044161992 7:0.059567642 8:0.054903454 9:0.061096506 10:0.036902601 
256 1:0.66993929 2:0.19052848 3:0.05972228 4:0.052005335 5:0.027804613 6:0.03193327 7:0.029803828 8:0.046631519 9:0.068094194 10:0.077351589 
256 1:0.48541861 2:0.35653179 3:0.078474411 4:0.049987515 5:0.029587673 6:0.078630073 7:0.03180423 8:0.05419635 9:0.048499516 10:0.056821202 
256 1:0.8804513 2:0.064582223 3:0.02484404 4:0.021311203 5:0.0088112292 6:0.20994853 7:0.052252835 8:0.020336516 9:0.11035414 10:0.11180578 
256 1:0.59551478 2:0.19579882 3:0.082362123 4:0.073367837 5:0.052956441 6:0.14317307 7:0.033125419 8:0.068709721 9:0.082266855 10:0.080425182 
256 1:0.68552448 2:0.23600713 3:0.040630035 4:0.02834087 5:0.0094974898 6:0.080276852 7:0.097591576 8:0.11910745 9:0.10724318 10:0.093557077 
256 1:0.60558722 2:0.29515123 3:0.052299729 4:0.031455825 5:0.015505996 6:0.036001076 7:0.0193758 8:0.069335186 9:0.075794508 10:0.078177229 
26.268037289772021 1:0.57027528 2:0.21999254 3:0.11398117 4:0.069946911 5:0.025804104 6:0.11010304 7:0.062517758 8:0.027720322 9:0.081244279 10:0.039173382 
256 1:0.47060178 2:0.23288124 3:0.12357235 4:0.10798104 5:0.06496359 6:0.036590598 7:0.027103353 8:0.056657256 9:0.049802395 10:0.087058348 
256 1:0.26486789 2:0.28133799 3:0.22257763 4:0.17497185 5:0.056244642 6:0.044825528 7:0.069047729 8:0.085162425 9:0.075836588 10:0.083649412 
256 1:0.72781705 2:0.14852365 3:0.035911345 4:0.049674079 5:0.038073878 6:0.13226467 7:0.049421426 8:0.045866441 9:0.086643892 10:0.11115245 
256 1:0.68473272 2:0.1983063 3:0.053666253 4:0.040959797 5:0.022334932 6:0.061702736 7:0.040078788 8:0.081089039 9:0.073453225 10:0.050937477 
256 1:0.81965697 2:0.13614186 3:0.034729937 4:0.006547741 5:0.0029234882 6:0.099733224 7:0.11915558 8:0.1064948 9:0.11979495 10:0.097742862 
256 1:0.72830979 2:0.21007613 3:0.033422438 4:0.019678597 5:0.0085130524 6:0.041694109 7:0.02738865 8:0.090262791 9:0.10276649 10:0.1028811 
256 1:0.51257965 2:0.24433853 3:0.068554036 4:0.10579865 5:0.068729143 6:0.071545349 7:0.036959699 8:0.02758068 9:0.057408009 10:0.048456398 
256 1:0.39572277 2:0.29619761 3:0.13632679 4:0.11249762 5:0.059255208 6:0.055867263 7:0.053888719 8:0.092464271 9:0.072052246 10:0.048351221 
256 1:0.38531072 2:0.2210527 3:0.15024872 4:0.15850208 5:0.084885773 6:0.040474773 7:0.043265191 8:0.04349644 9:0.057483903 10:0.036938746 
256 1:0.65605617 2:0.15180605 3:0.056160996 4:0.080003795 5:0.055972983 6:0.065051634 7:0.048047192 8:0.079800172 9:0.083791557 10:0.092332258 
256 1:0.74198737 2:0.17421043 3:0.038170082 4:0.02916891 5:0.01646321 6:0.035551705 7:0.020393085 8:0.040756386 9:0.078490022 10:0.072471292 
256 1:0.7133853 2:0.16220537 3:0.072190901 4:0.033787715 5:0.018430714 6:0.050414472 7:0.035328986 8:0.094569776 9:0.10177992 10:0.087796135 
256 1:0.61128695 2:0.22781161 3:0.06425137 4:0.069494373 5:0.027155695 6:0.010584531 7:0.033313571 8:0.04471342 9:0.050811788 10:0.055259361 
256 1:0.67610888 2:0.21807486 3:0.044352295 4:0.040442953 5:0.021021011 6:0.053013328 7:0.017827619 8:0.067860726 9:0.067925154 10:0.051120073 
256 1:0.65193924 2:0.1540303 3:0.10190991 4:0.056618028 5:0.035502518 6:0.052764083 7:0.041107565 8:0.065547298 9:0.075594782 10:0.058462942 
256 1:0.61323863 2:0.14116439 3:0.088580746 4:0.094328512 5:0.062687715 6:0.059974242 7:0.087961781 8:0.10875147 9:0.13801812 10:0.14291809 
256 1:0.85462172 2:0.091281842 3:0.022325312 4:0.02075699 5:0.011014138 6:0.26954442 7:0.12897525 8:0.12149963 9:0.12274866 10:0.074251506 
256 1:0.4304124 2:0.28560828 3:0.13725243 4:0.094102024 5:0.052624869 6:0.068292222 7:0.043272483 8:0.072068222 9:0.048050306 10:0.062369469 
256 1:0.51197835 2:0.32162743 3:0.084735455 4:0.058084727 5:0.023574037 6:0.053695582 7:0.03693078 8:0.034560708 9:0.054379995 10:0.049797945 
256 1:0.51831929 2:0.23552409 3:0.10849879 4:0.10289684 5:0.034760995 6:0.088046405 7:0.058306421 8:0.066019518 9:0.050624048 10:0.052351473 
256 1:0.69694781 2:0.16141965 3:0.066319961 4:0.048375832 5:0.02693674 6:0.14487809 7:0.038864008 8:0.030688527 9:0.080960158 10:0.10682981 
256 1:0.78393097 2:0.15387985 3:0.034199985 4:0.019834719 5:0.008154477 6:0.03044269 7:0.030660584 8:0.045632824 9:0.045682215 10:0.05113458 
256 1:0.79462618 2:0.16714607 3:0.023717735 4:0.011054677 5:0.0034553355 6:0.1173506 7:0.12830098 8:0.082347093 9:0.1192368 10:0.10708325 
256 1:0.71646529 2:0.14308714 3:0.045287031 4:0.058438349 5:0.036722197 6:0.025059477 7:0.01509752 8:0.067958833 9:0.076169818 10:0.10780204 
256 1:0.89012429 2:0.083958788 3:0.01676077 4:0.0066683869 5:0.0024877669 6:0.10978446 7:0.19887326 8:0.13514667 9:0.13853889 10:0.1368068 
256 1:0.65167856 2:0.20163625 3:0.059725707 4:0.05243042 5:0.034529056 6:0.068259916 7:0.04034704 8:0.067730552 9:0.081319516 10:0.081380629 
256 1:0.61498917 2:0.23380368 3:0.07667611 4:0.049836343 5:0.024694697 6:0.031969824 7:0.026589258 8:0.026572159 9:0.079418731 10:0.067012898 
256 1:0.60725635 2:0.1956718 3:0.071412969 4:0.080040761 5:0.045618124 6:0.051826986 7:0.023793047 8:0.065946259 9:0.027643539 10:0.061210728 
256 1:0.46277304 2:0.20769125 3:0.11607225 4:0.1348082 5:0.078655267 6:0.11508298 7:0.046821604 8:0.047817903 9:0.098624128 10:0.085786601 
256 1:0.85084149 2:0.1136931 3:0.016270864 4:0.012782313 5:0.0064122339 6:0.22665943 7:0.11084619 8:0.02860898 9:0.073183281 10:0.072261089 
256 1:0.56091901 2:0.16504295 3:0.071991206 4:0.10955048 5:0.092496357 6:0.064480241 7:0.042106086 8:0.061854535 9:0.098317955 10:0.12826276 
256 1:0.66962641 2:0.20061586 3:0.04231562 4:0.045943879 5:0.041498237 6:0.043722576 7:0.054957551 8:0.067148518 9:0.090929198 10:0.17592235 
256 1:0.65664214 2:0.23407528 3:0.050765765 4:0.039691476 5:0.018825343 6:0.023381278 7:0.031674455 8:0.051997181 9:0.078499138 10:0.12739871 
256 1:0.29486515 2:0.37273116 3:0.12944027 4:0.12941195 5:0.073551471 6:0.024956254 7:0.059722731 8:0.065196045 9:0.053976418 10:0.048511706 
256 1:0.50753543 2:0.29516882 3:0.089488408 4:0.079698667 5:0.028108674 6:0.057258194 7:0.071487397 8:0.05771278 9:0.075396533 10:0.075730992 
256 1:0.45862406 2:0.29152726 3:0.11457409 4:0.10009179 5:0.035182797 6:0.041420609 7:0.070464935 8:0.087161525 9:0.083392004 10:0.086334351 
256 1:0.58578091 2:0.24620103 3:0.102331 4:0.041705258 5:0.023981807 6:0.037174922 7:0.024365923 8:0.033568612 9:0.051995046 10:0.068315526 
256 1:0.56611743 2:0.18695587 3:0.080724252 4:0.11252401 5:0.053678431 6:0.058897152 7:0.035925203 8:0.078035119 9:0.11524441 10:0.10846217 
256 1:0.49306834 2:0.24610202 3:0.13784987 4:0.060110709 5:0.062869053 6:0.0157951 7:0.031561977 8:0.1024056 9:0.067230699 10:0.066417733 
256 1:0.63739456 2:0.23029926 3:0.054918779 4:0.049273739 5:0.028113659 6:0.043907987 7:0.05787792 8:0.0520349 9:0.057995445 10:0.060457438 
256 1:0.38744177 2:0.28401204 3:0.16358832 4:0.1174436 5:0.047514279 6:0.080643656 7:0.055843573 8:0.072735644 9:0.061368113 10:0.052975097 
256 1:0.52959227 2:0.22505058 3:0.078733708 4:0.10360689 5:0.063016555 6:0.037911943 7:0.020319763 8:0.056643405 9:0.10029065 10:0.1057862 
256 1:0.38905348 2:0.39484993 3:0.075756464 4:0.086322284 5:0.054017838 6:0.077302973 7:0.022791828 8:0.052313627 9:0.080236032 10:0.071917669 
256 1:0.63474043 2:0.22115033 3:0.068203835 4:0.052721963 5:0.023183442 6:0.018175928 7:0.03879402 8:0.077135805 9:0.056805262 10:0.04844419 
256 1:0.61626264 2:0.27185063 3:0.061463162 4:0.039665755 5:0.010757815 6:0.031665032 7:0.070514389 8:0.065087272 9:0.063307428 10:0.067080843 
256 1:0.56276542 2:0.23334106 3:0.09437192 4:0.068743556 5:0.040778047 6:0.021384218 7:0.041068406 8:0.064164521 9:0.065939002 10:0.080888118 
256 1:0.42064123 2:0.28200564 3:0.11527775 4:0.10847338 5:0.073601994 6:0.092642444 7:0.032862667 8:0.021554889 9:0.046202286 10:0.058468357 
256 1:0.60051148 2:0.26748867 3:0.071967484 4:0.043392137 5:0.016640233 6:0.011029775 7:0.030715393 8:0.058978702 9:0.072304244 10:0.065955658 
256 1:0.59230968 2:0.19749078 3:0.045637396 4:0.095134098 5:0.069428043 6:0.18183438 7:0.071618912 8:0.062168461 9:0.11981282 10:0.10544667 
256 1:0.66158727 2:0.20335801 3:0.080993419 4:0.039351058 5:0.014710238 6:0.039105009 7:0.036418554 8:0.063561416 9:0.060039991 10:0.058355757 
256 1:0.63740433 2:0.17649174 3:0.075825307 4:0.069575915 5:0.040702714 6:0.093942681 7:0.050686137 8:0.057970968 9:0.062686304 10:0.069582396 
256 1:0.54376002 2:0.21016418 3:0.11477959 4:0.090124221 5:0.041171993 6:0.10134779 7:0.10694471 8:0.07247991 9:0.068122099 10:0.058048531 
256 1:0.41114959 2:0.27102736 3:0.18345798 4:0.094494882 5:0.039870196 6:0.055300882 7:0.06600032 8:0.079158146 9:0.050309833 10:0.1035573 
256 1:0.69332707 2:0.26005454 3:0.018880363 4:0.019541146 5:0.0081968817 6:0.04702214 7:0.045676933 8:0.052110663 9:0.063652606 10:0.032632891 
256 1:0.31378105 2:0.38253663 3:0.13202338 4:0.1179473 5:0.053711628 6:0.090842339 7:0.066750651 8:0.056613571 9:0.081118922 10:0.066574306 
256 1:0.35605293 2:0.39221204 3:0.11161482 4:0.10466394 5:0.03545627 6:0.0648122 7:0.069370509 8:0.061525348 9:0.054485176 10:0.034430905 
256 1:0.88875408 2:0.086573163 3:0.016446289 4:0.0060090409 5:0.0022174315 6:0.31960145 7:0.23059923 8:0.14199856 9:0.068628496 10:0.048248844 
256 1:0.64698816 2:0.2297363 3:0.067182604 4:0.038633467 5:0.017459471 6:0.023241429 7:0.037505737 8:0.043649147 9:0.052786957 10:0.046156782 
256 1:0.7750822 2:0.15822131 3:0.035108533 4:0.020141103 5:0.011446847 6:0.015944214 7:0.029812402 8:0.036250358 9:0.071882458 10:0.072223087 
256 1:0.65957911 2:0.23734863 3:0.054783574 4:0.035574911 5:0.012713784 6:0.013148021 7:0.038159562 8:0.072590133 9:0.056876401 10:0.056506639 
256 1:0.65771013 2:0.22247644 3:0.04695711 4:0.048506642 5:0.024349673 6:0.028091655 7:0.021566301 8:0.054689697 9:0.054319765 10:0.041677506 
256 1:0.56850419 2:0.29685589 3:0.064749777 4:0.045099393 5:0.024790758 6:0.061404318 7:0.027822357 8:0.059464712 9:0.059063805 10:0.068936808 
256 1:0.76414649 2:0.15849705 3:0.030022527 4:0.03244011 5:0.014893821 6:0.044192925 7:0.046920664 8:0.069544077 9:0.060201215 10:0.068738013 
256 1:0.63830059 2:0.1916522 3:0.076534931 4:0.059950035 5:0.033562244 6:0.041193011 7:0.029269181 8:0.053453296 9:0.077510328 10:0.080551378 
256 1:0.60803783 2:0.26302308 3:0.071956391 4:0.037954049 5:0.019028657 6:0.020798037 7:0.034798221 8:0.050465239 9:0.0580756 10:0.060427274 
256 1:0.64795709 2:0.22702459 3:0.066238515 4:0.04119063 5:0.017589169 6:0.011962987 7:0.033259966 8:0.067219123 9:0.042971009 10:0.0580141 
256 1:0.53195343 2:0.22087405 3:0.12565098 4:0.081533513 5:0.039988033 6:0.052876121 7:0.021165839 8:0.028617204 9:0.049906333 10:0.039922124 
256 1:0.57933579 2:0.20321626 3:0.10354047 4:0.07164789 5:0.042259593 6:0.10539678 7:0.057699734 8:0.059602446 9:0.072200514 10:0.051607688 
256 1:0.57849017 2:0.20857948 3:0.085846328 4:0.082969532 5:0.044114493 6:0.13496598 7:0.041954448 8:0.073197058 9:0.069586989 10:0.057867148 
256 1:0.65608602 2:0.21924039 3:0.039160503 4:0.049525711 5:0.035987367 6:0.12535885 7:0.10920838 8:0.072822928 9:0.18138799 10:0.12618742 
256 1:0.42734254 2:0.42375094 3:0.051332762 4:0.049915166 5:0.047658593 6:0.063805399 7:0.022806621 8:0.067386126 9:0.087725405 10:0.053587679 
256 1:0.28250002 2:0.34632518 3:0.17482112 4:0.13240187 5:0.063951796 6:0.067192921 7:0.10577857 8:0.059283397 9:0.054505431 10:0.077234237 
256 1:0.59925823 2:0.20279156 3:0.066859208 4:0.075750634 5:0.055340364 6:0.17690439 7:0.078465314 8:0.087310978 9:0.055672597 10:0.057525393 
256 1:0.4501478 2:0.34154916 3:0.12153634 4:0.065490968 5:0.021275735 6:0.057724652 7:0.065676023 8:0.072626721 9:0.071075501 10:0.049213743 
256 1:0.48976965 2:0.19488502 3:0.13028123 4:0.1129784 5:0.072085699 6:0.047617532 7:0.03158053 8:0.085943811 9:0.10491365 10:0.11302955 
256 1:0.31034321 2:0.16669251 3:0.16291216 4:0.21736982 5:0.1426823 6:0.029099992 7:0.053722208 8:0.06430451 9:0.11213139 10:0.098610348 
256 1:0.62869863 2:0.1612202 3:0.081897079 4:0.091239424 5:0.036944667 6:0.082143144 7:0.039244297 8:0.032836899 9:0.069925523 10:0.051951376 
256 1:0.44217395 2:0.28699498 3:0.14306914 4:0.089910183 5:0.037851751 6:0.047074582 7:0.080844256 8:0.097846231 9:0.073578797 10:0.096388347 
256 1:0.35394279 2:0.30786118 3:0.15198219 4:0.11803343 5:0.068180419 6:0.043012151 7:0.044197871 8:0.071315905 9:0.052366147 10:0.038566275 
256 1:0.67936649 2:0.20276015 3:0.059894383 4:0.040212275 5:0.017766693 6:0.06564576 7:0.023406717 8:0.061137686 9:0.058808669 10:0.072399501 
256 1:0.36186139 2:0.43782435 3:0.066185546 4:0.079097424 5:0.055031295 6:0.025825458 7:0.037904606 8:0.045991372 9:0.079694618 10:0.076180327 
256 1:0.6429256 2:0.25332273 3:0.041702881 4:0.040046917 5:0.022001866 6:0.066329827 7:0.018170075 8:0.031475539 9:0.071626479 10:0.081440371 
256 1:0.75304162 2:0.072761525 3:0.050861485 4:0.038881751 5:0.084453621 6:0.23119232 7:0.025093517 8:0.092709668 9:0.074001339 10:0.13800284 
256 1:0.85332688 2:0.088204431 3:0.033970261 4:0.01761688 5:0.0068815469 6:0.26070606 7:0.062617444 8:0.058938563 9:0.068242103 10:0.066385274 
256 1:0.66810293 2:0.24127214 3:0.050453397 4:0.029053847 5:0.011117688 6:0.017877775 7:0.018113886 8:0.027506257 9:0.069603984 10:0.054732905 
256 1:0.5510416 2:0.23075148 3:0.071496826 4:0.086643648 5:0.060066444 6:0.054714834 7:0.029321472 8:0.073828114 9:0.10418064 10:0.11400997 
256 1:0.44848197 2:0.30912006 3:0.095255162 4:0.082662634 5:0.06448018 6:0.055819143 7:0.041945674 8:0.078220286 9:0.10117907 10:0.14265393 
256 1:0.65947386 2:0.21749773 3:0.055577915 4:0.04571107 5:0.021739426 6:0.071928146 7:0.025991441 8:0.052683781 9:0.05734816 10:0.061450913 
256 1:0.55939772 2:0.28084728 3:0.082213908 4:0.055995941 5:0.021545159 6:0.047808329 7:0.053023509 8:0.040215742 9:0.063845948 10:0.050814797 
256 1:0.82556949 2:0.11297415 3:0.024251949 4:0.0232889 5:0.013915514 6:0.069625525 7:0.057881339 8:0.088064751 9:0.098724721 10:0.094421135 
256 1:0.62046425 2:0.26954318 3:0.067697614 4:0.029623004 5:0.012671955 6:0.021168393 7:0.021586648 8:0.052882508 9:0.054962846 10:0.061076844 
256 1:0.54405621 2:0.20108888 3:0.078223485 4:0.11459311 5:0.062038312 6:0.092107904 7:0.12046279 8:0.1762194 9:0.13325945 10:0.12529393 
256 1:0.41951769 2:0.32194316 3:0.1128977 4:0.0986032 5:0.047038247 6:0.09578124 7:0.050916347 8:0.063594743 9:0.072615799 10:0.075781061 
256 1:0.58356636 2:0.22725455 3:0.093668027 4:0.06389089 5:0.031620173 6:0.143118 7:0.024043674 8:0.043756205 9:0.085641435 10:0.10656192 
256 1:0.71470341 2:0.17395566 3:0.048131861 4:0.044501315 5:0.018707755 6:0.040205285 7:0.022726321 8:0.046067529 9:0.051327464 10:0.060438364 
256 1:0.66616758 2:0.1861806 3:0.092108928 4:0.037522612 5:0.018020284 6:0.041955246 7:0.036383223 8:0.056386132 9:0.070511602 10:0.045872054 
256 1:0.7585516 2:0.17395612 3:0.026613001 4:0.025259594 5:0.015619688 6:0.25581343 7:0.12631509 8:0.037112638 9:0.074632836 10:0.086302042 
256 1:0.75572039 2:0.15196942 3:0.035785339 4:0.036220355 5:0.020304501 6:0.021956566 7:0.024189238 8:0.04412781 9:0.082536741 10:0.074640406 
256 1:0.69262432 2:0.18977403 3:0.063341481 4:0.036852653 5:0.017407517 6:0.16104194 7:0.072746051 8:0.023515259 9:0.063900184 10:0.067307722 
256 1:0.53363352 2:0.24144551 3:0.11807955 4:0.069058933 5:0.03778249 6:0.15704137 7:0.061240197 8:0.11153635 9:0.098579981 10:0.075337609 
256 1:0.71700952 2:0.21083741 3:0.043081164 4:0.020588683 5:0.0084832207 6:0.013691369 7:0.018844277 8:0.027084654 9:0.060942374 10:0.069178446 
256 1:0.64957845 2:0.13568613 3:0.087186388 4:0.077932847 5:0.049616182 6:0.094043993 7:0.066613082 8:0.060494456 9:0.054825371 10:0.062354014 
256 1:0.48671185 2:0.29081053 3:0.094325858 4:0.086337223 5:0.04181454 6:0.050304118 7:0.034985963 8:0.025978056 9:0.038268372 10:0.052208742 
256 1:0.62807892 2:0.20089705 3:0.073688659 4:0.06684785 5:0.03048752 6:0.15358633 7:0.047383897 8:0.0679694 9:0.10531722 10:0.070159922 
256 1:0.52012555 2:0.23435586 3:0.10783821 4:0.10128596 5:0.036394419 6:0.1177523 7:0.059000834 8:0.07459355 9:0.10298856 10:0.080098975 
256 1:0.6203719 2:0.22143458 3:0.062784293 4:0.06905398 5:0.026355249 6:0.01380381 7:0.037550682 8:0.053237523 9:0.041068694 10:0.062661417 
256 1:0.65152985 2:0.20887888 3:0.086004053 4:0.038046966 5:0.015540252 6:0.016956464 7:0.031435801 8:0.037916753 9:0.065158582 10:0.049970545 
256 1:0.62578384 2:0.28171959 3:0.045729594 4:0.035233374 5:0.011533602 6:0.041618023 7:0.037701674 8:0.040732335 9:0.048735741 10:0.049063572 
256 1:0.35821167 2:0.28585942 3:0.13345985 4:0.14212337 5:0.080345684 6:0.060041398 7:0.058263069 8:0.053723317 9:0.065549042 10:0.046979883 
256 1:0.55241788 2:0.25200862 3:0.098946635 4:0.061543063 5:0.0350838 6:0.022660893 7:0.05678675 8:0.068384086 9:0.068124623 10:0.063618029 
256 1:0.48525653 2:0.19833499 3:0.094921717 4:0.12857708 5:0.092909694 6:0.097862775 7:0.025498324 8:0.054290533 9:0.12355739 10:0.13350546 
256 1:0.40207766 2:0.26359002 3:0.12651673 4:0.14001458 5:0.067801007 6:0.090753592 7:0.050600705 8:0.073862413 9:0.03178277 10:0.12442241 
256 1:0.62750461 2:0.18486615 3:0.07762728 4:0.072864684 5:0.037137281 6:0.022986342 7:0.0436844 8:0.060606485 9:0.16027514 10:0.11738066 
256 1:0.44166997 2:0.24950484 3:0.13734672 4:0.11292066 5:0.058557803 6:0.066477876 7:0.053533066 8:0.078284404 9:0.056336904 10:0.065048216 
256 1:0.32481798 2:0.27866546 3:0.2090462 4:0.12840643 5:0.059063934 6:0.079371082 7:0.047715792 8:0.071292944 9:0.059855217 10:0.060365269 
256 1:0.83350749 2:0.10340309 3:0.041908868 4:0.017033205 5:0.0041473422 6:0.32883827 7:0.22872254 8:0.086585385 9:0.084564519 10:0.090681794 
256 1:0.45401398 2:0.22456684 3:0.13181215 4:0.13430848 5:0.055298558 6:0.090245402 7:0.064673891 8:0.06495638 9:0.053061792 10:0.040575214 
256 1:0.36106699 2:0.26142446 3:0.14256079 4:0.15034264 5:0.084605119 6:0.031663073 7:0.056037867 8:0.058617466 9:0.04837516 10:0.025219423 
256 1:0.38020112 2:0.33732972 3:0.13867914 4:0.094296349 5:0.049493668 6:0.044602352 7:0.039417154 8:0.082304881 9:0.053555166 10:0.10713122 
256 1:0.927146 2:0.059776508 3:0.007453908 4:0.0036666192 5:0.0019569624 6:0.2853642 7:0.25885069 8:0.11529126 9:0.057077921 10:0.061364237 
256 1:0.49661751 2:0.35980218 3:0.070865276 4:0.053770314 5:0.018944726 6:0.0079810527 7:0.044674937 8:0.069056058 9:0.047944099 10:0.068615672 
256 1:0.39815691 2:0.23858627 3:0.12525505 4:0.11477971 5:0.12322206 6:0.062304957 7:0.077752311 8:0.073607312 9:0.074268689 10:0.18444512 
256 1:0.53554149 2:0.26585369 3:0.067285762 4:0.085563002 5:0.045756055 6:0.046159541 7:0.034612826 8:0.036978878 9:0.04719062 10:0.048891534 
256 1:0.48810234 2:0.30177204 3:0.075532375 4:0.085920825 5:0.04867242 6:0.015183467 7:0.043715229 8:0.046555199 9:0.073872824 10:0.090601327 
256 1:0.60298034 2:0.22653801 3:0.086190437 4:0.060272602 5:0.024018611 6:0.066954385 7:0.070781413 8:0.080094766 9:0.08362711 10:0.068575073 
256 1:0.59425995 2:0.21713795 3:0.10040161 4:0.059893007 5:0.028307489 6:0.010242849 7:0.030704148 8:0.050322329 9:0.046280822 10:0.080818683 
256 1:0.28513009 2:0.19769345 3:0.27000656 4:0.18313191 5:0.064037989 6:0.058102043 7:0.061326322 8:0.16754274 9:0.16066377 10:0.10731873 
256 1:0.37035749 2:0.35193556 3:0.098548931 4:0.1255365 5:0.053621527 6:0.060846507 7:0.058540206 8:0.040583958 9:0.050545579 10:0.084721872 
256 1:0.73669593 2:0.1166921 3:0.038623991 4:0.067059967 5:0.040928016 6:0.065569056 7:0.041411772 8:0.054822507 9:0.090521771 10:0.084996048 
256 1:0.76320406 2:0.17469446 3:0.032410207 4:0.018542875 5:0.011148399 6:0.046691656 7:0.046666598 8:0.072744473 9:0.083424414 10:0.081131093 
256 1:0.69385189 2:0.22967687 3:0.045500988 4:0.022681063 5:0.0082891881 6:0.032625025 7:0.043924171 8:0.054131711 9:0.043954898 10:0.064640346 
256 1:0.48713067 2:0.19336403 3:0.083985996 4:0.14194379 5:0.09357552 6:0.091451092 7:0.065204121 8:0.059619061 9:0.10236249 10:0.085923314 
256 1:0.79786765 2:0.092630659 3:0.060805227 4:0.029711085 5:0.018985378 6:0.04475893 7:0.071434044 8:0.081666635 9:0.062781193 10:0.085452959 
256 1:0.34717879 2:0.41565276 3:0.086562427 4:0.095625862 5:0.054980163 6:0.10916449 7:0.035087315 8:0.057729049 9:0.069662225 10:0.080732293 
256 1:0.67047102 2:0.14665022 3:0.070371379 4:0.071021834 5:0.041485542 6:0.10157611 7:0.051177953 8:0.046824283 9:0.046500608 10:0.072386094 
256 1:0.49792268 2:0.26664229 3:0.099230571 4:0.088174049 5:0.048030413 6:0.083720816 7:0.035553151 8:0.047900479 9:0.076510855 10:0.061311427 
256 1:0.30184331 2:0.39674119 3:0.13344166 4:0.11210831 5:0.055865526 6:0.027491539 7:0.02468564 8:0.04905336 9:0.091920112 10:0.1103637 
256 1:0.6974895 2:0.1850946 3:0.062069261 4:0.034626694 5:0.020719939 6:0.02851933 7:0.028185119 8:0.022823158 9:0.0547863 10:0.055291178 
256 1:0.64690787 2:0.21877501 3:0.051355585 4:0.051134705 5:0.031826821 6:0.032274586 7:0.023633471 8:0.075350417 9:0.11704739 10:0.13732935 
256 1:0.53588451 2:0.19954869 3:0.11331523 4:0.09544162 5:0.055809946 6:0.044195252 7:0.039817731 8:0.054229238 9:0.09007031 10:0.093884475 
256 1:0.49821749 2:0.26571264 3:0.09984528 4:0.092646397 5:0.043578191 6:0.035469471 7:0.056026626 8:0.078671768 9:0.057117338 10:0.042048651 
256 1:0.4942071 2:0.21046336 3:0.056608085 4:0.10415256 5:0.13456889 6:0.10111956 7:0.076777055 8:0.10251052 9:0.11188541 10:0.18658257 
256 1:0.65037493 2:0.17663686 3:0.064840268 4:0.057944733 5:0.050203202 6:0.098237353 7:0.059149341 8:0.06832071 9:0.070807956 10:0.099055207 
256 1:0.55603537 2:0.16779805 3:0.075719375 4:0.1121846 5:0.088262609 6:0.11359529 7:0.055356658 8:0.090177392 9:0.098290509 10:0.13687739 
256 1:0.42524204 2:0.20057616 3:0.12133521 4:0.13286291 5:0.1199837 6:0.112379 7:0.099444936 8:0.053379774 9:0.087911388 10:0.1551381 
256 1:0.28888505 2:0.391229 3:0.11819491 4:0.10988452 5:0.091806526 6:0.044835403 7:0.02463459 8:0.081686695 9:0.049334255 10:0.054819292 
256 1:0.46868957 2:0.33372085 3:0.071272878 4:0.083480349 5:0.042836358 6:0.073273297 7:0.033225399 8:0.050490782 9:0.066511538 10:0.074611808 
256 1:0.4729653 2:0.36790753 3:0.074964095 4:0.057358303 5:0.026804775 6:0.020339343 7:0.041879965 8:0.054149743 9:0.049652174 10:0.04374479 
256 1:0.4207741 2:0.26440671 3:0.1304714 4:0.11766051 5:0.066687276 6:0.041247494 7:0.01320108 8:0.05890182 9:0.083344218 10:0.090249623 
256 1:0.76394209 2:0.14623935 3:0.034429755 4:0.036794086 5:0.018594718 6:0.023231629 7:0.028639557 8:0.047013976 9:0.057809403 10:0.050519181 
256 1:0.45693649 2:0.15675155 3:0.17299842 4:0.14594617 5:0.067367376 6:0.16909065 7:0.11982186 8:0.10090824 9:0.10679908 10:0.088356504 
136.06137923843693 1:0.83566094 2:0.10071359 3:0.028251429 4:0.021540402 5:0.013833646 6:0.21742449 7:0.20327134 8:0.1959972 9:0.093017031 10:0.0996282 
256 1:0.34802481 2:0.40726851 3:0.093055736 4:0.09944169 5:0.052209257 6:0.084886946 7:0.037719834 8:0.054951802 9:0.06916935 10:0.079638359 
256 1:0.65142389 2:0.18386963 3:0.075932046 4:0.056525526 5:0.032248907 6:0.040419015 7:0.010123619 8:0.07910551 9:0.085955336 10:0.1051718 
256 1:0.54979506 2:0.24441567 3:0.076306125 4:0.083882634 5:0.045600509 6:0.21058176 7:0.062888217 8:0.036159565 9:0.069356788 10:0.081891568 
256 1:0.47956807 2:0.23504543 3:0.14258672 4:0.096732599 5:0.046067184 6:0.12867644 7:0.051032674 8:0.051606437 9:0.055223786 10:0.067189593 
256 1:0.4837713 2:0.26990341 3:0.10779294 4:0.10305775 5:0.035474585 6:0.070221919 7:0.081376584 8:0.067219598 9:0.048832904 10:0.059724396 
256 1:0.6830846 2:0.21056878 3:0.061547783 4:0.032063172 5:0.012735666 6:0.055869991 7:0.03014899 8:0.027698928 9:0.055345862 10:0.066564987 
256 1:0.3869172 2:0.31351166 3:0.12601081 4:0.10242164 5:0.071138694 6:0.076475141 7:0.026289231 8:0.052268621 9:0.068422473 10:0.071213782 
256 1:0.54793658 2:0.20291549 3:0.092612938 4:0.10050147 5:0.05603352 6:0.064852303 7:0.059852278 8:0.071326626 9:0.093123223 10:0.12902067 
256 1:0.61296384 2:0.18562393 3:0.091578627 4:0.070259461 5:0.039574143 6:0.21452386 7:0.15418654 8:0.12598641 9:0.12154073 10:0.085075928 
256 1:0.51314362 2:0.22341015 3:0.090040796 4:0.10363698 5:0.069768446 6:0.069947159 7:0.031103015 8:0.043796491 9:0.039379412 10:0.052021286 
256 1:0.59127118 2:0.19177467 3:0.080617969 4:0.089264235 5:0.047071949 6:0.039504045 7:0.023031127 8:0.02690142 9:0.045514757 10:0.063186903 
256 1:0.85302899 2:0.095174039 3:0.022834823 4:0.018453884 5:0.010508262 6:0.20964799 7:0.03068196 8:0.03352234 9:0.093258369 10:0.084183705 
256 1:0.57771079 2:0.21422877 3:0.087783823 4:0.07413486 5:0.046141762 6:0.08051108 7:0.098872139 8:0.075736639 9:0.072369395 10:0.08567059 
256 1:0.29396038 2:0.46545428 3:0.10303952 4:0.10391438 5:0.033631444 6:0.071476881 7:0.036919919 8:0.057365521 9:0.051175867 10:0.066156403 
256 1:0.52195502 2:0.29289428 3:0.070107301 4:0.062847845 5:0.052195553 6:0.13858489 7:0.029152285 8:0.039567489 9:0.040315351 10:0.080352185 
256 1:0.27140908 2:0.3550327 3:0.17083216 4:0.12595192 5:0.076774139 6:0.10911123 7:0.071306029 8:0.058688141 9:0.056800238 10:0.051927084 
256 1:0.68543126 2:0.1480422 3:0.085493366 4:0.051268669 5:0.029764501 6:0.03701455 7:0.014167903 8:0.064806682 9:0.11519502 10:0.11031658 
256 1:0.45654084 2:0.17021964 3:0.12438422 4:0.15071782 5:0.098137489 6:0.10963052 7:0.08572512 8:0.067449562 9:0.081323336 10:0.14144454 
256 1:0.51226281 2:0.22942744 3:0.09260918 4:0.1078838 5:0.057816771 6:0.071574276 7:0.051466171 8:0.073871019 9:0.095022029 10:0.12638439 
256 1:0.64736063 2:0.22812438 3:0.044123353 4:0.055429244 5:0.024962396 6:0.025970447 7:0.039688004 8:0.050049046 9:0.061766172 10:0.048772457 
256 1:0.25342944 2:0.62806244 3:0.054844793 4:0.041576656 5:0.022086668 6:0.037504664 7:0.062246537 8:0.065155904 9:0.085556241 10:0.051026774 
256 1:0.77246367 2:0.1680547 3:0.030871612 4:0.018315263 5:0.010294751 6:0.027064028 7:0.019430015 8:0.03986429 9:0.11432796 10:0.084314643 
